This is an ARPA-format language model file, generated by CMU Sphinx
\data\
ngram 1=3686
ngram 2=16639
ngram 3=24455

\1-grams:
-4.4774 <UNK> 0.0000
-3.8754 !exclamation-point -0.3497
-2.5854 "quote -0.2640
-3.6992 %percent -0.3474
-2.7216 'single-quote -0.3485
-3.3983 (left-paren -0.3467
-4.4774 (left-paren− -0.3652
-2.3875 )right-paren -0.2093
-3.7785 *asterisk -0.3641
-4.1764 +plus-symbol -0.3527
-1.4697 ,comma -0.1133
-2.2419 -hyphen -0.3183
-2.9589 . -0.3497
-3.1987 ...ellipsis -0.2921
-2.6851 .dot -0.2978
-1.3960 .period -0.1372
-2.8241 /slash -0.3413
-3.0625 0 -0.3136
-3.0795 1 -0.3358
-4.4774 1456 -0.3542
-4.4774 18th -0.3656
-3.1552 2 -0.3336
-4.4774 283 -0.3631
-3.0003 3 -0.3098
-3.3313 4 -0.3318
-3.3313 5 -0.3471
-4.4774 50 -0.3655
-3.5231 6 -0.3635
-4.4774 65 -0.3656
-3.4775 7 -0.3537
-3.1987 8 -0.3350
-3.7785 9 -0.3630
-4.4774 907 -0.3638
-2.4321 :colon -0.2977
-3.1987 ;semi-colon -0.3430
-1.4444 </s> -0.3497
-1.4444 <s> -0.0693
-4.4774 <s>typical -0.3655
-4.1764 =equals-sign -0.3649
-2.9861 ?question-mark -0.3352
-4.1764 A -0.3654
-4.4774 API -0.3638
-4.0002 ASCII -0.3497
-4.4774 ASR -0.3654
-4.4774 Afrikaner/s> -0.3497
-4.4774 Aguirre -0.3642
-4.1764 Alaska -0.3478
-3.6992 Altair -0.3643
-4.4774 Arguments -0.3654
-4.4774 August -0.3478
-4.1764 BSD -0.3497
-4.4774 Bernstein -0.3506
-4.1764 Bitcoin -0.3655
-4.1764 Boolean -0.3656
-4.4774 Briggs -0.3497
-4.1764 Bullard -0.3506
-4.4774 Burroughs -0.3506
-4.4774 CA -0.3506
-4.4774 CE -0.3506
-4.4774 CLR -0.3638
-3.2470 CMU -0.3597
-3.8754 CMUSphinx -0.3470
-4.1764 CPUs -0.3638
-4.4774 CSS -0.3656
-4.4774 California -0.3655
-4.4774 Call -0.3655
-3.7785 Carnegie -0.3655
-4.4774 Centos -0.3478
-4.4774 Chapman -0.3656
-4.4774 Chris -0.3497
-4.4774 Cleveland -0.3506
-3.8754 Colney -0.3559
-4.0002 Compiz -0.3585
-4.4774 Cook -0.3656
-4.4774 Cruzon -0.3587
-4.4774 DAT -0.3638
-4.4774 DFT -0.3638
-4.0002 Darpa -0.3629
-4.4774 David -0.3656
-4.4774 Debian -0.3656
-4.4774 Debra -0.3506
-4.1764 December -0.3641
-4.4774 Edgar -0.3656
-4.1764 English -0.3577
-4.4774 Evan -0.3656
-3.5231 Everett -0.3405
-4.4774 FFT -0.3638
-4.1764 Facebook -0.3654
-4.4774 February -0.3641
-4.4774 Fedora -0.3506
-4.1764 File -0.3653
-4.4774 Firefox -0.3654
-4.4774 Fischer -0.3506
-4.1764 Fourier -0.3656
-4.4774 France -0.3478
-4.4774 FreeBSD -0.3506
-4.4774 FreeSpeech -0.3587
-4.4774 Frequently -0.3656
-4.1764 GI -0.3648
-4.4774 GNU -0.3650
-4.4774 GPS -0.3656
-4.0002 GUI -0.3483
-3.8754 Gaussian -0.3649
-4.1764 Gb -0.3553
-4.4774 German -0.3506
-4.4774 Ghantt -0.3656
-4.1764 Google -0.3643
-4.1764 HTML -0.3651
-4.1764 Hank -0.3643
-3.0795 Henry -0.3045
-4.4774 Hoboken -0.3506
-3.1552 Huffman -0.3584
-3.2470 I -0.3589
-4.4774 I'm -0.3655
-4.4774 I've -0.3656
-4.0002 IBM -0.3483
-4.4774 III -0.3478
-4.4774 IIS -0.3587
-4.1764 IO -0.3651
-4.1764 ISDN -0.3392
-4.4774 Indian -0.3559
-4.4774 Inlet -0.3595
-4.1764 Intel -0.3655
-4.4774 Is -0.3655
-4.4774 Jacob -0.3656
-4.4774 James -0.3656
-4.1764 January -0.3497
-4.4774 Jeremy -0.3656
-4.4774 Jim -0.3654
-4.4774 Joe -0.3497
-4.1764 Joseph -0.3656
-4.4774 Josh -0.3656
-4.4774 Journal -0.3506
-4.1764 July -0.3471
-4.4774 June -0.3559
-4.4774 Kempelen -0.3656
-4.4774 Kikuyu -0.3656
-4.4774 Kitco -0.3478
-4.4774 Kitcosilver -0.3587
-4.4774 Klenk -0.3506
-4.1764 Kohlberg -0.3648
-3.5231 Kroll -0.3405
-4.1764 Learn -0.3645
-4.4774 Lechner -0.3653
-2.7532 Linux -0.2679
-4.4774 Lorin -0.3656
-4.4774 Louchart -0.3656
-4.4774 Loverde -0.3653
-4.1764 Luther -0.3623
-4.4774 MHz -0.3506
-4.4774 Machiavellian -0.3595
-4.4774 Mageia -0.3506
-3.6324 Markov -0.3640
-3.5231 McLeod -0.3506
-4.0002 Mel -0.3631
-4.0002 Mellon -0.3496
-4.4774 Mexico -0.3618
-3.7785 Microsoft -0.3637
-4.4774 Microsystems -0.3506
-4.4774 Midwest -0.3542
-4.4774 Mint -0.3506
-4.4774 Missouri -0.3655
-4.4774 Mountain -0.3656
-4.0002 Museet -0.3434
-4.4774 MySpace -0.3651
-4.4774 NASA -0.3634
-4.4774 NCT -0.3650
-4.4774 NJ -0.3640
-4.4774 NT -0.3655
-4.4774 Nathaniel -0.3656
-3.8754 Nelson -0.3506
-4.4774 Netware -0.3647
-4.4774 Ninilchick -0.3656
-4.4774 Noren -0.3497
-4.4774 Norton -0.3655
-4.4774 OK -0.3595
-4.4774 OOP -0.3506
-4.1764 OS -0.3632
-4.1764 Ohio -0.3477
-4.1764 OpenSuse -0.3406
-4.4774 Oppenheim -0.3595
-3.6324 PBX -0.3298
-3.5231 PC -0.3160
-4.4774 PCLinuxOS -0.3506
-3.8754 PCs -0.3549
-4.4774 PDFs -0.3638
-4.1764 PHP -0.3500
-4.1764 POS -0.3650
-4.4774 POSIX -0.3506
-4.4774 Perl -0.3559
-4.4774 PhD -0.3655
-3.8754 Pitts -0.3489
-2.7699 PocketSphinx -0.2659
-4.4774 Polytechnic -0.3656
-4.4774 Popen -0.3656
-4.4774 PowerPoint -0.3656
-4.0002 Python -0.3656
-4.0002 Python's -0.3656
-4.4774 RCA -0.3506
-4.4774 RF -0.3638
-4.4774 ROI -0.3638
-4.4774 Rembetski -0.3506
-4.4774 Richard -0.3656
-4.1764 Riordan -0.3587
-4.4774 Saturday -0.3553
-3.4361 Scientology -0.3457
-4.4774 SeaMonkey -0.3653
-4.4774 Sean -0.3656
-4.4774 Selma -0.3656
-4.4774 September -0.3656
-4.0002 Sharon -0.3646
-4.4774 Slackware -0.3648
-4.1764 SourceForge -0.3478
-4.4774 SouthCentral -0.3656
-4.4774 Spanish -0.3478
-4.4774 Street -0.3656
-4.4774 Sun -0.3656
-4.1764 Swedish -0.3656
-4.4774 Switchboard -0.3559
-4.4774 TCP -0.3641
-4.4774 TM -0.3638
-4.4774 Taleb -0.3655
-4.0002 Tekniska -0.3656
-4.4774 Tereza -0.3656
-4.4774 The -0.3655
-4.4774 Tony -0.3656
-3.8754 Trevino -0.3506
-4.4774 Trippe -0.3652
-4.4774 True -0.3478
-4.4774 Tsimshian -0.3656
-4.4774 Turing -0.3652
-4.4774 UDP -0.3655
-4.1764 UI -0.3625
-4.4774 UNIX -0.3506
-4.4774 UOP -0.3497
-3.6324 URL -0.3454
-3.5231 URLs -0.3412
-4.4774 USA -0.3506
-3.5231 UTF -0.3631
-4.0002 Ubuntu -0.3499
-3.3983 Unicode -0.3647
-4.4774 Used -0.3656
-4.4774 VPN -0.3652
-4.4774 Valgrind -0.3559
-4.4774 View -0.3506
-4.4774 Virginia -0.3656
-4.4774 Viterbi's -0.3654
-4.4774 Wall -0.3656
-4.1764 What's -0.3651
-4.4774 Where -0.3629
-4.0002 Wikipedia -0.3317
-4.4774 Wiley -0.3656
-4.1764 Williams -0.3506
-4.4774 Windows -0.3656
-4.4774 Wolfgang -0.3656
-3.3983 XP -0.3305
-4.4774 Zaleski -0.3559
-4.4774 Zedar -0.3506
-4.4774 [left-bracket -0.3654
-3.3014 \backslash -0.3586
-4.1764 ]right-bracket -0.3435
-3.6324 _underscore -0.3646
-1.7216 a -0.2500
-4.4774 aardvark -0.3655
-4.4774 abbreviated -0.3656
-4.4774 abbreviations -0.3559
-3.8754 ability -0.3359
-3.0003 able -0.3542
-3.2222 about -0.3232
-4.1764 above -0.3627
-4.4774 abrogate -0.3656
-4.4774 absent -0.3553
-4.4774 absolutes -0.3559
-4.4774 abstract -0.3650
-4.4774 abundance -0.3553
-4.4774 academic -0.3656
-4.1764 accent -0.3406
-4.0002 acceptable -0.3484
-4.4774 acceptance -0.3478
-3.6992 accepted -0.3301
-3.3983 access -0.3432
-3.8754 accessed -0.3637
-4.4774 accessible -0.3654
-4.4774 accessing -0.3623
-4.4774 accommodate -0.3654
-4.4774 accompany -0.3392
-4.4774 accomplish -0.3647
-4.4774 accomplished -0.3633
-3.3313 according -0.3542
-3.7785 account -0.3317
-4.4774 accounting -0.3506
-4.4774 accumulating -0.3478
-2.9861 accuracy -0.3038
-3.7785 accurate -0.3644
-4.4774 achieve -0.3655
-3.6324 achieved -0.3469
-4.1764 achieving -0.3627
-4.4774 acknowledgments -0.3623
-3.0003 acoustic -0.3593
-4.1764 acoustics -0.3537
-4.4774 acquired -0.3655
-4.4774 acquisition -0.3553
-4.4774 acronyms -0.3506
-4.1764 across -0.3303
-4.4774 acting -0.3595
-3.7785 action -0.3433
-3.8754 actions -0.3321
-4.4774 active -0.3652
-4.1764 actively -0.3656
-4.0002 activities -0.3322
-4.4774 activity -0.3478
-3.8754 actual -0.3613
-4.1764 actually -0.3655
-4.4774 adamant -0.3559
-3.8754 adapt -0.3428
-4.4774 adaptable -0.3639
-4.1764 adapted -0.3527
-4.4774 adapting -0.3392
-4.4774 adaptive -0.3654
-4.1764 add -0.3613
-4.0002 added -0.3532
-3.8754 addition -0.3232
-3.5231 additional -0.3649
-3.3983 additionally -0.3232
-4.4774 additions -0.3628
-4.4774 additive -0.3655
-4.0002 address -0.3474
-4.4774 addressed -0.3542
-4.4774 adds -0.3392
-4.1764 adequate -0.3611
-4.4774 adequately -0.3655
-4.4774 adheres -0.3542
-4.4774 adhering -0.3542
-4.4774 adjusted -0.3655
-4.4774 adjusting -0.3392
-4.4774 adjustment -0.3553
-4.1764 administrator -0.3435
-4.1764 administrators -0.3654
-4.4774 adopt -0.3506
-4.4774 adopted -0.3478
-4.4774 adopting -0.3655
-4.4774 adult -0.3655
-4.1764 adults -0.3478
-4.4774 advance -0.3506
-4.4774 advantage -0.3553
-3.6324 advantages -0.3412
-4.4774 adversely -0.3478
-4.4774 advocate -0.3655
-4.4774 advocated -0.3623
-4.4774 advocates -0.3655
-4.1764 advocating -0.3651
-4.1764 affect -0.3376
-4.4774 affected -0.3633
-4.4774 afford -0.3478
-2.9334 after -0.3193
-4.1764 again -0.3478
-3.7785 against -0.3378
-3.8754 age -0.3355
-4.1764 agrees -0.3525
-4.4774 ahead -0.3478
-4.4774 aid -0.3392
-4.0002 aim -0.3371
-4.1764 aimed -0.3542
-4.4774 aircraft -0.3656
-4.4774 alarmingly -0.3506
-4.4774 album -0.3478
-4.1764 albums -0.3629
-2.9589 algorithm -0.2367
-3.3313 algorithms -0.2776
-4.4774 align -0.3639
-4.4774 aligns -0.3639
-4.1764 alike -0.3406
-2.8754 all -0.2735
-4.0002 allow -0.3392
-4.1764 allowed -0.3377
-3.3313 allows -0.3261
-3.8754 almost -0.3649
-4.1764 alone -0.3455
-3.7785 along -0.3447
-3.8754 alpha -0.3527
-4.1764 alphabet -0.3495
-3.6992 already -0.3582
-2.8440 also -0.2999
-3.8754 alt -0.3630
-4.4774 alternate -0.3654
-4.4774 alternative -0.3542
-4.1764 alternatively -0.3506
-4.4774 alternatives -0.3542
-3.4775 although -0.3320
-4.4774 always -0.3648
-3.3983 am -0.3620
-4.4774 ambient -0.3655
-3.5231 among -0.3641
-3.5744 amount -0.3553
-4.4774 amounts -0.3553
-4.4774 amplitude -0.3553
-2.4204 an -0.3503
-3.5744 analysis -0.3232
-4.1764 analyzers -0.3472
-4.4774 ancient -0.3654
-1.6573 and -0.0827
-4.1764 android -0.3476
-4.4774 anger -0.3478
-3.3983 another -0.3332
-4.4774 anova -0.3638
-4.4774 answered -0.3506
-4.1764 anthropocentric -0.3460
-3.7785 anti -0.3631
-4.4774 anticipating -0.3654
-4.1764 antivirus -0.3655
-3.0461 any -0.3474
-4.4774 anybody -0.3634
-4.1764 anyone -0.3644
-3.8754 anything -0.3435
-4.1764 anywhere -0.3595
-4.4774 apart -0.3641
-4.4774 apparatus -0.3559
-4.1764 apparent -0.3653
-4.4774 apparently -0.3618
-4.4774 appeal -0.3478
-4.4774 appearing -0.3542
-4.4774 appears -0.3595
-4.4774 appended -0.3542
-4.4774 appendix -0.3573
-4.4774 applauds -0.3655
-4.4774 apple -0.3648
-4.4774 appliance -0.3506
-4.4774 applicable -0.3542
-4.4774 applicants -0.3639
-2.7371 application -0.2487
-3.0625 applications -0.2945
-4.1764 applied -0.3542
-4.1764 applies -0.3542
-4.1764 apply -0.3557
-4.4774 applying -0.3656
-4.4774 appreciated -0.3654
-3.3014 approach -0.2723
-3.3313 approaches -0.3213
-4.1764 appropriate -0.3645
-4.4774 approved -0.3506
-4.1764 approximate -0.3392
-4.1764 approximated -0.3646
-4.4774 approximating -0.3392
-4.1764 approximation -0.3552
-4.4774 arbitrarily -0.3653
-4.4774 arch -0.3648
-4.0002 architecture -0.3401
-2.2079 are -0.2241
-4.4774 are)right-paren -0.3656
-3.6324 area -0.3226
-3.2470 areas -0.2965
-4.0002 arguments -0.3650
-4.4774 arise -0.3595
-4.1764 arm -0.3655
-4.4774 army -0.3656
-3.3635 around -0.2437
-4.0002 arpa -0.3634
-4.4774 arrangement -0.3478
-4.4774 arrangements -0.3559
-4.4774 array -0.3553
-4.4774 arrays -0.3506
-4.4774 arrives -0.3542
-4.4774 art -0.3641
-4.4774 article -0.3656
-4.1764 articles -0.3640
-4.4774 articulated -0.3646
-4.4774 articulates -0.3641
-4.4774 articulation -0.3655
-4.0002 articulatory -0.3654
-4.4774 artificial -0.3656
-4.4774 artists -0.3650
-2.1350 as -0.2479
-4.4774 asleep -0.3497
-4.4774 aspects -0.3553
-4.4774 assembly -0.3651
-4.4774 assessment -0.3655
-4.1764 assigned -0.3552
-4.4774 assigning -0.3655
-3.3313 assignment -0.3649
-3.5744 assignments -0.3438
-4.4774 assigns -0.3573
-4.1764 assist -0.3595
-3.8754 associated -0.3536
-4.1764 assume -0.3622
-4.1764 assumed -0.3513
-4.4774 assumes -0.3628
-3.7785 assuming -0.3544
-4.4774 assumption -0.3654
-2.6645 at -0.3190
-4.1764 attached -0.3359
-4.4774 attempt -0.3542
-4.4774 attempting -0.3542
-4.1764 attempts -0.3542
-4.4774 attention -0.3478
-4.4774 attenuated -0.3624
-4.4774 attorney -0.3656
-4.4774 attract -0.3656
-4.0002 attributes -0.3430
-4.1764 audacity -0.3406
-4.4774 audience -0.3478
-2.9334 audio -0.3627
-4.4774 august -0.3638
-4.4774 authentication -0.3506
-4.1764 author -0.3541
-4.4774 authorized -0.3653
-4.1764 automate -0.3391
-3.8754 automated -0.3455
-3.6992 automatic -0.3634
-3.7785 automatically -0.3216
-3.8754 automation -0.3399
-4.0002 automotive -0.3406
-4.4774 auxiliary -0.3654
-4.4774 availability -0.3642
-2.9334 available -0.3007
-4.4774 availed -0.3652
-3.8754 average -0.3651
-4.0002 avoid -0.3653
-4.4774 avoiding -0.3655
-4.4774 aware -0.3506
-4.0002 away -0.3256
-3.6992 b -0.3299
-3.6992 back -0.3312
-4.1764 background -0.3653
-4.4774 backups -0.3553
-3.5231 backward -0.3643
-3.7785 bad -0.3403
-4.1764 balance -0.3551
-4.4774 balances -0.3639
-4.4774 bandwidth -0.3656
-4.4774 bank -0.3392
-4.1764 bankrupt -0.3561
-4.4774 base -0.3654
-2.9334 based -0.3142
-4.4774 baseline -0.3497
-3.7785 basic -0.3640
-4.4774 basically -0.3656
-4.1764 bass -0.3651
-3.7785 batch -0.3386
-4.4774 batteries -0.3639
-2.0542 be -0.2552
-4.1764 beam -0.3630
-4.4774 beating -0.3553
-3.8754 became -0.3573
-3.5744 because -0.3228
-3.5231 become -0.3367
-3.6992 becomes -0.3643
-4.1764 becoming -0.3655
-4.4774 bed -0.3478
-4.4774 bedroom -0.3478
-2.8864 been -0.3457
-4.4774 beetles -0.3559
-3.7785 before -0.3499
-4.0002 began -0.3541
-3.5231 begin -0.3320
-4.1764 beginning -0.3546
-4.4774 begins -0.3392
-4.4774 behave -0.3595
-4.4774 behaves -0.3652
-3.6992 behavior -0.3291
-4.4774 behavioral -0.3642
-4.4774 behaviors -0.3559
-3.8754 behind -0.3508
-3.4361 being -0.3321
-4.1764 belong -0.3542
-4.4774 below -0.3595
-4.0002 benchmark -0.3557
-4.4774 benchmarks -0.3478
-4.4774 beneficial -0.3542
-3.8754 benefit -0.3571
-4.1764 benefits -0.3548
-4.4774 berg -0.3497
-4.4774 berries -0.3506
-4.0002 besides -0.3391
-3.2733 best -0.3498
-3.8754 bet -0.3488
-3.6324 beta -0.3621
-3.8754 bets -0.3618
-3.3313 better -0.3179
-4.0002 betting -0.3654
-3.3635 between -0.3372
-4.4774 beyond -0.3392
-4.4774 bi-gram -0.3646
-4.4774 biased -0.3656
-4.4774 bible -0.3542
-4.4774 bibliography -0.3573
-3.8754 big -0.3651
-4.0002 bigger -0.3650
-4.4774 biggest -0.3655
-4.1764 bigram -0.3496
-3.7785 bill -0.3578
-4.4774 bills -0.3651
-4.1764 bin -0.3654
-4.4774 binary -0.3656
-4.4774 biocentric -0.3478
-4.4774 biscuit -0.3656
-3.7785 biscuits -0.3313
-3.7785 bit -0.3616
-3.3983 black -0.3396
-4.4774 blank -0.3654
-4.4774 bleeding -0.3631
-4.4774 bliss -0.3478
-4.4774 blocks -0.3553
-4.4774 blow -0.3652
-4.4774 boats -0.3506
-4.4774 boiler -0.3656
-4.0002 book -0.3522
-4.4774 bookstore -0.3653
-4.4774 boon -0.3542
-4.4774 border -0.3656
-3.3014 both -0.3238
-4.4774 bound -0.3542
-4.0002 boundaries -0.3463
-3.8754 boundary -0.3585
-3.0972 box -0.3361
-4.0002 branch -0.3654
-4.1764 branches -0.3595
-4.4774 break -0.3641
-4.4774 breaks -0.3478
-4.4774 breathing -0.3506
-4.4774 breech -0.3647
-4.4774 brewing -0.3656
-4.0002 brief -0.3654
-4.4774 bright -0.3654
-4.4774 brightness -0.3506
-4.4774 bring -0.3655
-4.1764 brings -0.3655
-4.4774 broad -0.3655
-4.4774 broadcast -0.3638
-4.4774 broader -0.3656
-4.4774 broken -0.3656
-4.4774 brother -0.3595
-4.4774 browse -0.3542
-4.4774 browsed -0.3559
-3.8754 browser -0.3041
-4.4774 budget -0.3656
-4.4774 budgeted -0.3542
-3.7785 buffer -0.3450
-3.6992 bugs -0.3611
-4.4774 build -0.3573
-3.7785 building -0.3474
-3.8754 built -0.3479
-4.4774 bundled -0.3595
-3.1350 business -0.3214
-4.4774 businesses -0.3497
-4.4774 busy -0.3618
-2.9460 but -0.2886
-4.0002 button -0.3478
-4.4774 buttons -0.3478
-4.1764 buy -0.3572
-4.4774 buying -0.3392
-3.8754 buzzword -0.3495
-4.1764 bxs -0.3542
-2.2842 by -0.2927
-4.4774 bye -0.3645
-4.0002 byte -0.3654
-4.4774 bytes -0.3641
-3.3635 c -0.3357
-4.4774 cabinet -0.3478
-4.4774 cable -0.3542
-4.1764 cables -0.3488
-4.4774 cache -0.3656
-4.1764 calculate -0.3390
-3.8754 calculated -0.3455
-4.1764 calculates -0.3303
-4.4774 calculating -0.3392
-4.4774 calculations -0.3478
-3.3635 call -0.3433
-3.3983 called -0.3210
-4.0002 caller -0.3655
-3.8754 calls -0.3472
-2.3014 can -0.2896
-4.4774 canals -0.3506
-4.4774 candidate -0.3650
-4.4774 candidates -0.3478
-4.4774 cannot -0.3618
-4.0002 capabilities -0.3287
-4.4774 capability -0.3506
-3.8754 capable -0.3390
-4.1764 capacity -0.3638
-4.4774 captain -0.3506
-4.4774 card -0.3506
-4.4774 cards -0.3506
-4.0002 care -0.3577
-4.1764 career -0.3563
-4.0002 careful -0.3539
-4.0002 carefully -0.3631
-4.4774 carried -0.3638
-4.4774 carrier -0.3655
-4.4774 carriers -0.3478
-4.4774 carry -0.3638
-4.4774 cars -0.3506
-3.3313 case -0.3159
-3.8754 cases -0.2998
-4.1764 casual -0.3475
-4.1764 catastrophic -0.3655
-4.4774 catch -0.3478
-4.4774 categorically -0.3652
-4.0002 categories -0.3370
-4.4774 categorization -0.3656
-4.4774 categorize -0.3392
-4.4774 category -0.3655
-4.4774 cause -0.3392
-4.4774 caused -0.3633
-4.1764 causes -0.3559
-3.6324 cell -0.3431
-3.8754 center -0.3594
-4.4774 centers -0.3506
-4.1764 central -0.3652
-4.4774 centralized -0.3648
-4.1764 century -0.3573
-4.1764 cepstral -0.3655
-3.8754 cepstrum -0.3359
-3.5744 certain -0.3644
-4.4774 certainly -0.3656
-4.4774 certify -0.3392
-4.0002 challenge -0.3618
-3.6324 challenges -0.3323
-4.0002 challenging -0.3649
-3.6992 change -0.3299
-3.6324 changed -0.3068
-3.7785 changes -0.3306
-4.4774 channel -0.3506
-4.4774 channels -0.3656
-3.4361 chapter -0.3403
-4.0002 character -0.3406
-4.4774 characteristic -0.3654
-4.1764 characteristics -0.3553
-4.4774 characterized -0.3633
-4.4774 characters -0.3506
-3.8754 charge -0.3371
-4.4774 charters -0.3559
-4.1764 charts -0.3484
-4.4774 chat -0.3655
-4.0002 cheap -0.3559
-4.4774 cheaper -0.3542
-3.6324 check -0.3580
-3.8754 checkbook -0.3655
-4.0002 checked -0.3297
-3.5231 checking -0.3223
-4.1764 checks -0.3388
-4.4774 chicken -0.3559
-4.4774 child -0.3654
-4.4774 childhood -0.3478
-4.0002 children -0.3652
-4.4774 chinook -0.3654
-4.4774 chips -0.3478
-4.4774 choice -0.3618
-3.8754 choose -0.3387
-4.4774 choosing -0.3652
-4.4774 chores -0.3649
-4.0002 chose -0.3542
-3.8754 chosen -0.3650
-4.4774 chum -0.3654
-4.4774 church -0.3654
-4.1764 circuit -0.3656
-4.4774 circuits -0.3656
-4.4774 circumstances -0.3506
-4.4774 cited -0.3506
-4.4774 citizens -0.3553
-4.4774 city -0.3656
-4.4774 clarity -0.3506
-3.5231 class -0.3405
-3.8754 classes -0.3202
-4.4774 classic -0.3655
-4.1764 classroom -0.3477
-3.8754 clear -0.3236
-4.4774 cleared -0.3656
-4.1764 clearly -0.3654
-3.6992 click -0.3329
-4.4774 clicking -0.3392
-4.4774 clicks -0.3478
-4.0002 client -0.3477
-3.6992 clients -0.3388
-4.4774 climb -0.3542
-4.4774 climbing -0.3506
-4.4774 clones -0.3478
-4.0002 close -0.3107
-4.1764 closed -0.3517
-4.4774 cluster -0.3478
-4.1764 co -0.3631
-4.1764 co-variance -0.3655
-4.4774 coast -0.3478
-4.4774 coax -0.3641
-2.9212 code -0.2861
-4.1764 codename -0.3506
-4.4774 codified -0.3595
-4.4774 coding -0.3655
-4.1764 coefficients -0.3506
-4.1764 coffee -0.3471
-4.4774 coho -0.3654
-4.1764 coin -0.3656
-4.4774 cold -0.3645
-4.4774 collaborate -0.3559
-4.4774 collaboration -0.3640
-4.4774 collaborative -0.3655
-4.4774 colleagues -0.3559
-3.6324 collect -0.3466
-4.1764 collecting -0.3566
-4.4774 collection -0.3553
-4.4774 colons -0.3506
-4.1764 color -0.3655
-4.1764 combination -0.3437
-4.1764 combined -0.3578
-4.4774 combining -0.3652
-4.0002 combo -0.3642
-4.1764 come -0.3639
-4.0002 comes -0.3645
-4.1764 coming -0.3653
-3.3983 command -0.3471
-3.5744 commands -0.2983
-4.4774 commas -0.3559
-4.4774 commentaries -0.3506
-3.7785 commercial -0.3632
-4.4774 commit -0.3542
-3.1987 common -0.3334
-4.4774 commonly -0.3656
-4.0002 communicate -0.3519
-3.8754 communication -0.3553
-4.4774 communications -0.3542
-4.4774 communities -0.3542
-4.0002 community -0.3285
-4.4774 compact -0.3653
-3.8754 companies -0.3452
-3.3014 company -0.2848
-4.4774 comparable -0.3542
-4.4774 compare -0.3649
-3.8754 compared -0.3542
-4.4774 comparing -0.3648
-4.4774 comparison -0.3639
-4.4774 compatibility -0.3640
-4.1764 compatible -0.3638
-3.8754 compensation -0.3395
-4.1764 competitive -0.3656
-3.7785 compile -0.3357
-4.0002 compiled -0.3515
-4.0002 compiler -0.3656
-4.4774 compilers -0.3478
-4.0002 compiling -0.3392
-4.4774 complements -0.3392
-3.6324 complete -0.3285
-4.0002 completed -0.3322
-4.1764 completely -0.3654
-4.4774 completes -0.3655
-4.0002 completion -0.3371
-3.6324 complex -0.3514
-4.1764 complexity -0.3400
-4.4774 complicated -0.3624
-3.5231 component -0.3452
-3.3983 components -0.2898
-3.8754 composed -0.3633
-4.4774 composing -0.3506
-4.0002 compound -0.3656
-4.4774 comprehensive -0.3655
-4.4774 compressing -0.3392
-4.4774 comprise -0.3654
-3.7785 comprises -0.3388
-4.4774 comprising -0.3652
-4.4774 compromise -0.3497
-4.4774 compromised -0.3652
-4.4774 computation -0.3478
-3.7785 computational -0.3650
-4.1764 computationally -0.3655
-4.4774 computations -0.3624
-3.8754 compute -0.3384
-3.8754 computed -0.3646
-3.1764 computer -0.2893
-3.7785 computers -0.3176
-4.1764 concatenation -0.3390
-4.1764 concept -0.3553
-4.4774 concepts -0.3478
-3.8754 concern -0.3284
-4.4774 concerned -0.3653
-4.0002 concerning -0.3571
-4.1764 concerns -0.3415
-3.7785 conclusion -0.3309
-4.0002 conclusions -0.3282
-4.0002 condition -0.3650
-4.4774 conditional -0.3651
-4.0002 conditions -0.3502
-4.4774 conference -0.3655
-4.4774 conferencing -0.3506
-4.4774 confidentiality -0.3656
-3.7785 configuration -0.3200
-4.1764 configurations -0.3488
-4.4774 configured -0.3655
-4.1764 confirm -0.3651
-4.4774 conflicted -0.3639
-4.4774 conform -0.3542
-4.4774 connect -0.3392
-4.4774 connected -0.3478
-4.0002 connecting -0.3656
-4.4774 connections -0.3478
-4.4774 connectivity -0.3655
-4.0002 connects -0.3541
-4.4774 consciously -0.3656
-4.4774 consecutive -0.3655
-4.4774 consequently -0.3506
-4.4774 conservation -0.3652
-3.8754 consider -0.3065
-4.4774 consideration -0.3478
-3.8754 considered -0.3269
-4.1764 considering -0.3627
-4.1764 consist -0.3553
-4.1764 consisted -0.3577
-4.4774 consistencies -0.3595
-4.4774 consistent -0.3639
-4.4774 consists -0.3553
-4.4774 constant -0.3649
-4.0002 constrained -0.3632
-4.1764 constraints -0.3654
-4.1764 construct -0.3385
-4.4774 constructed -0.3640
-4.4774 constructor -0.3631
-3.3635 consulting -0.3418
-4.4774 consuming -0.3559
-3.6992 contact -0.3471
-3.4361 contain -0.3282
-4.4774 contained -0.3654
-4.4774 containers -0.3559
-3.2470 containing -0.3255
-3.6324 contains -0.3292
-4.4774 contaminated -0.3653
-3.6324 content -0.3494
-4.4774 contention -0.3628
-4.1764 contents -0.3553
-4.1764 context -0.3472
-3.8754 continue -0.3535
-4.1764 continued -0.3271
-4.4774 continues -0.3655
-3.4775 continuous -0.3313
-4.4774 continuously -0.3618
-4.4774 contract -0.3656
-4.4774 contracted -0.3633
-4.1764 contrast -0.3506
-4.4774 contribute -0.3542
-4.4774 contributes -0.3542
-4.4774 contributing -0.3655
-4.1764 contribution -0.3467
-4.1764 contributions -0.3450
-3.7785 control -0.3417
-4.4774 controlled -0.3633
-4.4774 controversial -0.3654
-4.4774 convenient -0.3618
-4.4774 convention -0.3652
-4.4774 conventions -0.3506
-4.4774 converge -0.3650
-4.1764 convergence -0.3553
-4.4774 conversation -0.3497
-4.1764 conversational -0.3537
-3.6324 conversion -0.3390
-3.8754 convert -0.3617
-4.1764 converted -0.3566
-4.4774 converter -0.3648
-4.4774 converting -0.3392
-4.1764 converts -0.3639
-4.4774 convey -0.3573
-4.4774 coordinate -0.3639
-4.4774 copied -0.3542
-4.0002 copy -0.3628
-4.4774 copyright -0.3655
-4.4774 copyrighted -0.3653
-3.5231 core -0.3552
-4.4774 corner -0.3542
-4.4774 corners -0.3478
-4.4774 corpora -0.3654
-4.1764 corporate -0.3655
-3.1157 corpus -0.3064
-3.6992 correct -0.3471
-4.4774 corrected -0.3559
-4.4774 correction -0.3478
-3.3983 correctly -0.3311
-4.4774 correlated -0.3654
-4.1764 correspond -0.3542
-3.6992 corresponding -0.3533
-3.8754 corresponds -0.3542
-4.4774 cos -0.3650
-4.0002 cosmetic -0.3558
-3.7785 cost -0.3639
-4.1764 costs -0.3586
-3.2733 could -0.3551
-4.1764 count -0.3655
-4.4774 countries -0.3629
-4.0002 couple -0.3553
-4.4774 coupled -0.3639
-3.7785 course -0.3029
-4.1764 courses -0.3642
-4.4774 cover -0.3573
-3.2733 coverage -0.3269
-4.4774 crashed -0.3654
-3.3635 create -0.3159
-3.2470 created -0.3068
-4.1764 creates -0.3573
-3.3635 creating -0.3271
-3.6992 creation -0.3395
-4.4774 creations -0.3559
-4.0002 creative -0.3655
-4.4774 creativity -0.3639
-4.1764 credential -0.3478
-4.1764 credentials -0.3519
-4.4774 creeds -0.3542
-4.4774 crew -0.3655
-4.1764 crewmen -0.3629
-4.4774 crisis -0.3506
-4.1764 criterion -0.3377
-4.1764 critical -0.3542
-4.4774 cropping -0.3652
-4.1764 cross -0.3631
-4.4774 cruel -0.3656
-4.4774 crying -0.3559
-4.4774 cube -0.3655
-4.1764 cumbersome -0.3542
-4.4774 cup -0.3553
-4.4774 cure -0.3623
-4.4774 cures -0.3651
-3.3983 current -0.3457
-4.0002 currently -0.3466
-4.4774 curve -0.3639
-3.2470 custom -0.3623
-3.8754 customer -0.3652
-4.0002 customers -0.3354
-4.4774 cut -0.3655
-3.6992 cycle -0.3365
-4.4774 cycled -0.3654
-4.4774 cycles -0.3559
-4.4774 cynicism -0.3655
-3.0795 d -0.3477
-4.4774 daily -0.3656
-2.8340 data -0.2773
-4.0002 database -0.3638
-3.8754 databases -0.3461
-4.1764 date -0.3580
-4.0002 dates -0.3503
-4.4774 daunting -0.3654
-3.5231 day -0.3191
-3.7785 days -0.3185
-4.4774 db -0.3650
-4.1764 dead -0.3655
-4.1764 deal -0.3607
-4.0002 dealing -0.3639
-4.0002 deals -0.3639
-4.1764 debts -0.3651
-3.8754 debug -0.3651
-4.0002 debugging -0.3646
-4.4774 decade -0.3506
-3.8754 decades -0.3140
-4.4774 decent -0.3651
-4.4774 decide -0.3542
-3.8754 decided -0.3542
-4.4774 decision -0.3656
-4.4774 decisions -0.3506
-3.4775 decode -0.3137
-3.6324 decoded -0.3428
-3.5744 decoder -0.2824
-4.1764 decoders -0.3473
-3.1157 decoding -0.3287
-4.4774 decrease -0.3392
-4.0002 decreasing -0.3386
-4.4774 deduction -0.3618
-4.4774 deep -0.3654
-4.4774 deeply -0.3497
-3.1764 default -0.3180
-4.4774 defect -0.3478
-4.4774 defends -0.3650
-4.4774 define -0.3573
-3.6992 defined -0.3352
-4.4774 defines -0.3655
-3.6992 definition -0.3394
-4.4774 definitions -0.3651
-4.4774 degradation -0.3553
-4.4774 degrees -0.3478
-4.4774 delay -0.3478
-4.4774 delayed -0.3656
-4.4774 delays -0.3595
-4.4774 deleted -0.3641
-4.4774 deletions -0.3654
-4.0002 dell -0.3496
-3.5231 delta -0.3627
-4.0002 demand -0.3618
-4.4774 demands -0.3497
-4.0002 demonstrate -0.3544
-4.4774 demonstrates -0.3628
-4.4774 dempster -0.3595
-4.4774 denote -0.3656
-4.0002 density -0.3652
-4.4774 department -0.3618
-4.4774 depend -0.3638
-4.4774 dependent -0.3656
-3.7785 depending -0.3638
-4.0002 depends -0.3631
-3.7785 depicted -0.3586
-4.0002 depicts -0.3370
-4.4774 deployment -0.3478
-4.4774 derivations -0.3506
-3.8754 describe -0.3352
-3.5744 described -0.3441
-3.5231 describes -0.3323
-4.4774 describing -0.3392
-3.8754 description -0.3101
-3.5231 design -0.3325
-3.3983 designed -0.2942
-4.4774 designer -0.3506
-4.1764 designing -0.3559
-3.6992 desired -0.3345
-4.4774 desires -0.3655
-4.0002 desk -0.3558
-3.6992 desktop -0.3294
-4.4774 desktops -0.3587
-4.0002 despite -0.3392
-3.8754 detail -0.3202
-3.7785 detailed -0.3520
-4.1764 details -0.3612
-4.4774 detect -0.3655
-3.4361 determine -0.3374
-3.5744 determined -0.3256
-4.4774 determines -0.3652
-4.4774 determining -0.3655
-3.5231 develop -0.3044
-3.3014 developed -0.2930
-3.8754 developer -0.3625
-4.0002 developers -0.3196
-4.4774 developing -0.3640
-2.7784 development -0.2795
-4.0002 device -0.3311
-3.6324 devices -0.3309
-4.4774 diagnostic -0.3654
-3.8754 diagram -0.2978
-4.4774 diagrams -0.3506
-4.4774 dialog -0.3478
-3.5744 dic -0.3266
-3.5231 dict -0.3477
-4.4774 dict-generator -0.3652
-4.4774 dictate -0.3649
-3.6992 dictation -0.3397
-3.8754 dictionaries -0.3381
-2.6449 dictionary -0.2177
-3.8754 did -0.3606
-4.4774 die -0.3655
-3.7785 difference -0.3464
-4.4774 differences -0.3595
-2.8864 different -0.3418
-4.1764 differentials -0.3553
-4.4774 differs -0.3641
-3.5231 difficult -0.3529
-4.0002 difficulties -0.3639
-4.4774 digestion -0.3506
-4.1764 digit -0.3322
-3.8754 digital -0.3648
-4.4774 digits -0.3618
-4.4774 dilemma -0.3642
-4.4774 dilemmas -0.3559
-4.4774 dimension -0.3587
-4.4774 dimming -0.3506
-4.0002 direct -0.3651
-4.1764 direction -0.3426
-4.4774 directions -0.3559
-3.7785 directly -0.3459
-4.4774 director -0.3553
-4.4774 directory -0.3656
-4.4774 disadvantages -0.3553
-4.4774 disappear -0.3478
-4.4774 disappearance -0.3553
-3.8754 discard -0.3621
-4.1764 discipline -0.3506
-4.4774 disciplines -0.3651
-4.4774 discover -0.3651
-4.4774 discovered -0.3654
-4.0002 discovery -0.3321
-4.4774 discrete -0.3656
-4.1764 discriminate -0.3558
-4.1764 discussed -0.3471
-4.1764 discusses -0.3392
-4.0002 discussion -0.3655
-4.4774 discussions -0.3633
-4.4774 dishes -0.3478
-4.4774 disk -0.3559
-4.4774 disks -0.3656
-4.4774 dismantling -0.3656
-3.8754 display -0.3556
-3.6992 displayed -0.3306
-4.4774 disputes -0.3506
-4.4774 distance -0.3656
-4.4774 distinguish -0.3655
-4.1764 distortions -0.3542
-3.7785 distribution -0.3198
-4.1764 distributions -0.3655
-4.1764 distros -0.3557
-4.1764 diverse -0.3654
-4.4774 diversity -0.3559
-4.4774 divide -0.3633
-4.4774 dll -0.3646
-3.1157 do -0.3288
-4.4774 doctor -0.3595
-3.8754 document -0.3655
-3.4361 documentation -0.3305
-3.5231 documents -0.3579
-3.3014 does -0.3371
-4.4774 dog -0.3638
-3.6992 doing -0.3372
-3.8754 domain -0.3459
-4.4774 domains -0.3478
-4.4774 domestic -0.3656
-4.4774 don -0.3648
-3.3983 done -0.3569
-3.8754 double -0.3654
-4.4774 doubling -0.3652
-3.5744 down -0.3032
-3.6992 download -0.3087
-4.0002 downloaded -0.3641
-4.0002 downloading -0.3526
-4.4774 downloads -0.3650
-4.4774 drag -0.3656
-4.4774 drastically -0.3655
-4.4774 draw -0.3652
-4.4774 drawback -0.3553
-4.4774 drive -0.3478
-4.1764 driven -0.3633
-4.4774 drivers -0.3478
-4.4774 drives -0.3629
-4.4774 driving -0.3652
-3.5231 due -0.3359
-4.4774 dumping -0.3656
-4.4774 dumps -0.3640
-4.1764 duo -0.3648
-4.1764 duration -0.3553
-2.8647 during -0.3165
-4.1764 duty -0.3631
-4.1764 dynamic -0.3655
-4.4774 dynamite -0.3559
-3.8754 e -0.3474
-2.7532 each -0.3273
-4.4774 eager -0.3542
-4.0002 earlier -0.3594
-4.0002 early -0.3594
-4.4774 earn -0.3392
-4.0002 ease -0.3282
-3.6324 easier -0.3183
-3.7785 easily -0.3467
-4.4774 east -0.3656
-4.1764 eastern -0.3649
-4.1764 easy -0.3540
-4.4774 eat -0.3655
-4.4774 ecocentric -0.3641
-4.1764 economic -0.3656
-4.0002 economical -0.3477
-4.4774 ecosmiles -0.3506
-4.1764 ecosystem -0.3636
-4.1764 edge -0.3636
-4.4774 edges -0.3641
-4.0002 edit -0.3392
-4.1764 edited -0.3434
-4.1764 editing -0.3454
-4.1764 edition -0.3587
-4.4774 editor -0.3641
-4.1764 education -0.3478
-3.8754 effect -0.3553
-3.8754 effective -0.3499
-4.1764 effectively -0.3415
-3.5744 effects -0.3371
-3.6992 efficiency -0.3359
-3.7785 efficient -0.3370
-4.1764 efficiently -0.3636
-4.4774 efforts -0.3595
-3.6324 either -0.3382
-4.4774 elaborated -0.3646
-4.4774 elapsed -0.3655
-4.1764 elements -0.3469
-4.4774 eliminates -0.3392
-4.4774 else -0.3655
-4.4774 em -0.3638
-4.1764 email -0.3542
-3.5744 embedded -0.3612
-4.4774 emergencies -0.3506
-3.7785 emission -0.3552
-4.4774 emitting -0.3559
-4.4774 emphasize -0.3628
-4.4774 emphasized -0.3559
-4.1764 employed -0.3480
-4.1764 employees -0.3322
-4.4774 employers -0.3542
-4.4774 employment -0.3656
-4.4774 empty -0.3647
-4.4774 emulate -0.3573
-4.4774 en -0.3478
-4.0002 enable -0.3653
-4.0002 enabled -0.3648
-4.4774 enables -0.3655
-4.1764 encapsulation -0.3628
-3.5231 encoding -0.3342
-4.4774 encourage -0.3654
-4.4774 encouraged -0.3639
-4.4774 encouragement -0.3650
-4.4774 encouraging -0.3653
-4.4774 encryption -0.3655
-4.4774 encyclopedia -0.3478
-3.1157 end -0.2758
-4.4774 endanger -0.3392
-4.1764 ends -0.3559
-3.7785 energy -0.3190
-4.1764 engagement -0.3654
-4.1764 engine -0.3655
-4.4774 engineer -0.3506
-4.4774 engineering -0.3506
-4.0002 enhance -0.3386
-4.4774 enhanced -0.3641
-4.4774 enhancements -0.3559
-4.4774 enjoy -0.3655
-4.4774 enjoyable -0.3656
-3.7785 enough -0.3537
-3.4775 ensure -0.3343
-4.4774 ensured -0.3478
-4.1764 ensures -0.3391
-4.1764 ensuring -0.3541
-4.4774 enter -0.3573
-4.4774 entered -0.3650
-4.4774 entering -0.3651
-4.4774 enthused -0.3653
-3.6992 entire -0.3613
-4.1764 entirely -0.3415
-4.4774 entitlement -0.3631
-4.1764 envelope -0.3477
-3.2222 environment -0.2982
-3.0461 environmental -0.3501
-4.4774 epistemology -0.3506
-4.4774 epsilon -0.3506
-4.1764 equal -0.3542
-4.4774 equation -0.3640
-4.4774 equidistant -0.3638
-3.7785 equipment -0.3294
-4.4774 equipped -0.3639
-4.4774 equitable -0.3656
-4.4774 equities -0.3651
-4.1764 equivalence -0.3655
-4.4774 er -0.3656
-3.3014 error -0.3456
-3.4361 errors -0.3251
-4.4774 escape -0.3654
-4.4774 escorts -0.3618
-4.1764 especially -0.3650
-3.8754 essential -0.3598
-4.4774 essentially -0.3506
-4.1764 established -0.3633
-4.1764 estimate -0.3454
-4.0002 estimated -0.3388
-3.8754 estimates -0.3360
-4.4774 estimating -0.3641
-4.4774 estimator -0.3595
-4.1764 etc -0.3459
-3.1157 ethical -0.3614
-3.0972 ethics -0.2941
-4.4774 ethnobiology -0.3559
-4.4774 ethnobotanical -0.3653
-4.4774 etymology -0.3553
-3.4775 evaluate -0.3334
-4.0002 evaluated -0.3313
-4.0002 evaluating -0.3389
-3.5744 evaluation -0.3363
-3.0972 even -0.3193
-4.4774 evening -0.3478
-3.7785 event -0.3188
-4.4774 events -0.3628
-4.4774 eventual -0.3656
-4.0002 eventually -0.3654
-4.4774 ever -0.3478
-3.3014 every -0.3584
-4.1764 everyone -0.3606
-4.4774 everything -0.3587
-4.4774 evidence -0.3553
-4.1764 evolution -0.3553
-4.0002 evolved -0.3474
-4.4774 evolving -0.3656
-4.1764 exact -0.3653
-3.7785 exactly -0.3382
-4.4774 examine -0.3648
-4.4774 examining -0.3573
-2.6781 example -0.2970
-4.0002 examples -0.3430
-4.1764 exceed -0.3652
-4.4774 exception -0.3587
-4.4774 exciting -0.3654
-4.4774 excuse -0.3587
-4.4774 excused -0.3506
-4.1764 executable -0.3554
-3.3313 execute -0.2880
-3.6992 executed -0.3140
-4.4774 executes -0.3654
-3.8754 executing -0.3392
-3.1987 execution -0.2813
-3.8754 executive -0.3655
-4.4774 exercise -0.3656
-4.4774 exhibit -0.3573
-4.4774 exhibitions -0.3647
-3.8754 exist -0.3514
-4.4774 existence -0.3553
-3.3313 existing -0.3597
-4.1764 exit -0.3392
-4.4774 expanded -0.3656
-4.1764 expands -0.3559
-3.7785 expectation -0.3452
-4.1764 expectations -0.3638
-3.4775 expected -0.3502
-4.4774 expenses -0.3478
-4.4774 expensive -0.3654
-3.6324 experience -0.3457
-3.6992 experienced -0.3517
-4.4774 experiences -0.3595
-4.4774 experiment -0.3639
-4.4774 experimentation -0.3559
-4.4774 expert -0.3655
-4.4774 expertise -0.3652
-4.1764 explain -0.3627
-4.0002 explained -0.3646
-4.4774 explains -0.3628
-4.4774 exponential -0.3655
-4.4774 exponentially -0.3478
-4.4774 express -0.3497
-3.8754 expressed -0.3291
-4.0002 expressions -0.3506
-4.4774 extend -0.3649
-4.4774 extendable -0.3641
-4.0002 extended -0.3655
-4.1764 extension -0.3463
-4.4774 extensions -0.3542
-4.1764 extensive -0.3653
-3.7785 external -0.3640
-4.4774 extra -0.3654
-4.1764 extract -0.3386
-3.8754 extraction -0.3031
-3.3313 extractor -0.3249
-4.4774 extremely -0.3656
-4.4774 extremes -0.3655
-4.4774 eyes -0.3478
-4.4774 f -0.3651
-4.4774 face -0.3553
-4.0002 faced -0.3637
-4.1764 facilitator -0.3653
-3.7785 fact -0.3477
-4.1764 factor -0.3589
-4.4774 factories -0.3595
-3.7785 factors -0.3444
-4.4774 failing -0.3542
-4.1764 fails -0.3443
-4.4774 failures -0.3652
-3.7785 fairly -0.3647
-4.4774 faith -0.3595
-4.4774 fallacy -0.3506
-4.4774 falling -0.3656
-4.4774 falloff -0.3553
-4.1764 false -0.3655
-4.4774 familiar -0.3639
-4.4774 families -0.3618
-3.8754 family -0.3267
-4.1764 far -0.3506
-4.1764 farm -0.3544
-4.4774 farms -0.3478
-3.5744 fast -0.3510
-3.8754 faster -0.3122
-4.0002 fastest -0.3645
-4.4774 fate -0.3553
-4.4774 father -0.3648
-4.4774 favorite -0.3656
-4.4774 fear -0.3559
-4.0002 feasible -0.3542
-3.3635 feature -0.3455
-3.1157 features -0.3022
-4.1764 feel -0.3550
-4.4774 feeling -0.3655
-4.4774 feels -0.3542
-4.4774 fees -0.3478
-4.4774 felt -0.3656
-3.7785 few -0.3649
-4.4774 fewer -0.3656
-4.4774 fiber -0.3656
-4.1764 field -0.3491
-4.1764 fields -0.3506
-4.4774 fifty -0.3655
-2.7451 figure -0.2894
-4.4774 figures -0.3656
-2.6449 file -0.2146
-2.6645 files -0.2400
-4.4774 filled -0.3641
-3.8754 filter -0.3506
-4.0002 filtered -0.3473
-4.1764 filters -0.3387
-3.6324 final -0.3648
-3.5744 finally -0.3506
-4.4774 finance -0.3559
-4.4774 financial -0.3654
-3.3635 find -0.3004
-3.7785 finding -0.3285
-4.1764 finds -0.3539
-4.4774 fine -0.3631
-4.4774 finish -0.3651
-4.1764 finished -0.3386
-4.4774 fire -0.3656
-4.4774 fires -0.3506
-4.1764 firewall -0.3544
-4.4774 firewood -0.3618
-4.4774 firm -0.3652
-3.0003 first -0.3022
-4.4774 fisherman -0.3506
-4.0002 fishing -0.3459
-4.4774 fist -0.3478
-4.0002 fit -0.3325
-3.6992 five -0.3420
-4.0002 fix -0.3541
-3.8754 fixed -0.3655
-4.4774 fixing -0.3655
-4.4774 flag -0.3478
-4.4774 fleet -0.3654
-4.0002 flexibility -0.3454
-3.8754 flexible -0.3372
-4.4774 fliers -0.3506
-4.4774 flip -0.3656
-4.4774 flipped -0.3654
-4.4774 flow -0.3655
-3.7785 focus -0.3632
-4.1764 focused -0.3628
-3.8754 focuses -0.3638
-3.2733 folder -0.2873
-4.0002 folders -0.3463
-4.4774 folds -0.3629
-3.6992 follow -0.3297
-4.1764 followed -0.3629
-4.4774 followers -0.3478
-2.9723 following -0.3038
-3.7785 follows -0.3375
-4.4774 food -0.3559
-2.0575 for -0.2479
-4.4774 forecast -0.3641
-4.4774 foreign -0.3652
-4.0002 forest -0.3505
-4.4774 forged -0.3639
-3.7785 form -0.3098
-4.4774 formant -0.3655
-4.4774 formants -0.3618
-3.6324 format -0.3294
-4.1764 forms -0.3626
-4.4774 formula -0.3640
-4.1764 formulas -0.3455
-4.4774 fortune -0.3654
-3.8754 forum -0.3463
-3.3635 forward -0.3463
-4.4774 foster -0.3573
-3.2733 found -0.3247
-4.4774 founded -0.3633
-3.6992 four -0.3486
-4.4774 fourth -0.3559
-4.1764 frame -0.3468
-4.0002 frames -0.3371
-3.8754 framework -0.3402
-3.0972 free -0.2913
-3.6992 freedom -0.2974
-4.1764 freely -0.3636
-4.4774 french -0.3559
-3.6324 frequencies -0.3413
-4.1764 frequency -0.3624
-4.1764 fresh -0.3595
-4.4774 friendly -0.3392
-2.4689 from -0.2657
-3.5231 front -0.3524
-4.4774 frustrating -0.3542
-3.7785 full -0.3395
-3.8754 fully -0.3628
-4.4774 fun -0.3655
-3.1552 function -0.3052
-3.8754 functional -0.3535
-4.4774 functionality -0.3506
-4.4774 functionally -0.3643
-3.4775 functions -0.3024
-3.8754 fundamental -0.3641
-4.4774 fungus -0.3506
-3.6992 further -0.3500
-3.3014 furthermore -0.3472
-3.3983 future -0.3357
-4.4774 g -0.3478
-4.0002 gain -0.3476
-3.6992 gambler -0.3622
-4.0002 gambler's -0.3654
-4.0002 gamblers -0.3593
-4.4774 game -0.3595
-4.4774 games -0.3506
-4.4774 gaps -0.3559
-4.4774 garage -0.3478
-4.4774 gathered -0.3650
-4.4774 gauging -0.3618
-4.4774 geared -0.3655
-4.0002 gender -0.3473
-3.8754 general -0.3479
-4.4774 generalized -0.3646
-4.0002 generally -0.3653
-3.3635 generate -0.3282
-3.3313 generated -0.3595
-3.5744 generates -0.3303
-3.3983 generating -0.3303
-3.6992 generation -0.3279
-3.5231 generator -0.3204
-3.3635 get -0.3267
-3.8754 gets -0.3652
-4.4774 getting -0.3656
-4.4774 giants -0.3506
-4.1764 give -0.3303
-3.1157 given -0.2975
-4.0002 gives -0.3301
-4.4774 giving -0.3652
-4.4774 glib -0.3478
-4.0002 gmail -0.3477
-4.0002 gnu -0.3475
-3.6324 go -0.3310
-3.7785 goal -0.3409
-4.0002 goals -0.3460
-4.4774 gobs -0.3553
-4.1764 goes -0.3653
-3.7785 going -0.3506
-4.4774 golden -0.3655
-3.2222 good -0.3389
-4.4774 gotten -0.3656
-4.4774 gov -0.3650
-4.4774 government -0.3656
-4.0002 grade -0.3609
-4.4774 grades -0.3618
-4.4774 gradient -0.3506
-4.1764 grading -0.3497
-4.4774 gradually -0.3655
-3.8754 gram -0.3640
-4.1764 grammar -0.3377
-4.4774 grammars -0.3559
-4.4774 grammatical -0.3559
-4.4774 grammatically -0.3655
-4.4774 grams -0.3651
-4.1764 granted -0.3322
-4.4774 grants -0.3652
-4.1764 graphical -0.3647
-4.4774 graphics -0.3542
-4.4774 grasses -0.3478
-4.4774 grateful -0.3639
-4.4774 grazing -0.3656
-4.0002 great -0.3655
-4.1764 greater -0.3655
-4.1764 greatest -0.3655
-4.0002 greatly -0.3640
-4.4774 grep -0.3654
-4.4774 grounds -0.3618
-3.5231 group -0.3346
-3.7785 groups -0.3055
-4.1764 grow -0.3609
-4.4774 growing -0.3506
-4.4774 grows -0.3497
-3.6992 growth -0.3390
-4.4774 guarantee -0.3628
-4.4774 guidance -0.3648
-4.1764 guide -0.3655
-4.4774 guidelines -0.3573
-4.4774 guides -0.3506
-4.1764 h -0.3478
-4.4774 habits -0.3656
-4.4774 hackers -0.3654
-3.3635 had -0.2970
-4.4774 hamming -0.3654
-3.3635 hand -0.3282
-4.1764 handing -0.3563
-3.7785 handle -0.3558
-3.8754 handling -0.3208
-4.1764 hands -0.3202
-4.4774 handy -0.3655
-4.1764 happen -0.3646
-4.4774 happening -0.3652
-4.1764 happy -0.3542
-4.4774 hard -0.3656
-4.4774 harder -0.3478
-3.7785 hardware -0.3298
-4.4774 harm -0.3542
-4.1764 harvesting -0.3454
-4.1764 harvests -0.3560
-2.6993 has -0.2874
-4.0002 hash -0.3655
-4.4774 hasn't -0.3654
-4.4774 hassenzahl -0.3652
-2.6713 have -0.2898
-3.3313 having -0.3158
-4.1764 he -0.3641
-4.1764 head -0.3537
-4.4774 headless -0.3652
-4.1764 heads -0.3406
-4.0002 health -0.3656
-4.4774 healthcare -0.3506
-4.4774 heart -0.3506
-4.1764 heavily -0.3655
-3.8754 held -0.3475
-4.4774 hello -0.3506
-3.5231 help -0.3163
-3.6992 helped -0.3267
-4.4774 helpful -0.3542
-3.6324 helps -0.3377
-4.4774 hence -0.3392
-4.0002 her -0.3650
-3.8754 here -0.3552
-4.4774 hertz -0.3559
-4.4774 hesitate -0.3542
-4.4774 hesitation -0.3641
-4.0002 heuristic -0.3652
-3.8754 hi -0.3316
-3.5744 hidden -0.3325
-4.4774 hide -0.3650
-4.4774 hiding -0.3392
-3.4775 high -0.3471
-3.7785 higher -0.3378
-4.1764 highlight -0.3652
-4.4774 highlights -0.3392
-4.4774 hill -0.3631
-3.6992 his -0.3638
-4.4774 historically -0.3643
-4.1764 history -0.3552
-4.0002 hit -0.3390
-4.4774 hitting -0.3655
-3.2470 hmm -0.2672
-4.0002 hobby -0.3502
-4.1764 hold -0.3656
-4.1764 holding -0.3391
-3.8754 home -0.3369
-4.1764 homes -0.3478
-4.1764 hope -0.3619
-4.4774 hopes -0.3628
-4.4774 hospitals -0.3656
-4.1764 hot -0.3654
-3.8754 hours -0.3267
-4.4774 houseboat -0.3587
-3.0003 how -0.2921
-2.9460 however -0.3193
-3.7785 http -0.3640
-4.4774 hub -0.3654
-4.4774 huge -0.3656
-3.4775 human -0.3605
-4.4774 humanistic -0.3506
-4.1764 humans -0.3322
-4.1764 hundreds -0.3538
-4.4774 hypotheses -0.3559
-4.0002 hypothesis -0.3531
-4.4774 hypothesized -0.3634
-2.4952 i -0.2860
-4.4774 iOS -0.3559
-4.4774 iTunes -0.3478
-4.4774 iceberg -0.3506
-4.1764 icer -0.3488
-4.4774 icons -0.3559
-4.1764 id -0.3322
-4.4774 ide -0.3638
-4.4774 idea -0.3655
-3.8754 ideals -0.3369
-4.1764 ideas -0.3513
-3.4361 identified -0.3261
-4.0002 identifiers -0.3629
-3.3313 identify -0.3264
-4.0002 identifying -0.3198
-2.7292 if -0.3152
-4.4774 ignored -0.3648
-3.8754 ii -0.3366
-3.8754 iii -0.3490
-4.4774 illustrate -0.3392
-3.8754 illustrated -0.3624
-3.7785 illustrates -0.3392
-4.1764 image -0.3359
-4.4774 imagination -0.3497
-4.4774 imbalance -0.3595
-4.4774 immediate -0.3656
-4.4774 immediately -0.3478
-4.4774 immense -0.3654
-4.0002 impact -0.3308
-4.4774 impacting -0.3654
-4.4774 impacts -0.3652
-3.8754 implement -0.3473
-3.8754 implementation -0.3326
-3.4775 implemented -0.3221
-4.4774 implementing -0.3655
-4.4774 importance -0.3506
-3.0625 important -0.3423
-4.4774 importantly -0.3506
-4.0002 impossible -0.3501
-3.5744 improve -0.3378
-4.0002 improved -0.3399
-3.8754 improvement -0.3226
-3.6324 improvements -0.3440
-4.1764 improves -0.3648
-4.4774 improving -0.3647
-1.8584 in -0.2021
-4.1764 inc -0.3478
-4.1764 incentives -0.3388
-4.4774 inception -0.3624
-3.3635 include -0.3104
-3.2733 included -0.3443
-3.5744 includes -0.3545
-3.7785 including -0.3389
-3.6992 incoming -0.3633
-4.1764 incomplete -0.3497
-4.4774 inconsistently -0.3655
-4.4774 incorporated -0.3650
-3.5744 incorrect -0.3452
-4.4774 incorrectly -0.3641
-3.6992 increase -0.3024
-4.0002 increased -0.3443
-3.6324 increases -0.3226
-3.7785 increasing -0.3390
-4.4774 incremental -0.3654
-4.4774 indeed -0.3656
-4.4774 independence -0.3506
-3.6992 independent -0.3427
-4.4774 index -0.3478
-4.1764 indicate -0.3468
-4.1764 indicating -0.3628
-4.4774 indigenous -0.3656
-3.4361 individual -0.3641
-4.1764 individually -0.3621
-4.1764 individuals -0.3388
-4.4774 induction -0.3655
-4.4774 industrial -0.3656
-4.1764 industries -0.3478
-4.4774 inescapable -0.3478
-4.4774 inexpensive -0.3656
-4.1764 infinite -0.3656
-4.1764 influenced -0.3617
-4.1764 info -0.3656
-3.1350 information -0.3253
-3.7785 infrastructure -0.3638
-4.1764 ingredients -0.3462
-4.1764 initial -0.3653
-4.1764 initially -0.3506
-4.4774 initiatives -0.3506
-4.4774 injection -0.3506
-4.4774 innovation -0.3506
-3.0461 input -0.2956
-3.3983 inputs -0.2849
-4.4774 insane -0.3655
-3.8754 insert -0.3614
-4.4774 inserted -0.3506
-4.4774 insertions -0.3656
-4.4774 inserts -0.3392
-3.8754 inside -0.3272
-4.1764 inspections -0.3406
-3.6992 install -0.3278
-3.7785 installation -0.3247
-4.4774 installations -0.3559
-3.6324 installed -0.3349
-4.1764 installing -0.3392
-4.0002 instance -0.3398
-4.4774 instances -0.3638
-3.7785 instead -0.3389
-4.1764 institute -0.3527
-3.4775 instructions -0.3254
-4.4774 instructor -0.3559
-4.4774 instrument -0.3656
-4.4774 integrate -0.3653
-4.1764 integrated -0.3632
-4.1764 integration -0.3624
-4.1764 integrity -0.3359
-4.4774 intelligible -0.3634
-3.8754 intended -0.3379
-4.4774 intensity -0.3595
-4.4774 intensively -0.3656
-4.4774 intention -0.3553
-4.4774 intentionally -0.3656
-4.4774 intentions -0.3542
-4.1764 interact -0.3639
-4.4774 interacting -0.3639
-4.1764 interaction -0.3654
-3.4361 interactive -0.3341
-3.8754 interest -0.3182
-4.4774 interesting -0.3497
-4.1764 interests -0.3478
-3.3983 interface -0.3249
-3.6992 interfaces -0.3464
-4.4774 interference -0.3654
-4.4774 intermediate -0.3656
-4.4774 internal -0.3655
-4.4774 internally -0.3595
-4.1764 international -0.3644
-3.7785 internet -0.3321
-4.4774 interoperability -0.3639
-4.4774 interpret -0.3655
-4.4774 intervene -0.3618
-4.4774 intervention -0.3633
-2.8440 into -0.3225
-4.4774 intranet -0.3478
-4.1764 introduce -0.3644
-3.6324 introduced -0.3461
-4.4774 introduces -0.3656
-4.4774 introducing -0.3656
-3.8754 introduction -0.3373
-4.4774 introductory -0.3656
-4.0002 intuition -0.3559
-4.1764 invariant -0.3526
-4.4774 investment -0.3656
-4.4774 invited -0.3542
-4.1764 involved -0.3582
-4.0002 involves -0.3377
-4.4774 involving -0.3656
-1.8026 is -0.1910
-4.4774 isolated -0.3656
-4.1764 issue -0.3470
-3.1350 issues -0.3071
-2.1233 it -0.2366
-4.4774 it's -0.3655
-4.4774 itchy -0.3656
-4.4774 items -0.3542
-4.4774 iterative -0.3656
-2.9334 its -0.3586
-4.1764 itself -0.3462
-4.0002 j -0.3468
-3.3313 jar -0.3637
-3.3635 java -0.3399
-4.1764 jersey -0.3654
-4.4774 jimmy -0.3654
-4.1764 job -0.3655
-3.8754 jobs -0.3587
-4.4774 john -0.3656
-4.4774 joke -0.3638
-4.1764 journey -0.3649
-4.4774 junction -0.3655
-3.3635 just -0.3133
-3.4775 justice -0.2834
-4.4774 justifies -0.3392
-4.4774 justify -0.3649
-3.8754 k -0.3459
-4.4774 kb -0.3478
-3.8754 keep -0.3384
-4.4774 keeps -0.3656
-4.4774 kept -0.3652
-3.7785 key -0.3434
-3.6992 keyboard -0.2942
-4.4774 keyboards -0.3506
-2.8147 keyword -0.3085
-2.9723 keywords -0.2834
-4.1764 kind -0.3553
-4.4774 king -0.3638
-4.4774 knew -0.3623
-3.4775 know -0.3413
-4.4774 knowing -0.3392
-4.1764 knowledge -0.3550
-3.4361 known -0.3595
-4.4774 knows -0.3641
-4.4774 l -0.3478
-4.4774 labor -0.3655
-4.1764 lack -0.3282
-4.0002 land -0.3419
-2.6386 language -0.2740
-3.4775 languages -0.3200
-3.1350 large -0.3402
-4.4774 larger -0.3656
-4.4774 largest -0.3654
-3.4775 last -0.3638
-4.1764 lastly -0.3506
-3.6992 late -0.3630
-3.6324 later -0.3648
-3.8754 latest -0.3580
-4.4774 latter -0.3655
-4.4774 launching -0.3559
-4.1764 law -0.3478
-4.4774 laws -0.3478
-4.1764 layer -0.3553
-4.4774 lead -0.3542
-4.4774 leaders -0.3559
-4.1764 leaks -0.3559
-3.8754 learn -0.3644
-3.7785 learned -0.3439
-4.4774 learner -0.3497
-3.2470 learning -0.3187
-4.0002 least -0.3646
-4.1764 leaving -0.3648
-4.4774 led -0.3542
-4.4774 left -0.3655
-4.4774 legal -0.3478
-4.1764 legally -0.3474
-4.4774 legislation -0.3595
-3.8754 length -0.3200
-4.1764 lengths -0.3506
-3.6992 less -0.3554
-4.4774 lessons -0.3655
-3.7785 let -0.3639
-4.0002 let's -0.3651
-3.6324 level -0.3467
-4.0002 levels -0.3527
-3.3635 library -0.3234
-4.4774 license -0.3478
-4.4774 licenses -0.3656
-4.4774 licensing -0.3656
-3.7785 life -0.3617
-4.4774 lifetime -0.3478
-4.4774 light -0.3631
-4.4774 lighter -0.3559
-3.2222 like -0.3408
-3.7785 likelihood -0.3453
-3.6324 likely -0.3463
-4.4774 limit -0.3654
-4.4774 limitation -0.3655
-3.5231 limited -0.3129
-4.1764 limiting -0.3654
-4.1764 limits -0.3553
-3.3983 line -0.2955
-4.4774 linear -0.3652
-4.0002 lines -0.3372
-4.1764 linguist -0.3445
-4.4774 linguistic -0.3651
-4.4774 linguists -0.3595
-4.4774 linked -0.3542
-2.8754 list -0.2963
-4.1764 listed -0.3636
-4.0002 listen -0.3440
-3.4775 listening -0.3223
-4.4774 listing -0.3392
-4.0002 literal -0.3650
-4.1764 little -0.3632
-3.8754 live -0.3626
-4.4774 lives -0.3478
-4.1764 living -0.3322
-3.8754 load -0.3474
-4.1764 loaded -0.3650
-4.4774 loads -0.3640
-3.8754 local -0.3655
-4.4774 locally -0.3506
-3.8754 located -0.3580
-3.8754 location -0.3337
-3.7785 locations -0.3278
-4.4774 locators -0.3655
-4.0002 locked -0.3655
-3.6992 log -0.3470
-4.4774 logarithmic -0.3656
-4.4774 logged -0.3595
-4.4774 loggers -0.3478
-3.6992 logging -0.3223
-4.1764 logic -0.3557
-4.0002 login -0.3652
-4.4774 logistical -0.3655
-4.4774 logs -0.3638
-3.8754 long -0.3619
-4.1764 longer -0.3651
-3.4775 look -0.3396
-3.8754 looking -0.3369
-4.0002 looks -0.3623
-3.6324 loop -0.3576
-3.8754 loops -0.3492
-4.4774 lose -0.3651
-4.4774 loses -0.3623
-4.4774 losing -0.3656
-3.7785 loss -0.3253
-3.6992 losses -0.3315
-4.1764 love -0.3472
-3.7785 low -0.3462
-3.5231 lower -0.3401
-4.4774 lowering -0.3656
-4.4774 lure -0.3497
-3.6992 m -0.3312
-4.4774 mac -0.3653
-3.6992 machine -0.3568
-4.0002 machines -0.3652
-4.1764 mad -0.3322
-3.4361 made -0.3097
-4.4774 magnification -0.3506
-4.4774 mail -0.3641
-2.9212 main -0.3589
-3.5744 mainframe -0.3343
-3.4361 mainframes -0.3185
-4.4774 mainly -0.3656
-4.1764 maintain -0.3392
-4.4774 maintained -0.3595
-4.1764 maintaining -0.3640
-3.6992 major -0.3650
-4.1764 majority -0.3478
-3.0151 make -0.3176
-4.4774 maker -0.3656
-4.0002 makes -0.3570
-3.6324 making -0.3260
-4.4774 manage -0.3542
-3.6992 managed -0.3456
-3.4775 management -0.3119
-4.0002 manager -0.3624
-4.4774 manages -0.3392
-3.4361 managing -0.3649
-4.4774 mandarin -0.3478
-4.4774 manipulate -0.3392
-4.4774 manipulating -0.3392
-4.1764 manner -0.3553
-4.4774 manners -0.3506
-3.8754 manually -0.3477
-4.1764 manuals -0.3478
-4.1764 manufacturer -0.3639
-4.1764 manufacturers -0.3435
-4.4774 manufactures -0.3653
-4.4774 manufacturing -0.3587
-3.1350 many -0.3554
-4.4774 mapped -0.3656
-4.1764 mapping -0.3389
-4.4774 maps -0.3638
-4.4774 marginal -0.3655
-4.4774 market -0.3656
-4.4774 marketing -0.3506
-4.4774 marks -0.3652
-4.4774 markup -0.3645
-3.4775 martingale -0.3234
-4.4774 mass -0.3656
-3.8754 master -0.3638
-4.1764 match -0.3655
-4.1764 matches -0.3624
-4.4774 material -0.3587
-4.4774 materials -0.3478
-4.4774 mathematical -0.3656
-3.7785 matrix -0.3470
-4.1764 matter -0.3271
-4.4774 mature -0.3559
-3.8754 maximization -0.3651
-4.1764 maximize -0.3392
-4.4774 maximizes -0.3392
-4.0002 maximum -0.3649
-3.1987 may -0.3587
-3.0795 me -0.2489
-4.0002 mean -0.3647
-4.1764 meaning -0.3524
-4.4774 meaningful -0.3655
-3.4775 means -0.3330
-4.1764 measure -0.3392
-4.4774 measured -0.3655
-3.7785 measurement -0.3359
-3.5231 measures -0.3430
-4.0002 measuring -0.3383
-3.8754 mechanical -0.3497
-4.4774 mechanics -0.3587
-4.4774 media -0.3654
-4.1764 medical -0.3654
-4.4774 medication -0.3654
-4.4774 medium -0.3542
-4.1764 meet -0.3202
-4.1764 meeting -0.3639
-4.4774 melding -0.3655
-4.1764 melon -0.3655
-4.4774 member -0.3553
-3.5744 members -0.3403
-3.2470 memory -0.3222
-4.4774 men -0.3559
-4.0002 mention -0.3628
-4.4774 mentioned -0.3655
-4.1764 menu -0.3371
-4.4774 mere -0.3656
-4.1764 merely -0.3374
-3.3313 message -0.3062
-3.4361 messages -0.3232
-3.2733 method -0.2876
-3.6992 methods -0.3371
-4.1764 metric -0.3641
-3.8754 metrics -0.3452
-4.1764 mfcc -0.3655
-4.4774 micro -0.3649
-4.0002 microphone -0.3559
-4.4774 microwaved -0.3656
-4.4774 middle -0.3655
-3.3014 might -0.3585
-4.4774 migrate -0.3650
-4.4774 miles -0.3656
-4.0002 milestones -0.3454
-4.1764 milliseconds -0.3478
-4.4774 mimic -0.3573
-4.1764 mind -0.3377
-4.4774 minded -0.3654
-4.0002 minimize -0.3392
-4.1764 minimum -0.3553
-4.4774 minute -0.3648
-4.1764 minutes -0.3377
-4.4774 missed -0.3478
-4.0002 missing -0.3631
-4.0002 mission -0.3395
-4.4774 mistakes -0.3656
-4.4774 misunderstood -0.3649
-4.1764 mo -0.3655
-4.1764 mobile -0.3652
-3.2470 mode -0.2764
-2.6262 model -0.2065
-4.4774 modeled -0.3655
-3.7785 modeling -0.3294
-2.8977 models -0.2643
-3.8754 modern -0.3636
-3.5744 modes -0.3169
-4.4774 modification -0.3506
-4.1764 modified -0.3527
-4.4774 modify -0.3392
-4.4774 modular -0.3655
-4.4774 module -0.3618
-4.4774 modules -0.3478
-4.4774 mom -0.3506
-4.4774 moment -0.3628
-3.5744 money -0.3192
-4.4774 monitor -0.3506
-4.4774 monitored -0.3595
-4.4774 monitoring -0.3655
-4.4774 monitors -0.3595
-4.4774 month -0.3553
-4.4774 months -0.3542
-4.4774 mood -0.3478
-4.4774 moose -0.3559
-4.4774 moral -0.3656
-4.4774 morals -0.3559
-2.6449 more -0.3210
-3.6992 moreover -0.3506
-4.1764 morning -0.3478
-2.7371 most -0.3138
-4.1764 mostly -0.3552
-3.7785 mouse -0.3476
-3.8754 move -0.3552
-4.4774 movement -0.3656
-4.4774 moving -0.3559
-3.8754 mp -0.3652
-3.3313 much -0.3163
-4.0002 multi -0.3631
-4.4774 multilingual -0.3652
-4.4774 multimedia -0.3559
-4.4774 multiplatform -0.3640
-3.5231 multiple -0.3634
-4.4774 multiprocessing -0.3640
-4.1764 multitasking -0.3640
-4.1764 multithreading -0.3640
-4.4774 multiuser -0.3640
-3.8754 museum -0.3267
-3.8754 music -0.3487
-4.4774 musical -0.3656
-4.4774 musician -0.3506
-3.2470 must -0.3452
-4.4774 mvs -0.3638
-2.8440 my -0.3459
-4.1764 myself -0.3460
-2.8754 n -0.2884
-3.1350 name -0.3171
-4.1764 named -0.3625
-3.7785 names -0.3618
-4.4774 naming -0.3656
-3.7785 native -0.3533
-4.4774 natives -0.3654
-4.1764 natural -0.3542
-4.1764 nature -0.3400
-4.1764 navigate -0.3557
-4.1764 navigation -0.3645
-4.4774 ncr -0.3478
-4.0002 near -0.3488
-4.4774 nearby -0.3654
-3.5231 necessary -0.3438
-3.0151 need -0.3222
-3.3014 needed -0.3033
-2.9861 needs -0.3023
-4.4774 negative -0.3506
-4.1764 nerwork -0.3646
-3.5744 net -0.3641
-3.3014 network -0.3361
-3.3635 networking -0.3542
-3.8754 networks -0.3348
-4.0002 neural -0.3653
-4.0002 never -0.3655
-3.6992 nevertheless -0.3506
-2.7962 new -0.3193
-4.0002 newer -0.3639
-4.1764 newly -0.3654
-4.1764 news -0.3400
-3.5744 next -0.3475
-4.0002 nice -0.3655
-4.4774 nightmare -0.3652
-3.1552 no -0.3452
-4.4774 nobody -0.3656
-4.4774 nodes -0.3629
-3.8754 noise -0.3612
-4.4774 noisy -0.3641
-3.6324 non -0.3631
-4.0002 none -0.3553
-3.6324 nonetheless -0.3506
-4.4774 normalized -0.3559
-4.4774 norms -0.3559
-2.5744 not -0.2870
-4.1764 notably -0.3388
-4.4774 notation -0.3595
-3.7785 note -0.3291
-4.4774 notes -0.3542
-4.4774 notice -0.3628
-4.4774 nourishment -0.3655
-4.4774 novel -0.3654
-4.4774 novell -0.3656
-4.4774 novice -0.3648
-3.5231 now -0.3314
-3.1157 number -0.3207
-4.4774 numbering -0.3652
-3.8754 numbers -0.3512
-4.4774 numeric -0.3641
-4.4774 numerically -0.3656
-4.4774 numerous -0.3653
-3.7785 o -0.3433
-4.4774 obeying -0.3655
-3.4361 object -0.3557
-4.4774 objective -0.3553
-3.5231 objects -0.3524
-4.4774 obligated -0.3542
-4.4774 observable -0.3655
-3.3313 observation -0.3585
-3.6992 observations -0.3155
-4.1764 observed -0.3653
-3.7785 obtain -0.3374
-3.7785 obtained -0.3638
-4.4774 obtaining -0.3640
-4.1764 occupation -0.3371
-4.4774 occur -0.3646
-4.1764 occurrence -0.3438
-4.1764 occurring -0.3651
-4.4774 occurs -0.3650
-4.4774 odd -0.3656
-1.6305 of -0.2058
-3.5744 off -0.3293
-4.1764 offered -0.3534
-3.6324 office -0.3117
-4.4774 offices -0.3559
-4.4774 official -0.3652
-3.3313 often -0.3475
-3.6992 ogg -0.3462
-4.4774 oh -0.3655
-3.7785 old -0.3497
-4.4774 older -0.3647
-4.4774 ols -0.3656
-2.3737 on -0.2494
-3.3313 once -0.3000
-2.6781 one -0.2520
-3.6324 ones -0.3171
-4.0002 online -0.3653
-2.8241 only -0.2835
-4.4774 onto -0.3392
-4.4774 ontology -0.3553
-4.4774 opacity -0.3506
-3.3635 open -0.2964
-4.1764 operate -0.3478
-4.4774 operates -0.3595
-3.0003 operating -0.3622
-3.0003 operation -0.3113
-4.1764 operations -0.3506
-4.4774 operator -0.3641
-4.4774 operators -0.3595
-4.4774 opinion -0.3478
-4.4774 opportunities -0.3478
-4.0002 opportunity -0.3434
-4.1764 opposed -0.3542
-4.4774 opposite -0.3655
-4.4774 opt -0.3542
-4.4774 optic -0.3656
-4.1764 optimality -0.3497
-4.1764 optimization -0.3652
-4.1764 optimize -0.3392
-4.4774 optimized -0.3655
-4.4774 option -0.3553
-3.8754 options -0.3444
-2.4563 or -0.2562
-2.6024 order -0.3266
-4.1764 org -0.3650
-4.4774 organization -0.3478
-4.4774 organizational -0.3656
-3.7785 organizations -0.3276
-4.4774 organize -0.3650
-3.8754 organized -0.3366
-3.8754 organizer -0.3453
-4.1764 organizing -0.3551
-4.0002 orientation -0.3304
-4.1764 oriented -0.3654
-4.0002 origin -0.3552
-3.8754 original -0.3631
-4.4774 originality -0.3655
-4.4774 originated -0.3641
-2.7615 other -0.3189
-3.5231 others -0.3375
-3.8754 otherwise -0.3504
-3.3014 our -0.3606
-3.3014 out -0.2997
-4.4774 outage -0.3506
-4.4774 outbound -0.3654
-4.1764 outcome -0.3649
-4.4774 outdated -0.3559
-4.1764 outline -0.3357
-4.4774 outlined -0.3595
-4.4774 outlining -0.3392
-3.2470 output -0.3251
-3.7785 outputs -0.3329
-4.4774 outrageous -0.3655
-3.7785 outside -0.3215
-4.4774 outsiders -0.3478
-3.6992 over -0.3537
-3.3983 overall -0.3486
-4.0002 overcome -0.3594
-4.4774 overcoming -0.3650
-4.4774 overflow -0.3506
-4.4774 overflows -0.3478
-4.1764 overhead -0.3506
-4.4774 overlapped -0.3595
-4.4774 overlooked -0.3651
-4.4774 overseas -0.3655
-4.1764 overview -0.3534
-4.4774 owing -0.3652
-4.4774 owls -0.3638
-3.3635 own -0.3624
-4.4774 owner -0.3642
-2.9093 p -0.3175
-4.1764 package -0.3469
-4.1764 packaged -0.3652
-3.6992 page -0.3108
-3.4775 pages -0.3188
-4.4774 paging -0.3506
-4.4774 pair -0.3553
-4.0002 paper -0.3559
-4.4774 paragraph -0.3478
-4.4774 parallel -0.3655
-4.4774 paralysis -0.3506
-3.6992 parameter -0.3406
-3.4775 parameters -0.3028
-4.4774 paramount -0.3655
-4.1764 parasitic -0.3656
-4.4774 pared -0.3655
-4.0002 parents -0.3467
-4.4774 parity -0.3656
-4.4774 parsing -0.3497
-3.3635 part -0.3553
-3.8754 partial -0.3653
-4.4774 participants -0.3638
-4.4774 participate -0.3639
-4.4774 participating -0.3595
-3.8754 participation -0.3531
-4.1764 particular -0.3653
-4.0002 particularly -0.3651
-4.4774 partitioned -0.3650
-4.4774 partitioning -0.3392
-3.6324 parts -0.3225
-3.8754 party -0.3638
-4.4774 pass -0.3655
-4.4774 passed -0.3654
-4.4774 passes -0.3650
-4.4774 passing -0.3654
-4.4774 password -0.3478
-4.1764 past -0.3655
-4.4774 paste -0.3595
-4.4774 pastime -0.3646
-4.4774 patented -0.3655
-3.1350 path -0.3268
-3.6992 paths -0.3073
-4.0002 patterns -0.3319
-4.0002 pause -0.3557
-4.4774 paused -0.3655
-4.4774 pauses -0.3654
-4.1764 pay -0.3613
-4.0002 paying -0.3655
-4.4774 peer -0.3655
-4.4774 peers -0.3478
-3.8754 pencil -0.3301
-4.1764 pencils -0.3397
-4.4774 pent -0.3631
-3.4361 people -0.3139
-3.6324 per -0.3618
-4.4774 perceive -0.3628
-4.4774 perceived -0.3656
-4.4774 percent -0.3587
-4.4774 percentage -0.3497
-4.4774 perception -0.3587
-4.4774 perceptions -0.3656
-4.4774 perfect -0.3649
-3.6992 perform -0.3202
-2.9212 performance -0.2706
-3.7785 performed -0.3387
-4.0002 performing -0.3634
-4.1764 performs -0.3392
-4.4774 perhaps -0.3653
-4.4774 period -0.3553
-4.4774 peripheral -0.3656
-4.4774 permissions -0.3553
-4.4774 perpetrator -0.3642
-4.4774 persistence -0.3553
-3.3983 person -0.3544
-3.4361 personal -0.3579
-4.4774 personality -0.3478
-4.4774 personalization -0.3478
-4.4774 personally -0.3656
-4.1764 persons -0.3359
-4.4774 perspective -0.3478
-3.6324 phase -0.3449
-4.0002 phases -0.3514
-4.4774 philosophies -0.3634
-4.4774 phl -0.3650
-4.0002 phoenix -0.3475
-3.4361 phone -0.3350
-3.6324 phoneme -0.3518
-3.4361 phonemes -0.2995
-4.0002 phones -0.3351
-3.4775 phonetic -0.3644
-4.1764 phonetical -0.3646
-4.4774 photo -0.3656
-4.4774 photographer -0.3506
-4.4774 photography -0.3587
-4.1764 phrase -0.3455
-4.4774 phrases -0.3478
-3.7785 physical -0.3638
-4.4774 physiological -0.3542
-4.1764 pick -0.3652
-4.4774 picture -0.3506
-4.4774 piece -0.3553
-4.4774 pile -0.3553
-4.4774 piling -0.3652
-4.4774 ping -0.3656
-4.4774 pipe -0.3595
-4.4774 pipelines -0.3506
-4.1764 pis -0.3640
-3.6324 place -0.3264
-3.6992 placed -0.3576
-4.4774 places -0.3506
-4.1764 placing -0.3623
-4.1764 plain -0.3655
-4.0002 plan -0.3463
-4.0002 planning -0.3388
-4.1764 plans -0.3559
-3.7785 plant -0.3400
-4.4774 plants -0.3654
-4.1764 plastic -0.3655
-4.1764 platform -0.3653
-4.0002 platforms -0.3322
-3.4361 play -0.3189
-3.5231 played -0.2972
-4.4774 player -0.3478
-3.6992 playing -0.3038
-4.4774 plays -0.3640
-3.3635 please -0.3501
-4.4774 plug -0.3631
-4.4774 plus -0.3656
-4.4774 pneumonia -0.3506
-4.1764 poaching -0.3406
-4.0002 point -0.3535
-4.4774 pointer -0.3542
-4.4774 pointers -0.3506
-4.4774 points -0.3651
-4.4774 poisoning -0.3506
-4.4774 polices -0.3656
-4.4774 policies -0.3650
-4.4774 policy -0.3656
-4.1764 polymorphism -0.3631
-4.4774 pool -0.3640
-4.4774 pooling -0.3654
-4.0002 poor -0.3554
-3.6992 popular -0.3416
-3.8754 port -0.3475
-4.0002 portable -0.3505
-4.4774 ported -0.3559
-4.4774 portions -0.3553
-4.4774 ports -0.3638
-3.6992 position -0.3119
-4.4774 positioning -0.3650
-4.4774 possessed -0.3656
-4.4774 possibilities -0.3553
-4.1764 possibility -0.3483
-3.1350 possible -0.3089
-4.4774 post -0.3573
-4.4774 posted -0.3633
-4.4774 posterior -0.3655
-4.4774 posts -0.3595
-3.6324 potential -0.3530
-4.1764 pots -0.3656
-3.3313 power -0.3365
-3.7785 powerful -0.3370
-4.1764 practical -0.3503
-3.6992 practice -0.3316
-4.0002 practices -0.3505
-4.4774 pre -0.3631
-4.4774 pre-emphasis -0.3655
-4.0002 pre-emphasized -0.3506
-4.0002 preceded -0.3633
-4.0002 preceding -0.3559
-4.4774 preconventional -0.3655
-4.4774 predecessor -0.3478
-3.6992 predefined -0.3650
-4.4774 predetermined -0.3651
-4.1764 predict -0.3369
-4.4774 predicted -0.3654
-4.0002 preferences -0.3374
-4.4774 preferred -0.3542
-4.4774 preliminary -0.3655
-4.4774 premier -0.3553
-4.4774 prepackaged -0.3653
-4.4774 prepare -0.3618
-4.4774 prerelease -0.3655
-4.4774 prescriptions -0.3650
-3.8754 present -0.3536
-4.4774 presentation -0.3642
-3.6992 presented -0.3447
-3.6992 presents -0.3215
-4.4774 president -0.3553
-4.4774 press -0.3656
-4.0002 pressing -0.3559
-4.4774 pressure -0.3506
-3.6324 pretty -0.3641
-4.4774 prevent -0.3652
-4.4774 prevents -0.3649
-3.4361 previous -0.3620
-3.8754 previously -0.3500
-4.1764 primary -0.3641
-3.4775 principles -0.3147
-4.4774 print -0.3654
-4.4774 printer -0.3478
-4.1764 printing -0.3653
-4.0002 prior -0.3266
-4.4774 priorities -0.3629
-4.1764 privacy -0.3571
-4.4774 privately -0.3655
-4.4774 probabilistic -0.3655
-3.3313 probabilities -0.3018
-2.9723 probability -0.2996
-3.8754 probable -0.3647
-4.4774 probably -0.3392
-3.2222 problem -0.3027
-3.5744 problems -0.3239
-4.4774 procedural -0.3655
-3.5744 procedure -0.2921
-4.4774 procedures -0.3647
-4.0002 proceeded -0.3540
-3.0003 process -0.2845
-4.1764 processed -0.3506
-4.0002 processes -0.3298
-3.1157 processing -0.2485
-4.4774 processor -0.3656
-3.7785 processors -0.3288
-4.0002 produce -0.3571
-3.8754 produced -0.3177
-4.1764 producing -0.3572
-3.7785 product -0.3200
-4.1764 production -0.3653
-3.6992 productivity -0.3364
-4.0002 products -0.3461
-4.1764 professional -0.3654
-4.4774 professionals -0.3542
-4.4774 proficient -0.3647
-4.1764 profile -0.3614
-4.4774 profiling -0.3623
-4.1764 profit -0.3559
-4.4774 profitable -0.3506
-2.8864 program -0.2913
-4.1764 programmed -0.3508
-3.7785 programmer -0.3474
-4.0002 programmers -0.3626
-3.6324 programming -0.3477
-3.3983 programs -0.3140
-4.1764 progresses -0.3506
-2.7615 project -0.2388
-3.5231 projects -0.3420
-4.4774 proliferate -0.3656
-4.4774 proliferation -0.3553
-4.4774 promote -0.3655
-4.1764 promoting -0.3652
-4.4774 promotions -0.3506
-4.1764 pronounced -0.3624
-3.7785 pronunciation -0.3069
-4.4774 pronunciations -0.3641
-4.4774 proof -0.3553
-4.4774 propagation -0.3651
-3.6324 proper -0.3630
-3.5231 properly -0.3647
-4.1764 properties -0.3400
-4.4774 property -0.3654
-4.4774 proposals -0.3559
-3.4775 proprietary -0.2951
-4.4774 prospective -0.3656
-4.1764 protect -0.3391
-4.4774 protected -0.3654
-3.7785 protection -0.3458
-4.4774 protects -0.3623
-4.0002 protocol -0.3406
-4.0002 protocols -0.3587
-4.4774 prove -0.3573
-4.4774 proved -0.3542
-3.3983 provide -0.3102
-3.6324 provided -0.2971
-3.3983 provides -0.3275
-3.6324 providing -0.3568
-4.4774 pruning -0.3559
-4.4774 public -0.3654
-4.4774 publications -0.3542
-3.7785 publicly -0.3651
-3.8754 published -0.3630
-4.4774 pulls -0.3652
-4.4774 pulp -0.3559
-4.4774 punctuation -0.3655
-4.0002 punishment -0.3545
-4.4774 purchase -0.3392
-4.1764 purchased -0.3630
-4.4774 pure -0.3656
-4.1764 purely -0.3655
-4.4774 purports -0.3542
-3.6992 purpose -0.3369
-4.1764 purposes -0.3342
-4.4774 push -0.3478
-3.6992 put -0.3618
-4.4774 python -0.3655
-4.0002 q -0.3645
-4.4774 qt -0.3628
-4.0002 quality -0.3401
-4.4774 quantification -0.3553
-4.1764 quantify -0.3386
-4.1764 quantities -0.3553
-4.4774 queries -0.3638
-3.7785 question -0.3474
-4.4774 questions -0.3506
-4.0002 quickly -0.3359
-4.4774 quiet -0.3478
-3.7785 quit -0.3391
-4.4774 quite -0.3656
-4.4774 quoted -0.3506
-4.0002 r -0.3478
-4.4774 races -0.3559
-4.4774 racism -0.3478
-3.7785 radio -0.3477
-4.4774 raid -0.3638
-4.4774 railroads -0.3506
-4.4774 rain-forested -0.3656
-4.0002 rainforest -0.3553
-4.4774 rainforests -0.3654
-4.1764 raise -0.3552
-4.4774 ram -0.3638
-4.4774 ran -0.3656
-4.4774 ranch -0.3656
-4.0002 random -0.3650
-4.4774 randomly -0.3655
-4.0002 range -0.3553
-4.4774 ranges -0.3478
-4.4774 rapid -0.3506
-4.4774 rapidly -0.3655
-4.4774 rash -0.3497
-3.3313 rate -0.2756
-4.1764 rates -0.3632
-3.6324 rather -0.3502
-4.4774 raven -0.3506
-4.4774 raw -0.3650
-3.8754 re -0.3631
-4.0002 re-encoding -0.3392
-3.8754 reached -0.3496
-4.4774 reaching -0.3654
-4.4774 react -0.3497
-4.4774 reaction -0.3542
-4.4774 reacts -0.3651
-3.6992 read -0.3385
-4.1764 reading -0.3644
-4.1764 reads -0.3541
-3.6992 ready -0.2977
-3.6324 real -0.3615
-4.0002 realistic -0.3650
-4.4774 really -0.3656
-3.3313 reason -0.3400
-4.1764 reasoning -0.3322
-3.8754 reasons -0.3433
-4.4774 recapitulates -0.3392
-4.1764 receive -0.3573
-3.7785 received -0.3426
-4.0002 receives -0.3572
-4.4774 recently -0.3506
-4.4774 recipe -0.3618
-4.4774 reciprocity -0.3655
-2.6781 recognition -0.2826
-4.1764 recognize -0.3649
-4.4774 recognized -0.3654
-3.2222 recognizer -0.3223
-3.8754 recognizers -0.3505
-3.6992 recognizing -0.3441
-4.0002 recommend -0.3654
-3.5744 recommended -0.3357
-4.4774 recommends -0.3656
-4.0002 record -0.3535
-4.0002 recording -0.3638
-4.1764 recordings -0.3549
-4.1764 records -0.3641
-4.1764 recover -0.3650
-4.4774 recovering -0.3655
-4.4774 recruit -0.3654
-4.4774 recurrence -0.3655
-4.4774 recursively -0.3655
-4.1764 red -0.3623
-4.4774 redesign -0.3392
-4.0002 reduce -0.3392
-4.1764 reduced -0.3639
-4.0002 reducing -0.3652
-4.4774 reduction -0.3647
-4.1764 refactoring -0.3550
-3.8754 refer -0.3542
-4.4774 referenced -0.3478
-3.7785 references -0.3631
-4.4774 referred -0.3542
-4.4774 refers -0.3542
-4.4774 refine -0.3506
-4.4774 reflexes -0.3506
-4.4774 refuses -0.3542
-4.0002 regard -0.3388
-3.7785 regarding -0.3372
-4.4774 regardless -0.3553
-4.4774 regional -0.3656
-4.1764 register -0.3559
-4.0002 registration -0.3475
-4.1764 regular -0.3655
-4.4774 regularly -0.3656
-4.4774 regulation -0.3553
-4.4774 rehouse -0.3506
-3.5231 related -0.3537
-4.1764 relationship -0.3656
-4.4774 relative -0.3542
-4.4774 relativistic -0.3506
-4.4774 relaxed -0.3633
-3.8754 release -0.3376
-4.4774 releases -0.3506
-4.4774 relevant -0.3542
-3.8754 reliability -0.3542
-4.4774 reliable -0.3649
-4.4774 reliably -0.3542
-4.4774 religion -0.3506
-4.4774 rely -0.3638
-4.1764 remain -0.3655
-4.4774 remained -0.3392
-4.1764 remaining -0.3644
-4.4774 remains -0.3656
-4.4774 remarkable -0.3506
-4.4774 remedies -0.3624
-4.1764 remote -0.3654
-4.4774 remotely -0.3478
-4.4774 remove -0.3656
-4.4774 removes -0.3656
-4.4774 renaming -0.3573
-4.4774 rent -0.3618
-4.4774 repeated -0.3656
-4.4774 repeatedly -0.3656
-4.4774 repeating -0.3392
-4.4774 repetitions -0.3641
-4.1764 replaced -0.3633
-4.4774 replacement -0.3478
-4.4774 replaces -0.3392
-4.4774 replicating -0.3634
-3.6324 report -0.3355
-4.4774 reported -0.3392
-4.0002 repository -0.3434
-3.4775 represent -0.3292
-3.4361 representation -0.3141
-4.1764 represented -0.3368
-4.4774 representing -0.3392
-4.0002 represents -0.3293
-4.4774 reproduce -0.3573
-4.4774 reputation -0.3478
-4.1764 request -0.3541
-4.0002 requested -0.3426
-4.4774 requests -0.3618
-3.6324 require -0.3343
-3.3313 required -0.3233
-4.4774 requirement -0.3478
-3.2470 requirements -0.3236
-3.4775 requires -0.3484
-3.1987 research -0.3209
-4.4774 researchers -0.3647
-4.4774 researching -0.3655
-4.4774 reserve -0.3392
-4.1764 reside -0.3630
-4.4774 residents -0.3478
-4.1764 resizing -0.3562
-4.0002 resolve -0.3620
-3.8754 resource -0.3627
-3.5231 resources -0.3018
-3.4361 resp-generator -0.3181
-4.0002 respect -0.3541
-4.4774 respectively -0.3478
-3.3014 response -0.2975
-3.2222 responses -0.2879
-4.4774 responsibility -0.3506
-4.4774 responsible -0.3656
-4.4774 restart -0.3392
-4.4774 restarted -0.3655
-4.4774 restarting -0.3392
-4.4774 restored -0.3506
-4.4774 restrict -0.3392
-4.0002 restricted -0.3542
-4.4774 restrictive -0.3656
-3.6324 result -0.3301
-4.4774 resultant -0.3652
-4.4774 resulted -0.3595
-4.1764 resulting -0.3574
-3.2222 results -0.3035
-4.0002 resume -0.3640
-4.4774 retrieve -0.3654
-3.8754 retrieved -0.3641
-4.1764 return -0.3523
-4.4774 returned -0.3641
-4.4774 returns -0.3629
-3.8754 reusability -0.3508
-4.4774 reusable -0.3478
-3.6992 revaluator -0.3472
-4.1764 reveal -0.3391
-4.4774 revealed -0.3542
-4.4774 reverberation -0.3655
-4.4774 reverse -0.3655
-3.7785 review -0.3167
-4.1764 reviewed -0.3474
-4.4774 reviews -0.3654
-4.4774 revolution -0.3655
-4.4774 reward -0.3506
-4.4774 rewarding -0.3656
-4.4774 richest -0.3656
-4.4774 rife -0.3639
-4.0002 right -0.3373
-3.5744 rights -0.3369
-4.4774 rises -0.3656
-4.4774 roadblocks -0.3553
-3.6992 robot -0.3599
-4.4774 robotics -0.3559
-3.8754 robust -0.3373
-3.7785 robustness -0.3370
-4.0002 role -0.3561
-4.4774 roles -0.3478
-4.4774 rollover -0.3506
-3.7785 room -0.3347
-4.4774 rooms -0.3618
-4.4774 root -0.3654
-4.1764 ros -0.3569
-4.4774 rose -0.3542
-4.4774 roulette -0.3624
-3.6992 round -0.3553
-4.4774 row -0.3553
-4.4774 royalty -0.3631
-4.1764 rudimentary -0.3502
-3.8754 rule -0.3417
-3.6992 rules -0.3413
-3.1157 run -0.3007
-3.5744 running -0.3372
-4.4774 runs -0.3650
-4.4774 runtime -0.3656
-2.7140 s -0.3078
-4.4774 sacrificing -0.3649
-4.4774 safe -0.3653
-3.8754 said -0.3513
-4.4774 sake -0.3478
-3.8754 sales -0.3558
-4.1764 salmon -0.3655
-2.9460 same -0.3217
-4.1764 sample -0.3645
-4.1764 sampled -0.3557
-4.4774 samples -0.3654
-4.1764 satisfaction -0.3443
-4.4774 saturation -0.3506
-4.0002 save -0.3504
-3.6992 say -0.3354
-4.4774 saying -0.3392
-4.4774 says -0.3542
-3.8754 scalability -0.3607
-4.1764 scalable -0.3406
-3.8754 scale -0.3395
-4.4774 scales -0.3506
-4.4774 scanner -0.3656
-4.4774 scanning -0.3392
-3.8754 schedule -0.3280
-4.1764 scheduled -0.3655
-4.1764 scheme -0.3532
-4.4774 scholarships -0.3649
-4.4774 school -0.3642
-4.4774 schooled -0.3623
-4.4774 sci -0.3650
-4.4774 science -0.3559
-4.4774 scientific -0.3656
-4.4774 scope -0.3553
-4.0002 score -0.3355
-4.4774 scouting -0.3618
-3.7785 scratch -0.3444
-4.4774 screen -0.3478
-4.1764 scripting -0.3655
-4.1764 scripts -0.3636
-3.5744 search -0.3577
-4.4774 searched -0.3506
-4.4774 season -0.3655
-4.4774 seatmate -0.3478
-3.4775 second -0.3626
-4.1764 seconds -0.3572
-4.4774 secret -0.3655
-3.3014 section -0.3045
-4.0002 sections -0.3520
-4.0002 secure -0.3649
-3.0972 security -0.3321
-3.6324 see -0.3136
-4.1764 seeing -0.3392
-4.4774 seek -0.3573
-4.4774 seekers -0.3655
-4.4774 seeks -0.3542
-4.1764 seemed -0.3542
-4.1764 seems -0.3542
-3.1350 seen -0.3400
-4.4774 segment -0.3655
-4.4774 segmentation -0.3653
-3.6324 select -0.3237
-3.6992 selected -0.3499
-3.7785 selecting -0.3561
-4.1764 selection -0.3477
-4.4774 selector -0.3618
-3.6324 self -0.3534
-4.4774 sell -0.3392
-4.4774 semantic -0.3656
-4.4774 semi -0.3631
-3.8754 send -0.3565
-4.4774 sending -0.3655
-4.4774 senior -0.3649
-3.4775 sense -0.3365
-3.3983 sentence -0.2956
-2.9212 sentences -0.2462
-4.4774 sentences-file -0.3478
-4.0002 separate -0.3643
-4.4774 separately -0.3641
-3.3313 sequence -0.2987
-4.1764 sequences -0.3462
-4.4774 sequentially -0.3478
-3.8754 serial -0.3476
-4.4774 serially -0.3656
-4.1764 series -0.3390
-4.4774 serious -0.3648
-3.2470 server -0.2770
-3.6992 servers -0.3193
-3.8754 service -0.3626
-3.6992 services -0.3180
-4.4774 servicing -0.3655
-4.4774 serving -0.3478
-4.1764 session -0.3496
-3.0151 set -0.3169
-4.1764 sets -0.3513
-4.0002 settings -0.3578
-4.4774 settled -0.3633
-4.1764 setup -0.3223
-4.1764 seven -0.3649
-3.1350 several -0.3498
-4.4774 shadow -0.3656
-3.3014 shall -0.3596
-4.4774 shapes -0.3559
-3.8754 share -0.3645
-4.4774 shared -0.3656
-4.4774 shares -0.3647
-4.4774 sharing -0.3559
-4.4774 sheet -0.3650
-4.0002 shelf -0.3649
-4.4774 shipment -0.3656
-4.4774 ships -0.3639
-4.1764 short -0.3631
-4.4774 shortages -0.3553
-2.9723 should -0.3566
-4.4774 shoulders -0.3553
-3.7785 show -0.3560
-4.4774 showing -0.3652
-3.7785 shown -0.3562
-3.8754 shows -0.3392
-4.4774 shrinking -0.3559
-4.4774 shrinks -0.3639
-4.1764 side -0.3531
-2.8647 signal -0.3081
-4.1764 signals -0.3472
-4.1764 signature -0.3569
-4.4774 significant -0.3655
-4.4774 significantly -0.3655
-4.4774 silence -0.3647
-4.4774 silly -0.3478
-3.8754 silver -0.3635
-3.5744 similar -0.3180
-3.3014 similarly -0.3218
-3.6992 simple -0.3526
-4.1764 simpler -0.3558
-4.1764 simplest -0.3552
-4.4774 simplicity -0.3656
-4.4774 simplification -0.3656
-3.8754 simplified -0.3278
-4.4774 simplify -0.3392
-4.4774 simplistic -0.3654
-4.4774 simulated -0.3656
-3.6324 simulation -0.3470
-4.4774 simultaneously -0.3656
-3.5231 since -0.3239
-4.4774 sincerity -0.3478
-3.7785 single -0.3640
-4.4774 sip -0.3478
-4.4774 sister -0.3559
-3.7785 site -0.3247
-4.0002 sites -0.3406
-4.4774 situations -0.3559
-4.4774 six -0.3654
-3.2733 size -0.3030
-4.4774 sized -0.3638
-4.1764 sizes -0.3371
-4.4774 sketches -0.3641
-4.4774 skills -0.3559
-3.8754 slightly -0.3645
-4.4774 slipped -0.3573
-4.4774 slow -0.3542
-3.2470 small -0.3325
-3.4775 smaller -0.3010
-4.1764 smallest -0.3654
-4.4774 smarter -0.3654
-3.6992 smith -0.3654
-3.0461 so -0.3223
-4.4774 social -0.3656
-4.1764 society -0.3359
-4.4774 sockeye -0.3654
-2.7699 software -0.2862
-4.0002 solution -0.3288
-3.8754 solutions -0.3587
-3.7785 solve -0.3268
-4.1764 solved -0.3643
-4.4774 solves -0.3392
-2.7962 some -0.3314
-4.1764 somehow -0.3497
-4.1764 someone -0.3655
-3.8754 something -0.3611
-3.8754 sometimes -0.3484
-4.4774 somewhat -0.3553
-4.4774 song -0.3656
-4.4774 sons -0.3656
-4.4774 soon -0.3618
-4.4774 sop -0.3655
-3.7785 sophisticated -0.3527
-4.4774 sorts -0.3655
-4.4774 soul -0.3478
-3.6992 sound -0.3424
-3.7785 sounds -0.3309
-3.1552 source -0.3194
-3.6992 sources -0.3548
-3.8754 space -0.3241
-3.6992 spaghetti -0.3508
-4.4774 spare -0.3656
-3.7785 speak -0.3381
-3.0461 speaker -0.3258
-3.7785 speakers -0.3212
-3.6992 speaking -0.3374
-4.1764 special -0.3654
-4.4774 specialize -0.3595
-4.1764 species -0.3652
-3.4775 specific -0.3537
-4.0002 specifically -0.3504
-3.7785 specifications -0.3193
-3.5744 specified -0.3372
-4.1764 specifies -0.3572
-3.8754 specify -0.3298
-4.4774 specifying -0.3640
-4.0002 spectral -0.3648
-3.8754 spectrum -0.3431
-2.3043 speech -0.2721
-4.4774 speeches -0.3650
-4.0002 speed -0.3542
-4.4774 spelling -0.3654
-4.0002 spend -0.3649
-4.1764 spent -0.3649
-3.0625 sphinx -0.2971
-4.1764 sphinxbase -0.3477
-4.1764 spite -0.3553
-3.8754 spoken -0.3645
-4.1764 spontaneous -0.3634
-4.4774 spot -0.3652
-4.4774 stability -0.3559
-3.8754 stack -0.3635
-4.1764 staff -0.3646
-3.4775 stage -0.3406
-3.4775 stages -0.3348
-4.1764 stake -0.3470
-4.1764 stakeholders -0.3377
-4.4774 stances -0.3542
-4.4774 stand -0.3638
-3.6324 standard -0.3435
-4.4774 standardize -0.3392
-3.6992 standards -0.3257
-4.1764 standing -0.3591
-4.4774 stands -0.3618
-3.4361 start -0.3329
-4.0002 started -0.3550
-4.4774 starting -0.3650
-3.6992 starts -0.3306
-4.1764 startup -0.3497
-3.0303 state -0.2818
-3.8754 statement -0.3650
-3.6992 statements -0.3227
-3.5744 states -0.3315
-3.4775 static -0.3641
-4.4774 stating -0.3392
-4.1764 station -0.3654
-4.4774 statistic -0.3656
-4.1764 statistical -0.3624
-3.6992 statistics -0.3337
-3.7785 status -0.3401
-4.4774 stay -0.3595
-4.4774 stayed -0.3656
-4.4774 staying -0.3654
-4.1764 steam -0.3656
-4.4774 steepest -0.3497
-3.4775 step -0.2880
-3.6324 steps -0.3192
-3.4775 still -0.3579
-4.4774 stochastic -0.3655
-4.4774 stock -0.3656
-4.4774 stockholders -0.3506
-3.7785 stop -0.3490
-4.4774 stopped -0.3655
-4.4774 stops -0.3655
-4.1764 storage -0.3406
-4.0002 stored -0.3590
-4.4774 storehouse -0.3553
-4.1764 story -0.3550
-4.4774 straight -0.3656
-4.4774 straightforward -0.3624
-3.8754 strategies -0.3433
-3.6324 strategy -0.3417
-4.1764 streak -0.3462
-4.1764 streaks -0.3645
-4.1764 streaming -0.3550
-4.4774 streamline -0.3653
-4.4774 streams -0.3647
-4.4774 strength -0.3542
-4.4774 stretching -0.3392
-4.4774 strict -0.3656
-4.4774 strictest -0.3656
-4.4774 strictly -0.3655
-4.4774 stride -0.3655
-4.4774 strides -0.3595
-4.4774 strike -0.3652
-3.4361 string -0.3382
-4.4774 strings -0.3553
-4.4774 strong -0.3654
-4.4774 strongly -0.3655
-3.5231 structure -0.3018
-3.8754 students -0.3444
-4.4774 studies -0.3595
-3.7785 studio -0.3138
-4.0002 study -0.3647
-4.4774 studying -0.3506
-4.4774 stuff -0.3653
-4.4774 stumps -0.3656
-3.8754 style -0.3321
-4.1764 subconscious -0.3655
-3.8754 subject -0.3436
-4.1764 submission -0.3322
-4.1764 submit -0.3653
-4.1764 submits -0.3374
-4.4774 submitted -0.3651
-4.4774 subsequently -0.3506
-3.8754 subset -0.3553
-4.4774 substantial -0.3656
-4.1764 substitute -0.3392
-4.4774 substituted -0.3646
-4.4774 substitutions -0.3656
-4.4774 subsystems -0.3553
-4.4774 succeeded -0.3633
-4.1764 succeeding -0.3654
-3.8754 success -0.3369
-3.7785 successful -0.3653
-3.8754 successfully -0.3457
-2.9334 such -0.3621
-4.1764 suffer -0.3558
-4.4774 suffered -0.3641
-4.4774 suffering -0.3641
-4.4774 suffers -0.3656
-4.0002 sufficiency -0.3301
-4.1764 sufficient -0.3542
-4.4774 suggest -0.3392
-4.1764 suggested -0.3633
-4.4774 suggestions -0.3618
-4.0002 suggests -0.3505
-4.4774 suitable -0.3654
-4.4774 suited -0.3542
-4.1764 summaries -0.3628
-3.5231 summary -0.3204
-4.4774 superior -0.3542
-4.4774 supplementary -0.3655
-4.0002 supplied -0.3572
-3.3983 support -0.3339
-4.0002 supported -0.3573
-4.0002 supporting -0.3387
-3.8754 supports -0.3580
-4.4774 suppose -0.3628
-4.1764 supposed -0.3542
-4.4774 suppressing -0.3653
-3.4361 sure -0.3181
-4.4774 surely -0.3506
-4.4774 sustain -0.3656
-4.0002 sustainable -0.3655
-4.4774 swapping -0.3506
-4.4774 swing -0.3542
-4.1764 switches -0.3459
-4.4774 switching -0.3497
-4.0002 syllables -0.3456
-4.4774 syllabus -0.3655
-4.0002 symbol -0.3324
-3.7785 symbols -0.3217
-4.4774 synchronization -0.3553
-4.4774 synonymous -0.3639
-4.4774 syntactical -0.3655
-4.4774 syntax -0.3559
-4.4774 synthesized -0.3656
-2.3014 system -0.1948
-4.4774 system,comma -0.3559
-2.6514 systems -0.2555
-3.2733 t -0.2968
-3.3983 table -0.3463
-4.1764 tables -0.3655
-4.4774 tails -0.3478
-3.6992 take -0.3298
-4.1764 taken -0.3536
-3.5744 takes -0.3551
-4.0002 taking -0.3629
-4.0002 talk -0.3536
-4.1764 talking -0.3475
-4.4774 tape -0.3656
-4.4774 tapers -0.3655
-4.4774 target -0.3656
-4.1764 targeting -0.3653
-3.3014 task -0.2921
-3.7785 tasks -0.3475
-4.1764 taught -0.3503
-4.4774 taxi -0.3656
-3.0461 team -0.3111
-4.4774 teammates -0.3506
-3.6992 teams -0.3406
-4.4774 teamwork -0.3587
-4.4774 technically -0.3656
-3.1157 technique -0.3062
-3.6992 techniques -0.3582
-4.1764 technological -0.3495
-2.8864 technology -0.2548
-4.4774 tedious -0.3655
-3.5744 telephone -0.3504
-4.1764 telephony -0.3505
-3.8754 tell -0.3639
-4.4774 temperature -0.3506
-3.8754 ten -0.3652
-4.4774 tend -0.3542
-4.4774 tended -0.3542
-4.4774 tends -0.3542
-4.4774 tens -0.3553
-4.4774 tenth -0.3656
-4.1764 terabytes -0.3553
-4.1764 term -0.3656
-4.4774 terminal -0.3646
-4.4774 terminate -0.3392
-3.8754 terms -0.3553
-3.0461 test -0.2965
-3.0461 tested -0.2751
-4.0002 tester -0.3633
-3.4775 testers -0.3125
-2.4997 testing -0.2003
-3.2733 tests -0.2819
-2.8440 text -0.3208
-4.4774 texts -0.3641
-3.0461 than -0.2910
-4.4774 thank -0.3654
-2.1896 that -0.2064
-1.2290 the -0.1978
-2.9334 their -0.3586
-3.0795 them -0.2899
-4.0002 themselves -0.3429
-3.1987 then -0.3112
-4.4774 theoretically -0.3645
-4.4774 theory -0.3655
-2.8977 there -0.3078
-4.4774 thereafter -0.3497
-3.3635 therefore -0.3414
-2.8241 these -0.3569
-3.8754 thesis -0.3432
-2.8864 they -0.3584
-4.4774 thing -0.3633
-3.7785 things -0.3456
-3.6992 think -0.3189
-4.1764 thinking -0.3550
-3.6324 third -0.3627
-2.1214 this -0.2481
-4.4774 thorough -0.3642
-4.0002 thoroughly -0.3266
-3.3014 those -0.3605
-4.1764 though -0.3384
-3.8754 thought -0.3449
-4.4774 thousand -0.3646
-3.6324 thousands -0.3553
-4.4774 threads -0.3653
-4.4774 threats -0.3629
-3.4775 three -0.3633
-4.4774 thrive -0.3638
-3.3014 through -0.2966
-3.6324 thus -0.3502
-4.4774 timber -0.3478
-2.7962 time -0.2119
-4.4774 timed -0.3639
-3.3983 times -0.3080
-4.4774 timing -0.3656
-4.4774 tip -0.3553
-1.5870 to -0.2048
-3.6992 today -0.3368
-3.6324 together -0.3083
-4.0002 tokenize -0.3392
-4.0002 tokenizer -0.3650
-4.1764 told -0.3650
-4.4774 tolerant -0.3656
-4.4774 too -0.3654
-3.8754 took -0.3339
-2.7292 tool -0.2487
-3.7785 toolkit -0.3309
-3.0003 tools -0.2783
-4.4774 tooth -0.3655
-4.4774 topics -0.3618
-4.4774 topologies -0.3656
-3.7785 total -0.3532
-4.4774 touch -0.3656
-4.1764 toward -0.3651
-3.4775 towards -0.3213
-4.1764 toxic -0.3656
-4.4774 traced -0.3542
-4.4774 track -0.3478
-3.8754 tract -0.3503
-4.4774 tractors -0.3559
-4.4774 tracts -0.3559
-4.4774 trading -0.3646
-4.4774 trailer -0.3559
-4.4774 trailers -0.3478
-3.5231 train -0.3168
-4.0002 trained -0.3540
-3.1764 training -0.3308
-4.4774 traits -0.3628
-4.4774 trans -0.3655
-3.5744 transaction -0.3442
-4.1764 transactions -0.3477
-3.8754 transcript -0.3449
-4.1764 transfer -0.3322
-4.4774 transferred -0.3654
-4.0002 transform -0.3392
-3.8754 transition -0.3553
-4.1764 transitions -0.3476
-4.1764 translated -0.3650
-4.4774 transmission -0.3656
-4.4774 trash -0.3478
-4.4774 traversal -0.3506
-4.4774 treated -0.3656
-4.4774 treaty -0.3478
-3.7785 tree -0.3584
-3.7785 trees -0.3301
-4.4774 trend -0.3631
-4.4774 trials -0.3651
-4.1764 tribe -0.3490
-4.4774 tricks -0.3628
-4.1764 tried -0.3542
-4.4774 tries -0.3542
-4.1764 triggered -0.3573
-4.0002 trigram -0.3646
-3.8754 trip -0.3637
-4.0002 triphone -0.3633
-4.1764 triphones -0.3406
-4.4774 troublesome -0.3559
-3.5744 trucking -0.3528
-4.1764 true -0.3650
-4.4774 truly -0.3656
-4.4774 trunk -0.3656
-3.6992 try -0.3539
-3.8754 trying -0.3542
-4.4774 tuned -0.3652
-4.4774 turn -0.3478
-4.1764 tutorial -0.3648
-4.4774 tutorials -0.3638
-4.4774 tweaking -0.3623
-4.4774 twisted -0.3654
-4.1764 twitter -0.3655
-3.0625 two -0.3470
-3.3313 txt -0.3079
-3.2733 type -0.3441
-3.7785 types -0.3279
-3.3983 typical -0.3619
-3.5231 typically -0.3403
-4.4774 typing -0.3655
-4.1764 typos -0.3377
-4.4774 u -0.3478
-4.4774 unable -0.3542
-4.4774 uncertainty -0.3478
-4.4774 uncover -0.3650
-3.5744 under -0.3561
-4.4774 underline -0.3645
-4.4774 underlying -0.3653
-4.4774 underneath -0.3656
-3.5744 understand -0.3266
-4.4774 understandability -0.3559
-4.0002 understandable -0.3466
-4.4774 understandably -0.3506
-3.3983 understanding -0.2879
-4.4774 understood -0.3652
-4.4774 undo -0.3628
-4.0002 unethical -0.3539
-4.4774 unfair -0.3656
-4.4774 unfeasible -0.3652
-4.4774 unfortunately -0.3506
-4.4774 unified -0.3654
-4.0002 uniform -0.3470
-4.4774 uniformity -0.3506
-4.4774 unique -0.3656
-4.4774 unit -0.3478
-4.1764 units -0.3629
-3.8754 universal -0.3647
-3.5231 university -0.3207
-4.1764 unless -0.3639
-4.1764 unlike -0.3573
-4.4774 unlucky -0.3645
-4.4774 unrealistic -0.3624
-4.0002 until -0.3386
-4.4774 unto -0.3655
-4.1764 unusual -0.3652
-2.9861 up -0.2354
-4.4774 upbringing -0.3478
-4.1764 update -0.3472
-3.6324 updated -0.3198
-4.0002 updates -0.3458
-4.1764 updating -0.3437
-4.4774 upgrades -0.3478
-4.4774 uphold -0.3655
-4.0002 upon -0.3622
-3.8754 us -0.3289
-4.1764 usability -0.3644
-4.4774 usable -0.3656
-3.8754 usage -0.3526
-2.7292 use -0.2447
-2.5090 used -0.2286
-3.7785 useful -0.3524
-4.4774 useless -0.3654
-2.7292 user -0.2504
-3.2222 users -0.2941
-3.3635 uses -0.3183
-2.6324 using -0.2958
-4.4774 usual -0.3656
-3.5744 usually -0.3648
-3.5744 utilities -0.3133
-4.4774 utilize -0.3650
-4.4774 utilized -0.3542
-4.4774 utilizing -0.3642
-4.4774 utmost -0.3656
-3.6324 utterance -0.3375
-4.1764 utterances -0.3501
-4.4774 valid -0.3656
-4.4774 validate -0.3392
-4.4774 validates -0.3392
-4.1764 validation -0.3506
-4.0002 valuable -0.3507
-3.3014 value -0.3223
-3.2470 values -0.3064
-3.3983 variability -0.2990
-3.8754 variable -0.3652
-4.4774 variance -0.3656
-4.4774 variation -0.3559
-3.6324 variations -0.3435
-4.4774 varies -0.3655
-4.0002 variety -0.3553
-3.6992 various -0.3646
-4.4774 vary -0.3655
-4.4774 vast -0.3656
-3.6992 vb -0.3398
-3.6992 vector -0.3308
-3.6992 vectors -0.3290
-3.7785 verification -0.3486
-4.0002 verified -0.3628
-4.1764 verify -0.3392
-4.1764 verifying -0.3643
-4.4774 versatile -0.3652
-3.5231 version -0.3251
-3.7785 versions -0.3347
-3.0625 very -0.3617
-4.4774 vi -0.3655
-3.6992 via -0.3565
-4.4774 vice -0.3656
-4.4774 vicissitudes -0.3553
-4.4774 video -0.3656
-3.7785 view -0.3177
-4.4774 viewing -0.3653
-3.7785 virtual -0.3643
-4.4774 virus -0.3655
-4.1764 viruses -0.3406
-4.1764 visible -0.3475
-4.4774 vision -0.3655
-4.4774 vista -0.3559
-4.0002 visual -0.3655
-4.4774 visualized -0.3595
-4.4774 visualizing -0.3655
-4.4774 vital -0.3654
-4.1764 vocab -0.3592
-3.5231 vocabularies -0.3262
-3.1350 vocabulary -0.2967
-3.6324 vocal -0.3654
-3.5744 voice -0.3492
-4.4774 void -0.3651
-4.1764 volume -0.3655
-4.4774 volunteering -0.3647
-4.4774 von -0.3656
-4.4774 vowel -0.3656
-4.4774 vowels -0.3656
-4.4774 vs -0.3478
-4.4774 vulnerabilities -0.3656
-3.1350 w -0.3565
-4.4774 waiting -0.3618
-4.4774 walking -0.3653
-4.1764 walkthroughs -0.3477
-3.5744 wall -0.3404
-3.8754 want -0.3535
-4.4774 war -0.3655
-4.4774 warping -0.3506
-4.4774 warrantee -0.3478
-2.6386 was -0.2823
-4.1764 waste -0.3415
-4.4774 watching -0.3392
-4.1764 waveform -0.3650
-4.1764 waves -0.3589
-3.5744 way -0.2747
-4.4774 ways -0.3478
-2.7962 we -0.3369
-4.1764 wealth -0.3492
-4.4774 weather -0.3559
-3.0625 web -0.3450
-4.4774 websites -0.3652
-4.4774 wee -0.3655
-3.4361 week -0.3522
-3.8754 weekly -0.3651
-4.1764 weeks -0.3544
-4.4774 weight -0.3652
-4.1764 welcome -0.3443
-2.9723 well -0.2837
-4.4774 went -0.3542
-2.9723 were -0.3460
-4.4774 west -0.3656
-3.1764 what -0.3054
-4.4774 whatever -0.3478
-2.8340 when -0.3157
-3.8754 whenever -0.3297
-2.9861 where -0.3188
-4.4774 whether -0.3623
-2.9589 which -0.2834
-3.2733 while -0.3529
-4.4774 whistler -0.3653
-3.3635 white -0.3461
-3.5744 who -0.3578
-3.7785 whole -0.3627
-4.1764 whose -0.3655
-3.7785 why -0.3382
-4.1764 wide -0.3655
-4.4774 widespread -0.3656
-4.1764 wiki -0.3650
-4.4774 wildlife -0.3478
-4.4774 wildly -0.3651
-2.4862 will -0.3170
-4.4774 willing -0.3497
-4.4774 willows -0.3506
-4.0002 win -0.3553
-3.3983 window -0.3022
-4.4774 windowing -0.3559
-2.6324 windows -0.2680
-4.1764 winning -0.3644
-3.8754 wins -0.3403
-4.1764 wire -0.3654
-3.7785 wish -0.3532
-2.4130 with -0.2856
-3.3313 within -0.3270
-3.3983 without -0.3277
-4.4774 witnessed -0.3655
-4.4774 wives -0.3478
-3.8754 wk -0.3655
-4.4774 woman -0.3647
-4.4774 women -0.3655
-4.4774 wood -0.3656
-2.8147 word -0.2958
-2.6514 words -0.2481
-3.1552 work -0.3009
-3.7785 working -0.3618
-3.8754 workload -0.3545
-4.4774 workloads -0.3542
-3.6992 works -0.3213
-4.4774 workshop -0.3656
-4.4774 workspaces -0.3629
-4.4774 workstation -0.3497
-4.1764 workstations -0.3653
-3.6324 world -0.3455
-4.4774 worth -0.3623
-2.8864 would -0.3553
-4.4774 wrapping -0.3655
-4.0002 write -0.3455
-3.6992 writing -0.3462
-3.2470 written -0.3317
-4.1764 wrong -0.3655
-4.4774 www -0.3478
-4.1764 x -0.3503
-4.4774 xss -0.3638
-4.1764 yeah -0.3506
-4.4774 year -0.3559
-3.5744 years -0.3103
-4.4774 yes -0.3623
-4.4774 yet -0.3478
-2.8864 you -0.3230
-4.4774 young -0.3655
-3.3014 your -0.3641
-3.6992 zero -0.3318
-4.4774 zoo -0.3651
-3.5744 |pipe-symbol -0.3627
-4.4774 − -0.3650
-4.4774 ∗ -0.3651

\2-grams:
-0.2448 !exclamation-point </s> 0.2310
-1.1827 "quote )right-paren -0.0250
-0.9908 "quote ,comma -0.1076
-1.8359 "quote .dot -0.0744
-2.1369 "quote Hank 0.0113
-2.1369 "quote Kroll -0.1057
-1.8359 "quote Learn 0.2315
-1.8359 "quote a -0.1311
-2.1369 "quote advocating 0.0113
-2.1369 "quote among -0.0428
-1.8359 "quote and -0.1099
-2.1369 "quote apply 0.0113
-2.1369 "quote attributes -0.0428
-1.8359 "quote button 0.0731
-2.1369 "quote cold 0.2315
-1.8359 "quote collect 0.1564
-2.1369 "quote doubling 0.2315
-2.1369 "quote for -0.1313
-2.1369 "quote free -0.0675
-2.1369 "quote front -0.1057
-2.1369 "quote gamblers -0.0428
-2.1369 "quote hot 0.0113
-2.1369 "quote i -0.1263
-2.1369 "quote incoming 0.0731
-2.1369 "quote is -0.1336
-1.8359 "quote make -0.0797
-2.1369 "quote no -0.1222
-2.1369 "quote occurring 0.2315
-2.1369 "quote of -0.1338
-1.6598 "quote or -0.1246
-2.1369 "quote out -0.1173
-1.8359 "quote streaks 0.2315
-2.1369 "quote such -0.1270
-2.1369 "quote take -0.0908
-2.1369 "quote the -0.1337
-2.1369 "quote theoretically 0.2315
-2.1369 "quote unlucky 0.2315
-1.8359 "quote use -0.1252
-2.1369 "quote with -0.0939
-2.1369 "quote would -0.1080
-1.2918 "quote |pipe-symbol 0.1650
-1.0230 %percent .period -0.0374
-0.5459 %percent 2 -0.0973
-1.0230 %percent deduction 0.2315
-1.0230 %percent loop -0.0973
-2.0007 'single-quote </s> 0.2310
-1.6997 'single-quote measures -0.0428
-0.2764 'single-quote s 0.1847
-2.0007 'single-quote t -0.1184
-1.3240 (left-paren )right-paren -0.1321
-1.3240 (left-paren 907 0.2315
-1.3240 (left-paren and -0.1337
-1.3240 (left-paren artificial 0.2315
-1.3240 (left-paren as -0.1330
-1.3240 (left-paren dog 0.2315
-1.3240 (left-paren for -0.1322
-1.3240 (left-paren hence 0.2315
-1.3240 (left-paren instances 0.2315
-1.3240 (left-paren king 0.2315
-1.3240 (left-paren red 0.0113
-1.3240 (left-paren silver -0.0675
-0.2448 (left-paren− 1 -0.1034
-2.3347 )right-paren )right-paren -0.0919
-1.0337 )right-paren ,comma -0.0248
-2.3347 )right-paren -hyphen -0.1327
-0.8033 )right-paren .dot 0.0646
-2.3347 )right-paren .period -0.0374
-2.3347 )right-paren 283 0.2315
-2.3347 )right-paren :colon -0.1319
-1.3347 )right-paren </s> 0.2310
-2.3347 )right-paren algorithm -0.1189
-1.4316 )right-paren and -0.0991
-2.3347 )right-paren as -0.1296
-2.0337 )right-paren can 0.0523
-2.3347 )right-paren contributing 0.2315
-2.3347 )right-paren cos 0.2315
-2.3347 )right-paren encouraged 0.2315
-2.3347 )right-paren environment -0.1202
-2.3347 )right-paren estimated -0.0428
-2.3347 )right-paren evolved -0.0428
-2.3347 )right-paren for -0.1029
-2.3347 )right-paren function -0.1222
-2.3347 )right-paren has -0.1300
-2.0337 )right-paren in -0.0924
-2.3347 )right-paren integrated 0.0113
-2.3347 )right-paren interference 0.2315
-1.8576 )right-paren is -0.0952
-2.3347 )right-paren keeps 0.2315
-2.3347 )right-paren lines -0.0428
-2.3347 )right-paren method -0.1021
-2.3347 )right-paren musical 0.2315
-2.0337 )right-paren or -0.1294
-2.3347 )right-paren orientation -0.0428
-1.8576 )right-paren p -0.1136
-2.3347 )right-paren participating 0.2315
-2.3347 )right-paren represents -0.0428
-2.0337 )right-paren salmon 0.2315
-2.3347 )right-paren services -0.0908
-2.3347 )right-paren since -0.0754
-2.0337 )right-paren the -0.1330
-2.3347 )right-paren to -0.1328
-2.3347 )right-paren typically -0.1057
-2.0337 )right-paren using -0.0442
-2.3347 )right-paren was -0.1305
-2.3347 )right-paren web -0.1046
-2.3347 )right-paren where -0.1261
-2.3347 )right-paren which -0.1266
-0.9438 *asterisk PocketSphinx -0.1243
-0.4667 *asterisk algorithm -0.0867
-0.9438 *asterisk decoding -0.1232
-0.5459 +plus-symbol or -0.1317
-0.5459 +plus-symbol to -0.1332
-2.9515 ,comma "quote -0.1245
-2.9515 ,comma )right-paren -0.0550
-1.4672 ,comma </s> 0.2310
-3.2526 ,comma CA 0.2315
-3.2526 ,comma Compiz 0.0731
-3.2526 ,comma Debian 0.2315
-3.2526 ,comma Evan 0.2315
-3.2526 ,comma Fedora 0.2315
-3.2526 ,comma File 0.2315
-3.2526 ,comma FreeBSD 0.2315
-3.2526 ,comma FreeSpeech 0.2315
-3.2526 ,comma Gb 0.0113
-3.2526 ,comma German 0.2315
-3.2526 ,comma Hank 0.0113
-2.9515 ,comma Henry -0.0468
-2.9515 ,comma I -0.1040
-3.2526 ,comma Jacob 0.2315
-3.2526 ,comma Josh 0.2315
-2.7755 ,comma Linux -0.1199
-3.2526 ,comma Mageia 0.2315
-3.2526 ,comma McLeod 0.1197
-3.2526 ,comma Missouri 0.2315
-3.2526 ,comma NJ 0.2315
-3.2526 ,comma Ohio 0.0113
-3.2526 ,comma OpenSuse 0.0113
-3.2526 ,comma PCLinuxOS 0.2315
-2.5536 ,comma PocketSphinx -0.0118
-3.2526 ,comma RCA 0.2315
-3.2526 ,comma Sean 0.2315
-2.7755 ,comma Sharon 0.2315
-3.2526 ,comma Slackware 0.2315
-3.2526 ,comma UNIX 0.2315
-3.2526 ,comma USA 0.2315
-3.2526 ,comma Virginia 0.2315
-3.2526 ,comma Wolfgang 0.2315
-1.8908 ,comma a -0.0870
-3.2526 ,comma according 0.2315
-2.9515 ,comma acoustic 0.0350
-3.2526 ,comma adaptive 0.2315
-3.2526 ,comma administrator 0.0113
-3.2526 ,comma adopting 0.2315
-3.2526 ,comma age -0.0675
-3.2526 ,comma all -0.1279
-3.2526 ,comma almost -0.0675
-2.7755 ,comma also -0.0919
-2.7755 ,comma among 0.0731
-2.9515 ,comma an -0.1209
-1.3181 ,comma and -0.0414
-3.2526 ,comma apple 0.2315
-3.2526 ,comma around -0.1147
-3.2526 ,comma articulatory -0.0428
-1.9101 ,comma as 0.0082
-3.2526 ,comma attached 0.0113
-2.9515 ,comma automotive 0.0731
-3.2526 ,comma available -0.1270
-2.9515 ,comma b -0.0428
-2.9515 ,comma being -0.0867
-3.2526 ,comma berg 0.2315
-3.2526 ,comma berries 0.2315
-2.9515 ,comma bill -0.0219
-3.2526 ,comma blank 0.2315
-3.2526 ,comma both -0.0998
-3.2526 ,comma boundary 0.1076
-3.2526 ,comma branch 0.2315
-3.2526 ,comma breathing 0.2315
-3.2526 ,comma browse 0.2315
-3.2526 ,comma browsed 0.2315
-3.2526 ,comma buffer -0.0816
-1.8546 ,comma but 0.1544
-3.2526 ,comma by -0.1324
-3.2526 ,comma cables 0.0113
-3.2526 ,comma call 0.0248
-3.2526 ,comma caller -0.0428
-3.2526 ,comma calls -0.0675
-2.9515 ,comma can 0.0549
-3.2526 ,comma canals 0.2315
-3.2526 ,comma certain -0.1021
-3.2526 ,comma character -0.0428
-3.2526 ,comma checked -0.0428
-3.2526 ,comma children -0.0428
-3.2526 ,comma cited 0.2315
-3.2526 ,comma click -0.0908
-3.2526 ,comma code -0.1272
-3.2526 ,comma codename 0.0113
-3.2526 ,comma collect 0.1564
-3.2526 ,comma color 0.0113
-3.2526 ,comma combined 0.0113
-3.2526 ,comma commentaries 0.2315
-3.2526 ,comma competitive 0.0113
-3.2526 ,comma component -0.0754
-3.2526 ,comma composing 0.2315
-3.2526 ,comma compound 0.2315
-3.2526 ,comma conditions 0.0731
-3.2526 ,comma conferencing 0.2315
-2.9515 ,comma continuous -0.0219
-3.2526 ,comma convert -0.0675
-3.2526 ,comma converts 0.0113
-3.2526 ,comma copyrighted 0.2315
-3.2526 ,comma coupled 0.2315
-2.7755 ,comma creating -0.0730
-3.2526 ,comma cross 0.2315
-3.2526 ,comma customers -0.0428
-3.2526 ,comma databases -0.0675
-3.2526 ,comma decode -0.0219
-3.2526 ,comma decoding -0.1232
-3.2526 ,comma deleted 0.2315
-3.2526 ,comma delta -0.0754
-3.2526 ,comma depending 0.2315
-3.2526 ,comma described -0.1021
-3.2526 ,comma design -0.0428
-3.2526 ,comma developed -0.0998
-3.2526 ,comma development -0.1241
-3.2526 ,comma die 0.2315
-3.2526 ,comma different -0.1277
-3.2526 ,comma digestion 0.2315
-3.2526 ,comma dimming 0.2315
-3.2526 ,comma discovery -0.0428
-3.2526 ,comma divide 0.2315
-2.9515 ,comma do -0.0768
-3.2526 ,comma documentation -0.1110
-3.2526 ,comma due 0.1720
-2.9515 ,comma during 0.1102
-3.2526 ,comma duty 0.2315
-3.2526 ,comma e 0.0113
-2.6505 ,comma each -0.0741
-3.2526 ,comma ease -0.0428
-3.2526 ,comma efficiency -0.0428
-3.2526 ,comma efficient -0.0816
-3.2526 ,comma embedded -0.1021
-3.2526 ,comma employees 0.0113
-3.2526 ,comma epistemology 0.2315
-2.9515 ,comma especially 0.2315
-2.9515 ,comma etc 0.2315
-3.2526 ,comma ethics -0.1237
-2.9515 ,comma even -0.0793
-3.2526 ,comma eventually -0.0428
-3.2526 ,comma executive -0.0675
-3.2526 ,comma failing 0.2315
-3.2526 ,comma fewer 0.2315
-3.2526 ,comma fields 0.2315
-3.2526 ,comma figure -0.1154
-3.2526 ,comma file -0.1305
-3.2526 ,comma fine 0.2315
-3.2526 ,comma fisherman 0.2315
-3.2526 ,comma followed 0.0113
-2.2112 ,comma for -0.0694
-3.2526 ,comma format -0.0973
-3.2526 ,comma four -0.0908
-3.2526 ,comma free -0.1237
-3.2526 ,comma french 0.2315
-3.2526 ,comma from -0.1317
-3.2526 ,comma g 0.2315
-3.2526 ,comma gamblers -0.0428
-3.2526 ,comma given -0.1121
-3.2526 ,comma goal -0.0219
-3.2526 ,comma greatly -0.0428
-3.2526 ,comma grep 0.2315
-3.2526 ,comma growing 0.2315
-3.2526 ,comma h 0.0113
-2.9515 ,comma has -0.0954
-2.9515 ,comma have -0.1263
-2.7755 ,comma having -0.0570
-3.2526 ,comma healthcare 0.2315
-2.9515 ,comma highlight 0.2315
-3.2526 ,comma hold 0.0113
-2.4744 ,comma however 0.1835
-3.2526 ,comma human -0.1087
-2.3495 ,comma i -0.0396
-3.2526 ,comma identifying -0.0428
-2.2112 ,comma if 0.0302
-3.2526 ,comma impacting 0.2315
-2.3495 ,comma in 0.0006
-3.2526 ,comma inc 0.2315
-3.2526 ,comma included -0.1184
-2.6505 ,comma including 0.1297
-2.9515 ,comma insert 0.0113
-3.2526 ,comma inspections 0.0113
-3.2526 ,comma instead 0.0473
-3.2526 ,comma international 0.0113
-2.5536 ,comma is -0.1138
-1.5994 ,comma it 0.0447
-3.2526 ,comma its -0.1270
-3.2526 ,comma j -0.0428
-3.2526 ,comma k 0.0113
-3.2526 ,comma keyboard -0.0908
-3.2526 ,comma l 0.2315
-3.2526 ,comma learner 0.2315
-3.2526 ,comma learning -0.1193
-3.2526 ,comma leaving 0.0113
-3.2526 ,comma let -0.0816
-3.2526 ,comma let's -0.0428
-3.2526 ,comma lighter 0.2315
-3.2526 ,comma like -0.1057
-3.2526 ,comma listening -0.1087
-3.2526 ,comma loop -0.0570
-3.2526 ,comma loops 0.0113
-3.2526 ,comma lowering 0.2315
-3.2526 ,comma m 0.1451
-3.2526 ,comma machine -0.0908
-2.9515 ,comma mainframes -0.0867
-2.9515 ,comma make -0.1078
-3.2526 ,comma making -0.0973
-3.2526 ,comma management -0.1087
-2.9515 ,comma managing 0.1823
-3.2526 ,comma manners 0.2315
-2.9515 ,comma many -0.1110
-3.2526 ,comma meaning 0.0113
-3.2526 ,comma method -0.1021
-3.2526 ,comma money -0.0675
-2.7755 ,comma more -0.1040
-2.5536 ,comma most -0.0917
-3.2526 ,comma multimedia 0.2315
-3.2526 ,comma musician 0.2315
-2.9515 ,comma my -0.1225
-2.2983 ,comma n 0.0113
-3.2526 ,comma naming 0.2315
-3.2526 ,comma negative 0.2315
-3.2526 ,comma network -0.1173
-2.9515 ,comma new -0.1237
-3.2526 ,comma no -0.1222
-3.2526 ,comma non 0.2315
-3.2526 ,comma none 0.2315
-3.2526 ,comma nonetheless 0.2315
-2.7755 ,comma not -0.1184
-3.2526 ,comma now -0.1057
-3.2526 ,comma observations -0.0908
-3.2526 ,comma of -0.1338
-3.2526 ,comma oh 0.2315
-2.9515 ,comma on -0.0387
-2.4075 ,comma one -0.0617
-2.9515 ,comma only -0.0998
-3.2526 ,comma opacity 0.2315
-2.9515 ,comma open 0.0834
-3.2526 ,comma operations 0.2315
-2.1064 ,comma or -0.0921
-3.2526 ,comma organizations -0.0816
-3.2526 ,comma organized -0.0675
-3.2526 ,comma outlining 0.2315
-3.2526 ,comma outputs -0.0816
-2.5536 ,comma p 0.0353
-3.2526 ,comma page -0.0908
-3.2526 ,comma part 0.2315
-3.2526 ,comma path -0.1110
