This is an ARPA-format language model file, generated by CMU Sphinx
\data\
ngram 1=4093
ngram 2=18910
ngram 3=28196

\1-grams:
-4.5471 <UNK> 0.0000
-3.8482 !exclamation-point -0.3697
-2.6441 "quote -0.2850
-3.7021 %percent -0.3637
-4.2460 &ampersand -0.3847
-2.6837 'single-quote -0.3679
-3.2461 (left-paren -0.3639
-2.2707 )right-paren -0.2127
-3.7689 *asterisk -0.3832
-4.2460 +plus-symbol -0.3726
-1.4637 ,comma -0.1352
-2.2028 -hyphen -0.3226
-4.5471 -hyphen-hyphendash -0.3838
-3.0157 . -0.3697
-3.2047 ...ellipsis -0.3117
-2.5834 .dot -0.3147
-1.3870 .period -0.1498
-2.4537 /slash -0.3558
-2.9561 0 -0.3502
-2.8229 1 -0.3308
-4.5471 1456 -0.3741
-4.5471 18th -0.3850
-2.8570 2 -0.3617
-4.5471 283 -0.3823
-2.9790 3 -0.3419
-3.1669 4 -0.3491
-3.1854 5 -0.3480
-4.5471 50 -0.3850
-3.4010 6 -0.3818
-4.5471 65 -0.3850
-3.4010 7 -0.3727
-3.2249 8 -0.3544
-3.7689 9 -0.3803
-4.5471 907 -0.3827
-2.3539 :colon -0.3062
-3.1854 ;semi-colon -0.3587
-1.4580 </s> -0.3696
-1.4576 <s> -0.0548
-4.0700 =equals-sign -0.3837
-3.1000 ?question-mark -0.3563
-3.8482 @at-symbol -0.3694
-4.2460 A -0.3849
-4.0700 ASCII -0.3697
-4.5471 Alaska -0.3669
-4.5471 Arguments -0.3848
-4.5471 AttrList -0.3845
-4.5471 August -0.3669
-4.5471 CSS -0.3850
-4.5471 Charts -0.3757
-4.5471 Cook -0.3850
-4.5471 Data -0.3849
-4.2460 File -0.3848
-4.5471 Firefox -0.3848
-4.5471 France -0.3669
-4.5471 Frequently -0.3850
-4.2460 Hank -0.3840
-3.1492 Henry -0.3241
-3.4332 I -0.3780
-4.5471 III -0.3669
-4.5471 Inlet -0.3791
-4.5471 Is -0.3850
-4.5471 July -0.3669
-4.5471 June -0.3757
-4.5471 Kitco -0.3669
-4.5471 Kitcosilver -0.3839
-3.5929 Kroll -0.3600
-4.2460 Learn -0.3841
-4.5471 Popen -0.3850
-4.0700 Python -0.3850
-4.0700 Python's -0.3850
-4.5471 SeaMonkey -0.3845
-4.5471 Silver -0.3850
-4.5471 SouthCentral -0.3850
-4.5471 Taleb -0.3850
-4.5471 The -0.3850
-4.5471 True -0.3669
-3.5929 UTF -0.3823
-3.4680 Unicode -0.3842
-4.5471 Used -0.3850
-3.7021 [left-bracket -0.3832
-2.9137 \backslash -0.3761
-3.5472 ]right-bracket -0.3497
-3.2249 _underscore -0.3827
-4.5471 `agrave -0.3848
-1.7296 a -0.2679
-4.5471 aardvark -0.3849
-4.5471 abbreviated -0.3850
-4.5471 abbreviations -0.3757
-4.5471 aberdares -0.3850
-4.0700 ability -0.3741
-3.0558 able -0.3741
-3.3167 about -0.3433
-4.2460 above -0.3823
-4.5471 abrego -0.3850
-4.5471 absent -0.3747
-4.5471 absolutes -0.3757
-4.2460 abstract -0.3681
-4.5471 abundance -0.3747
-4.5471 academic -0.3850
-4.2460 accent -0.3601
-4.0700 acceptable -0.3683
-4.5471 acceptance -0.3669
-3.7689 accepted -0.3499
-3.4680 access -0.3636
-3.8482 accessed -0.3830
-4.5471 accessible -0.3849
-4.5471 accessing -0.3822
-4.5471 accommodate -0.3849
-4.5471 accompany -0.3587
-4.5471 accomplish -0.3841
-4.5471 accomplished -0.3828
-3.3167 according -0.3741
-3.8482 account -0.3464
-4.5471 accounting -0.3699
-4.5471 accumulating -0.3669
-2.9790 accuracy -0.3233
-3.8482 accurate -0.3838
-4.5471 achieve -0.3850
-3.5929 achieved -0.3497
-4.2460 achieving -0.3824
-4.5471 acknowledgements -0.3819
-3.0031 acoustic -0.3776
-4.5471 acoustical -0.3850
-4.2460 acousticresponses -0.3845
-4.0700 acoustics -0.3579
-4.5471 acquired -0.3849
-4.5471 acquisition -0.3747
-4.5471 acronyms -0.3699
-4.2460 across -0.3500
-4.5471 acting -0.3791
-3.8482 action -0.3636
-3.9451 actions -0.3510
-4.5471 active -0.3847
-4.2460 actively -0.3850
-4.0700 activities -0.3510
-4.5471 activity -0.3669
-3.9451 actual -0.3810
-4.2460 actually -0.3850
-4.5471 adamant -0.3757
-3.9451 adapt -0.3633
-4.5471 adaptable -0.3836
-4.5471 adaptation -0.3791
-4.2460 adapted -0.3724
-4.5471 adapting -0.3587
-4.5471 adaptive -0.3849
-4.5471 adapts -0.3835
-4.0700 add -0.3657
-4.0700 added -0.3731
-4.5471 addionally -0.3699
-3.9451 addition -0.3426
-3.6441 additional -0.3845
-3.5058 additionally -0.3426
-4.5471 additions -0.3824
-4.5471 additive -0.3850
-4.0700 address -0.3665
-4.5471 addressed -0.3741
-4.5471 adds -0.3587
-4.5471 addtionally -0.3699
-4.2460 adequate -0.3806
-4.5471 adequately -0.3850
-4.5471 adheres -0.3741
-4.5471 adhering -0.3741
-4.5471 adjust -0.3587
-4.5471 adjusted -0.3850
-4.5471 adjusting -0.3587
-4.5471 adjustment -0.3747
-4.2460 administrator -0.3631
-4.2460 administrators -0.3849
-4.5471 adopt -0.3699
-4.5471 adopted -0.3669
-4.5471 adopting -0.3849
-4.5471 adult -0.3850
-4.2460 adults -0.3669
-4.5471 advance -0.3699
-4.5471 advanced -0.3848
-4.5471 advancements -0.3847
-4.0700 advantage -0.3747
-3.7021 advantages -0.3609
-4.5471 adversely -0.3669
-4.5471 advocate -0.3850
-4.5471 advocated -0.3822
-4.5471 advocates -0.3850
-4.2460 advocating -0.3846
-4.2460 affect -0.3572
-4.5471 affected -0.3828
-4.5471 afford -0.3669
-3.7021 africana -0.3168
-4.5471 afrika -0.3697
-2.9909 after -0.3399
-4.2460 again -0.3669
-3.8482 against -0.3572
-3.8482 age -0.3387
-4.5471 agency -0.3850
-4.5471 ago -0.3669
-4.2460 agrees -0.3725
-4.5471 agroforestry -0.3848
-4.5471 aguirre -0.3839
-4.5471 ahead -0.3669
-4.5471 aid -0.3587
-4.5471 aij -0.3845
-4.0700 aim -0.3561
-4.2460 aimed -0.3741
-4.5471 aircraft -0.3850
-4.2460 al -0.3669
-4.5471 alarmingly -0.3699
-4.5471 alaska -0.3669
-4.5471 album -0.3669
-4.2460 albums -0.3825
-2.8939 algorithm -0.2567
-3.3167 algorithms -0.2980
-4.5471 align -0.3836
-4.5471 aligns -0.3836
-4.2460 alike -0.3601
-2.8939 all -0.2941
-4.5471 allergies -0.3825
-4.0700 allow -0.3587
-4.0700 allowed -0.3574
-3.3167 allows -0.3458
-3.9451 almost -0.3844
-4.5471 alone -0.3830
-3.8482 along -0.3640
-3.9451 alpha -0.3720
-4.2460 alphabet -0.3695
-3.8482 already -0.3787
-2.8570 also -0.3190
-3.9451 alt -0.3822
-3.7689 altair -0.3839
-4.5471 alternate -0.3849
-4.5471 alternative -0.3741
-4.0700 alternatively -0.3699
-4.5471 alternatives -0.3741
-3.4680 although -0.3519
-4.5471 always -0.3841
-3.5058 am -0.3816
-4.5471 ambient -0.3850
-3.5472 among -0.3833
-3.6441 amount -0.3747
-4.5471 amounts -0.3747
-4.5471 amplitude -0.3747
-2.4502 an -0.3701
-3.5472 analysis -0.3417
-4.2460 analyzers -0.3662
-4.5471 ancient -0.3849
-1.6692 and -0.1274
-4.5471 andrea -0.3850
-4.2460 android -0.3667
-4.5471 anger -0.3669
-4.5471 ann -0.3827
-3.3711 another -0.3516
-4.5471 anova -0.3827
-4.5471 answered -0.3699
-4.2460 anthropocentric -0.3653
-3.8482 anti -0.3823
-4.5471 anticipating -0.3849
-4.2460 antivirus -0.3850
-3.1158 any -0.3671
-4.5471 anybody -0.3830
-4.2460 anyone -0.3840
-3.9451 anything -0.3631
-4.2460 anywhere -0.3790
-4.5471 apart -0.3835
-4.5471 api -0.3827
-4.5471 apparatus -0.3757
-4.2460 apparent -0.3848
-4.5471 apparently -0.3812
-4.5471 appeal -0.3669
-4.5471 appear -0.3791
-4.5471 appearing -0.3741
-4.5471 appears -0.3791
-4.5471 appended -0.3741
-4.5471 appendix -0.3769
-4.5471 applauds -0.3850
-4.5471 apple -0.3842
-4.5471 appliance -0.3699
-4.5471 applicable -0.3741
-4.5471 applicants -0.3836
-2.7276 application -0.2683
-3.1322 applications -0.3149
-3.9451 applied -0.3468
-4.0700 applies -0.3657
-4.0700 apply -0.3754
-4.5471 applying -0.3850
-4.5471 appreciated -0.3849
-3.3430 approach -0.2922
-3.3430 approaches -0.3407
-4.2460 appropriate -0.3839
-4.5471 approved -0.3699
-4.0700 approximate -0.3587
-4.2460 approximated -0.3840
-4.5471 approximating -0.3587
-4.2460 approximation -0.3746
-4.2460 arbitrarily -0.3848
-4.5471 arch -0.3843
-4.0700 architecture -0.3597
-2.2333 are -0.2440
-3.7021 area -0.3421
-3.3167 areas -0.3161
-4.5471 aren -0.3842
-3.8482 arguments -0.3693
-4.5471 arise -0.3791
-4.2460 arm -0.3850
-3.4332 around -0.2640
-4.2460 arpa -0.3826
-4.2460 arpabet -0.3695
-4.5471 arrangement -0.3669
-4.5471 arrangements -0.3757
-4.5471 array -0.3747
-4.5471 arrays -0.3699
-4.5471 arrives -0.3741
-4.2460 article -0.3835
-4.2460 articles -0.3833
-4.2460 articulated -0.3818
-4.5471 articulates -0.3836
-4.5471 articulation -0.3850
-4.0700 articulatory -0.3849
-4.5471 artificial -0.3849
-2.1371 as -0.2685
-4.5471 asleep -0.3697
-4.5471 aspects -0.3747
-4.2460 asplund -0.3812
-4.5471 asr -0.3849
-4.5471 assembly -0.3846
-4.5471 assessment -0.3850
-4.2460 assigned -0.3750
-4.5471 assigning -0.3850
-3.4010 assignment -0.3844
-3.6441 assignments -0.3640
-4.5471 assigns -0.3769
-4.2460 assist -0.3791
-3.9451 associated -0.3733
-4.2460 assume -0.3819
-4.2460 assumed -0.3714
-4.5471 assumes -0.3824
-3.7689 assuming -0.3742
-4.5471 assumption -0.3849
-4.5471 assure -0.3850
-4.5471 assures -0.3847
-4.5471 aster -0.3850
-4.5471 asterisk -0.3850
-2.6721 at -0.3378
-4.5471 atal -0.3757
-4.5471 att -0.3669
-4.2460 attached -0.3554
-4.5471 attempt -0.3741
-4.5471 attempting -0.3741
-4.0700 attempts -0.3741
-4.5471 attention -0.3669
-4.5471 attenuated -0.3819
-4.5471 attract -0.3850
-3.8482 attributes -0.3507
-4.2460 audacity -0.3601
-4.5471 audience -0.3669
-2.9561 audio -0.3822
-4.2460 august -0.3811
-4.5471 authentication -0.3699
-4.2460 author -0.3740
-4.5471 authorized -0.3848
-4.0700 automate -0.3586
-3.8482 automated -0.3647
-3.6441 automatic -0.3828
-3.9451 automatically -0.3407
-4.0700 automating -0.3487
-3.9451 automation -0.3591
-4.0700 automotive -0.3601
-4.5471 auxiliary -0.3849
-4.5471 availability -0.3838
-2.9790 available -0.3203
-4.5471 availed -0.3848
-3.9451 average -0.3846
-3.9451 avoid -0.3694
-4.5471 avoiding -0.3849
-4.5471 aware -0.3699
-4.0700 away -0.3445
-4.5471 aziz -0.3850
-3.7689 b -0.3482
-3.6441 back -0.3497
-4.2460 background -0.3848
-4.5471 backups -0.3747
-3.4680 backward -0.3837
-3.8482 bad -0.3594
-4.5471 badillo -0.3850
-4.5471 bahl -0.3757
-4.0700 baker -0.3832
-4.2460 balance -0.3745
-4.5471 balances -0.3836
-4.5471 bandpass -0.3850
-4.5471 bandwidth -0.3850
-4.0700 bank -0.3477
-4.2460 bankrupt -0.3759
-4.2460 bark -0.3745
-4.0700 base -0.3847
-2.9674 based -0.3344
-4.5471 baseline -0.3697
-3.7689 basic -0.3835
-4.5471 basically -0.3850
-3.9451 bass -0.3664
-4.5471 bat -0.3849
-3.8482 batch -0.3577
-4.5471 batteries -0.3836
-4.0700 baum -0.3729
-2.0818 be -0.2744
-4.2460 beam -0.3822
-4.5471 bearer -0.3850
-4.5471 beating -0.3747
-3.9451 became -0.3769
-3.6441 because -0.3429
-3.5058 become -0.3539
-3.7689 becomes -0.3839
-4.2460 becoming -0.3849
-4.5471 bed -0.3669
-4.5471 bedroom -0.3669
-2.9137 been -0.3650
-4.5471 beetles -0.3757
-3.7689 before -0.3419
-4.0700 began -0.3740
-3.5929 begin -0.3516
-4.2460 beginning -0.3740
-4.5471 begins -0.3587
-4.5471 behave -0.3791
-4.5471 behaves -0.3847
-3.7689 behavior -0.3487
-4.5471 behavioral -0.3839
-4.5471 behaviors -0.3757
-3.9451 behind -0.3705
-3.5058 being -0.3518
-4.5471 bell -0.3850
-4.2460 belong -0.3741
-4.5471 below -0.3791
-4.0700 benchmark -0.3754
-4.5471 benchmarks -0.3669
-4.5471 beneficial -0.3741
-3.9451 benefit -0.3769
-4.2460 benefits -0.3742
-4.2460 berg -0.3539
-4.2460 bernstein -0.3699
-4.5471 berries -0.3699
-3.9451 besides -0.3585
-3.3430 best -0.3695
-4.2460 bet -0.3844
-3.7021 beta -0.3812
-3.9451 bets -0.3815
-3.4010 better -0.3377
-4.0700 betting -0.3849
-3.4010 between -0.3568
-4.2460 beyond -0.3582
-4.5471 bi -0.3849
-4.5471 biased -0.3850
-4.5471 bible -0.3741
-4.5471 bibliography -0.3769
-3.9451 big -0.3846
-4.0700 bigger -0.3846
-4.5471 biggest -0.3850
-4.0700 bigram -0.3687
-3.6441 bill -0.3590
-4.5471 bills -0.3846
-3.6441 bin -0.3814
-4.5471 binary -0.3850
-4.5471 biocentric -0.3669
-4.5471 biscuit -0.3850
-3.6441 biscuits -0.3313
-3.7689 bit -0.3813
-4.5471 bj -0.3850
-3.4680 black -0.3597
-4.5471 blank -0.3849
-4.5471 bleeding -0.3823
-4.5471 bliss -0.3669
-4.2460 blocks -0.3686
-4.5471 blow -0.3847
-4.5471 boats -0.3699
-4.0700 boilerpipe -0.3503
-4.0700 book -0.3716
-4.2460 bookrags -0.3669
-4.5471 bookstore -0.3848
-4.2460 boolean -0.3850
-4.5471 boon -0.3741
-4.5471 booting -0.3835
-4.5471 border -0.3850
-3.3430 both -0.3441
-4.5471 bound -0.3741
-4.0700 boundaries -0.3659
-3.9451 boundary -0.3784
-3.1669 box -0.3556
-4.0700 branch -0.3849
-4.2460 branches -0.3790
-4.2460 braude -0.3699
-4.5471 break -0.3835
-4.5471 breaks -0.3669
-4.5471 breathing -0.3699
-4.5471 breech -0.3841
-4.5471 brewing -0.3850
-4.0700 brief -0.3849
-4.5471 briggs -0.3697
-4.5471 bright -0.3849
-4.5471 brightness -0.3699
-4.5471 bring -0.3850
-4.2460 brings -0.3850
-4.5471 british -0.3850
-4.5471 broad -0.3850
-4.5471 broadcast -0.3827
-4.5471 broader -0.3850
-4.5471 broken -0.3850
-4.5471 brother -0.3791
-4.5471 brought -0.3850
-4.5471 browse -0.3741
-4.5471 browsed -0.3757
-3.9451 browser -0.3238
-4.0700 bsd -0.3507
-4.5471 budget -0.3850
-4.5471 budgeted -0.3741
-4.0700 buffer -0.3668
-3.7689 bugs -0.3808
-4.5471 build -0.3769
-3.7689 building -0.3672
-3.9451 built -0.3673
-4.2460 bullard -0.3699
-4.5471 bundled -0.3791
-4.5471 burroughs -0.3699
-3.2047 business -0.3426
-4.5471 businesses -0.3697
-4.5471 busy -0.3812
-2.9561 but -0.2963
-4.0700 button -0.3668
-4.5471 buttons -0.3669
-4.2460 buy -0.3769
-4.5471 buying -0.3587
-3.9451 buzzword -0.3695
-2.2776 by -0.3124
-4.5471 bye -0.3841
-4.0700 byte -0.3849
-4.5471 bytes -0.3835
-3.3711 c -0.3541
-4.2460 ca -0.3510
-4.5471 cabinet -0.3669
-4.5471 cable -0.3741
-4.2460 cables -0.3674
-4.5471 cache -0.3850
-4.0700 calculate -0.3585
-3.8482 calculated -0.3643
-4.2460 calculates -0.3500
-4.5471 calculating -0.3587
-4.5471 calculations -0.3669
-4.5471 california -0.3850
-3.3711 call -0.3623
-3.2461 called -0.3406
-4.0700 caller -0.3850
-4.5471 callhome -0.3697
-3.8482 calls -0.3476
-2.3244 can -0.3237
-4.5471 canals -0.3699
-4.5471 cancer -0.3699
-4.5471 candidate -0.3845
-4.5471 candidates -0.3669
-4.2460 cannot -0.3814
-4.0700 capabilities -0.3476
-4.5471 capability -0.3699
-3.8482 capable -0.3589
-4.2460 capacity -0.3827
-4.5471 captain -0.3699
-4.5471 capture -0.3587
-3.9451 card -0.3510
-4.5471 cards -0.3699
-4.0700 care -0.3776
-4.2460 career -0.3758
-4.0700 careful -0.3737
-3.8482 carefully -0.3824
-3.8482 carnegie -0.3850
-4.5471 carried -0.3833
-4.0700 carrier -0.3827
-4.5471 carriers -0.3669
-4.5471 carry -0.3833
-4.5471 cars -0.3699
-3.3430 case -0.3230
-3.9451 cases -0.3191
-4.5471 castro -0.3850
-4.2460 casual -0.3673
-4.2460 catastrophic -0.3850
-4.5471 catch -0.3669
-4.5471 categorically -0.3846
-4.0700 categories -0.3560
-4.5471 categorization -0.3850
-4.5471 categorize -0.3587
-4.5471 category -0.3850
-4.5471 caters -0.3741
-4.5471 cause -0.3587
-4.5471 caused -0.3828
-4.2460 causes -0.3757
-4.5471 ccs -0.3846
-4.2460 cd -0.3653
-4.2460 cdr -0.3699
-4.5471 ce -0.3699
-3.7021 cell -0.3629
-3.9451 center -0.3789
-4.5471 centers -0.3699
-4.5471 centos -0.3669
-4.2460 central -0.3847
-4.5471 centralized -0.3842
-3.7689 century -0.3224
-3.9451 cepstral -0.3845
-3.8482 cepstrum -0.3552
-4.5471 cer -0.3850
-3.5472 certain -0.3838
-4.5471 certainly -0.3850
-4.5471 certified -0.3828
-4.5471 certify -0.3587
-4.5471 cgi -0.3823
-4.0700 challenge -0.3812
-3.7021 challenges -0.3517
-4.0700 challenging -0.3845
-3.7021 change -0.3497
-3.7021 changed -0.3265
-3.8482 changes -0.3505
-4.2460 channel -0.3699
-4.2460 channels -0.3850
-4.5471 chapman -0.3850
-3.5058 chapter -0.3595
-4.0700 character -0.3601
-4.0700 characteristic -0.3745
-4.0700 characteristics -0.3747
-4.5471 characterized -0.3828
-4.2460 characters -0.3682
-3.9451 charge -0.3561
-4.5471 charters -0.3757
-3.9451 charts -0.3632
-4.5471 chat -0.3850
-4.5471 chcon -0.3697
-4.0700 cheap -0.3757
-4.5471 cheaper -0.3741
-3.7021 check -0.3781
-3.9451 checkbook -0.3850
-4.0700 checked -0.3485
-3.5929 checking -0.3416
-4.2460 checks -0.3585
-4.0700 chicken -0.3532
-4.5471 child -0.3849
-4.5471 childhood -0.3669
-4.0700 children -0.3847
-4.5471 chinook -0.3848
-4.5471 chips -0.3669
-4.5471 choice -0.3812
-3.9451 choose -0.3581
-4.5471 choosing -0.3846
-4.5471 chores -0.3844
-4.0700 chose -0.3741
-3.9451 chosen -0.3846
-4.5471 chris -0.3697
-4.5471 chum -0.3848
-4.5471 chunks -0.3850
-4.5471 church -0.3848
-4.5471 ci -0.3785
-4.5471 ciencia -0.3850
-4.2460 cil -0.3669
-4.2460 circuit -0.3850
-3.9451 circuits -0.3667
-4.5471 circumstances -0.3699
-4.5471 cited -0.3699
-4.5471 citeseer -0.3699
-4.5471 citizens -0.3747
-4.5471 clarified -0.3824
-4.5471 clarify -0.3824
-4.5471 clarity -0.3699
-3.5929 class -0.3606
-3.9451 classes -0.3395
-4.5471 classic -0.3849
-4.5471 classified -0.3819
-4.5471 classify -0.3587
-4.2460 classroom -0.3668
-4.0700 clear -0.3600
-4.5471 cleared -0.3850
-4.2460 clearly -0.3848
-4.5471 cleveland -0.3699
-3.7021 click -0.3526
-4.5471 clicking -0.3587
-4.5471 clicks -0.3669
-4.2460 client -0.3850
-3.7689 clients -0.3583
-4.5471 climb -0.3741
-4.5471 climbing -0.3699
-4.5471 clones -0.3669
-4.0700 close -0.3304
-4.0700 closed -0.3556
-4.5471 clr -0.3827
-4.5471 cluster -0.3669
-3.1322 cmu -0.3487
-3.3711 cmuclmtk -0.3400
-4.2460 cmudict -0.3839
-3.8482 cmusphinx -0.3647
-4.2460 co -0.3823
-4.5471 coast -0.3669
-4.5471 coax -0.3836
-2.9790 code -0.3060
-4.2460 codename -0.3699
-4.5471 codified -0.3791
-4.0700 coding -0.3849
-3.6441 coefficients -0.3265
-4.2460 coffee -0.3663
-4.5471 coho -0.3848
-4.2460 coin -0.3850
-4.5471 cold -0.3841
-4.5471 collaborate -0.3757
-4.5471 collaboration -0.3831
-4.5471 colleagues -0.3757
-3.7021 collect -0.3658
-4.2460 collecting -0.3763
-4.5471 collection -0.3747
-3.7689 colney -0.3756
-4.5471 colons -0.3699
-4.2460 color -0.3850
-3.3430 com -0.3396
-4.2460 combination -0.3635
-4.2460 combined -0.3775
-4.5471 combining -0.3846
-4.0700 combo -0.3838
-4.0700 come -0.3834
-3.9451 comes -0.3825
-4.2460 coming -0.3848
-4.5471 comm -0.3850
-4.2460 comma -0.3823
-3.4010 command -0.3651
-3.5929 commands -0.3181
-4.5471 commas -0.3757
-4.5471 commentaries -0.3699
-3.8482 commercial -0.3827
-4.5471 commit -0.3741
-3.1854 common -0.3495
-4.2460 commonly -0.3836
-4.0700 communicate -0.3720
-4.5471 communicating -0.3836
-3.8482 communication -0.3595
-4.5471 communications -0.3741
-4.5471 communities -0.3741
-3.9451 community -0.3475
-4.5471 compact -0.3848
-3.9451 companies -0.3650
-3.3430 company -0.3053
-4.5471 comparable -0.3741
-4.2460 compare -0.3580
-3.9451 compared -0.3741
-4.5471 compares -0.3842
-4.5471 comparing -0.3843
-4.5471 comparison -0.3836
-4.5471 compatibility -0.3831
-4.0700 compatible -0.3835
-4.5471 compensated -0.3757
-3.9451 compensation -0.3591
-4.2460 competitive -0.3850
-3.8482 compile -0.3556
-3.9451 compiled -0.3713
-4.0700 compiler -0.3850
-4.5471 compilers -0.3669
-4.0700 compiling -0.3587
-4.0700 compiz -0.3783
-4.5471 complementary -0.3841
-4.5471 complements -0.3587
-3.6441 complete -0.3478
-4.0700 completed -0.3518
-4.2460 completely -0.3849
-4.5471 completes -0.3850
-4.0700 completion -0.3561
-3.7021 complex -0.3712
-4.2460 complexity -0.3592
-4.5471 complicated -0.3819
-3.5929 component -0.3651
-3.4680 components -0.3104
-3.8482 composed -0.3828
-4.5471 composing -0.3699
-4.0700 compound -0.3850
-4.5471 comprehensive -0.3850
-4.5471 compress -0.3587
-4.5471 compressing -0.3587
-4.5471 compression -0.3785
-4.5471 comprise -0.3849
-3.7021 comprises -0.3496
-4.5471 comprising -0.3846
-4.5471 compromise -0.3697
-4.5471 compromised -0.3847
-4.2460 computation -0.3561
-3.8482 computational -0.3846
-4.2460 computationally -0.3850
-4.5471 computations -0.3819
-3.5929 compute -0.3412
-3.8482 computed -0.3840
-3.2047 computer -0.3085
-3.8482 computers -0.3377
-4.5471 computes -0.3846
-4.5471 computing -0.3669
-4.5471 conacyt -0.3827
-4.2460 concatenation -0.3589
-4.2460 concept -0.3747
-4.2460 concepts -0.3668
-3.9451 concern -0.3479
-4.5471 concerned -0.3849
-4.0700 concerning -0.3767
-4.2460 concerns -0.3606
-3.8482 conclusion -0.3510
-4.0700 conclusions -0.3477
-4.0700 condition -0.3845
-4.5471 conditional -0.3846
-4.0700 conditions -0.3695
-4.0700 conference -0.3832
-4.5471 conferencing -0.3699
-4.5471 confidentiality -0.3850
-3.8482 configuration -0.3389
-4.2460 configurations -0.3674
-4.5471 configured -0.3850
-4.2460 confirm -0.3846
-4.5471 conflicted -0.3836
-4.5471 conform -0.3741
-4.5471 congo -0.3699
-4.5471 connect -0.3587
-4.5471 connected -0.3669
-3.7689 connecting -0.3850
-4.5471 connections -0.3669
-4.5471 connectivity -0.3850
-3.9451 connects -0.3740
-4.5471 consciously -0.3850
-4.5471 consecutive -0.3850
-4.5471 consejo -0.3850
-4.5471 consequently -0.3699
-4.5471 conservation -0.3847
-3.9451 consider -0.3272
-4.5471 consideration -0.3669
-3.9451 considered -0.3469
-4.2460 considering -0.3824
-4.2460 consist -0.3747
-4.2460 consisted -0.3773
-4.5471 consistencies -0.3791
-4.5471 consistent -0.3836
-4.5471 consists -0.3747
-4.5471 constant -0.3844
-4.0700 constrained -0.3827
-4.2460 constraints -0.3847
-4.2460 construct -0.3581
-4.5471 constructed -0.3835
-4.5471 construction -0.3747
-4.5471 constructor -0.3823
-3.4332 consulting -0.3609
-4.5471 consuming -0.3757
-3.7021 contact -0.3647
-3.5058 contain -0.3479
-4.5471 contained -0.3849
-4.5471 containers -0.3757
-3.2249 containing -0.3445
-3.6441 contains -0.3481
-4.5471 contaminated -0.3848
-3.7021 content -0.3694
-4.5471 contention -0.3824
-4.5471 contents -0.3747
-4.0700 context -0.3662
-3.9451 continue -0.3735
-4.2460 continued -0.3470
-4.5471 continues -0.3850
-3.4680 continuous -0.3493
-4.5471 continuously -0.3812
-4.5471 contract -0.3850
-4.5471 contracted -0.3828
-4.2460 contrast -0.3699
-4.5471 contribute -0.3741
-4.5471 contributes -0.3741
-4.5471 contributing -0.3850
-4.5471 contribution -0.3669
-4.5471 contributions -0.3825
-3.7689 control -0.3598
-4.5471 controlled -0.3828
-4.5471 controversial -0.3849
-4.5471 convenient -0.3812
-4.2460 convention -0.3830
-4.5471 conventions -0.3699
-4.5471 converge -0.3845
-4.2460 convergence -0.3747
-4.5471 conversation -0.3697
-4.2460 conversational -0.3734
-3.7021 conversion -0.3589
-3.8482 convert -0.3550
-4.0700 converted -0.3746
-4.5471 converter -0.3841
-4.5471 converting -0.3587
-4.2460 converts -0.3835
-4.5471 convey -0.3769
-4.5471 cooley -0.3757
-4.5471 coordinate -0.3836
-4.5471 copied -0.3741
-3.8482 copy -0.3821
-4.5471 copyright -0.3850
-4.5471 copyrighted -0.3848
-4.0700 cordless -0.3848
-3.5472 core -0.3746
-4.0700 coreutils -0.3839
-4.5471 corner -0.3741
-4.5471 corners -0.3669
-4.5471 corpora -0.3848
-4.2460 corporate -0.3850
-3.2249 corpus -0.3170
-3.7689 correct -0.3662
-4.5471 corrected -0.3757
-4.5471 correction -0.3669
-3.3711 correctly -0.3479
-4.5471 correlated -0.3848
-4.2460 correspond -0.3741
-3.5929 corresponding -0.3556
-3.8482 corresponds -0.3741
-4.5471 cos -0.3850
-4.5471 cosine -0.3850
-4.0700 cosmetic -0.3755
-3.8482 cost -0.3830
-4.2460 costs -0.3785
-3.3430 could -0.3753
-4.2460 count -0.3849
-4.5471 countries -0.3825
-3.9451 couple -0.3747
-4.5471 coupled -0.3836
-3.8482 course -0.3219
-4.2460 courses -0.3838
-4.2460 covariance -0.3850
-4.5471 cover -0.3769
-3.3430 coverage -0.3463
-4.2460 cpus -0.3827
-4.5471 crashed -0.3849
-3.4332 create -0.3360
-3.1492 created -0.3254
-3.9451 creates -0.3769
-3.4332 creating -0.3479
-3.7021 creation -0.3487
-4.5471 creations -0.3757
-4.2460 creative -0.3850
-4.5471 creativity -0.3836
-4.2460 credential -0.3668
-4.2460 credentials -0.3717
-4.5471 creeds -0.3741
-4.5471 crew -0.3849
-4.2460 crewmen -0.3825
-4.5471 crisis -0.3699
-4.2460 criterion -0.3571
-4.2460 critical -0.3741
-4.0700 cron -0.3820
-4.5471 cropping -0.3847
-4.2460 cross -0.3823
-4.5471 cruel -0.3850
-4.5471 cruzon -0.3785
-4.5471 crying -0.3757
-4.0700 cs -0.3669
-4.5471 csci -0.3823
-4.5471 csplit -0.3697
-4.5471 cube -0.3849
-4.2460 cumbersome -0.3741
-4.5471 cup -0.3747
-4.5471 cure -0.3822
-4.5471 cures -0.3845
-3.5058 current -0.3650
-4.0700 currently -0.3661
-4.5471 curve -0.3836
-3.2461 custom -0.3817
-3.9451 customer -0.3847
-4.0700 customers -0.3549
-4.2460 cut -0.3845
-3.7689 cycle -0.3559
-4.5471 cycled -0.3849
-4.5471 cycles -0.3757
-4.5471 cynicism -0.3850
-2.9451 d -0.3668
-4.5471 daily -0.3850
-3.7021 darpa -0.3800
-4.5471 dat -0.3827
-2.8659 data -0.2976
-4.0700 database -0.3827
-3.9451 databases -0.3655
-4.2460 date -0.3776
-4.0700 dates -0.3696
-4.5471 daunting -0.3849
-4.5471 david -0.3850
-3.5929 day -0.3380
-3.9451 days -0.3409
-4.5471 db -0.3845
-4.5471 dct -0.3827
-4.5471 de -0.3850
-4.2460 dead -0.3850
-4.2460 deal -0.3804
-4.0700 dealing -0.3836
-4.0700 deals -0.3836
-4.5471 debian -0.3850
-4.2460 debts -0.3846
-3.9451 debug -0.3843
-4.0700 debugging -0.3841
-4.2460 decade -0.3592
-3.7689 decades -0.3217
-3.8482 december -0.3834
-4.5471 decent -0.3846
-4.5471 decide -0.3741
-3.7689 decided -0.3741
-4.5471 decision -0.3850
-4.2460 decisions -0.3698
-3.5058 decode -0.3332
-3.5472 decoded -0.3610
-3.5929 decoder -0.3021
-4.2460 decoders -0.3666
-3.1000 decoding -0.3464
-4.5471 decrease -0.3587
-4.0700 decreasing -0.3581
-4.2460 dect -0.3823
-4.5471 deducted -0.3835
-4.5471 deduction -0.3812
-4.5471 deep -0.3849
-4.5471 deeply -0.3697
-3.2461 default -0.3372
-4.5471 defect -0.3669
-4.5471 defends -0.3845
-4.5471 defense -0.3850
-4.5471 define -0.3769
-3.7021 defined -0.3545
-4.5471 defines -0.3849
-4.5471 defining -0.3769
-3.7689 definition -0.3586
-4.5471 definitions -0.3846
-4.2460 degradation -0.3733
-4.5471 degrees -0.3669
-4.5471 delay -0.3669
-4.5471 delayed -0.3850
-4.5471 delays -0.3791
-4.5471 delete -0.3850
-4.5471 deleted -0.3836
-4.5471 deletions -0.3847
-4.5471 delimited -0.3844
-4.5471 delivers -0.3850
-4.0700 dell -0.3850
-3.5929 delta -0.3820
-3.9451 demand -0.3752
-4.5471 demands -0.3697
-4.5471 democratic -0.3850
-4.0700 demonstrate -0.3742
-4.5471 demonstrates -0.3824
-4.5471 dempster -0.3791
-4.5471 denote -0.3850
-4.0700 density -0.3846
-4.2460 department -0.3812
-4.5471 depend -0.3833
-4.5471 dependent -0.3850
-3.8482 depending -0.3833
-3.9451 depends -0.3827
-3.8482 depicted -0.3781
-4.0700 depicts -0.3567
-4.5471 deployment -0.3669
-4.5471 derivations -0.3699
-3.9451 describe -0.3550
-3.5929 described -0.3641
-3.5929 describes -0.3519
-4.5471 describing -0.3587
-3.8482 description -0.3254
-3.4332 design -0.3408
-3.4680 designed -0.3141
-4.5471 designer -0.3699
-4.2460 designing -0.3756
-3.7689 desired -0.3538
-4.5471 desires -0.3850
-4.0700 desk -0.3755
-3.7689 desktop -0.3482
-4.5471 desktops -0.3785
-3.9451 despite -0.3587
-3.9451 detail -0.3393
-3.7021 detailed -0.3716
-4.2460 details -0.3810
-4.5471 detect -0.3850
-3.4680 determine -0.3571
-3.6441 determined -0.3446
-4.5471 determines -0.3847
-4.5471 determining -0.3850
-3.5929 develop -0.3248
-3.2919 developed -0.3133
-3.9451 developer -0.3822
-4.0700 developers -0.3388
-4.2460 developing -0.3753
-2.8312 development -0.2996
-4.0700 device -0.3506
-3.5929 devices -0.3496
-4.5471 df -0.3850
-4.5471 dft -0.3827
-4.5471 diagnostic -0.3849
-3.9451 diagram -0.3181
-4.5471 diagrams -0.3699
-4.5471 dialog -0.3669
-3.4332 dic -0.3208
-4.5471 dictate -0.3843
-3.7689 dictation -0.3593
-3.5058 dictgenerator -0.3358
-3.9451 dictionaries -0.3574
-2.6551 dictionary -0.2294
-3.9451 did -0.3804
-4.5471 die -0.3850
-3.7689 difference -0.3741
-4.5471 differences -0.3791
-2.9239 different -0.3619
-4.2460 differentials -0.3747
-4.5471 differs -0.3835
-3.5929 difficult -0.3546
-4.0700 difficulties -0.3831
-4.0700 digest -0.3696
-4.5471 digestion -0.3699
-4.2460 digit -0.3510
-3.8482 digital -0.3843
-4.5471 digits -0.3812
-4.5471 dilemma -0.3838
-4.5471 dilemmas -0.3757
-4.5471 dimension -0.3785
-4.5471 dimming -0.3699
-4.5471 dir -0.3845
-4.5471 dircolors -0.3697
-3.8482 direct -0.3841
-4.2460 direction -0.3629
-4.5471 directions -0.3757
-3.8482 directly -0.3649
-4.5471 director -0.3747
-4.5471 directory -0.3850
-4.5471 disadvantages -0.3747
-4.5471 disappear -0.3669
-4.5471 disappearance -0.3747
-3.9451 discard -0.3820
-4.2460 discipline -0.3699
-4.5471 disciplines -0.3846
-4.5471 discover -0.3846
-4.5471 discovered -0.3849
-4.0700 discovery -0.3509
-4.2460 discrete -0.3850
-4.2460 discriminate -0.3756
-4.2460 discussed -0.3663
-4.2460 discusses -0.3587
-4.0700 discussion -0.3850
-4.5471 discussions -0.3828
-4.2460 disease -0.3652
-4.5471 diseases -0.3849
-4.5471 dishes -0.3669
-4.5471 disk -0.3757
-4.5471 disks -0.3850
-4.5471 dismantling -0.3850
-3.9451 display -0.3753
-3.7689 displayed -0.3500
-4.5471 disputes -0.3699
-4.5471 distance -0.3850
-4.5471 distinguish -0.3850
-4.0700 distortions -0.3713
-3.6441 distribution -0.3509
-4.2460 distributions -0.3850
-4.2460 distros -0.3733
-4.0700 distrowatch -0.3669
-4.2460 diverse -0.3849
-4.5471 diversity -0.3757
-4.5471 divide -0.3828
-4.5471 divided -0.3791
-4.5471 dll -0.3840
-4.5471 dmp -0.3697
-3.1854 do -0.3495
-4.5471 doctor -0.3791
-3.9451 document -0.3849
-3.4332 documentation -0.3311
-3.5472 documents -0.3776
-3.2919 does -0.3569
-4.5471 dog -0.3827
-3.7689 doing -0.3569
-3.9451 domain -0.3662
-4.5471 domains -0.3669
-4.5471 domestic -0.3850
-4.5471 don -0.3842
-3.4010 done -0.3494
-3.9451 double -0.3848
-4.5471 doubling -0.3847
-3.6441 down -0.3230
-3.7021 download -0.3283
-4.0700 downloaded -0.3835
-4.0700 downloading -0.3727
-4.5471 downloads -0.3846
-4.5471 dpnss -0.3812
-4.5471 drag -0.3850
-4.5471 drastically -0.3850
-4.5471 draw -0.3847
-4.5471 drawback -0.3747
-4.5471 drive -0.3669
-4.2460 driven -0.3828
-4.5471 drivers -0.3669
-4.5471 drives -0.3825
-4.5471 driving -0.3848
-4.5471 du -0.3850
-3.4332 due -0.3554
-4.5471 dumping -0.3850
-4.5471 dumps -0.3831
-4.2460 duo -0.3841
-4.2460 duration -0.3747
-2.8939 during -0.3369
-4.2460 duty -0.3823
-4.5471 dvd -0.3741
-4.5471 dwres -0.3669
-4.0700 dynamic -0.3850
-4.5471 dynamite -0.3757
-4.5471 dysuria -0.3699
-3.5472 e -0.3632
-2.7478 each -0.3285
-4.5471 eager -0.3741
-4.0700 earlier -0.3789
-4.0700 early -0.3789
-4.5471 earn -0.3587
-4.0700 ease -0.3477
-3.7021 easier -0.3381
-3.7689 easily -0.3661
-4.5471 east -0.3850
-4.2460 eastern -0.3844
-4.0700 easy -0.3738
-4.5471 eat -0.3850
-4.5471 ecampus -0.3669
-4.5471 ecarrier -0.3827
-4.5471 eco -0.3823
-4.2460 ecocentric -0.3684
-4.2460 economic -0.3850
-4.0700 economical -0.3677
-4.0700 ecosmiles -0.3599
-4.2460 ecosystem -0.3832
-4.0700 ed -0.3669
-4.5471 edgar -0.3850
-4.2460 edge -0.3833
-4.5471 edges -0.3836
-4.0700 edit -0.3587
-4.2460 edited -0.3634
-4.2460 editing -0.3651
-4.2460 edition -0.3785
-4.5471 editor -0.3836
-3.8482 edu -0.3835
-4.0700 education -0.3510
-3.9451 effect -0.3747
-3.9451 effective -0.3692
-4.2460 effectively -0.3606
-3.6441 effects -0.3564
-3.7689 efficiency -0.3553
-3.7689 efficient -0.3564
-4.2460 efficiently -0.3831
-4.5471 efforts -0.3791
-3.7021 either -0.3578
-4.5471 elaborated -0.3839
-4.5471 elapsed -0.3849
-4.2460 elements -0.3670
-4.5471 eliminates -0.3587
-4.5471 else -0.3850
-4.5471 em -0.3827
-4.0700 email -0.3554
-3.5929 embedded -0.3808
-4.5471 embodying -0.3587
-4.5471 emerged -0.3845
-4.5471 emergencies -0.3699
-3.7689 emission -0.3748
-4.5471 emitting -0.3757
-4.5471 emphasize -0.3824
-4.5471 emphasized -0.3757
-4.2460 employed -0.3679
-4.2460 employees -0.3510
-4.5471 employers -0.3741
-4.5471 employment -0.3850
-4.5471 empty -0.3842
-4.5471 emulate -0.3769
-3.8482 en -0.3660
-4.0700 enable -0.3848
-4.0700 enabled -0.3844
-4.5471 enables -0.3850
-4.2460 encapsulation -0.3821
-4.5471 encode -0.3835
-3.5929 encoding -0.3539
-4.5471 encourage -0.3849
-4.5471 encouraged -0.3836
-4.5471 encouragement -0.3845
-4.5471 encourages -0.3844
-4.5471 encouraging -0.3848
-4.5471 encryption -0.3850
-4.5471 encyclopedia -0.3669
-3.1669 end -0.2948
-4.5471 endanger -0.3587
-4.5471 endangered -0.3850
-4.2460 ends -0.3756
-3.7021 energy -0.3386
-4.2460 engagement -0.3849
-4.2460 engine -0.3849
-4.5471 engineer -0.3699
-4.0700 engineering -0.3518
-4.0700 english -0.3741
-4.0700 enhance -0.3582
-4.5471 enhanced -0.3836
-4.5471 enhancements -0.3757
-4.5471 enjoy -0.3849
-4.5471 enjoyable -0.3850
-3.7021 enough -0.3725
-3.4680 ensure -0.3541
-4.5471 ensured -0.3669
-4.2460 ensures -0.3587
-4.2460 ensuring -0.3740
-4.5471 enter -0.3769
-4.5471 entered -0.3845
-4.5471 entering -0.3846
-3.7689 entire -0.3812
-4.0700 entirely -0.3604
-4.5471 entitlement -0.3823
-4.5471 env -0.3850
-4.0700 envelope -0.3641
-3.2461 environment -0.3177
-2.9909 environmental -0.3533
-4.5471 envissues -0.3839
-4.5471 envissuesethics -0.3835
-4.5471 epistemology -0.3699
-4.5471 epsilon -0.3699
-4.2460 equal -0.3741
-4.5471 equation -0.3831
-4.5471 equidistant -0.3833
-3.8482 equipment -0.3487
-4.5471 equipped -0.3836
-4.5471 equitable -0.3850
-4.5471 equities -0.3846
-4.2460 equivalence -0.3850
-4.5471 er -0.3850
-4.5471 erase -0.3850
-3.3711 error -0.3644
-3.4332 errors -0.3412
-4.5471 escape -0.3849
-4.5471 escorts -0.3812
-4.5471 espeak -0.3850
-4.0700 especially -0.3845
-3.9451 essential -0.3794
-4.5471 essentials -0.3669
-4.2460 established -0.3828
-3.9451 estimate -0.3359
-4.0700 estimated -0.3584
-3.9451 estimates -0.3550
-4.5471 estimating -0.3835
-4.5471 estimator -0.3791
-4.2460 et -0.3850
-4.2460 etc -0.3644
-3.1854 ethical -0.3814
-3.1322 ethics -0.3142
-4.5471 ethnobiology -0.3757
-4.5471 ethnobotanical -0.3848
-4.5471 etymology -0.3747
-4.5471 europe -0.3699
-3.4010 evaluate -0.3366
-3.9451 evaluated -0.3503
-3.7689 evaluating -0.3585
-3.4010 evaluation -0.3445
-4.5471 evan -0.3850
-3.1669 even -0.3395
-4.5471 evening -0.3669
-3.8482 event -0.3386
-4.5471 events -0.3824
-4.5471 eventual -0.3850
-4.0700 eventually -0.3849
-4.5471 ever -0.3669
-3.5929 everett -0.3600
-3.3711 every -0.3782
-4.2460 everyone -0.3801
-4.5471 everything -0.3785
-4.5471 evidence -0.3747
-4.2460 evolution -0.3747
-4.0700 evolved -0.3673
-4.5471 evolving -0.3850
-4.2460 exact -0.3848
-3.8482 exactly -0.3578
-4.5471 examine -0.3843
-4.5471 examiner -0.3831
-4.5471 examining -0.3769
-2.6837 example -0.3091
-4.0700 examples -0.3627
-4.2460 exceed -0.3846
-4.5471 excel -0.3791
-4.5471 exception -0.3785
-4.5471 exchange -0.3850
-4.5471 exciting -0.3849
-4.5471 excuse -0.3785
-4.5471 excused -0.3699
-4.0700 executable -0.3750
-3.3430 execute -0.3046
-3.7689 executed -0.3339
-4.5471 executes -0.3849
-3.9451 executing -0.3587
-3.2249 execution -0.3015
-3.9451 executive -0.3849
-4.5471 exercise -0.3850
-4.5471 exhibit -0.3769
-4.5471 exhibitions -0.3841
-4.5471 exico -0.3812
-3.8482 exist -0.3711
-4.5471 existence -0.3747
-3.3430 existing -0.3780
-4.2460 exit -0.3587
-4.5471 expand -0.3850
-4.5471 expanded -0.3850
-4.2460 expands -0.3756
-3.8482 expectation -0.3640
-4.2460 expectations -0.3826
-3.5472 expected -0.3704
-4.5471 expenses -0.3669
-4.5471 expensive -0.3849
-3.6441 experience -0.3548
-3.7689 experienced -0.3717
-4.5471 experiences -0.3791
-4.5471 experiment -0.3836
-4.5471 experimentation -0.3757
-4.5471 expert -0.3850
-4.5471 expertise -0.3847
-4.2460 explain -0.3823
-4.0700 explained -0.3841
-4.5471 explains -0.3824
-4.5471 exponential -0.3850
-4.5471 exponentially -0.3669
-4.5471 exports -0.3747
-4.2460 express -0.3694
-3.9451 expressed -0.3488
-4.0700 expressions -0.3706
-4.5471 extend -0.3843
-4.5471 extendable -0.3835
-4.0700 extended -0.3850
-4.2460 extension -0.3652
-4.5471 extensions -0.3741
-4.0700 extensive -0.3844
-3.8482 external -0.3835
-4.5471 extra -0.3849
-4.2460 extract -0.3582
-3.8482 extraction -0.3217
-4.5471 extremely -0.3850
-4.5471 extremes -0.3849
-4.5471 eyes -0.3669
-4.2460 f -0.3845
-4.5471 face -0.3747
-3.9451 facebook -0.3687
-4.0700 faced -0.3832
-4.0700 facilitator -0.3847
-3.7689 fact -0.3671
-4.2460 factor -0.3786
-4.5471 factories -0.3791
-3.7689 factors -0.3640
-4.5471 factoryoutletstore -0.3669
-4.5471 failing -0.3741
-4.2460 fails -0.3644
-4.5471 failures -0.3847
-3.8482 fairly -0.3842
-4.5471 faith -0.3791
-4.5471 fallacy -0.3699
-4.5471 falling -0.3850
-4.5471 falloff -0.3747
-4.2460 false -0.3850
-4.5471 familiar -0.3836
-4.5471 families -0.3812
-3.9451 family -0.3460
-4.0700 far -0.3425
-4.2460 farm -0.3742
-4.5471 farms -0.3669
-4.5471 fashion -0.3699
-3.6441 fast -0.3704
-3.9451 faster -0.3319
-4.0700 fastest -0.3841
-4.5471 fate -0.3747
-4.5471 father -0.3842
-4.5471 favorite -0.3850
-4.5471 fb -0.3827
-4.5471 fear -0.3757
-4.0700 feasible -0.3740
-3.2684 feature -0.3657
-3.0848 features -0.3072
-4.5471 february -0.3835
-4.2460 fedora -0.3674
-4.2460 feel -0.3744
-4.5471 feeling -0.3850
-4.5471 feels -0.3741
-4.5471 felt -0.3850
-3.8482 few -0.3843
-4.5471 fewer -0.3850
-4.2460 fft -0.3827
-4.5471 fiber -0.3850
-4.2460 field -0.3686
-3.9451 fields -0.3697
-4.5471 fifty -0.3849
-2.7276 figure -0.3083
-4.5471 figures -0.3850
-2.6076 file -0.2278
-2.7021 files -0.2573
-4.2460 filesbypkg -0.3850
-4.5471 filled -0.3835
-3.7689 filter -0.3665
-4.0700 filtered -0.3664
-4.0700 filters -0.3389
-3.6441 final -0.3841
-3.5472 finally -0.3699
-4.5471 finance -0.3757
-4.5471 financial -0.3849
-3.4332 find -0.3204
-3.7689 finding -0.3484
-4.2460 finds -0.3737
-4.5471 fine -0.3823
-4.5471 finish -0.3846
-4.2460 finished -0.3582
-4.5471 finite -0.3823
-4.5471 fire -0.3850
-4.5471 fires -0.3699
-4.2460 firewall -0.3742
-4.5471 firewood -0.3812
-4.5471 firm -0.3846
-3.0031 first -0.3186
-4.5471 fischer -0.3699
-4.5471 fisherman -0.3699
-4.0700 fishing -0.3650
-4.0700 fit -0.3521
-3.7689 five -0.3619
-4.0700 fix -0.3740
-3.9451 fixed -0.3849
-4.5471 fixing -0.3850
-4.5471 flag -0.3669
-4.5471 fleet -0.3849
-4.0700 flexibility -0.3641
-3.8482 flexible -0.3532
-4.5471 fliers -0.3699
-4.5471 flip -0.3850
-4.5471 flipped -0.3849
-4.5471 floppy -0.3828
-4.5471 flow -0.3849
-3.8482 focus -0.3828
-3.9451 focused -0.3824
-3.9451 focuses -0.3833
-3.2919 folder -0.3137
-4.0700 folders -0.3656
-4.5471 folds -0.3825
-3.7689 follow -0.3494
-4.2460 followed -0.3823
-4.5471 followers -0.3669
-3.0031 following -0.3240
-3.8482 follows -0.3567
-4.5471 food -0.3757
-4.5471 foods -0.3838
-2.0572 for -0.2683
-4.5471 force -0.3812
-4.5471 forecast -0.3835
-4.5471 foreign -0.3847
-4.0700 forest -0.3697
-4.5471 forged -0.3836
-3.8482 form -0.3299
-4.5471 formant -0.3850
-4.5471 formants -0.3812
-3.5058 format -0.3311
-4.5471 formats -0.3699
-4.2460 forms -0.3822
-4.5471 formula -0.3831
-4.2460 formulas -0.3647
-4.5471 fortune -0.3849
-3.9451 forum -0.3656
-3.3167 forward -0.3658
-4.5471 foster -0.3769
-3.3167 found -0.3443
-4.5471 founded -0.3828
-3.7021 four -0.3657
-3.9451 fourier -0.3850
-4.5471 fourth -0.3757
-4.2460 frame -0.3660
-3.9451 frames -0.3562
-3.7021 framework -0.3463
-4.5471 france -0.3757
-4.5471 francisco -0.3850
-3.1322 free -0.3119
-4.5471 freebsd -0.3699
-3.7689 freedom -0.3169
-4.2460 freely -0.3833
-4.5471 freetts -0.3850
-4.5471 french -0.3757
-3.6441 frequencies -0.3605
-4.0700 frequency -0.3818
-4.2460 fresh -0.3790
-4.5471 friendly -0.3587
-2.4366 from -0.2871
-3.6441 front -0.3744
-4.5471 frustrating -0.3741
-4.2460 fsm -0.3813
-3.8482 full -0.3588
-3.9451 fully -0.3820
-4.2460 fun -0.3849
-3.1854 function -0.3253
-3.9451 functional -0.3731
-4.5471 functionality -0.3699
-4.5471 functionally -0.3837
-3.5058 functions -0.3218
-3.9451 fundamental -0.3837
-4.5471 funded -0.3757
-4.5471 funding -0.3699
-4.5471 fungus -0.3699
-3.7021 further -0.3693
-3.3430 furthermore -0.3669
-3.4680 future -0.3552
-4.2460 fxo -0.3850
-3.8482 g -0.3669
-4.0700 gain -0.3667
-3.7689 gambler -0.3821
-4.0700 gambler's -0.3849
-4.0700 gamblers -0.3789
-4.5471 game -0.3791
-4.5471 games -0.3699
-4.5471 gaps -0.3757
-4.5471 garage -0.3669
-4.5471 garc -0.3850
-4.5471 gathered -0.3845
-4.5471 gauging -0.3812
-3.7021 gaussian -0.3749
-4.5471 gave -0.3850
-4.2460 gb -0.3747
-4.5471 geared -0.3849
-4.0700 gender -0.3675
-3.8482 general -0.3669
-4.5471 generalized -0.3840
-4.0700 generally -0.3848
-3.2461 generate -0.3481
-3.3711 generated -0.3557
-3.4680 generatedfiles -0.3845
-4.5471 generatelm -0.3669
-3.4680 generates -0.3330
-3.4010 generating -0.3488
-3.7021 generation -0.3474
-4.0700 generator -0.3841
-4.5471 german -0.3699
-3.5929 get -0.3498
-3.9451 gets -0.3848
-4.5471 getting -0.3850
-4.5471 ghantt -0.3850
-4.2460 gi -0.3841
-4.5471 giants -0.3699
-4.2460 give -0.3500
-3.1492 given -0.3178
-4.0700 gives -0.3498
-4.2460 giving -0.3847
-4.5471 glib -0.3669
-3.9451 gmail -0.3668
-3.7021 gnu -0.3651
-3.7021 go -0.3505
-3.8482 goal -0.3605
-4.0700 goals -0.3653
-4.5471 gobs -0.3747
-4.2460 goes -0.3848
-3.9451 going -0.3723
-4.5471 golden -0.3850
-3.3430 good -0.3584
-3.7689 google -0.3655
-4.5471 gotten -0.3850
-4.5471 gov -0.3835
-4.5471 government -0.3850
-4.5471 gpl -0.3850
-4.5471 gps -0.3850
-4.5471 graciela -0.3850
-4.0700 grade -0.3803
-4.5471 grades -0.3812
-4.5471 gradient -0.3699
-4.2460 grading -0.3696
-4.5471 gradually -0.3850
-4.5471 graduate -0.3697
-3.9451 gram -0.3832
-4.2460 grammar -0.3571
-4.5471 grammars -0.3757
-4.5471 grammatical -0.3757
-4.5471 grammatically -0.3850
-4.2460 grams -0.3583
-4.2460 granted -0.3510
-4.5471 grants -0.3848
-4.2460 graphical -0.3842
-4.5471 graphics -0.3741
-4.5471 grasses -0.3669
-4.5471 grateful -0.3836
-4.5471 gratitude -0.3741
-4.5471 grazing -0.3850
-4.0700 great -0.3850
-4.2460 greater -0.3849
-4.2460 greatest -0.3849
-4.0700 greatly -0.3834
-4.0700 grep -0.3738
-4.5471 grounds -0.3812
-3.5472 group -0.3537
-3.7689 groups -0.3073
-4.2460 grow -0.3803
-4.5471 growing -0.3699
-4.5471 grown -0.3850
-4.2460 grows -0.3690
-3.7689 growth -0.3582
-4.5471 guarantee -0.3824
-4.0700 gui -0.3670
-4.2460 guidance -0.3844
-4.0700 guide -0.3740
-4.5471 guidelines -0.3769
-4.5471 guides -0.3699
-3.9451 h -0.3668
-4.5471 habits -0.3850
-4.5471 hackers -0.3849
-3.4332 had -0.3168
-4.5471 half -0.3747
-4.5471 hamming -0.3849
-4.5471 hamud -0.3699
-4.5471 hanauer -0.3699
-3.4332 hand -0.3470
-4.5471 handheld -0.3849
-4.2460 handing -0.3758
-3.7021 handle -0.3484
-3.9451 handling -0.3395
-4.2460 hands -0.3394
-4.5471 handy -0.3849
-4.2460 happen -0.3841
-4.2460 happy -0.3741
-4.5471 hard -0.3850
-4.5471 harder -0.3669
-3.8482 hardware -0.3496
-4.5471 harm -0.3741
-4.5471 harvest -0.3747
-4.2460 harvesting -0.3651
-4.0700 harvests -0.3757
-2.6959 has -0.3083
-4.0700 hash -0.3850
-4.2460 hassenzahl -0.3694
-4.5471 hat -0.3699
-2.7021 have -0.3102
-3.3167 having -0.3361
-4.2460 he -0.3838
-4.2460 head -0.3728
-4.5471 headless -0.3847
-4.2460 heads -0.3601
-4.0700 health -0.3850
-4.5471 healthcare -0.3699
-4.5471 heart -0.3699
-4.0700 heavily -0.3850
-3.9451 held -0.3666
-4.5471 hello -0.3699
-3.5929 help -0.3335
-3.7689 helped -0.3467
-4.5471 helpful -0.3741
-3.7021 helps -0.3581
-4.5471 hence -0.3587
-4.5471 henry -0.3850
-3.8482 her -0.3842
-4.2460 herbal -0.3696
-3.7689 here -0.3444
-4.5471 hertz -0.3757
-4.5471 hesitate -0.3741
-4.5471 hesitation -0.3836
-4.0700 heuristic -0.3846
-4.5471 hh -0.3849
-3.9451 hi -0.3504
-3.2919 hidden -0.3489
-4.5471 hide -0.3845
-4.5471 hiding -0.3587
-3.5058 high -0.3661
-3.8482 higher -0.3575
-4.2460 highlight -0.3847
-4.5471 highlights -0.3587
-4.5471 hill -0.3823
-3.6441 his -0.3834
-4.2460 historical -0.3850
-4.5471 historically -0.3837
-4.0700 history -0.3476
-4.0700 hit -0.3586
-4.5471 hitting -0.3850
-3.1492 hmm -0.2783
-3.3430 hmms -0.3258
-4.0700 hobby -0.3694
-4.2460 hoboken -0.3699
-4.2460 hold -0.3850
-4.2460 holding -0.3586
-4.0700 home -0.3727
-4.2460 homes -0.3669
-4.2460 hope -0.3818
-4.5471 hopes -0.3824
-4.5471 horowitz -0.3699
-4.5471 hospitals -0.3850
-4.5471 hostid -0.3850
-4.2460 hot -0.3849
-3.9451 hours -0.3460
-4.5471 houseboat -0.3785
-3.0700 how -0.3132
-2.9451 however -0.3384
-4.5471 howto -0.3835
-3.6441 html -0.3682
-3.2249 http -0.3831
-4.5471 https -0.3831
-3.9451 hub -0.3820
-3.2249 huffman -0.3778
-4.5471 huge -0.3850
-3.4680 human -0.3797
-4.5471 humanistic -0.3699
-4.0700 humans -0.3498
-4.2460 hundreds -0.3733
-4.0700 hybrid -0.3837
-4.5471 hyperplasia -0.3699
-4.5471 hypertrophy -0.3757
-4.0700 hyplogfile -0.3845
-4.5471 hypotheses -0.3757
-4.0700 hypothesis -0.3730
-4.5471 hypothesized -0.3828
-2.5343 i -0.3043
-4.5471 iTunes -0.3669
-4.5471 iax -0.3850
-3.7689 ibm -0.3444
-4.5471 icassp -0.3850
-4.5471 iceberg -0.3699
-4.2460 icer -0.3674
-4.5471 icons -0.3757
-4.0700 id -0.3510
-4.5471 ide -0.3827
-4.2460 idea -0.3747
-3.9451 ideals -0.3559
-4.2460 ideas -0.3714
-3.3167 identified -0.3235
-4.0700 identifiers -0.3825
-3.3711 identify -0.3463
-4.0700 identifying -0.3398
-4.0700 ieee -0.3698
-2.7990 if -0.3319
-4.5471 ignored -0.3844
-3.9451 ii -0.3560
-3.9451 iii -0.3689
-4.5471 iis -0.3785
-4.5471 illustrate -0.3587
-3.9451 illustrated -0.3818
-3.7689 illustrates -0.3587
-4.2460 image -0.3554
-4.5471 imagination -0.3697
-4.5471 imbalance -0.3791
-4.5471 immediate -0.3850
-4.5471 immediately -0.3669
-4.5471 immense -0.3849
-4.0700 impact -0.3505
-4.5471 impacting -0.3849
-4.5471 impacts -0.3847
-3.9451 implement -0.3670
-3.7689 implementation -0.3522
-3.5058 implemented -0.3424
-4.5471 implementing -0.3850
-4.5471 importance -0.3699
-3.1158 important -0.3623
-4.2460 importantly -0.3699
-4.5471 imported -0.3845
-4.0700 impossible -0.3700
-3.5929 improve -0.3574
-4.0700 improved -0.3591
-3.8482 improvement -0.3418
-3.6441 improvements -0.3642
-4.2460 improves -0.3843
-4.5471 improving -0.3841
-1.8623 in -0.2232
-4.0700 inc -0.3669
-4.2460 incentives -0.3585
-4.5471 inception -0.3819
-3.4332 include -0.3302
-3.2684 included -0.3610
-3.6441 includes -0.3742
-3.7689 including -0.3577
-3.7689 incoming -0.3827
-4.2460 incomplete -0.3696
-4.5471 inconsistently -0.3849
-4.5471 incontinence -0.3669
-4.5471 incorporated -0.3845
-3.6441 incorrect -0.3643
-4.5471 incorrectly -0.3836
-3.7689 increase -0.3221
-3.7021 increased -0.3410
-3.7021 increases -0.3420
-3.8482 increasing -0.3585
-4.5471 incremental -0.3849
-4.5471 indeed -0.3850
-4.2460 independence -0.3510
-3.7021 independent -0.3616
-4.5471 index -0.3669
-4.5471 indian -0.3757
-4.2460 indicate -0.3669
-3.9451 indicating -0.3559
-3.5058 individual -0.3837
-4.2460 individually -0.3817
-4.2460 individuals -0.3585
-4.5471 induction -0.3849
-4.5471 industrial -0.3850
-4.2460 industries -0.3669
-4.5471 inescapable -0.3669
-4.5471 inexpensive -0.3850
-4.2460 infinite -0.3850
-4.0700 influenced -0.3547
-4.5471 influential -0.3849
-4.0700 info -0.3823
-3.1158 information -0.3279
-3.8482 infrastructure -0.3834
-4.2460 ingredients -0.3654
-4.5471 inhabiting -0.3587
-3.8482 initial -0.3596
-4.2460 initially -0.3699
-4.5471 initiatives -0.3699
-4.5471 injection -0.3699
-4.0700 innovation -0.3699
-3.0420 input -0.2914
-3.3711 inputs -0.2911
-4.5471 insane -0.3850
-4.0700 insert -0.3815
-4.5471 inserted -0.3699
-4.5471 insertions -0.3850
-3.9451 inside -0.3738
-4.5471 insight -0.3747
-4.2460 inspections -0.3601
-3.7021 install -0.3459
-3.8482 installation -0.3441
-4.2460 installations -0.3755
-3.7021 installed -0.3540
-4.2460 installing -0.3587
-4.0700 instance -0.3590
-4.5471 instances -0.3827
-3.6441 instead -0.3395
-4.2460 institute -0.3724
-3.5472 instructions -0.3447
-4.2460 instructor -0.3756
-4.5471 instrument -0.3850
-4.5471 integrate -0.3847
-4.2460 integrated -0.3829
-4.2460 integration -0.3838
-4.2460 integrity -0.3554
-4.2460 intel -0.3849
-4.5471 intelligent -0.3850
-4.5471 intelligible -0.3828
-4.5471 intend -0.3741
-3.9451 intended -0.3583
-4.5471 intensity -0.3791
-4.5471 intensively -0.3850
-4.5471 intention -0.3747
-4.5471 intentionally -0.3850
-4.5471 intentions -0.3741
-4.5471 inter -0.3823
-4.2460 interact -0.3836
-4.5471 interacting -0.3836
-4.2460 interaction -0.3849
-3.5058 interactive -0.3545
-4.5471 interconnected -0.3849
-3.9451 interest -0.3377
-4.5471 interesting -0.3697
-4.2460 interests -0.3672
-3.4332 interface -0.3441
-3.7689 interfaces -0.3656
-4.5471 interference -0.3849
-4.5471 intermediate -0.3850
-4.5471 internal -0.3850
-4.5471 internally -0.3791
-3.9451 international -0.3840
-3.7021 internet -0.3509
-4.5471 interoperability -0.3836
-4.2460 interpret -0.3755
-4.5471 intervene -0.3812
-4.5471 intervention -0.3828
-2.8570 into -0.3401
-4.5471 intranet -0.3669
-4.2460 introduce -0.3840
-3.7021 introduced -0.3660
-4.5471 introduces -0.3850
-4.5471 introducing -0.3850
-3.7689 introduction -0.3467
-4.5471 introductory -0.3850
-4.0700 intuition -0.3756
-4.0700 invariant -0.3568
-4.5471 investment -0.3850
-4.5471 invited -0.3741
-4.0700 involved -0.3778
-4.0700 involves -0.3574
-4.5471 involving -0.3849
-4.2460 io -0.3846
-4.2460 ios -0.3757
-4.2460 ip -0.3752
-1.8270 is -0.2152
-4.0700 isdn -0.3587
-4.2460 isolated -0.3841
-4.5471 isproject -0.3845
-4.2460 issue -0.3661
-3.0558 issues -0.3266
-2.1761 it -0.2598
-4.5471 itchy -0.3850
-4.5471 items -0.3741
-4.5471 iterative -0.3850
-4.5471 iteratively -0.3850
-4.5471 ith -0.3850
-2.9674 its -0.3774
-4.2460 itself -0.3654
-3.8482 j -0.3658
-4.5471 jacob -0.3850
-4.2460 james -0.3850
-4.0700 january -0.3680
-3.2919 jar -0.3824
-3.3167 java -0.3490
-4.5471 jcl -0.3827
-4.5471 jeremy -0.3850
-4.2460 jersey -0.3849
-4.5471 jim -0.3849
-4.5471 jimmy -0.3849
-3.9451 job -0.3843
-3.8482 jobs -0.3597
-4.5471 joe -0.3697
-4.2460 john -0.3850
-4.5471 johnson -0.3699
-4.2460 join -0.3850
-4.5471 joke -0.3833
-4.2460 joseph -0.3850
-4.5471 josh -0.3850
-4.5471 journal -0.3699
-4.2460 journey -0.3843
-4.2460 july -0.3819
-4.5471 junction -0.3849
-4.5471 june -0.3699
-3.4332 just -0.3335
-3.5472 justice -0.3029
-4.5471 justifies -0.3587
-4.5471 justify -0.3843
-3.6441 k -0.3628
-4.2460 kard -0.3825
-4.5471 kasey -0.3850
-4.5471 kb -0.3669
-3.1492 kda -0.3233
-3.9451 keep -0.3580
-4.5471 keeps -0.3850
-4.5471 kempelen -0.3850
-4.2460 kenya -0.3699
-4.5471 kept -0.3848
-3.5929 key -0.3514
-3.7689 keyboard -0.3144
-4.5471 keyboards -0.3699
-2.7990 keyword -0.3165
-2.9674 keywords -0.2818
-3.9451 kikuyu -0.3850
-4.2460 kind -0.3747
-4.5471 king -0.3827
-4.2460 kitcosilver -0.3774
-4.5471 klenk -0.3699
-3.6441 know -0.3614
-4.5471 knowing -0.3587
-4.2460 knowledge -0.3745
-3.4332 known -0.3790
-4.5471 knows -0.3835
-4.2460 kohlberg -0.3842
-4.5471 kth -0.3850
-4.5471 kwords -0.3669
-4.2460 l -0.3669
-4.5471 label -0.3846
-4.5471 labels -0.3757
-4.5471 labor -0.3850
-4.5471 laboratories -0.3697
-4.2460 lack -0.3477
-4.5471 laface -0.3699
-4.5471 laguage -0.3839
-4.0700 land -0.3614
-2.5694 language -0.2934
-3.5058 languages -0.3392
-3.1158 large -0.3578
-4.5471 larger -0.3850
-4.5471 largest -0.3849
-4.2460 lars -0.3850
-3.4332 last -0.3826
-4.2460 lastly -0.3699
-3.7689 late -0.3819
-3.5929 later -0.3826
-3.8482 latest -0.3775
-4.5471 latter -0.3849
-4.5471 launching -0.3757
-4.2460 law -0.3669
-4.5471 laws -0.3669
-3.8482 layer -0.3747
-4.2460 layers -0.3669
-4.5471 lead -0.3741
-4.5471 leaders -0.3757
-4.2460 leaks -0.3757
-3.9451 learn -0.3840
-3.8482 learned -0.3641
-4.5471 learner -0.3697
-3.3167 learning -0.3315
-3.9451 least -0.3836
-4.2460 leaving -0.3842
-4.0700 lechner -0.3847
-4.5471 led -0.3741
-4.2460 left -0.3823
-4.5471 legal -0.3669
-4.2460 legally -0.3665
-4.5471 legislation -0.3791
-3.9451 length -0.3395
-4.2460 lengths -0.3699
-3.7021 less -0.3750
-4.5471 lessons -0.3850
-3.9451 let -0.3835
-4.0700 let's -0.3846
-4.5471 lets -0.3587
-4.5471 letter -0.3835
-3.7021 level -0.3666
-4.0700 levels -0.3727
-3.4010 library -0.3404
-4.2460 license -0.3663
-4.5471 licenses -0.3850
-4.5471 licensing -0.3850
-3.8482 life -0.3811
-4.5471 lifetime -0.3669
-4.5471 light -0.3823
-4.5471 lighter -0.3757
-3.2047 like -0.3577
-3.7689 likelihood -0.3648
-3.6441 likely -0.3660
-4.2460 limit -0.3810
-4.5471 limitation -0.3850
-3.5472 limited -0.3324
-4.2460 limiting -0.3849
-4.0700 limits -0.3744
-3.4010 line -0.3158
-4.0700 linear -0.3846
-3.7689 lines -0.3083
-4.2460 linguist -0.3636
-4.5471 linguistic -0.3844
-4.5471 linguists -0.3791
-4.5471 linked -0.3741
-4.5471 links -0.3669
-2.7342 linux -0.2968
-2.8751 list -0.2842
-4.2460 listed -0.3832
-4.0700 listen -0.3642
-4.5471 listener -0.3669
-3.5929 listening -0.3429
-4.5471 listing -0.3587
-3.9451 lists -0.3580
-4.0700 literal -0.3845
-4.2460 little -0.3829
-3.9451 live -0.3820
-4.2460 living -0.3510
-4.0700 lm -0.3663
-4.5471 lmtool -0.3669
-3.9451 load -0.3673
-4.2460 loaded -0.3845
-4.5471 loads -0.3831
-3.9451 local -0.3850
-4.5471 locally -0.3699
-3.9451 located -0.3776
-3.9451 location -0.3527
-3.8482 locations -0.3478
-4.5471 locators -0.3849
-4.0700 locked -0.3849
-3.5472 log -0.3635
-4.5471 logarithm -0.3850
-4.5471 logarithmic -0.3850
-4.5471 logfile -0.3699
-4.5471 logfiles -0.3845
-4.2460 logged -0.3763
-4.5471 loggers -0.3669
-3.7689 logging -0.3416
-4.2460 logic -0.3755
-4.0700 login -0.3847
-4.5471 logistical -0.3850
-4.5471 logname -0.3697
-4.5471 logs -0.3833
-3.7689 long -0.3812
-4.0700 longer -0.3839
-3.5472 look -0.3593
-3.9451 looking -0.3573
-4.0700 looks -0.3818
-3.7021 loop -0.3772
-3.9451 loops -0.3685
-4.5471 lorin -0.3850
-4.5471 lose -0.3846
-4.5471 loses -0.3822
-4.5471 losing -0.3850
-3.8482 loss -0.3441
-3.7689 losses -0.3504
-4.5471 louchart -0.3850
-4.0700 love -0.3387
-4.5471 loverde -0.3848
-3.9451 low -0.3652
-3.5929 lower -0.3595
-4.5471 lowering -0.3850
-4.0700 lpc -0.3826
-4.5471 lsfs -0.3827
-4.5471 lure -0.3697
-4.2460 luther -0.3818
-3.4680 m -0.3433
-4.5471 mac -0.3848
-4.5471 machiavellian -0.3791
-3.7021 machine -0.3769
-3.8482 machines -0.3846
-4.2460 mad -0.3510
-3.4332 made -0.3165
-4.5471 mageia -0.3699
-4.5471 magnification -0.3699
-4.5471 mail -0.3836
-2.9239 main -0.3778
-3.6441 mainframe -0.3536
-3.4332 mainframes -0.3358
-4.5471 mainly -0.3850
-4.2460 maintain -0.3587
-4.5471 maintained -0.3791
-4.2460 maintaining -0.3835
-3.6441 major -0.3844
-4.2460 majority -0.3669
-3.0700 make -0.3405
-4.5471 maker -0.3850
-4.0700 makes -0.3766
-3.7021 making -0.3462
-4.5471 males -0.3850
-4.5471 man -0.3842
-4.5471 manage -0.3741
-3.7689 managed -0.3655
-3.5472 management -0.3318
-3.8482 manager -0.3783
-3.2461 managing -0.3843
-4.5471 mandarin -0.3669
-4.5471 manipulate -0.3587
-4.5471 manipulating -0.3587
-4.2460 manner -0.3747
-4.5471 manners -0.3699
-3.9451 manually -0.3668
-4.2460 manuals -0.3672
-4.5471 manufacture -0.3747
-4.2460 manufacturer -0.3833
-4.2460 manufacturers -0.3631
-4.2460 manufactures -0.3847
-4.5471 manufacturing -0.3785
-3.1322 many -0.3737
-4.5471 map -0.3849
-4.5471 mapped -0.3850
-4.2460 mapping -0.3585
-4.5471 marginal -0.3850
-4.2460 market -0.3850
-4.5471 marketing -0.3699
-3.3711 markov -0.3831
-4.5471 marks -0.3846
-4.5471 markup -0.3841
-3.5472 martingale -0.3434
-4.5471 mass -0.3850
-3.9451 master -0.3832
-4.2460 match -0.3849
-4.0700 matches -0.3819
-4.5471 material -0.3785
-4.5471 materials -0.3669
-4.5471 mathematical -0.3850
-3.8482 matrix -0.3673
-4.2460 matter -0.3470
-4.5471 mature -0.3757
-4.2460 max -0.3846
-3.9451 maximization -0.3845
-4.0700 maximize -0.3587
-4.5471 maximizes -0.3587
-3.8482 maximum -0.3687
-3.2047 may -0.3770
-3.5929 mcleod -0.3698
-4.5471 mdh -0.3812
-3.1854 me -0.2688
-4.0700 mean -0.3842
-4.2460 meaning -0.3720
-4.5471 meaningful -0.3850
-3.5472 means -0.3522
-3.7689 measure -0.3487
-4.5471 measured -0.3850
-3.7689 measurement -0.3446
-3.5472 measures -0.3631
-3.7021 measuring -0.3578
-3.9451 mechanical -0.3696
-4.5471 mechanics -0.3785
-4.2460 media -0.3828
-4.2460 medical -0.3849
-4.5471 medication -0.3848
-4.5471 medium -0.3741
-3.9451 meet -0.3376
-4.2460 meeting -0.3836
-3.7689 mel -0.3823
-4.5471 melding -0.3850
-4.0700 mellon -0.3695
-4.2460 melon -0.3849
-4.5471 member -0.3747
-3.6441 members -0.3599
-3.3167 memory -0.3434
-4.5471 men -0.3757
-4.0700 mention -0.3824
-4.5471 mentioned -0.3850
-4.2460 menu -0.3561
-4.5471 mercer -0.3850
-4.5471 mere -0.3850
-4.2460 merely -0.3571
-4.5471 mertins -0.3699
-4.5471 mesage -0.3850
-3.4332 message -0.3270
-3.4680 messages -0.3429
-3.3430 method -0.3073
-3.5058 methods -0.3234
-3.9451 metric -0.3703
-3.8482 metrics -0.3461
-4.0700 mfcc -0.3756
-4.5471 mfccs -0.3827
-4.5471 mgcp -0.3699
-4.5471 mhz -0.3699
-4.5471 michael -0.3669
-3.9451 microphone -0.3749
-3.8482 microsoft -0.3831
-4.5471 microsystems -0.3699
-4.5471 microtime -0.3848
-4.5471 microwaved -0.3850
-4.2460 middle -0.3747
-4.5471 midwest -0.3741
-3.3711 might -0.3784
-4.5471 migrate -0.3845
-4.5471 miles -0.3850
-4.0700 milestones -0.3651
-4.2460 milliseconds -0.3668
-4.5471 mimic -0.3769
-4.2460 mind -0.3571
-4.0700 minimize -0.3587
-4.5471 minimized -0.3669
-4.2460 minimum -0.3747
-4.5471 mint -0.3699
-4.5471 minutes -0.3757
-4.5471 missed -0.3669
-4.0700 missing -0.3827
-4.0700 mission -0.3587
-4.5471 missouri -0.3850
-4.5471 mistakes -0.3850
-4.5471 misunderstood -0.3844
-4.5471 mixtures -0.3669
-3.8482 mlp -0.3679
-3.5929 mlps -0.3543
-4.5471 mo -0.3850
-4.2460 mobile -0.3847
-3.2919 mode -0.2958
-2.5786 model -0.2291
-4.5471 modeled -0.3850
-3.7689 modeling -0.3379
-2.7913 models -0.2795
-4.2460 modem -0.3819
-3.7689 modern -0.3826
-4.5471 moderns -0.3841
-3.5472 modes -0.3244
-4.5471 modification -0.3699
-4.2460 modified -0.3726
-4.5471 modify -0.3587
-4.5471 modular -0.3850
-4.5471 module -0.3812
-4.5471 modules -0.3669
-4.5471 mom -0.3699
-4.5471 moment -0.3824
-3.7021 money -0.3387
-4.5471 monitor -0.3699
-4.5471 monitored -0.3791
-4.5471 monitoring -0.3850
-4.2460 monitors -0.3790
-4.5471 month -0.3747
-4.5471 months -0.3741
-4.5471 mood -0.3669
-4.5471 moose -0.3757
-4.5471 moral -0.3850
-4.5471 morals -0.3757
-2.6779 more -0.3412
-4.5471 morehouse -0.3699
-3.7021 moreover -0.3699
-2.7276 most -0.3331
-4.2460 mostly -0.3746
-4.5471 mountain -0.3850
-4.5471 mountains -0.3850
-3.8482 mouse -0.3667
-3.9451 move -0.3750
-4.5471 movement -0.3850
-4.5471 moving -0.3757
-3.9451 mp -0.3846
-3.3711 much -0.3359
-3.7689 multi -0.3823
-4.5471 multilayer -0.3850
-4.5471 multilingual -0.3847
-4.2460 multimedia -0.3755
-4.5471 multiplatform -0.3831
-3.5472 multiple -0.3829
-4.5471 multiprocessing -0.3831
-4.2460 multitasking -0.3831
-4.2460 multithreading -0.3831
-4.5471 multiuser -0.3831
-3.9451 museet -0.3614
-3.9451 museum -0.3460
-3.9451 music -0.3680
-4.5471 musical -0.3850
-4.5471 musician -0.3699
-3.3167 must -0.3658
-4.0700 mvs -0.3795
-2.9137 my -0.3663
-4.2460 myself -0.3653
-4.5471 myspace -0.3846
-2.8229 n -0.3073
-4.5471 nacional -0.3850
-3.1322 name -0.3373
-4.2460 named -0.3815
-3.7021 names -0.3550
-4.5471 naming -0.3850
-4.5471 nasa -0.3830
-4.5471 nathaniel -0.3850
-3.8482 native -0.3729
-4.5471 natives -0.3849
-4.0700 natural -0.3740
-4.0700 nature -0.3592
-4.2460 navigate -0.3755
-4.2460 navigation -0.3840
-4.5471 nazi -0.3841
-4.5471 ncr -0.3669
-4.5471 nct -0.3835
-4.5471 nd -0.3850
-4.0700 near -0.3687
-4.5471 nearby -0.3849
-3.5929 necessary -0.3638
-3.0286 need -0.3256
-3.3430 needed -0.3234
-3.0286 needs -0.3223
-4.5471 negative -0.3699
-3.9451 nelson -0.3699
-4.2460 nerwork -0.3840
-3.5929 net -0.3828
-4.5471 netware -0.3842
-3.3167 network -0.3539
-3.3711 networking -0.3740
-3.5929 networks -0.3463
-3.5929 neural -0.3847
-4.0700 never -0.3850
-3.7689 nevertheless -0.3699
-2.8229 new -0.3393
-4.0700 newer -0.3834
-4.0700 newly -0.3848
-4.2460 news -0.3592
-3.5058 next -0.3667
-4.0700 nice -0.3849
-4.5471 nightmare -0.3846
-4.5471 ninilchick -0.3850
-4.5471 nist -0.3669
-4.2460 nj -0.3831
-3.2249 no -0.3644
-4.5471 nobody -0.3850
-4.5471 nodes -0.3825
-4.5471 nodigest -0.3850
-3.9451 noise -0.3810
-4.5471 noisy -0.3836
-3.7021 non -0.3823
-4.0700 none -0.3747
-3.7021 nonetheless -0.3699
-4.5471 noren -0.3697
-4.2460 normalized -0.3695
-4.5471 norms -0.3757
-4.5471 norton -0.3850
-4.5471 nosignature -0.3850
-2.6127 not -0.3037
-4.0700 notably -0.3573
-4.5471 notation -0.3791
-3.7021 note -0.3482
-4.5471 notes -0.3741
-4.5471 notice -0.3824
-4.5471 nourishment -0.3850
-4.5471 novel -0.3849
-4.5471 novell -0.3850
-4.5471 novice -0.3843
-3.5929 now -0.3516
-4.5471 nt -0.3849
-4.5471 ntc -0.3849
-3.0286 number -0.3406
-4.5471 numbering -0.3847
-3.9451 numbers -0.3712
-4.5471 numeric -0.3836
-4.5471 numerically -0.3850
-4.5471 numerous -0.3848
-4.5471 nycturia -0.3699
-4.5471 n -0.3697
-3.2047 o -0.3681
-4.5471 obeying -0.3850
-3.5058 object -0.3749
-4.5471 objective -0.3747
-3.5929 objects -0.3720
-4.5471 obligated -0.3741
-4.5471 observable -0.3850
-3.3167 observation -0.3807
-3.5472 observations -0.3109
-4.2460 observed -0.3847
-3.8482 obtain -0.3569
-3.6441 obtained -0.3793
-4.5471 obtaining -0.3835
-4.2460 occupation -0.3561
-4.5471 occur -0.3841
-4.5471 occurred -0.3849
-4.2460 occurrence -0.3629
-4.2460 occurring -0.3846
-4.5471 occurs -0.3845
-4.5471 odd -0.3850
-1.6286 of -0.2223
-3.6441 off -0.3487
-4.2460 offered -0.3730
-3.7021 office -0.3314
-4.5471 offices -0.3757
-4.5471 official -0.3847
-4.5471 ofs -0.3699
-3.4010 often -0.3674
-3.7021 ogg -0.3633
-4.5471 oh -0.3850
-4.2460 ohio -0.3668
-4.5471 ok -0.3791
-3.7689 old -0.3689
-4.5471 older -0.3841
-4.2460 ols -0.3827
-2.3949 on -0.2648
-3.3711 once -0.3199
-2.6779 one -0.2483
-3.6441 ones -0.3366
-3.9451 online -0.3847
-2.8659 only -0.3041
-4.5471 onto -0.3587
-4.5471 ontology -0.3747
-4.5471 oop -0.3699
-4.5471 opacity -0.3699
-3.4680 open -0.3288
-4.2460 opensuse -0.3601
-4.0700 operate -0.3667
-4.5471 operates -0.3791
-3.0558 operating -0.3819
-3.0286 operation -0.3306
-4.2460 operations -0.3699
-4.5471 operator -0.3836
-4.5471 operators -0.3791
-4.5471 opinion -0.3669
-4.5471 oppenheim -0.3791
-4.5471 opportunities -0.3669
-3.8482 opportunity -0.3632
-4.2460 opposed -0.3741
-4.5471 opposite -0.3850
-4.5471 oprofile -0.3825
-4.5471 opt -0.3741
-4.5471 optic -0.3850
-4.2460 optimality -0.3697
-4.2460 optimization -0.3847
-4.2460 optimize -0.3587
-4.5471 optimized -0.3849
-4.5471 optimizing -0.3587
-4.2460 option -0.3635
-3.9451 options -0.3637
-2.4865 or -0.2895
-2.5834 order -0.3469
-4.5471 ords -0.3697
-3.9451 org -0.3681
-4.5471 organization -0.3669
-4.5471 organizational -0.3850
-3.8482 organizations -0.3474
-4.5471 organize -0.3845
-3.9451 organized -0.3561
-3.9451 organizer -0.3653
-4.2460 organizing -0.3745
-4.0700 orientation -0.3501
-4.2460 oriented -0.3848
-4.0700 origin -0.3746
-3.8482 original -0.3815
-4.5471 originality -0.3850
-4.5471 originated -0.3835
-4.5471 orkman -0.3850
-4.5471 orthognonalized -0.3828
-4.0700 os -0.3785
-3.3711 ot -0.3135
-4.5471 otalw -0.3850
-2.7837 other -0.3219
-3.5058 others -0.3471
-3.9451 otherwise -0.3696
-3.2919 our -0.3792
-3.3430 out -0.3193
-4.5471 outage -0.3699
-4.5471 outbound -0.3849
-4.2460 outcome -0.3843
-4.5471 outdated -0.3757
-4.2460 outline -0.3553
-4.5471 outlined -0.3791
-4.5471 outlining -0.3587
-3.2919 output -0.3104
-4.2460 outputdict -0.3669
-4.5471 outputpath -0.3845
-3.7689 outputs -0.3526
-4.5471 outrageous -0.3850
-3.8482 outside -0.3416
-4.2460 outsiders -0.3667
-4.5471 ov -0.3741
-3.4680 over -0.3729
-3.3711 overall -0.3665
-3.9451 overcome -0.3783
-4.5471 overcoming -0.3845
-4.5471 overflow -0.3699
-4.5471 overflows -0.3669
-4.2460 overhead -0.3699
-4.5471 overlapped -0.3791
-4.2460 overlooked -0.3814
-4.5471 overseas -0.3850
-4.2460 overview -0.3729
-4.5471 owing -0.3847
-3.4332 own -0.3821
-4.5471 owner -0.3838
-2.9037 p -0.3338
-3.7689 package -0.3436
-4.2460 packaged -0.3846
-4.5471 packages -0.3850
-3.7689 page -0.3302
-3.4332 pages -0.3365
-4.5471 paging -0.3699
-4.5471 pair -0.3747
-4.5471 pango -0.3839
-4.0700 paper -0.3756
-4.5471 parallel -0.3850
-4.5471 paralysis -0.3699
-3.6441 parameter -0.3436
-3.4332 parameters -0.3247
-4.5471 paramount -0.3850
-4.2460 parasitic -0.3850
-4.5471 pared -0.3850
-4.0700 parents -0.3658
-4.5471 parity -0.3850
-4.5471 parsing -0.3697
-3.3711 part -0.3747
-3.9451 partial -0.3848
-4.5471 participants -0.3827
-4.2460 participate -0.3775
-4.2460 participating -0.3791
-3.9451 participation -0.3730
-4.2460 particular -0.3848
-4.0700 particularly -0.3846
-4.5471 partitioned -0.3845
-4.5471 partitioning -0.3587
-3.7021 parts -0.3418
-3.9451 party -0.3833
-4.5471 pass -0.3850
-4.5471 passed -0.3849
-4.5471 passes -0.3845
-4.5471 passing -0.3849
-4.5471 password -0.3669
-4.2460 past -0.3849
-4.5471 paste -0.3791
-4.5471 pastime -0.3841
-4.5471 patented -0.3850
-3.1854 path -0.3355
-3.7689 paths -0.3270
-4.5471 patients -0.3850
-4.5471 patrik -0.3850
-4.0700 patterns -0.3508
-3.9451 pause -0.3569
-4.5471 paused -0.3850
-4.5471 pauses -0.3849
-4.2460 pay -0.3808
-4.0700 paying -0.3850
-3.5929 pbx -0.3455
-3.9451 pbxs -0.3741
-3.5929 pc -0.3355
-4.5471 pclinuxos -0.3699
-3.9451 pcs -0.3746
-4.5471 pdf -0.3669
-4.2460 pdfs -0.3826
-4.5471 peer -0.3849
-4.5471 peers -0.3669
-3.9451 pencil -0.3490
-4.2460 pencils -0.3599
-4.5471 pent -0.3823
-3.4680 people -0.3338
-3.4680 per -0.3809
-4.5471 perceive -0.3824
-4.5471 perceived -0.3850
-4.2460 percent -0.3777
-4.2460 percentage -0.3589
-4.2460 perception -0.3762
-4.2460 perceptron -0.3669
-4.0700 perceptrons -0.3698
-4.5471 perfect -0.3844
-3.7689 perform -0.3400
-2.9344 performance -0.2908
-3.7689 performed -0.3575
-4.0700 performing -0.3830
-4.2460 performs -0.3587
-4.2460 perhaps -0.3847
-4.5471 period -0.3747
-4.5471 peripheral -0.3850
-4.5471 perl -0.3757
-4.5471 permissions -0.3747
-4.5471 perpetrator -0.3838
-4.5471 persistence -0.3747
-3.4332 person -0.3744
-3.4680 personal -0.3752
-4.5471 personality -0.3669
-4.5471 personalization -0.3669
-4.5471 personally -0.3850
-3.9451 persons -0.3489
-4.5471 perspective -0.3669
-4.5471 pharmaceuticals -0.3812
-3.7021 phase -0.3646
-4.0700 phases -0.3708
-4.5471 phd -0.3850
-4.5471 philosophies -0.3830
-4.5471 phl -0.3835
-3.7689 phoenix -0.3641
-3.3711 phone -0.3449
-3.5929 phoneme -0.3690
-3.4332 phonemes -0.3013
-3.7021 phones -0.3625
-3.5058 phonetic -0.3838
-4.2460 phonetical -0.3841
-4.5471 photo -0.3850
-4.5471 photographer -0.3699
-4.5471 photography -0.3785
-4.0700 php -0.3679
-4.2460 phrase -0.3647
-4.5471 phrases -0.3669
-3.7021 physical -0.3832
-4.5471 physiological -0.3741
-4.2460 pick -0.3847
-4.5471 picture -0.3699
-4.5471 piece -0.3747
-4.5471 pile -0.3747
-4.5471 piling -0.3847
-4.5471 ping -0.3850
-4.5471 pipe -0.3587
-4.5471 pipelines -0.3699
-4.2460 pis -0.3837
-3.7689 pitts -0.3680
-3.6441 place -0.3460
-3.7021 placed -0.3772
-4.5471 places -0.3699
-4.2460 placing -0.3821
-4.2460 plain -0.3850
-4.0700 plan -0.3655
-4.0700 planning -0.3585
-4.2460 plans -0.3757
-3.8482 plant -0.3595
-4.5471 plants -0.3849
-4.2460 plastic -0.3850
-4.2460 platform -0.3848
-3.8482 platforms -0.3510
-3.5058 play -0.3393
-3.4332 played -0.3149
-4.5471 player -0.3669
-3.7689 playing -0.3238
-4.5471 plays -0.3835
-3.3711 please -0.3693
-4.5471 plug -0.3823
-4.2460 plus -0.3841
-4.5471 pneumonia -0.3699
-4.2460 poaching -0.3601
-2.7913 pocketsphinx -0.2862
-4.0700 point -0.3734
-4.5471 pointer -0.3741
-4.5471 pointers -0.3699
-4.5471 points -0.3845
-4.5471 poisoning -0.3699
-4.5471 polices -0.3850
-4.2460 policies -0.3690
-4.5471 policy -0.3850
-4.2460 polymorphism -0.3823
-4.5471 polytechnic -0.3850
-4.5471 polyuria -0.3699
-4.5471 pool -0.3831
-4.5471 pooling -0.3848
-4.0700 poor -0.3751
-3.7021 popular -0.3609
-3.9451 port -0.3666
-3.9451 portable -0.3686
-4.5471 ported -0.3757
-4.5471 portions -0.3747
-4.5471 ports -0.3833
-4.2460 pos -0.3835
-3.8482 position -0.3315
-4.5471 positioning -0.3835
-4.5471 posix -0.3699
-4.5471 possessed -0.3850
-4.5471 possibilities -0.3747
-4.2460 possibility -0.3680
-3.1669 possible -0.3285
-4.5471 post -0.3769
-4.5471 posted -0.3828
-4.5471 posterior -0.3849
-4.5471 posts -0.3791
-3.7021 potential -0.3728
-4.2460 pots -0.3850
-3.4010 power -0.3568
-3.8482 powerful -0.3563
-4.5471 powerpoint -0.3850
-4.2460 practical -0.3701
-3.7689 practice -0.3505
-4.0700 practices -0.3698
-4.5471 pre -0.3823
-4.0700 preceded -0.3828
-4.0700 preceding -0.3757
-4.5471 preconventional -0.3849
-4.5471 predecessor -0.3669
-3.7021 predefined -0.3844
-4.5471 predetermined -0.3846
-4.2460 predict -0.3563
-4.5471 predicted -0.3849
-4.2460 predictive -0.3850
-4.5471 preemphasis -0.3850
-4.0700 preemphasized -0.3698
-4.5471 preferable -0.3741
-4.5471 preference -0.3785
-4.2460 preferences -0.3736
-4.5471 preferred -0.3741
-4.5471 preliminary -0.3849
-4.5471 prepackaged -0.3848
-4.5471 prepare -0.3812
-4.5471 prerelease -0.3850
-4.5471 prescriptions -0.3845
-3.9451 present -0.3735
-4.5471 presentation -0.3838
-3.7689 presented -0.3646
-3.7021 presents -0.3398
-4.5471 president -0.3747
-4.5471 press -0.3850
-4.0700 pressing -0.3756
-4.5471 pressure -0.3699
-3.7021 pretty -0.3838
-4.5471 prevent -0.3847
-4.5471 prevents -0.3843
-3.5058 previous -0.3815
-3.8482 previously -0.3681
-4.5471 pri -0.3850
-4.2460 primary -0.3836
-3.5472 principles -0.3344
-4.2460 print -0.3845
-4.5471 printenv -0.3850
-4.5471 printer -0.3669
-4.5471 printf -0.3850
-4.2460 printing -0.3848
-4.0700 prior -0.3466
-3.9451 priorities -0.3464
-4.5471 priority -0.3747
-4.2460 privacy -0.3766
-4.5471 privately -0.3850
-4.2460 probabilistic -0.3849
-3.2461 probabilities -0.3097
-2.9790 probability -0.3174
-3.9451 probable -0.3842
-4.5471 probably -0.3587
-3.2461 problem -0.3202
-3.6441 problems -0.3430
-4.5471 proc -0.3669
-4.5471 procedural -0.3849
-3.5929 procedure -0.3119
-4.5471 procedures -0.3842
-4.0700 proceeded -0.3739
-4.2460 proceedings -0.3669
-3.0286 process -0.3049
-4.2460 processed -0.3699
-4.0700 processes -0.3488
-3.1158 processing -0.2609
-4.5471 processor -0.3850
-3.8482 processors -0.3478
-3.9451 produce -0.3767
-3.9451 produced -0.3368
-4.2460 producing -0.3768
-3.8482 product -0.3395
-4.2460 production -0.3848
-3.7689 productivity -0.3559
-4.0700 products -0.3653
-4.2460 professional -0.3849
-4.5471 professionals -0.3741
-4.5471 professor -0.3850
-4.5471 proficient -0.3841
-4.5471 profile -0.3836
-4.5471 profiling -0.3822
-4.2460 profit -0.3756
-4.5471 profitable -0.3699
-2.9561 program -0.3125
-4.5471 programed -0.3741
-4.5471 programmed -0.3822
-3.8482 programmer -0.3665
-4.0700 programmers -0.3823
-3.6441 programming -0.3675
-3.4332 programs -0.3329
-4.2460 progresses -0.3699
-4.5471 progressively -0.3669
-2.8229 project -0.2597
-3.5472 projects -0.3601
-4.5471 proliferate -0.3850
-4.5471 proliferation -0.3747
-4.5471 promote -0.3850
-4.2460 promoting -0.3846
-4.5471 promotions -0.3699
-4.2460 pronounced -0.3818
-3.8482 pronunciation -0.3268
-4.5471 pronunciations -0.3835
-4.5471 proof -0.3747
-4.2460 propagation -0.3845
-3.7021 proper -0.3827
-3.5929 properly -0.3841
-4.2460 properties -0.3592
-4.5471 property -0.3849
-4.5471 proposals -0.3757
-4.5471 proposed -0.3791
-3.5472 proprietary -0.3145
-4.5471 prospective -0.3850
-4.0700 prostate -0.3698
-4.5471 protect -0.3850
-4.5471 protected -0.3848
-4.5471 protecting -0.3587
-3.8482 protection -0.3646
-4.5471 protects -0.3822
-3.8482 protocol -0.3600
-3.8482 protocols -0.3757
-4.5471 prove -0.3769
-4.5471 proved -0.3741
-4.5471 proven -0.3741
-3.4332 provide -0.3307
-3.6441 provided -0.3167
-4.5471 providers -0.3669
-3.4332 provides -0.3473
-3.6441 providing -0.3760
-4.5471 pruning -0.3757
-3.7021 prunus -0.3850
-4.5471 public -0.3849
-4.5471 publications -0.3741
-3.8482 publicly -0.3846
-3.7689 published -0.3824
-4.5471 pulls -0.3847
-4.5471 pulp -0.3757
-4.5471 punctuation -0.3850
-4.0700 punishment -0.3743
-4.5471 purchase -0.3587
-4.2460 purchased -0.3826
-4.5471 pure -0.3850
-4.2460 purely -0.3850
-4.5471 purports -0.3741
-3.6441 purpose -0.3559
-4.2460 purposes -0.3539
-4.5471 push -0.3669
-3.7021 put -0.3549
-4.5471 pv -0.3697
-4.5471 python -0.3850
-3.3167 q -0.3828
-4.5471 qn -0.3697
-4.5471 qsig -0.3812
-3.6441 qt -0.3801
-3.9451 quality -0.3596
-4.5471 quantification -0.3747
-4.2460 quantify -0.3582
-4.2460 quantities -0.3747
-4.5471 queried -0.3836
-4.2460 queries -0.3751
-4.5471 query -0.3587
-3.9451 question -0.3847
-4.5471 questions -0.3699
-4.5471 quich -0.3850
-4.5471 quick -0.3757
-4.0700 quickly -0.3555
-4.5471 quiet -0.3669
-4.5471 quintero -0.3747
-3.9451 quit -0.3594
-4.2460 quite -0.3835
-4.5471 quotas -0.3850
-4.5471 quoted -0.3699
-3.9451 r -0.3669
-4.5471 races -0.3757
-4.5471 racism -0.3669
-3.8482 radio -0.3668
-4.5471 raid -0.3827
-4.5471 railroads -0.3699
-3.9451 rainforest -0.3595
-4.5471 rainforested -0.3850
-4.5471 rainforests -0.3849
-4.2460 raise -0.3746
-4.5471 ram -0.3827
-4.2460 ran -0.3835
-4.5471 ranch -0.3850
-4.0700 random -0.3845
-4.5471 randomly -0.3849
-4.0700 range -0.3747
-4.5471 ranges -0.3669
-4.5471 rapid -0.3699
-4.5471 rapidly -0.3850
-4.5471 rash -0.3697
-3.4010 rate -0.2950
-4.2460 rates -0.3827
-3.6441 rather -0.3695
-4.2460 raven -0.3699
-4.5471 raw -0.3846
-4.5471 rbs -0.3850
-4.5471 rca -0.3699
-3.9451 re -0.3823
-3.9451 reached -0.3687
-4.5471 reaching -0.3849
-4.5471 react -0.3697
-4.5471 reaction -0.3741
-4.5471 reacts -0.3846
-3.7689 read -0.3581
-4.2460 reading -0.3830
-4.0700 reads -0.3736
-3.7021 ready -0.3175
-3.5929 real -0.3784
-4.0700 realistic -0.3845
-4.5471 really -0.3850
-3.2461 reason -0.3313
-4.2460 reasoning -0.3510
-3.9451 reasons -0.3626
-4.5471 recapitulates -0.3587
-4.0700 receive -0.3767
-3.8482 received -0.3615
-3.8482 receives -0.3759
-4.5471 recently -0.3699
-4.5471 recipe -0.3812
-4.5471 reciprocity -0.3850
-2.6837 recognition -0.2822
-3.9451 recognize -0.3570
-4.5471 recognized -0.3849
-3.1669 recognizer -0.3383
-3.7689 recognizers -0.3515
-3.7689 recognizing -0.3639
-4.0700 recommend -0.3849
-3.6441 recommended -0.3552
-4.5471 recommends -0.3850
-4.0700 record -0.3735
-4.0700 recorded -0.3727
-4.0700 recording -0.3835
-4.2460 recordings -0.3743
-3.9451 records -0.3835
-4.2460 recover -0.3845
-4.5471 recovering -0.3850
-4.5471 recruit -0.3849
-4.5471 recurrence -0.3850
-4.5471 recursively -0.3850
-4.0700 red -0.3813
-4.5471 redesign -0.3587
-4.5471 redistribution -0.3669
-4.0700 reduce -0.3587
-4.2460 reduced -0.3832
-4.0700 reducing -0.3846
-4.5471 reduction -0.3842
-4.0700 reencoding -0.3587
-4.2460 refactoring -0.3744
-3.8482 refer -0.3741
-4.5471 referenced -0.3669
-3.7689 references -0.3822
-4.5471 referred -0.3741
-4.5471 refers -0.3741
-4.5471 refine -0.3699
-4.5471 reflect -0.3769
-4.5471 reflexes -0.3699
-4.5471 refuses -0.3741
-3.9451 regard -0.3585
-3.7021 regarding -0.3568
-4.5471 regardless -0.3747
-4.5471 regional -0.3850
-4.2460 register -0.3757
-4.0700 registration -0.3666
-4.2460 regular -0.3850
-4.5471 regularly -0.3850
-4.5471 regulation -0.3747
-3.4332 related -0.3736
-4.2460 relationship -0.3850
-4.5471 relative -0.3741
-4.5471 relativistic -0.3699
-4.5471 relaxed -0.3828
-3.9451 release -0.3570
-4.5471 releases -0.3699
-4.5471 relevance -0.3757
-4.5471 relevant -0.3741
-3.9451 reliability -0.3736
-4.5471 reliable -0.3844
-4.5471 reliably -0.3741
-4.5471 religion -0.3699
-4.5471 rely -0.3833
-4.2460 remain -0.3850
-4.5471 remained -0.3587
-4.2460 remaining -0.3839
-4.5471 remains -0.3850
-4.5471 remarkable -0.3699
-4.5471 rembetski -0.3699
-4.0700 remedies -0.3685
-4.0700 remote -0.3849
-4.2460 remotely -0.3650
-4.5471 remove -0.3850
-4.5471 removes -0.3850
-4.5471 renaming -0.3769
-4.5471 rent -0.3812
-4.5471 repeatability -0.3791
-4.2460 repeated -0.3849
-4.5471 repeatedly -0.3850
-4.5471 repeating -0.3587
-4.5471 repetitions -0.3836
-4.2460 replaced -0.3828
-4.5471 replacement -0.3669
-4.5471 replicating -0.3828
-4.5471 replication -0.3850
-3.4332 report -0.3453
-4.2460 reported -0.3423
-3.9451 repository -0.3602
-3.5472 represent -0.3489
-3.3711 representation -0.3157
-4.5471 representationn -0.3849
-3.9451 represented -0.3551
-4.5471 representing -0.3587
-3.8482 represents -0.3490
-4.5471 reproduce -0.3769
-4.5471 republic -0.3747
-4.5471 reputation -0.3669
-4.2460 request -0.3740
-4.0700 requested -0.3622
-4.5471 requests -0.3812
-3.7021 require -0.3543
-3.3711 required -0.3430
-4.5471 requirement -0.3669
-3.2919 requirements -0.3425
-3.5472 requires -0.3682
-3.1492 research -0.3371
-4.5471 researchers -0.3842
-4.5471 researching -0.3850
-4.5471 reserve -0.3587
-4.2460 reside -0.3826
-4.5471 residents -0.3669
-4.2460 resizing -0.3759
-4.0700 resolve -0.3818
-3.7689 resource -0.3819
-3.5929 resources -0.3216
-4.0700 respect -0.3739
-4.5471 respectively -0.3669
-3.4680 respgenerator -0.3375
-3.4010 response -0.3179
-3.2919 responses -0.3076
-4.5471 responsibility -0.3699
-4.5471 responsible -0.3850
-4.5471 restart -0.3587
-4.5471 restarted -0.3850
-4.5471 restarting -0.3587
-4.5471 restored -0.3699
-4.5471 restrict -0.3587
-4.0700 restricted -0.3741
-4.5471 restrictive -0.3850
-3.6441 result -0.3491
-4.5471 resultant -0.3846
-4.2460 resulted -0.3791
-4.0700 resulting -0.3762
-3.1854 results -0.3226
-4.0700 resume -0.3836
-4.5471 retreived -0.3850
-4.5471 retrieve -0.3849
-3.5472 retrieved -0.3833
-4.5471 retrieves -0.3587
-4.2460 return -0.3723
-4.5471 returned -0.3835
-4.5471 returns -0.3825
-3.9451 reusability -0.3703
-4.5471 reusable -0.3669
-3.4680 revaluator -0.3442
-4.2460 reveal -0.3587
-4.5471 revealed -0.3741
-4.5471 reverberation -0.3850
-4.5471 reverse -0.3849
-3.7689 review -0.3162
-4.2460 reviewed -0.3673
-4.5471 reviews -0.3849
-4.5471 revolution -0.3850
-4.5471 reward -0.3699
-4.5471 rewarding -0.3850
-4.5471 rf -0.3827
-4.0700 richard -0.3668
-4.5471 richest -0.3850
-4.5471 rife -0.3836
-3.8482 right -0.3570
-3.6441 rights -0.3572
-4.2460 riordan -0.3785
-4.5471 ris -0.3699
-4.5471 rises -0.3850
-4.5471 rlechner -0.3850
-4.5471 roadblocks -0.3747
-4.5471 robbed -0.3850
-3.7689 robot -0.3798
-4.5471 robotics -0.3757
-3.9451 robust -0.3567
-3.8482 robustness -0.3568
-4.5471 roi -0.3827
-3.9451 role -0.3756
-4.5471 roles -0.3669
-4.5471 rollover -0.3699
-3.8482 room -0.3544
-4.5471 rooms -0.3812
-4.5471 root -0.3848
-4.2460 ros -0.3762
-4.5471 rose -0.3741
-4.5471 rosenfeld -0.3699
-4.5471 roughly -0.3587
-4.5471 roulette -0.3819
-3.7689 round -0.3747
-4.5471 row -0.3747
-4.5471 royalty -0.3823
-3.9451 rpm -0.3846
-4.2460 rsop -0.3826
-4.2460 rudimentary -0.3695
-4.5471 rudnicky -0.3669
-3.9451 rule -0.3608
-3.7689 rules -0.3610
-3.1322 run -0.3016
-4.5471 runcon -0.3847
-3.5929 running -0.3568
-3.9451 runs -0.3844
-4.5471 runtime -0.3850
-2.6441 s -0.2849
-4.5471 sacrificing -0.3843
-4.2460 safe -0.3754
-3.9451 said -0.3714
-4.2460 sake -0.3561
-3.9451 sales -0.3756
-4.2460 salmon -0.3850
-4.5471 samate -0.3669
-2.9451 same -0.3402
-4.2460 sample -0.3840
-4.2460 sampled -0.3755
-4.5471 samples -0.3849
-4.2460 satisfaction -0.3644
-4.5471 saturation -0.3699
-4.5471 saturday -0.3747
-4.2460 save -0.3696
-4.5471 saw -0.3587
-3.7689 say -0.3553
-4.5471 saying -0.3587
-4.5471 says -0.3741
-4.0700 sc -0.3847
-3.9451 scalability -0.3801
-4.2460 scalable -0.3601
-3.9451 scale -0.3590
-4.5471 scales -0.3699
-4.5471 scanner -0.3850
-4.5471 scanning -0.3587
-3.9451 schedule -0.3468
-4.2460 scheduled -0.3850
-4.5471 scheduling -0.3850
-4.2460 scheme -0.3731
-4.5471 scholarships -0.3844
-4.2460 school -0.3734
-4.5471 schooled -0.3819
-4.5471 sci -0.3835
-4.5471 science -0.3757
-4.5471 scientific -0.3850
-3.5058 scientology -0.3648
-4.5471 scope -0.3747
-4.0700 score -0.3544
-4.5471 scouting -0.3812
-3.9451 scratch -0.3664
-4.5471 screen -0.3669
-4.2460 scripting -0.3850
-4.2460 scripts -0.3832
-4.5471 se -0.3844
-4.5471 sean -0.3850
-3.6441 search -0.3774
-4.5471 searched -0.3699
-4.5471 season -0.3850
-3.4680 second -0.3819
-4.0700 seconds -0.3767
-4.5471 secret -0.3849
-3.3167 section -0.3228
-4.0700 sections -0.3717
-3.9451 secure -0.3828
-3.1854 security -0.3513
-3.7689 see -0.3331
-4.2460 seeing -0.3587
-4.5471 seek -0.3769
-4.5471 seekers -0.3850
-4.5471 seeks -0.3741
-4.2460 seemed -0.3741
-4.0700 seems -0.3741
-3.1669 seen -0.3382
-4.5471 segment -0.3850
-4.2460 segmentation -0.3745
-3.7689 select -0.3444
-3.5472 selected -0.3510
-3.8482 selecting -0.3757
-4.5471 selector -0.3812
-3.6441 self -0.3714
-4.5471 selinux -0.3850
-4.5471 sell -0.3587
-4.5471 selma -0.3850
-4.5471 semantic -0.3850
-4.5471 semi -0.3823
-4.2460 send -0.3765
-4.5471 sending -0.3850
-4.5471 senior -0.3844
-3.5472 sense -0.3560
-3.3711 sentence -0.3113
-2.8312 sentences -0.2660
-4.5471 sentencesfile -0.3669
-4.0700 separate -0.3839
-4.2460 separated -0.3838
-4.5471 separately -0.3835
-4.5471 sept -0.3827
-4.5471 september -0.3850
-4.5471 seq -0.3697
-3.3430 sequence -0.3082
-3.8482 sequences -0.3665
-4.5471 sequential -0.3828
-4.5471 sequentially -0.3669
-3.9451 serial -0.3667
-4.5471 serially -0.3850
-4.2460 series -0.3589
-4.5471 serious -0.3841
-3.2249 server -0.2967
-3.7689 servers -0.3385
-3.7689 service -0.3656
-3.7689 services -0.3373
-4.5471 servicing -0.3849
-4.5471 serving -0.3669
-4.2460 session -0.3695
-2.9344 set -0.3377
-3.9451 sets -0.3446
-4.5471 setting -0.3847
-4.0700 settings -0.3775
-4.5471 settled -0.3828
-3.9451 setup -0.3357
-4.2460 seven -0.3843
-3.1669 several -0.3685
-4.5471 seymore -0.3699
-3.7021 sha -0.3835
-4.5471 shadow -0.3850
-3.3711 shall -0.3796
-4.5471 shapes -0.3757
-3.9451 share -0.3840
-4.5471 shared -0.3850
-4.5471 shares -0.3842
-4.5471 sharing -0.3757
-4.0700 sharon -0.3840
-4.0700 sheet -0.3797
-4.0700 shelf -0.3844
-4.5471 shipment -0.3850
-4.5471 ships -0.3836
-4.2460 short -0.3823
-4.5471 shortages -0.3747
-3.0286 should -0.3767
-4.5471 shoulders -0.3747
-3.7689 show -0.3740
-4.5471 showing -0.3847
-3.8482 shown -0.3759
-3.8482 shows -0.3580
-4.5471 shred -0.3697
-4.5471 shrinking -0.3757
-4.5471 shrinks -0.3836
-4.5471 si -0.3697
-4.2460 side -0.3726
-4.5471 siegler -0.3699
-2.9239 signal -0.3285
-4.5471 signaling -0.3827
-4.5471 signalling -0.3850
-4.2460 signals -0.3663
-4.2460 signature -0.3762
-4.2460 significant -0.3849
-4.5471 significantly -0.3849
-4.5471 silence -0.3842
-3.9451 silver -0.3825
-3.5472 similar -0.3379
-3.3167 similarly -0.3411
-3.7021 simple -0.3721
-4.2460 simpler -0.3755
-4.0700 simplest -0.3746
-4.5471 simplicity -0.3850
-4.5471 simplification -0.3850
-3.8482 simplified -0.3463
-4.5471 simplify -0.3587
-4.5471 simplistic -0.3849
-4.5471 simply -0.3850
-4.5471 sims -0.3835
-4.2460 simulated -0.3849
-3.5929 simulation -0.3662
-4.5471 simultaneously -0.3850
-3.5058 since -0.3441
-4.5471 sincerity -0.3669
-3.7021 single -0.3835
-4.0700 sip -0.3408
-4.5471 sister -0.3757
-3.8482 site -0.3439
-4.0700 sites -0.3601
-4.5471 situations -0.3757
-4.5471 six -0.3849
-3.2461 size -0.3212
-4.5471 sized -0.3833
-4.2460 sizes -0.3561
-4.2460 sj -0.3696
-4.5471 sketches -0.3836
-4.5471 skills -0.3757
-4.5471 slackware -0.3843
-3.9451 slightly -0.3840
-4.5471 slipped -0.3769
-4.2460 slm -0.3835
-4.5471 sln -0.3840
-4.5471 slow -0.3741
-3.3167 small -0.3523
-3.5472 smaller -0.3198
-4.2460 smallest -0.3849
-4.5471 smarter -0.3849
-4.2460 smdr -0.3699
-3.7689 smith -0.3849
-4.5471 sn -0.3849
-3.1322 so -0.3429
-4.5471 social -0.3850
-4.2460 society -0.3554
-4.5471 sockeye -0.3848
-2.8229 software -0.3061
-4.0700 solution -0.3489
-3.8482 solutions -0.3776
-3.8482 solve -0.3466
-4.2460 solved -0.3837
-4.2460 solves -0.3587
-2.7763 some -0.3469
-4.2460 somehow -0.3696
-4.2460 someone -0.3850
-3.9451 something -0.3808
-3.9451 sometimes -0.3685
-4.5471 somewhat -0.3747
-4.5471 song -0.3850
-4.2460 sons -0.3698
-4.5471 soon -0.3814
-3.8482 sophisticated -0.3724
-4.5471 sorted -0.3850
-4.5471 sorts -0.3849
-4.5471 soul -0.3669
-3.7021 sound -0.3458
-3.8482 sounds -0.3505
-3.2249 source -0.3393
-4.0700 sourceforge -0.3669
-3.7689 sources -0.3742
-3.8482 space -0.3425
-4.5471 spaces -0.3849
-3.7689 spaghetti -0.3709
-4.5471 spain -0.3848
-4.5471 spanish -0.3669
-4.5471 spare -0.3850
-3.7689 speak -0.3578
-3.0848 speaker -0.3443
-3.8482 speakers -0.3403
-3.7021 speaking -0.3451
-4.2460 special -0.3849
-4.5471 specialize -0.3791
-4.0700 species -0.3847
-3.5472 specific -0.3734
-4.0700 specifically -0.3697
-3.7689 specifications -0.3294
-3.7021 specified -0.3563
-4.2460 specifies -0.3768
-3.9451 specify -0.3495
-4.5471 specifying -0.3835
-3.5929 spectral -0.3827
-3.9451 spectrum -0.3630
-2.2871 speech -0.2914
-4.5471 speeches -0.3845
-3.9451 speed -0.3737
-4.5471 spelling -0.3849
-4.0700 spend -0.3844
-4.2460 spent -0.3844
-3.1000 sphinx -0.3137
-4.2460 sphinxbase -0.3668
-4.2460 spite -0.3747
-4.2460 split -0.3842
-3.8482 spoken -0.3838
-4.2460 spontaneous -0.3828
-4.5471 spot -0.3847
-4.5471 spread -0.3849
-4.5471 st -0.3850
-4.5471 stability -0.3757
-3.7689 stack -0.3832
-4.2460 staff -0.3841
-3.5472 stage -0.3603
-3.5472 stages -0.3540
-4.2460 stake -0.3661
-4.5471 stakeholder -0.3785
-3.9451 stakeholders -0.3408
-4.5471 stances -0.3741
-4.5471 stand -0.3833
-3.6441 standard -0.3625
-4.5471 standardize -0.3587
-4.5471 standardized -0.3828
-3.7689 standards -0.3454
-4.2460 standing -0.3787
-4.5471 stands -0.3812
-3.5058 start -0.3523
-3.9451 started -0.3633
-4.5471 starting -0.3845
-3.7689 starts -0.3503
-4.2460 startup -0.3690
-4.5471 stat -0.3697
-3.0157 state -0.3009
-3.9451 statement -0.3845
-3.7689 statements -0.3417
-3.5058 states -0.3543
-3.5472 static -0.3837
-4.5471 stating -0.3587
-4.2460 station -0.3848
-4.5471 statistic -0.3850
-3.8482 statistical -0.3818
-3.7689 statistics -0.3529
-3.8482 status -0.3597
-4.5471 stay -0.3791
-4.5471 stayed -0.3850
-4.5471 staying -0.3849
-4.2460 steam -0.3850
-4.5471 steepest -0.3697
-3.4680 step -0.3073
-3.7021 steps -0.3389
-3.5472 still -0.3777
-4.5471 stochastic -0.3850
-4.5471 stock -0.3850
-4.5471 stockholders -0.3699
-3.8482 stop -0.3690
-4.5471 stopped -0.3849
-4.5471 stops -0.3849
-4.2460 storage -0.3601
-3.9451 stored -0.3786
-4.5471 storehouse -0.3747
-4.2460 story -0.3745
-4.5471 straight -0.3850
-4.5471 straightforward -0.3819
-3.9451 strategies -0.3626
-3.6441 strategy -0.3587
-4.2460 streak -0.3654
-4.2460 streaks -0.3841
-4.5471 stream -0.3697
-4.2460 streaming -0.3744
-4.5471 streamline -0.3848
-4.5471 streams -0.3842
-4.5471 street -0.3850
-4.5471 strength -0.3741
-4.5471 stretching -0.3587
-4.5471 strict -0.3850
-4.5471 strictest -0.3850
-4.5471 strictly -0.3849
-4.5471 stride -0.3850
-4.5471 strides -0.3791
-4.5471 strike -0.3847
-4.5471 striking -0.3769
-3.5058 string -0.3582
-4.5471 strings -0.3747
-4.5471 strong -0.3849
-4.5471 strongly -0.3850
-3.5472 structure -0.3216
-3.8482 students -0.3637
-4.5471 studies -0.3791
-3.8482 studio -0.3332
-3.9451 study -0.3841
-4.2460 studying -0.3636
-4.5471 stuff -0.3848
-4.5471 stumps -0.3850
-3.9451 style -0.3510
-4.2460 subconscious -0.3849
-3.9451 subject -0.3634
-4.2460 submission -0.3510
-4.2460 submit -0.3848
-4.2460 submits -0.3571
-4.5471 submitted -0.3846
-4.5471 subsequently -0.3699
-3.8482 subset -0.3747
-4.5471 substantial -0.3850
-4.2460 substitute -0.3585
-4.5471 substituted -0.3841
-4.5471 substitutions -0.3850
-4.5471 subsystems -0.3747
-4.5471 succeeded -0.3828
-4.2460 succeeding -0.3848
-4.0700 succesfully -0.3668
-3.9451 success -0.3559
-3.8482 successful -0.3848
-4.0700 successfully -0.3829
-2.9561 such -0.3816
-4.0700 suffer -0.3753
-4.5471 suffered -0.3835
-4.5471 suffering -0.3835
-4.5471 suffers -0.3850
-4.0700 sufficiency -0.3497
-4.2460 sufficient -0.3741
-4.5471 suggest -0.3587
-4.2460 suggested -0.3828
-4.5471 suggestions -0.3812
-4.0700 suggests -0.3698
-4.5471 suitable -0.3849
-4.5471 suited -0.3741
-3.7689 sum -0.3694
-4.2460 summaries -0.3825
-3.5472 summary -0.3406
-4.5471 sun -0.3850
-4.5471 sunos -0.3757
-4.5471 superior -0.3741
-4.5471 supervisor -0.3831
-4.5471 supplementary -0.3850
-4.0700 supplied -0.3767
-3.4332 support -0.3528
-3.9451 supported -0.3767
-4.0700 supporting -0.3583
-3.9451 supports -0.3779
-4.5471 suppose -0.3824
-4.2460 supposed -0.3741
-4.5471 suppressing -0.3848
-3.4680 sure -0.3408
-4.5471 surely -0.3699
-4.5471 sustain -0.3850
-3.8482 sustainable -0.3848
-4.5471 swapping -0.3699
-4.2460 sweden -0.3842
-4.2460 swedish -0.3850
-4.5471 swing -0.3741
-4.5471 switchboard -0.3757
-4.2460 switches -0.3650
-4.5471 switching -0.3697
-4.0700 syllables -0.3648
-4.5471 syllabus -0.3849
-4.0700 symbol -0.3530
-3.7021 symbols -0.3407
-4.5471 synchronization -0.3747
-4.5471 synonymous -0.3836
-4.5471 syntactical -0.3850
-4.5471 syntax -0.3757
-4.5471 synthesis -0.3841
-4.5471 synthesized -0.3850
-2.3513 system -0.2150
-2.6551 systems -0.2548
-4.5471 systen -0.3669
-3.0558 t -0.3122
-3.3711 table -0.3412
-4.2460 tables -0.3850
-4.5471 tabs -0.3850
-4.5471 tac -0.3697
-4.5471 tails -0.3669
-3.6441 take -0.3503
-4.2460 taken -0.3734
-3.7021 takes -0.3749
-4.0700 taking -0.3822
-4.0700 talk -0.3735
-4.2460 talking -0.3667
-4.2460 tape -0.3836
-4.5471 tapers -0.3850
-4.5471 target -0.3850
-4.2460 targeting -0.3848
-3.3711 task -0.3115
-3.7689 tasks -0.3661
-4.5471 tata -0.3835
-4.2460 taught -0.3696
-4.5471 taxi -0.3850
-3.5929 tcorpus -0.3669
-3.7689 tcorpusfiltered -0.3669
-4.5471 tcp -0.3836
-3.1158 team -0.3312
-4.5471 teammates -0.3699
-3.7689 teams -0.3605
-4.5471 teamwork -0.3785
-4.5471 technicallyminded -0.3849
-3.1854 technique -0.3262
-3.7689 techniques -0.3782
-4.2460 technological -0.3695
-2.9239 technology -0.2752
-4.5471 tecnolog -0.3850
-4.5471 tedious -0.3849
-4.5471 tee -0.3850
-3.8482 tekniska -0.3845
-4.5471 tekniskamuseet -0.3669
-4.5471 telecom -0.3699
-4.5471 telecommunincation -0.3850
-3.6441 telephone -0.3702
-4.2460 telephony -0.3698
-3.9451 tell -0.3835
-4.5471 temperature -0.3699
-4.0700 ten -0.3847
-4.5471 tend -0.3741
-4.5471 tended -0.3741
-4.5471 tends -0.3741
-4.5471 tens -0.3747
-4.5471 tenth -0.3850
-4.2460 terabytes -0.3747
-4.5471 tereza -0.3850
-4.2460 term -0.3850
-4.0700 terminal -0.3657
-4.5471 terminate -0.3587
-3.9451 terms -0.3747
-2.9909 test -0.2981
-3.1158 tested -0.2946
-4.0700 tester -0.3828
-3.5472 testers -0.3316
-2.5559 testing -0.2183
-3.3167 tests -0.3013
-2.9674 text -0.3056
-3.2461 textextractor -0.3335
-4.5471 texts -0.3835
-3.6441 th -0.3586
-3.0848 than -0.3117
-4.0700 thank -0.3585
-2.2167 that -0.2275
-1.2304 the -0.1921
-4.5471 thebectons -0.3669
-2.9561 their -0.3774
-3.0848 them -0.2781
-4.0700 themselves -0.3619
-3.2461 then -0.3309
-4.5471 theoretically -0.3841
-4.5471 theory -0.3850
-4.0700 theproject -0.3843
-2.9037 there -0.3271
-4.5471 thereafter -0.3697
-3.4010 therefore -0.3578
-2.8659 these -0.3760
-3.9451 thesis -0.3628
-2.8751 they -0.3748
-4.5471 thing -0.3828
-3.8482 things -0.3648
-3.7689 think -0.3379
-4.2460 thinking -0.3745
-3.7021 third -0.3819
-2.1371 this -0.2655
-4.5471 thorough -0.3839
-4.0700 thoroughly -0.3467
-3.3711 those -0.3801
-4.2460 though -0.3580
-4.2460 thought -0.3680
-4.5471 thousand -0.3841
-3.6441 thousands -0.3747
-4.5471 threads -0.3847
-4.5471 threats -0.3825
-3.4680 three -0.3827
-4.5471 thrive -0.3833
-3.3430 through -0.3175
-4.5471 throughout -0.3587
-3.6441 thus -0.3694
-4.5471 timber -0.3669
-2.8067 time -0.2286
-4.2460 timed -0.3808
-3.4332 times -0.3270
-4.5471 timing -0.3850
-4.5471 tip -0.3747
-4.5471 tittle -0.3699
-4.5471 tldp -0.3669
-4.5471 tm -0.3827
-1.6022 to -0.2264
-3.7689 today -0.3562
-3.6441 together -0.3275
-4.0700 tokenize -0.3587
-4.0700 tokenizer -0.3835
-4.2460 told -0.3845
-4.5471 tolerant -0.3850
-4.5471 tomsho -0.3699
-4.5471 tony -0.3850
-4.5471 too -0.3849
-3.9451 took -0.3535
-2.6721 tool -0.2349
-3.2684 toolkit -0.3213
-3.0286 tools -0.2964
-4.5471 tooth -0.3850
-4.5471 topics -0.3812
-4.5471 topologies -0.3850
-4.5471 topology -0.3699
-3.7689 total -0.3735
-4.5471 touch -0.3850
-4.2460 toward -0.3846
-3.5058 towards -0.3414
-4.2460 toxic -0.3850
-4.5471 traced -0.3741
-4.5471 track -0.3669
-3.9451 tract -0.3696
-4.5471 tractors -0.3757
-4.5471 tracts -0.3757
-4.5471 trade -0.3791
-4.5471 trading -0.3841
-4.5471 trailer -0.3757
-4.5471 trailers -0.3669
-3.4332 train -0.3363
-4.0700 trained -0.3738
-3.2047 training -0.3499
-4.5471 traits -0.3824
-4.5471 trans -0.3850
-3.6441 transaction -0.3635
-4.2460 transactions -0.3668
-3.9451 transcript -0.3643
-4.2460 transfer -0.3510
-4.5471 transferred -0.3849
-3.7689 transform -0.3425
-3.7689 transition -0.3749
-3.9451 transitions -0.3569
-4.2460 translate -0.3836
-4.2460 translated -0.3845
-4.5471 transmission -0.3850
-4.5471 trash -0.3669
-4.5471 traversal -0.3699
-4.5471 treated -0.3850
-4.5471 treating -0.3850
-4.5471 treaty -0.3669
-3.7021 tree -0.3755
-3.8482 trees -0.3497
-4.5471 trend -0.3823
-3.9451 trevino -0.3698
-4.5471 tri -0.3823
-4.5471 trials -0.3846
-3.7689 tribe -0.3589
-4.5471 tricks -0.3824
-4.0700 tried -0.3741
-4.5471 tries -0.3741
-4.2460 triggered -0.3769
-4.0700 trigram -0.3839
-3.9451 trip -0.3833
-3.7689 triphone -0.3577
-4.0700 triphones -0.3600
-4.5471 tripp -0.3848
-4.5471 troublesome -0.3757
-3.6441 trucking -0.3728
-4.2460 true -0.3835
-4.5471 truly -0.3850
-4.5471 truncate -0.3844
-4.2460 trunk -0.3850
-3.7689 try -0.3738
-3.9451 trying -0.3741
-4.5471 tsimshian -0.3850
-3.8482 tts -0.3566
-4.5471 tty -0.3847
-4.5471 tukey -0.3699
-4.2460 tuned -0.3737
-4.5471 turing -0.3846
-4.5471 turn -0.3669
-4.5471 tutorial -0.3844
-4.5471 tutorialam -0.3845
-4.5471 tutorials -0.3833
-4.5471 tweaking -0.3822
-4.5471 twisted -0.3849
-4.2460 twitter -0.3850
-2.9790 two -0.3647
-3.2461 txt -0.2964
-3.2919 type -0.3639
-3.8482 types -0.3475
-3.4332 typical -0.3816
-3.4332 typically -0.3583
-4.5471 typing -0.3849
-4.2460 typos -0.3571
-4.5471 u -0.3669
-4.0700 ubuntu -0.3692
-4.5471 uddi -0.3827
-4.5471 udp -0.3850
-4.5471 uganda -0.3848
-4.2460 ui -0.3822
-4.5471 un -0.3848
-4.5471 unable -0.3741
-4.5471 uncertainty -0.3669
-4.5471 uncover -0.3845
-3.5472 under -0.3489
-4.5471 underline -0.3841
-4.5471 underlying -0.3847
-4.5471 underneath -0.3850
-3.5929 understand -0.3465
-4.5471 understandability -0.3757
-4.0700 understandable -0.3659
-4.5471 understandably -0.3699
-3.4680 understanding -0.3074
-4.5471 understood -0.3847
-4.0700 unethical -0.3738
-4.5471 unexpand -0.3697
-4.5471 unfair -0.3850
-4.5471 unfeasible -0.3847
-4.5471 unfortunately -0.3699
-4.5471 unified -0.3849
-4.0700 uniform -0.3661
-4.5471 uniformity -0.3699
-4.5471 uniq -0.3850
-4.5471 unique -0.3850
-4.5471 unit -0.3669
-4.2460 units -0.3825
-3.9451 universal -0.3843
-3.5472 university -0.3393
-4.5471 unix -0.3699
-4.2460 unless -0.3835
-4.2460 unlike -0.3769
-4.5471 unlucky -0.3841
-4.5471 unrealistic -0.3819
-3.9451 until -0.3582
-4.5471 unto -0.3849
-4.2460 unusual -0.3847
-4.5471 uop -0.3697
-4.5471 uopx -0.3835
-3.0420 up -0.2562
-4.5471 upbringing -0.3669
-4.2460 update -0.3663
-3.7021 updated -0.3391
-4.0700 updates -0.3650
-4.2460 updating -0.3635
-4.5471 upgrades -0.3669
-4.5471 uphold -0.3850
-4.5471 upload -0.3769
-4.0700 upon -0.3818
-3.6441 url -0.3640
-3.5058 urls -0.3378
-3.6441 us -0.3297
-4.5471 usa -0.3699
-4.2460 usability -0.3838
-4.5471 usable -0.3850
-3.8482 usage -0.3722
-2.6662 use -0.2640
-2.4979 used -0.2481
-3.7689 useful -0.3710
-4.5471 useless -0.3849
-2.7618 user -0.2701
-3.2249 users -0.3141
-3.3711 uses -0.3378
-2.5928 using -0.3132
-4.5471 usual -0.3850
-3.5472 usually -0.3843
-3.5472 utilities -0.3233
-4.5471 utilization -0.3747
-4.5471 utilize -0.3845
-4.5471 utilized -0.3741
-4.5471 utilizing -0.3839
-4.5471 utmost -0.3850
-3.5929 utterance -0.3407
-3.8482 utterances -0.3503
-3.9451 v -0.3691
-4.5471 valgrind -0.3757
-4.2460 valid -0.3699
-4.5471 validate -0.3587
-4.5471 validates -0.3587
-4.2460 validation -0.3699
-4.0700 valuable -0.3710
-3.3711 value -0.3429
-3.3167 values -0.3260
-3.4332 variability -0.3162
-3.9451 variable -0.3846
-4.5471 variance -0.3850
-4.5471 variation -0.3757
-3.6441 variations -0.3464
-4.5471 varies -0.3850
-4.0700 variety -0.3747
-3.6441 various -0.3838
-4.5471 vary -0.3849
-4.5471 vast -0.3850
-3.7689 vb -0.3592
-4.5471 ve -0.3850
-3.6441 vector -0.3558
-3.6441 vectors -0.3449
-4.5471 vendors -0.3835
-3.7689 verification -0.3685
-3.9451 verified -0.3801
-4.2460 verify -0.3587
-4.2460 verifying -0.3839
-4.5471 versatile -0.3846
-3.5472 version -0.3446
-3.7689 versions -0.3532
-3.1322 very -0.3814
-4.5471 vi -0.3850
-3.7021 via -0.3761
-4.5471 vice -0.3850
-4.5471 vicissitudes -0.3747
-4.2460 video -0.3827
-3.7021 view -0.3205
-4.5471 viewing -0.3848
-4.5471 virginia -0.3850
-3.8482 virtual -0.3838
-4.5471 virus -0.3850
-4.2460 viruses -0.3601
-4.2460 visible -0.3665
-4.5471 vision -0.3850
-4.5471 vista -0.3757
-4.0700 visual -0.3850
-4.5471 visualize -0.3757
-4.5471 visualized -0.3791
-4.5471 visualizing -0.3849
-4.5471 vital -0.3849
-3.3711 viterbi -0.3736
-4.5471 vk -0.3841
-4.5471 vlsi -0.3849
-4.2460 vm -0.3827
-3.8482 vocab -0.3711
-3.5929 vocabularies -0.3454
-3.1158 vocabulary -0.3062
-4.5471 vocabularys -0.3669
-3.7021 vocal -0.3849
-3.5058 voice -0.3586
-4.5471 void -0.3846
-4.0700 volume -0.3848
-4.5471 volunteering -0.3841
-4.5471 von -0.3850
-4.5471 vorbis -0.3669
-4.5471 vowel -0.3850
-4.5471 vowels -0.3850
-4.5471 vp -0.3669
-4.5471 vpn -0.3847
-4.0700 vs -0.3669
-4.5471 vse -0.3669
-4.5471 vss -0.3827
-4.5471 vulnerabilities -0.3850
-3.1854 w -0.3599
-4.5471 waiting -0.3812
-4.5471 walking -0.3848
-4.2460 walkthroughs -0.3668
-3.5929 wall -0.3603
-4.5471 wan -0.3850
-3.8482 want -0.3735
-4.5471 war -0.3850
-4.5471 warping -0.3699
-4.5471 warrantee -0.3669
-2.6607 was -0.3236
-4.2460 waste -0.3606
-4.2460 waveform -0.3845
-4.2460 waves -0.3784
-3.4680 way -0.2903
-4.2460 ways -0.3554
-2.7913 we -0.3573
-4.2460 wealth -0.3686
-4.5471 weather -0.3757
-3.1322 web -0.3647
-4.5471 websites -0.3846
-4.5471 wee -0.3850
-3.5058 week -0.3717
-3.9451 weekly -0.3847
-4.2460 weeks -0.3742
-4.5471 weight -0.3847
-4.5471 weights -0.3791
-4.5471 wel -0.3850
-4.2460 welch -0.3845
-4.2460 welcome -0.3644
-3.0031 well -0.3024
-4.5471 went -0.3741
-2.9909 were -0.3655
-4.5471 west -0.3850
-4.5471 wfreq -0.3840
-3.8482 wget -0.3804
-3.2249 what -0.3275
-4.5471 whatis -0.3850
-2.8844 when -0.3365
-3.8482 whenever -0.3494
-3.0031 where -0.3217
-4.5471 wherein -0.3845
-4.5471 whether -0.3822
-2.8844 which -0.2937
-3.2461 while -0.3452
-4.5471 whistler -0.3848
-3.4332 white -0.3649
-3.6441 who -0.3777
-3.8482 whole -0.3823
-4.0700 whose -0.3849
-3.8482 why -0.3579
-4.2460 wide -0.3850
-4.5471 widespread -0.3850
-4.2460 wiki -0.3835
-4.0700 wikipedia -0.3505
-4.5471 wildly -0.3846
-4.0700 wiley -0.3570
-2.5515 will -0.3374
-4.2460 williams -0.3698
-4.5471 willing -0.3697
-4.5471 willows -0.3699
-4.0700 win -0.3751
-3.4680 window -0.3225
-4.5471 windowing -0.3757
-2.6441 windows -0.2861
-4.5471 windowsitpro -0.3669
-4.2460 winning -0.3840
-3.9451 wins -0.3598
-4.0700 wire -0.3845
-3.8482 wish -0.3730
-2.4644 with -0.3070
-3.3167 within -0.3364
-3.4010 without -0.3477
-4.5471 witnessed -0.3850
-3.9451 wk -0.3850
-3.7689 wn -0.3419
-4.5471 wolfgang -0.3850
-4.5471 woman -0.3842
-4.5471 women -0.3850
-4.5471 won -0.3842
-4.5471 wood -0.3850
-2.8482 word -0.3156
-2.6721 words -0.2672
-3.1669 work -0.3203
-3.7689 working -0.3777
-3.9451 workload -0.3744
-4.5471 workloads -0.3741
-3.7689 works -0.3408
-4.2460 workshop -0.3698
-4.5471 workspaces -0.3825
-4.5471 workstation -0.3697
-4.2460 workstations -0.3847
-3.7689 world -0.3663
-4.5471 worth -0.3822
-2.9037 would -0.3754
-4.5471 wrapping -0.3850
-4.0700 write -0.3655
-3.7689 writing -0.3661
-3.2684 written -0.3515
-4.2460 wrong -0.3849
-3.9451 wsj -0.3843
-3.4332 www -0.3657
-3.9451 x -0.3631
-4.5471 xcopy -0.3849
-4.5471 xk -0.3850
-4.0700 xn -0.3768
-3.4680 xp -0.3505
-4.2460 xps -0.3696
-4.5471 xsecurity -0.3839
-4.5471 xss -0.3827
-4.5471 y -0.3850
-4.2460 year -0.3601
-3.5929 years -0.3181
-4.5471 yes -0.3822
-4.5471 york -0.3831
-3.0286 you -0.3459
-4.5471 young -0.3850
-3.4010 your -0.3839
-4.5471 zaleski -0.3757
-4.5471 zedar -0.3699
-3.7689 zero -0.3507
-4.5471 zoo -0.3846
-4.5471 {left-brace -0.3850
-3.5058 |pipe-symbol -0.3839
-4.5471  -0.3850
-4.5471  -0.3587
-4.5471  -0.3697
-3.9451  -0.3678
-4.5471  -0.3757
-4.2460 j -0.3850
-4.2460 a -0.3850
-4.5471  -0.3819
-4.5471  -0.3839
-4.5471 j -0.3849
-4.0700  -0.3818
-3.9451  -0.3745
-4.2460 v -0.3849
-4.2460  -0.3827
-4.5471  -0.3850
-3.9451  -0.3838
-4.2460  -0.3843

\2-grams:
-0.2307 !exclamation-point </s> 0.2393
-1.1795 "quote )right-paren -0.0391
-0.9876 "quote ,comma -0.1163
-1.8327 "quote .dot -0.0958
-2.1336 "quote Hank 0.0054
-2.1336 "quote Kroll -0.1164
-1.8327 "quote Learn 0.2393
-1.8327 "quote a -0.1434
-2.1336 "quote advocating 0.0054
-2.1336 "quote among -0.0615
-1.8327 "quote and -0.1193
-2.1336 "quote apply -0.0510
-2.1336 "quote attributes -0.0914
-2.1336 "quote but -0.1324
-1.8327 "quote button 0.0703
-2.1336 "quote by -0.1416
-2.1336 "quote cold 0.2393
-1.8327 "quote collect 0.1587
-2.1336 "quote doubling 0.2393
-2.1336 "quote free -0.0824
-2.1336 "quote function -0.1345
-2.1336 "quote gamblers -0.0510
-2.1336 "quote hot 0.0054
-2.1336 "quote i -0.1383
-2.1336 "quote incoming 0.0703
-2.1336 "quote is -0.1453
-1.8327 "quote make -0.0914
-2.1336 "quote no -0.1333
-2.1336 "quote occurring 0.2393
-2.1336 "quote of -0.1455
-1.6566 "quote or -0.1368
-2.1336 "quote out -0.1295
-1.8327 "quote streaks 0.2393
-2.1336 "quote such -0.1392
-2.1336 "quote take -0.1126
-1.8327 "quote the -0.1453
-2.1336 "quote theoretically 0.2393
-2.1336 "quote unlucky 0.2393
-1.8327 "quote use -0.1390
-2.1336 "quote with -0.1060
-2.1336 "quote would -0.1219
-1.2886 "quote |pipe-symbol 0.0578
-1.0757 %percent )right-paren -0.1292
-1.0757 %percent .period -0.0612
-0.5985 %percent 2 -0.1189
-1.0757 %percent deduction 0.2393
-1.0757 %percent loop -0.1077
-0.2307 &ampersand t -0.1289
