This is an ARPA-format language model file, generated by CMU Sphinx
\data\
ngram 1=3729
ngram 2=16787
ngram 3=24617

\1-grams:
-4.4786 <UNK> 0.0000
-3.7004 !exclamation-point -0.3449
-2.5341 "quote -0.2581
-3.7004 %percent -0.3424
-2.7226 'single-quote -0.3437
-3.2745 (left-paren -0.3400
-4.4786 (left-parenâ -0.3603
-2.3747 )right-paren -0.2039
-3.8765 *asterisk -0.3592
-4.1776 +plus-symbol -0.3477
-1.4662 ,comma -0.1079
-2.2380 -hyphen -0.3136
-2.9872 . -0.3449
-3.1776 ...ellipsis -0.2850
-2.6525 .dot -0.2927
-1.3955 .period -0.1327
-4.4786 .point -0.3606
-2.8351 /slash -0.3365
-3.0636 0 -0.3087
-3.0984 1 -0.3312
-4.4786 1456 -0.3492
-4.4786 18th -0.3606
-3.1998 2 -0.3286
-4.4786 232.2 -0.3606
-4.4786 283 -0.3581
-3.0472 3 -0.3049
-4.4786 35 -0.3606
-3.3647 4 -0.3266
-4.4786 40 -0.3606
-4.4786 450 -0.3606
-3.3994 5 -0.3421
-4.4786 50 -0.3606
-3.5244 6 -0.3585
-4.4786 65 -0.3606
-4.4786 667 -0.3606
-3.4786 7 -0.3489
-3.2233 8 -0.3390
-3.8765 9 -0.3588
-4.4786 907 -0.3588
-2.4412 :colon -0.2930
-3.1776 ;semi-colon -0.3213
-1.4484 </s> -0.3414
-1.4484 <s> -0.0666
-4.4786 <s>typical -0.3606
-4.1776 =equals-sign -0.3600
-2.9872 ?question-mark -0.3303
-4.1776 A -0.3605
-4.4786 API -0.3588
-4.0015 ASCII -0.3449
-4.4786 ASR -0.3605
-4.4786 Afrikaner/s> -0.3449
-4.4786 Aguirre -0.3593
-4.1776 Alaska -0.3428
-3.7004 Altair -0.3593
-4.4786 Arguments -0.3604
-4.4786 August -0.3428
-4.1776 BSD -0.3448
-4.4786 Bernstein -0.3455
-4.1776 Bitcoin -0.3605
-4.1776 Boolean -0.3606
-4.4786 Briggs -0.3449
-4.1776 Bullard -0.3455
-4.4786 Burroughs -0.3455
-4.4786 CA -0.3455
-4.4786 CE -0.3455
-4.4786 CLR -0.3588
-3.2481 CMU -0.3547
-3.8765 CMUSphinx -0.3421
-4.1776 CPUs -0.3588
-4.4786 CSS -0.3606
-4.4786 California -0.3605
-4.4786 Call -0.3606
-3.7796 Carnegie -0.3606
-4.4786 Centos -0.3428
-4.4786 Chapman -0.3606
-4.4786 Chris -0.3449
-4.4786 Cleveland -0.3455
-3.8765 Colney -0.3509
-4.0015 Compiz -0.3535
-4.4786 Cook -0.3606
-4.4786 Cruzon -0.3537
-4.4786 DAT -0.3588
-4.4786 DFT -0.3588
-4.1776 Darpa -0.3601
-4.4786 David -0.3606
-4.4786 Debian -0.3606
-4.4786 Debra -0.3455
-4.1776 December -0.3591
-4.4786 Edgar -0.3606
-4.1776 English -0.3527
-4.4786 Evan -0.3606
-3.5244 Everett -0.3354
-4.4786 FFT -0.3588
-4.1776 Facebook -0.3605
-4.4786 February -0.3592
-4.4786 Fedora -0.3455
-4.1776 File -0.3604
-4.4786 Firefox -0.3605
-4.4786 Fischer -0.3455
-4.1776 Fourier -0.3606
-4.4786 France -0.3428
-4.4786 FreeBSD -0.3455
-4.4786 FreeSpeech -0.3537
-4.4786 Frequently -0.3606
-4.1776 GI -0.3599
-4.4786 GNU -0.3600
-4.4786 GPS -0.3606
-4.0015 GUI -0.3432
-3.8765 Gaussian -0.3600
-4.1776 Gb -0.3505
-4.4786 German -0.3455
-4.4786 Ghantt -0.3606
-4.1776 Google -0.3593
-4.1776 HTML -0.3602
-4.1776 Hank -0.3592
-3.0984 Henry -0.2980
-4.4786 Hoboken -0.3455
-3.1564 Huffman -0.3534
-3.1564 I -0.3538
-4.0015 I'm -0.3603
-4.1776 I've -0.3603
-4.0015 IBM -0.3432
-4.4786 III -0.3428
-4.4786 IIS -0.3537
-4.1776 IO -0.3602
-4.1776 ISDN -0.3342
-4.4786 Indian -0.3510
-4.4786 Inlet -0.3546
-4.1776 Intel -0.3605
-4.4786 Is -0.3605
-4.4786 Jacob -0.3606
-4.4786 James -0.3606
-4.1776 January -0.3449
-4.4786 Jeremy -0.3606
-4.4786 Jim -0.3605
-4.4786 Joe -0.3449
-4.1776 Joseph -0.3606
-4.4786 Josh -0.3606
-4.4786 Journal -0.3455
-4.1776 July -0.3422
-4.4786 June -0.3510
-4.4786 Kempelen -0.3606
-4.4786 Kikuyu -0.3606
-4.4786 Kitco -0.3428
-4.4786 Kitcosilver -0.3537
-4.4786 Klenk -0.3455
-4.1776 Kohlberg -0.3598
-3.5244 Kroll -0.3354
-4.1776 Learn -0.3594
-4.4786 Lechner -0.3603
-2.7543 Linux -0.2629
-4.4786 Look -0.3597
-4.4786 Louchart -0.3606
-4.1776 Luther -0.3574
-4.4786 MHz -0.3455
-4.4786 Machiavellian -0.3546
-4.4786 Mageia -0.3455
-3.6335 Markov -0.3591
-3.5244 McLeod -0.3455
-4.0015 Mel -0.3581
-4.0015 Mellon -0.3448
-4.4786 Mexico -0.3568
-3.6335 Microsoft -0.3587
-4.4786 Microsystems -0.3455
-4.4786 Midwest -0.3492
-4.4786 Mint -0.3455
-4.4786 Missouri -0.3606
-4.4786 Mountain -0.3606
-4.0015 Museet -0.3385
-4.4786 MySpace -0.3602
-4.4786 NASA -0.3584
-4.4786 NCT -0.3600
-4.4786 NJ -0.3591
-4.4786 NT -0.3605
-4.4786 Nathaniel -0.3606
-3.8765 Nelson -0.3455
-4.4786 Netware -0.3597
-4.4786 Ninilchick -0.3606
-4.4786 Noren -0.3449
-4.4786 Norton -0.3606
-4.4786 OK -0.3546
-4.4786 OOP -0.3455
-4.0015 OS -0.3582
-4.1776 Ohio -0.3427
-4.1776 OpenSuse -0.3355
-4.4786 Oppenheim -0.3546
-3.6335 PBX -0.3247
-3.5244 PC -0.3108
-4.4786 PCLinuxOS -0.3455
-3.8765 PCs -0.3499
-4.4786 PDFs -0.3588
-4.1776 PHP -0.3449
-4.1776 POS -0.3600
-4.4786 POSIX -0.3455
-4.4786 Perl -0.3510
-4.4786 PhD -0.3606
-3.8765 Pitts -0.3438
-2.7710 PocketSphinx -0.2607
-4.4786 Polytechnic -0.3606
-4.4786 Popen -0.3606
-4.4786 PowerPoint -0.3606
-4.0015 Python -0.3606
-4.0015 Python's -0.3606
-4.4786 RCA -0.3455
-4.4786 RF -0.3588
-4.4786 ROI -0.3588
-4.4786 Rembetski -0.3455
-4.4786 Richard -0.3606
-4.1776 Riordan -0.3537
-4.4786 Saturday -0.3505
-3.4372 Scientology -0.3407
-4.4786 SeaMonkey -0.3604
-4.4786 Sean -0.3606
-4.4786 Selma -0.3606
-4.4786 September -0.3606
-4.0015 Sharon -0.3596
-4.4786 Slackware -0.3599
-4.1776 SourceForge -0.3428
-4.4786 SouthCentral -0.3606
-4.4786 Spanish -0.3428
-4.4786 Street -0.3606
-4.4786 Sun -0.3606
-4.1776 Swedish -0.3606
-4.4786 Switchboard -0.3510
-4.4786 TCP -0.3591
-4.4786 TM -0.3588
-4.4786 Taleb -0.3606
-4.0015 Tekniska -0.3606
-4.4786 Tereza -0.3606
-4.4786 The -0.3606
-4.4786 Tony -0.3606
-3.8765 Trevino -0.3455
-4.4786 Trippe -0.3603
-4.4786 True -0.3428
-4.4786 Tsimshian -0.3606
-4.4786 Turing -0.3603
-4.4786 UDP -0.3606
-4.1776 UI -0.3575
-4.4786 UNIX -0.3455
-4.4786 UOP -0.3449
-3.6335 URL -0.3405
-3.5755 URLs -0.3362
-4.4786 USA -0.3455
-3.5244 UTF -0.3581
-4.0015 Ubuntu -0.3448
-3.3994 Unicode -0.3598
-4.4786 Used -0.3606
-4.4786 VPN -0.3602
-4.4786 Valgrind -0.3510
-4.4786 View -0.3455
-4.4786 Virginia -0.3606
-4.4786 Viterbi's -0.3604
-4.4786 Wall -0.3606
-4.0015 Wikipedia -0.3266
-4.4786 Wiley -0.3606
-4.1776 Williams -0.3455
-4.0015 Windows -0.3606
-4.4786 Wolfgang -0.3606
-3.3994 XP -0.3253
-4.4786 Zaleski -0.3510
-4.4786 Zedar -0.3455
-4.4786 [left-bracket -0.3604
-3.3025 \backslash -0.3537
-4.1776 ]right-bracket -0.3383
-3.6335 _underscore -0.3598
-1.7296 a -0.2454
-4.4786 aardvark -0.3605
-4.4786 abbreviated -0.3606
-4.4786 abbreviations -0.3510
-3.8765 ability -0.3309
-3.0015 able -0.3492
-3.2233 about -0.3182
-4.1776 above -0.3577
-4.4786 abrogate -0.3606
-4.4786 absent -0.3505
-4.4786 absolutes -0.3510
-4.4786 abstract -0.3600
-4.4786 abundance -0.3505
-4.4786 academic -0.3606
-4.1776 accent -0.3355
-4.0015 acceptable -0.3434
-4.4786 acceptance -0.3428
-3.7004 accepted -0.3251
-3.3994 access -0.3381
-3.8765 accessed -0.3587
-4.4786 accessible -0.3604
-4.4786 accessing -0.3573
-4.4786 accommodate -0.3604
-4.4786 accompany -0.3342
-4.4786 accomplish -0.3597
-4.4786 accomplished -0.3584
-3.3325 according -0.3492
-3.7796 account -0.3266
-4.4786 accounting -0.3455
-4.4786 accumulating -0.3428
-2.9872 accuracy -0.2988
-3.7796 accurate -0.3594
-4.4786 achieve -0.3606
-3.6335 achieved -0.3420
-4.1776 achieving -0.3577
-4.4786 acknowledgments -0.3573
-3.0015 acoustic -0.3544
-4.1776 acoustics -0.3487
-4.4786 acquired -0.3605
-4.4786 acquisition -0.3505
-4.4786 acronyms -0.3455
-4.0015 across -0.3252
-4.4786 acting -0.3546
-3.7796 action -0.3382
-3.8765 actions -0.3270
-4.4786 active -0.3603
-4.1776 actively -0.3606
-4.0015 activities -0.3271
-4.4786 activity -0.3428
-3.8765 actual -0.3563
-4.1776 actually -0.3606
-4.4786 adamant -0.3510
-3.8765 adapt -0.3378
-4.4786 adaptable -0.3590
-4.4786 adaptation -0.3600
-4.1776 adapted -0.3477
-4.1776 adapting -0.3221
-4.4786 adaptive -0.3604
-4.1776 add -0.3563
-4.0015 added -0.3482
-3.8765 addition -0.3181
-3.5244 additional -0.3599
-3.3994 additionally -0.3181
-4.4786 additions -0.3578
-4.4786 additive -0.3606
-4.0015 address -0.3424
-4.4786 addressed -0.3492
-4.4786 adds -0.3342
-4.1776 adequate -0.3562
-4.4786 adequately -0.3605
-4.4786 adheres -0.3492
-4.4786 adhering -0.3492
-4.4786 adjusted -0.3606
-4.4786 adjusting -0.3342
-4.4786 adjustment -0.3505
-4.1776 administrator -0.3383
-4.1776 administrators -0.3604
-4.4786 adopt -0.3455
-4.4786 adopted -0.3428
-4.4786 adopting -0.3605
-4.4786 adult -0.3605
-4.1776 adults -0.3428
-4.4786 advance -0.3455
-4.4786 advantage -0.3505
-3.6335 advantages -0.3364
-4.4786 adversely -0.3428
-4.4786 advocate -0.3606
-4.4786 advocated -0.3573
-4.4786 advocates -0.3606
-4.1776 advocating -0.3602
-4.1776 affect -0.3326
-4.4786 affected -0.3584
-4.4786 afford -0.3428
-2.9345 after -0.3145
-4.4786 afternoon -0.3428
-4.1776 again -0.3428
-3.7796 against -0.3328
-3.8765 age -0.3305
-4.1776 agrees -0.3475
-4.4786 ahead -0.3428
-4.4786 aid -0.3342
-4.0015 aim -0.3322
-4.1776 aimed -0.3492
-4.4786 aircraft -0.3606
-4.4786 alarmingly -0.3455
-4.4786 album -0.3428
-4.1776 albums -0.3579
-2.9872 algorithm -0.2315
-3.3325 algorithms -0.2725
-4.4786 align -0.3590
-4.4786 aligns -0.3590
-4.1776 alike -0.3355
-2.8658 all -0.2685
-4.0015 allow -0.3342
-4.1776 allowed -0.3327
-3.3325 allows -0.3212
-3.8765 almost -0.3599
-4.1776 alone -0.3405
-3.7796 along -0.3397
-3.8765 alpha -0.3477
-4.1776 alphabet -0.3447
-3.7004 already -0.3532
-2.8451 also -0.2949
-3.8765 alt -0.3581
-4.4786 alternate -0.3605
-4.4786 alternative -0.3492
-4.1776 alternatively -0.3455
-4.4786 alternatives -0.3492
-3.4786 although -0.3270
-4.4786 always -0.3598
-3.3325 am -0.3568
-4.4786 ambient -0.3606
-3.5244 among -0.3591
-3.5755 amount -0.3505
-4.4786 amounts -0.3505
-4.4786 amplitude -0.3505
-2.4217 an -0.3455
-3.5755 analysis -0.3181
-4.1776 analyzers -0.3598
-4.4786 ancient -0.3605
-1.6577 and -0.0781
-4.1776 android -0.3426
-4.4786 anger -0.3428
-3.3994 another -0.3282
-4.4786 anova -0.3588
-4.4786 answered -0.3455
-4.1776 anthropocentric -0.3411
-3.7796 anti -0.3581
-4.4786 anticipating -0.3605
-4.1776 antivirus -0.3606
-3.0472 any -0.3427
-4.4786 anybody -0.3584
-4.1776 anyone -0.3595
-3.8765 anything -0.3383
-4.1776 anywhere -0.3545
-4.4786 apart -0.3592
-4.4786 apparatus -0.3510
-4.1776 apparent -0.3604
-4.4786 apparently -0.3568
-4.4786 appeal -0.3428
-4.4786 appearing -0.3492
-4.4786 appears -0.3546
-4.4786 appended -0.3492
-4.4786 appendix -0.3525
-4.4786 applauds -0.3606
-4.4786 apple -0.3598
-4.4786 appliance -0.3455
-4.4786 applicable -0.3492
-4.4786 applicants -0.3590
-2.7462 application -0.2636
-3.0636 applications -0.2893
-4.1776 applied -0.3492
-4.1776 applies -0.3492
-4.1776 apply -0.3508
-4.4786 applying -0.3606
-4.4786 appreciated -0.3604
-3.3025 approach -0.2669
-3.3325 approaches -0.3164
-4.1776 appropriate -0.3595
-4.4786 approved -0.3455
-4.1776 approximate -0.3342
-4.1776 approximated -0.3597
-4.4786 approximating -0.3342
-4.1776 approximation -0.3504
-4.4786 arbitrarily -0.3604
-4.4786 arch -0.3599
-4.0015 architecture -0.3351
-2.2021 are -0.2187
-4.4786 are)right-paren -0.3606
-3.6335 area -0.3177
-3.2481 areas -0.2914
-4.0015 arguments -0.3600
-4.4786 arise -0.3546
-4.1776 arm -0.3606
-4.4786 army -0.3606
-3.3647 around -0.2391
-4.0015 arpa -0.3585
-4.4786 arrangement -0.3428
-4.4786 arrangements -0.3510
-4.4786 array -0.3505
-4.4786 arrays -0.3455
-4.4786 arrives -0.3492
-4.4786 art -0.3591
-4.4786 article -0.3606
-4.1776 articles -0.3590
-4.4786 articulated -0.3597
-4.4786 articulates -0.3591
-4.4786 articulation -0.3605
-4.0015 articulatory -0.3604
-4.4786 artificial -0.3606
-4.4786 artists -0.3600
-2.1322 as -0.2425
-4.4786 asleep -0.3449
-4.4786 aspects -0.3505
-4.4786 assembly -0.3601
-4.4786 assessment -0.3605
-4.1776 assigned -0.3503
-4.4786 assigning -0.3605
-3.3325 assignment -0.3530
-3.5755 assignments -0.3388
-4.4786 assigns -0.3525
-4.1776 assist -0.3546
-3.8765 associated -0.3486
-4.1776 assume -0.3572
-4.1776 assumed -0.3463
-4.4786 assumes -0.3578
-3.7796 assuming -0.3496
-4.4786 assumption -0.3604
-2.6461 at -0.3141
-4.1776 attached -0.3309
-4.4786 attempt -0.3492
-4.4786 attempting -0.3492
-4.1776 attempts -0.3492
-4.4786 attention -0.3428
-4.4786 attenuated -0.3574
-4.4786 attorney -0.3606
-4.4786 attract -0.3606
-4.0015 attributes -0.3379
-4.1776 audacity -0.3355
-4.4786 audience -0.3428
-2.9601 audio -0.3578
-4.4786 august -0.3588
-4.4786 authentication -0.3455
-4.1776 author -0.3491
-4.4786 authorized -0.3604
-4.1776 automate -0.3341
-4.0015 automated -0.3409
-3.7004 automatic -0.3585
-3.7796 automatically -0.3165
-3.8765 automation -0.3350
-4.0015 automotive -0.3355
-4.4786 auxiliary -0.3605
-4.4786 availability -0.3593
-2.9345 available -0.2957
-4.4786 availed -0.3603
-3.8765 average -0.3602
-4.0015 avoid -0.3604
-4.4786 avoiding -0.3605
-4.4786 aware -0.3455
-4.0015 away -0.3205
-4.0015 b -0.3436
-3.7004 back -0.3261
-4.1776 background -0.3604
-4.4786 backups -0.3505
-3.5244 backward -0.3594
-3.7796 bad -0.3353
-4.1776 balance -0.3503
-4.4786 balances -0.3590
-4.4786 bandwidth -0.3606
-4.4786 bank -0.3342
-4.1776 bankrupt -0.3512
-4.4786 base -0.3604
-2.9345 based -0.3094
-4.4786 baseline -0.3449
-3.7796 basic -0.3590
-4.4786 basically -0.3606
-4.1776 bass -0.3602
-3.7796 batch -0.3337
-4.4786 batteries -0.3590
-2.0553 be -0.2506
-4.1776 beam -0.3580
-4.4786 beating -0.3505
-3.8765 became -0.3525
-3.5244 because -0.3179
-3.5244 become -0.3317
-3.7004 becomes -0.3593
-4.1776 becoming -0.3605
-4.4786 bed -0.3428
-4.4786 bedroom -0.3428
-2.8765 been -0.3405
-4.4786 beetles -0.3510
-3.7796 before -0.3448
-4.0015 began -0.3491
-3.4786 begin -0.3268
-4.1776 beginning -0.3498
-4.4786 begins -0.3342
-4.4786 behave -0.3546
-4.4786 behaves -0.3602
-3.7004 behavior -0.3241
-4.4786 behavioral -0.3593
-4.4786 behaviors -0.3510
-3.8765 behind -0.3460
-3.4372 being -0.3272
-4.1776 belong -0.3492
-4.4786 below -0.3546
-4.1776 benchmark -0.3508
-4.4786 benchmarks -0.3428
-4.4786 beneficial -0.3492
-3.8765 benefit -0.3521
-4.1776 benefits -0.3500
-4.4786 berg -0.3449
-4.4786 berries -0.3455
-4.0015 besides -0.3341
-3.2745 best -0.3448
-3.8765 bet -0.3440
-3.6335 beta -0.3571
-3.8765 bets -0.3568
-3.3325 better -0.3127
-4.0015 betting -0.3604
-3.3647 between -0.3323
-4.4786 beyond -0.3342
-4.4786 bi-gram -0.3597
-4.4786 biased -0.3606
-4.4786 bible -0.3492
-3.8765 big -0.3602
-4.0015 bigger -0.3600
-4.4786 biggest -0.3605
-4.1776 bigram -0.3445
-3.7796 bill -0.3527
-4.4786 bills -0.3602
-4.1776 bin -0.3604
-4.4786 binary -0.3606
-4.4786 biocentric -0.3428
-4.4786 biscuit -0.3606
-3.7796 biscuits -0.3263
-3.7004 bit -0.3464
-3.3994 black -0.3346
-4.4786 blank -0.3605
-4.4786 bleeding -0.3581
-4.4786 bliss -0.3428
-4.4786 blocks -0.3505
-4.4786 blow -0.3602
-4.4786 boats -0.3455
-4.4786 boiler -0.3606
-4.0015 book -0.3474
-4.4786 bookstore -0.3604
-4.4786 boon -0.3492
-4.4786 border -0.3606
-3.3025 both -0.3189
-4.4786 bound -0.3492
-4.0015 boundaries -0.3414
-3.8765 boundary -0.3534
-3.0984 box -0.3310
-4.0015 branch -0.3604
-4.1776 branches -0.3545
-4.1776 break -0.3326
-4.4786 breaks -0.3428
-4.4786 breathing -0.3455
-4.4786 breech -0.3597
-4.4786 brewing -0.3606
-4.0015 brief -0.3604
-4.4786 bright -0.3605
-4.4786 brightness -0.3455
-4.4786 bring -0.3605
-4.1776 brings -0.3606
-4.4786 broad -0.3606
-4.4786 broadcast -0.3588
-4.4786 broader -0.3606
-4.4786 broken -0.3606
-4.4786 brother -0.3546
-4.4786 browse -0.3492
-4.4786 browsed -0.3510
-3.8765 browser -0.2992
-4.4786 budget -0.3606
-4.4786 budgeted -0.3492
-3.7796 buffer -0.3400
-3.7004 bugs -0.3561
-4.4786 build -0.3525
-3.7796 building -0.3426
-3.8765 built -0.3430
-4.4786 bundled -0.3546
-3.1362 business -0.3164
-4.4786 businesses -0.3449
-4.4786 busy -0.3568
-2.9471 but -0.2832
-4.0015 button -0.3428
-4.4786 buttons -0.3428
-4.1776 buy -0.3524
-4.4786 buying -0.3342
-4.1776 bxs -0.3492
-2.2827 by -0.2881
-4.4786 bye -0.3594
-4.0015 byte -0.3605
-4.4786 bytes -0.3592
-3.3647 c -0.3307
-4.4786 cabinet -0.3428
-4.4786 cable -0.3492
-4.1776 cables -0.3436
-4.4786 cache -0.3606
-4.1776 calculate -0.3340
-3.8765 calculated -0.3405
-4.1776 calculates -0.3255
-4.4786 calculating -0.3342
-4.4786 calculations -0.3428
-3.3647 call -0.3381
-3.3994 called -0.3162
-4.0015 caller -0.3606
-3.8765 calls -0.3420
-2.2939 can -0.2839
-4.4786 canals -0.3455
-4.4786 candidate -0.3600
-4.4786 candidates -0.3428
-4.4786 cannot -0.3568
-4.0015 capabilities -0.3236
-4.4786 capability -0.3455
-3.8765 capable -0.3344
-4.1776 capacity -0.3588
-4.4786 captain -0.3455
-4.4786 card -0.3455
-4.4786 cards -0.3455
-4.0015 care -0.3526
-4.1776 career -0.3513
-4.0015 careful -0.3489
-4.0015 carefully -0.3581
-4.4786 carried -0.3588
-4.4786 carrier -0.3606
-4.4786 carriers -0.3428
-4.4786 carry -0.3588
-4.4786 cars -0.3455
-3.3025 case -0.3100
-3.8765 cases -0.2946
-4.1776 casual -0.3427
-4.1776 catastrophic -0.3606
-4.4786 catch -0.3428
-4.4786 categorically -0.3603
-4.0015 categories -0.3322
-4.4786 categorization -0.3606
-4.4786 categorize -0.3342
-4.4786 category -0.3606
-4.4786 cause -0.3342
-4.4786 caused -0.3584
-4.4786 causes -0.3510
-3.6335 cell -0.3383
-3.8765 center -0.3544
-4.4786 centers -0.3455
-4.1776 central -0.3603
-4.4786 centralized -0.3599
-4.1776 century -0.3525
-4.1776 cepstral -0.3605
-3.8765 cepstrum -0.3309
-3.5755 certain -0.3594
-4.4786 certainly -0.3606
-4.4786 certify -0.3342
-4.0015 challenge -0.3568
-3.6335 challenges -0.3273
-4.0015 challenging -0.3599
-3.7004 change -0.3250
-3.6335 changed -0.3017
-3.7796 changes -0.3255
-4.4786 channel -0.3455
-4.4786 channels -0.3606
-3.4372 chapter -0.3353
-4.0015 character -0.3355
-4.4786 characteristic -0.3604
-4.1776 characteristics -0.3505
-4.4786 characterized -0.3584
-4.4786 characters -0.3455
-3.8765 charge -0.3322
-4.4786 charters -0.3510
-4.1776 charts -0.3433
-4.4786 chat -0.3606
-4.0015 cheap -0.3510
-4.4786 cheaper -0.3492
-3.6335 check -0.3530
-3.8765 checkbook -0.3606
-4.0015 checked -0.3246
-3.5755 checking -0.3177
-4.1776 checks -0.3337
-4.4786 chicken -0.3510
-4.4786 child -0.3605
-4.4786 childhood -0.3428
-4.0015 children -0.3602
-4.4786 chinook -0.3604
-4.4786 chips -0.3428
-4.4786 choice -0.3568
-3.8765 choose -0.3337
-4.4786 choosing -0.3603
-4.4786 chores -0.3599
-4.0015 chose -0.3492
-3.8765 chosen -0.3601
-4.4786 chum -0.3604
-4.4786 church -0.3604
-4.1776 circuit -0.3606
-4.4786 circuits -0.3606
-4.4786 circumstances -0.3455
-4.4786 cited -0.3455
-4.4786 citizens -0.3505
-4.4786 city -0.3606
-4.4786 clarity -0.3455
-3.5244 class -0.3356
-3.8765 classes -0.3151
-4.4786 classic -0.3605
-4.1776 classroom -0.3428
-4.4786 cleanups -0.3510
-3.8765 clear -0.3187
-4.4786 cleared -0.3606
-4.1776 clearly -0.3604
-3.7004 click -0.3279
-4.4786 clicking -0.3342
-4.4786 clicks -0.3428
-4.0015 client -0.3427
-3.7004 clients -0.3337
-4.4786 climb -0.3492
-4.4786 climbing -0.3455
-4.4786 clones -0.3428
-4.0015 close -0.3055
-4.1776 closed -0.3466
-4.4786 cluster -0.3428
-4.1776 co -0.3581
-4.1776 co-variance -0.3606
-4.4786 coast -0.3428
-4.4786 coasts -0.3455
-4.4786 coax -0.3591
-2.9345 code -0.2810
-4.1776 codename -0.3455
-4.4786 codified -0.3546
-4.4786 coding -0.3606
-4.1776 coefficients -0.3455
-4.1776 coffee -0.3421
-4.4786 coho -0.3604
-4.1776 coin -0.3606
-4.4786 cold -0.3594
-4.4786 collaborate -0.3510
-4.4786 collaboration -0.3591
-4.4786 collaborative -0.3605
-4.4786 colleagues -0.3510
-3.6335 collect -0.3415
-4.1776 collecting -0.3518
-4.4786 collection -0.3505
-4.4786 colon -0.3594
-4.4786 colons -0.3455
-4.1776 color -0.3606
-4.1776 com -0.3451
-4.1776 combination -0.3388
-4.1776 combined -0.3529
-4.4786 combining -0.3603
-4.0015 combo -0.3592
-4.1776 come -0.3590
-4.0015 comes -0.3596
-4.1776 coming -0.3603
-3.3994 command -0.3421
-3.5755 commands -0.2932
-4.4786 commas -0.3510
-4.4786 commentaries -0.3455
-3.7796 commercial -0.3582
-4.4786 commit -0.3492
-3.1998 common -0.3286
-4.4786 commonly -0.3606
-4.0015 communicate -0.3468
-3.8765 communication -0.3504
-4.4786 communications -0.3492
-4.4786 communities -0.3492
-4.0015 community -0.3234
-4.4786 compact -0.3603
-3.8765 companies -0.3402
-3.3025 company -0.2795
-4.4786 comparable -0.3492
-4.4786 compare -0.3600
-3.8765 compared -0.3492
-4.4786 comparing -0.3599
-4.4786 comparison -0.3590
-4.4786 compatibility -0.3591
-4.1776 compatible -0.3589
-3.8765 compensation -0.3343
-4.1776 competitive -0.3606
-3.7796 compile -0.3307
-4.0015 compiled -0.3466
-4.0015 compiler -0.3606
-4.4786 compilers -0.3428
-4.0015 compiling -0.3342
-4.4786 complements -0.3342
-3.6335 complete -0.3237
-4.0015 completed -0.3272
-4.1776 completely -0.3604
-4.4786 completes -0.3606
-4.0015 completion -0.3322
-3.6335 complex -0.3465
-4.1776 complexity -0.3350
-4.4786 complicated -0.3574
-3.5755 component -0.3403
-3.3994 components -0.2851
-3.8765 composed -0.3584
-4.4786 composing -0.3455
-4.0015 compound -0.3606
-4.4786 comprehensive -0.3606
-4.4786 compressing -0.3342
-4.4786 comprise -0.3605
-3.7796 comprises -0.3338
-4.4786 comprising -0.3602
-4.4786 compromise -0.3449
-4.4786 compromised -0.3602
-4.4786 computation -0.3428
-3.7796 computational -0.3601
-4.1776 computationally -0.3606
-4.4786 computations -0.3574
-3.8765 compute -0.3334
-3.8765 computed -0.3597
-3.1776 computer -0.2841
-3.7796 computers -0.3127
-4.1776 concatenation -0.3344
-4.1776 concept -0.3505
-4.4786 concepts -0.3428
-3.8765 concern -0.3233
-4.4786 concerned -0.3604
-4.0015 concerning -0.3523
-4.1776 concerns -0.3365
-3.7796 conclusion -0.3258
-4.0015 conclusions -0.3234
-4.0015 condition -0.3600
-4.4786 conditional -0.3602
-4.0015 conditions -0.3451
-4.4786 conference -0.3606
-4.4786 conferencing -0.3455
-4.4786 confidentiality -0.3606
-3.7796 configuration -0.3151
-4.1776 configurations -0.3436
-4.4786 configured -0.3606
-4.1776 confirm -0.3602
-4.4786 conflicted -0.3590
-4.4786 conform -0.3492
-4.4786 connect -0.3342
-4.4786 connected -0.3428
-4.0015 connecting -0.3606
-4.4786 connections -0.3428
-4.4786 connectivity -0.3606
-4.0015 connects -0.3491
-4.4786 consciously -0.3606
-4.4786 consecutive -0.3606
-4.4786 consequently -0.3455
-4.4786 conservation -0.3603
-3.8765 consider -0.3016
-4.4786 consideration -0.3428
-3.8765 considered -0.3219
-4.1776 considering -0.3577
-4.1776 consist -0.3505
-4.1776 consisted -0.3527
-4.4786 consistencies -0.3546
-4.4786 consistent -0.3590
-4.4786 consists -0.3505
-4.4786 constant -0.3599
-4.0015 constrained -0.3583
-4.1776 constraints -0.3604
-4.1776 construct -0.3335
-4.4786 constructed -0.3590
-4.4786 constructor -0.3581
-3.3647 consulting -0.3368
-4.4786 consuming -0.3510
-3.7004 contact -0.3421
-3.4372 contain -0.3234
-4.4786 contained -0.3604
-4.4786 containers -0.3510
-3.2481 containing -0.3208
-3.6335 contains -0.3244
-4.4786 contaminated -0.3604
-3.6335 content -0.3446
-4.4786 contention -0.3578
-4.1776 contents -0.3505
-4.1776 context -0.3422
-3.8765 continue -0.3486
-4.1776 continued -0.3221
-4.4786 continues -0.3606
-3.4786 continuous -0.3264
-4.4786 continuously -0.3568
-4.4786 contract -0.3606
-4.4786 contracted -0.3584
-4.1776 contrast -0.3455
-4.4786 contribute -0.3492
-4.4786 contributes -0.3492
-4.4786 contributing -0.3606
-4.1776 contribution -0.3418
-4.1776 contributions -0.3400
-3.7796 control -0.3368
-4.4786 controlled -0.3584
-4.4786 controversial -0.3605
-4.4786 convenient -0.3568
-4.4786 convention -0.3602
-4.4786 conventions -0.3455
-4.4786 converge -0.3600
-4.1776 convergence -0.3505
-4.4786 conversation -0.3449
-4.1776 conversational -0.3488
-3.7004 conversion -0.3344
-3.8765 convert -0.3567
-4.1776 converted -0.3518
-4.4786 converter -0.3599
-4.4786 converting -0.3342
-4.1776 converts -0.3589
-4.4786 convey -0.3525
-4.4786 coordinate -0.3590
-4.4786 copied -0.3492
-4.0015 copy -0.3579
-4.4786 copyright -0.3606
-4.4786 copyrighted -0.3603
-3.5244 core -0.3503
-4.4786 corner -0.3492
-4.4786 corners -0.3428
-4.4786 corpora -0.3604
-4.1776 corporate -0.3606
-3.1169 corpus -0.3012
-3.7004 correct -0.3421
-4.4786 corrected -0.3510
-4.1776 correction -0.3425
-3.3994 correctly -0.3259
-4.4786 correlated -0.3604
-4.1776 correspond -0.3492
-3.7004 corresponding -0.3483
-3.8765 corresponds -0.3492
-4.4786 cos -0.3601
-4.0015 cosmetic -0.3508
-3.7796 cost -0.3589
-4.1776 costs -0.3536
-3.2745 could -0.3501
-4.1776 count -0.3605
-4.4786 countries -0.3579
-4.0015 couple -0.3505
-4.4786 coupled -0.3590
-3.7796 course -0.2978
-4.1776 courses -0.3592
-4.4786 cover -0.3525
-3.2745 coverage -0.3219
-4.4786 crashed -0.3605
-3.3647 create -0.3112
-3.2481 created -0.3021
-4.1776 creates -0.3525
-3.3647 creating -0.3223
-3.7004 creation -0.3346
-4.4786 creations -0.3510
-4.0015 creative -0.3605
-4.4786 creativity -0.3590
-4.1776 credential -0.3428
-4.1776 credentials -0.3469
-4.4786 creeds -0.3492
-4.4786 crew -0.3605
-4.1776 crewmen -0.3579
-4.4786 crisis -0.3455
-4.1776 criterion -0.3327
-4.1776 critical -0.3492
-4.4786 cropping -0.3602
-4.1776 cross -0.3581
-4.4786 cruel -0.3606
-4.4786 crying -0.3510
-4.4786 cube -0.3605
-4.1776 cumbersome -0.3492
-4.4786 cup -0.3505
-4.4786 cure -0.3573
-4.4786 cures -0.3602
-3.3994 current -0.3407
-4.0015 currently -0.3416
-4.4786 curve -0.3590
-3.2233 custom -0.3565
-3.8765 customer -0.3603
-4.0015 customers -0.3304
-4.4786 cut -0.3605
-3.7004 cycle -0.3316
-4.4786 cycled -0.3604
-4.4786 cycles -0.3510
-4.4786 cynicism -0.3606
-3.0984 d -0.3427
-4.4786 daily -0.3606
-2.8254 data -0.2721
-4.0015 database -0.3587
-3.8765 databases -0.3410
-4.1776 date -0.3530
-4.0015 dates -0.3452
-4.4786 daunting -0.3604
-3.5244 day -0.3141
-3.7796 days -0.3133
-4.4786 db -0.3600
-4.1776 dead -0.3606
-4.1776 deal -0.3557
-4.0015 dealing -0.3590
-4.0015 deals -0.3590
-4.1776 debris -0.3514
-4.1776 debts -0.3602
-3.8765 debug -0.3602
-4.0015 debugging -0.3597
-4.4786 decade -0.3455
-3.8765 decades -0.3090
-4.4786 decent -0.3602
-4.4786 decide -0.3492
-3.8765 decided -0.3492
-4.4786 decision -0.3606
-4.4786 decisions -0.3455
-3.4786 decode -0.3087
-3.6335 decoded -0.3379
-3.5755 decoder -0.2776
-4.1776 decoders -0.3422
-3.1776 decoding -0.3241
-4.4786 decrease -0.3342
-4.0015 decreasing -0.3336
-4.4786 deduction -0.3568
-4.4786 deep -0.3605
-4.4786 deeply -0.3449
-3.1776 default -0.3131
-4.4786 defect -0.3428
-4.4786 defends -0.3600
-4.4786 define -0.3525
-3.7004 defined -0.3304
-4.4786 defines -0.3605
-3.7004 definition -0.3345
-4.4786 definitions -0.3601
-4.4786 degradation -0.3505
-4.4786 degree -0.3606
-4.4786 degrees -0.3428
-4.4786 delay -0.3428
-4.4786 delayed -0.3606
-4.4786 delays -0.3546
-4.4786 deleted -0.3591
-4.4786 deletions -0.3604
-4.0015 dell -0.3448
-3.5244 delta -0.3578
-4.0015 demand -0.3568
-4.4786 demands -0.3449
-4.0015 demonstrate -0.3496
-4.4786 demonstrates -0.3578
-4.4786 dempster -0.3546
-4.4786 denote -0.3606
-4.0015 density -0.3602
-4.4786 department -0.3568
-4.4786 depend -0.3588
-4.4786 dependent -0.3606
-3.7796 depending -0.3588
-4.0015 depends -0.3582
-3.7796 depicted -0.3536
-4.0015 depicts -0.3321
-4.4786 deployment -0.3428
-4.4786 derivations -0.3455
-3.8765 describe -0.3302
-3.5755 described -0.3389
-3.5244 describes -0.3273
-4.4786 describing -0.3342
-3.8765 description -0.3051
-4.4786 descriptoin -0.3606
-3.5244 design -0.3274
-3.3994 designed -0.2892
-4.4786 designer -0.3455
-4.1776 designing -0.3510
-3.7004 desired -0.3295
-4.4786 desires -0.3606
-4.0015 desk -0.3509
-3.7004 desktop -0.3242
-4.4786 desktops -0.3537
-4.0015 despite -0.3342
-3.8765 detail -0.3152
-3.7004 detailed -0.3471
-4.1776 details -0.3562
-4.4786 detect -0.3606
-3.4372 determine -0.3324
-3.5755 determined -0.3204
-4.4786 determines -0.3602
-4.4786 determining -0.3606
-3.5244 develop -0.2997
-3.3025 developed -0.2883
-3.8765 developer -0.3576
-4.0015 developers -0.3146
-4.4786 developing -0.3590
-2.7884 development -0.2747
-4.0015 device -0.3262
-3.6335 devices -0.3258
-4.4786 diagnostic -0.3605
-4.0015 diagram -0.3104
-4.4786 diagrams -0.3455
-4.4786 dialog -0.3428
-3.5244 dic -0.3202
-3.5244 dict -0.3427
-4.4786 dict-generator -0.3602
-4.4786 dictate -0.3600
-3.7004 dictation -0.3347
-3.8765 dictionaries -0.3331
-2.6724 dictionary -0.2136
-3.7796 did -0.3522
-4.4786 die -0.3605
-3.7796 difference -0.3415
-4.4786 differences -0.3546
-2.8875 different -0.3371
-4.1776 differentials -0.3505
-4.4786 differs -0.3592
-3.5244 difficult -0.3479
-4.0015 difficulties -0.3590
-4.4786 digestion -0.3455
-4.1776 digit -0.3271
-3.8765 digital -0.3599
-4.4786 digits -0.3568
-4.4786 dilemma -0.3593
-4.4786 dilemmas -0.3510
-4.4786 dimension -0.3537
-4.4786 dimming -0.3455
-4.0015 direct -0.3601
-4.1776 direction -0.3377
-4.4786 directions -0.3510
-3.7796 directly -0.3409
-4.4786 director -0.3505
-4.4786 directory -0.3606
-4.4786 disadvantages -0.3505
-4.4786 disappear -0.3428
-4.4786 disappearance -0.3505
-3.8765 discard -0.3571
-4.1776 discipline -0.3455
-4.4786 disciplines -0.3601
-4.4786 discover -0.3601
-4.4786 discovered -0.3605
-4.0015 discovery -0.3270
-4.4786 discrete -0.3606
-4.1776 discriminate -0.3509
-4.1776 discussed -0.3422
-4.1776 discusses -0.3342
-4.0015 discussion -0.3606
-4.4786 discussions -0.3584
-4.4786 dishes -0.3428
-4.4786 disk -0.3510
-4.4786 disks -0.3606
-4.4786 dismantling -0.3606
-3.8765 display -0.3508
-3.7004 displayed -0.3256
-4.4786 disputes -0.3455
-4.4786 distance -0.3606
-4.4786 distinguish -0.3605
-4.1776 distortions -0.3492
-3.7796 distribution -0.3148
-4.1776 distributions -0.3606
-4.1776 distros -0.3508
-4.1776 diverse -0.3605
-4.4786 diversity -0.3510
-4.4786 divide -0.3584
-4.4786 dll -0.3597
-3.1169 do -0.3238
-4.4786 doctor -0.3546
-3.8765 document -0.3605
-3.4372 documentation -0.3256
-3.5244 documents -0.3529
-3.3025 does -0.3322
-4.4786 dog -0.3588
-3.7004 doing -0.3322
-3.8765 domain -0.3408
-4.4786 domains -0.3428
-4.4786 domestic -0.3606
-4.4786 don -0.3598
-3.3647 done -0.3519
-3.8765 double -0.3604
-4.4786 doubling -0.3602
-3.5755 down -0.2981
-3.7004 download -0.3037
-4.0015 downloaded -0.3592
-4.0015 downloading -0.3476
-4.4786 downloads -0.3600
-4.4786 drag -0.3606
-4.4786 drastically -0.3606
-4.4786 draw -0.3602
-4.4786 drawback -0.3505
-4.4786 drive -0.3428
-4.1776 driven -0.3584
-4.4786 drivers -0.3428
-4.4786 drives -0.3579
-4.4786 driving -0.3603
-3.5244 due -0.3309
-4.4786 dumping -0.3606
-4.4786 dumps -0.3591
-4.1776 duo -0.3599
-4.1776 duration -0.3505
-2.8658 during -0.3116
-4.1776 duty -0.3581
-4.1776 dynamic -0.3605
-4.4786 dynamite -0.3510
-3.8765 e -0.3424
-2.7543 each -0.3226
-4.4786 eager -0.3492
-4.0015 earlier -0.3545
-4.0015 early -0.3544
-4.4786 earn -0.3342
-4.0015 ease -0.3234
-3.6335 easier -0.3132
-3.7796 easily -0.3416
-4.4786 east -0.3606
-4.1776 eastern -0.3599
-4.1776 easy -0.3491
-4.4786 eat -0.3606
-4.4786 ecocentric -0.3591
-4.1776 economic -0.3606
-4.0015 economical -0.3429
-4.4786 ecosmiles -0.3455
-4.1776 ecosystem -0.3586
-4.1776 edge -0.3587
-4.4786 edges -0.3591
-3.8765 edit -0.3312
-4.1776 edited -0.3386
-4.1776 editing -0.3406
-4.1776 edition -0.3536
-4.4786 editor -0.3591
-4.1776 education -0.3428
-3.8765 effect -0.3505
-3.8765 effective -0.3448
-4.1776 effectively -0.3365
-3.5755 effects -0.3321
-3.7004 efficiency -0.3308
-3.7796 efficient -0.3319
-4.1776 efficiently -0.3586
-4.4786 efforts -0.3546
-3.6335 either -0.3332
-4.4786 elaborated -0.3597
-4.4786 elapsed -0.3605
-4.1776 elements -0.3421
-4.4786 eliminates -0.3342
-4.4786 else -0.3606
-4.4786 em -0.3588
-4.0015 email -0.3490
-3.5755 embedded -0.3562
-4.4786 emergencies -0.3455
-3.7796 emission -0.3502
-4.4786 emitting -0.3510
-4.4786 emphasize -0.3578
-4.4786 emphasized -0.3510
-4.1776 employed -0.3430
-4.1776 employees -0.3271
-4.4786 employers -0.3492
-4.4786 employment -0.3606
-4.4786 empty -0.3597
-4.4786 emulate -0.3525
-4.4786 en -0.3428
-4.0015 enable -0.3603
-4.0015 enabled -0.3598
-4.4786 enables -0.3606
-4.1776 encapsulation -0.3578
-3.5244 encoding -0.3292
-4.4786 encourage -0.3604
-4.4786 encouraged -0.3590
-4.4786 encouragement -0.3601
-4.4786 encouraging -0.3604
-4.4786 encryption -0.3606
-4.4786 encyclopedia -0.3428
-3.0984 end -0.2705
-4.4786 endanger -0.3342
-4.1776 ends -0.3510
-3.7796 energy -0.3141
-4.1776 engagement -0.3604
-4.1776 engine -0.3605
-4.4786 engineer -0.3455
-4.4786 engineering -0.3455
-4.0015 enhance -0.3337
-4.4786 enhanced -0.3591
-4.4786 enhancements -0.3510
-4.4786 enjoy -0.3605
-4.4786 enjoyable -0.3606
-3.7796 enough -0.3487
-3.4786 ensure -0.3292
-4.4786 ensured -0.3428
-4.1776 ensures -0.3341
-4.1776 ensuring -0.3492
-4.4786 enter -0.3525
-4.4786 entered -0.3600
-4.4786 entering -0.3601
-4.4786 enthused -0.3604
-3.7004 entire -0.3564
-4.1776 entirely -0.3365
-4.4786 entitlement -0.3581
-4.1776 envelope -0.3427
-3.2233 environment -0.2929
-3.0472 environmental -0.3450
-4.4786 epistemology -0.3455
-4.4786 epsilon -0.3455
-4.1776 equal -0.3492
-4.4786 equation -0.3591
-4.4786 equidistant -0.3588
-3.7796 equipment -0.3244
-4.4786 equipped -0.3590
-4.4786 equitable -0.3606
-4.4786 equities -0.3601
-4.1776 equivalence -0.3606
-4.4786 er -0.3606
-3.3025 error -0.3406
-3.4372 errors -0.3200
-4.4786 escape -0.3605
-4.4786 escorts -0.3568
-4.1776 especially -0.3600
-3.8765 essential -0.3548
-4.4786 essentially -0.3455
-4.1776 established -0.3584
-4.1776 estimate -0.3406
-4.0015 estimated -0.3339
-3.8765 estimates -0.3311
-4.4786 estimating -0.3592
-4.4786 estimator -0.3546
-4.1776 etc -0.3409
-3.1362 ethical -0.3565
-3.0984 ethics -0.2891
-4.4786 ethnobiology -0.3510
-4.4786 ethnobotanical -0.3604
-4.4786 etymology -0.3505
-3.4786 evaluate -0.3284
-4.0015 evaluated -0.3263
-4.0015 evaluating -0.3339
-3.5755 evaluation -0.3315
-3.0984 even -0.3145
-4.1776 evening -0.3428
-3.7796 event -0.3140
-4.4786 events -0.3578
-4.4786 eventual -0.3606
-4.0015 eventually -0.3605
-4.4786 ever -0.3428
-3.3025 every -0.3535
-4.1776 everyone -0.3556
-4.4786 everyone's -0.3604
-4.4786 everything -0.3537
-4.4786 evidence -0.3505
-4.4786 evolution -0.3505
-4.0015 evolved -0.3426
-4.4786 evolving -0.3606
-4.1776 exact -0.3603
-3.7796 exactly -0.3333
-4.4786 examine -0.3599
-4.4786 examining -0.3525
-2.7152 example -0.3103
-4.1776 examples -0.3487
-4.1776 exceed -0.3602
-4.4786 exception -0.3537
-4.4786 exciting -0.3604
-4.4786 exclamation -0.3581
-4.4786 excuse -0.3537
-4.4786 excused -0.3455
-4.1776 executable -0.3504
-3.3325 execute -0.2833
-3.7004 executed -0.3091
-4.4786 executes -0.3605
-3.8765 executing -0.3342
-3.2481 execution -0.2766
-3.8765 executive -0.3605
-4.4786 exercise -0.3606
-4.4786 exhibit -0.3525
-4.4786 exhibitions -0.3597
-3.8765 exist -0.3464
-4.4786 existence -0.3505
-3.3325 existing -0.3548
-4.1776 exit -0.3342
-4.4786 expanded -0.3606
-4.1776 expands -0.3510
-3.7796 expectation -0.3402
-4.1776 expectations -0.3587
-3.4786 expected -0.3452
-4.4786 expenses -0.3428
-4.4786 expensive -0.3604
-3.6335 experience -0.3407
-3.7004 experienced -0.3467
-4.4786 experiences -0.3546
-4.4786 experiment -0.3590
-4.4786 experimentation -0.3510
-4.4786 expert -0.3606
-4.4786 expertise -0.3602
-4.1776 explain -0.3577
-4.0015 explained -0.3596
-4.4786 explains -0.3578
-4.4786 exponential -0.3606
-4.4786 exponentially -0.3428
-4.4786 express -0.3449
-3.8765 expressed -0.3241
-4.0015 expressions -0.3456
-4.4786 extend -0.3599
-4.4786 extendable -0.3592
-4.0015 extended -0.3606
-4.1776 extension -0.3413
-4.4786 extensions -0.3492
-4.1776 extensive -0.3603
-3.7796 external -0.3591
-4.4786 extra -0.3605
-4.1776 extract -0.3337
-4.4786 extracting -0.3597
-3.8765 extraction -0.2979
-3.3325 extractor -0.3197
-4.4786 extremely -0.3606
-4.4786 extremes -0.3605
-4.4786 eyes -0.3428
-4.4786 f -0.3601
-4.1776 face -0.3406
-4.0015 faced -0.3587
-4.1776 facilitator -0.3603
-3.7796 fact -0.3426
-4.1776 factor -0.3539
-4.4786 factories -0.3546
-3.7796 factors -0.3392
-4.4786 failing -0.3492
-4.1776 fails -0.3393
-4.4786 failures -0.3602
-3.7796 fairly -0.3598
-4.4786 faith -0.3546
-4.4786 fallacy -0.3455
-4.4786 falling -0.3606
-4.4786 falloff -0.3505
-4.1776 false -0.3605
-4.4786 familiar -0.3590
-4.4786 families -0.3568
-3.8765 family -0.3219
-4.1776 far -0.3455
-4.1776 farm -0.3494
-4.4786 farms -0.3428
-3.5755 fast -0.3461
-3.8765 faster -0.3069
-4.0015 fastest -0.3596
-4.4786 fate -0.3505
-4.4786 father -0.3598
-4.4786 favorite -0.3606
-4.4786 fear -0.3510
-4.0015 feasible -0.3492
-3.3647 feature -0.3405
-3.1169 features -0.2972
-4.1776 feel -0.3501
-4.4786 feeling -0.3605
-4.4786 feels -0.3492
-4.4786 fees -0.3428
-4.4786 felt -0.3606
-3.7796 few -0.3600
-4.4786 fewer -0.3606
-4.4786 fiber -0.3606
-4.1776 field -0.3443
-4.1776 fields -0.3455
-4.4786 fifty -0.3605
-2.7462 figure -0.2850
-2.6591 file -0.2097
-2.6724 files -0.2351
-4.4786 filled -0.3592
-3.8765 filter -0.3455
-4.0015 filtered -0.3423
-4.1776 filters -0.3337
-3.6335 final -0.3599
-3.5755 finally -0.3455
-4.4786 finance -0.3510
-4.4786 financial -0.3605
-3.3647 find -0.2953
-3.7796 finding -0.3237
-4.1776 finds -0.3491
-4.4786 fine -0.3581
-4.4786 finish -0.3602
-4.1776 finished -0.3337
-4.4786 fire -0.3606
-4.4786 fires -0.3455
-4.1776 firewall -0.3494
-4.4786 firewood -0.3568
-4.4786 firm -0.3602
-3.0162 first -0.2972
-4.4786 fisherman -0.3455
-4.0015 fishing -0.3409
-4.4786 fist -0.3597
-4.0015 fit -0.3275
-3.7004 five -0.3372
-4.0015 fix -0.3491
-3.8765 fixed -0.3605
-4.4786 fixing -0.3606
-4.4786 flag -0.3428
-4.4786 fleet -0.3605
-4.0015 flexibility -0.3404
-3.8765 flexible -0.3323
-4.4786 fliers -0.3455
-4.4786 flip -0.3606
-4.4786 flipped -0.3605
-4.4786 flow -0.3605
-3.7796 focus -0.3582
-4.1776 focused -0.3578
-3.8765 focuses -0.3588
-3.3025 folder -0.2823
-4.0015 folders -0.3413
-4.4786 folds -0.3579
-3.7004 follow -0.3249
-4.1776 followed -0.3579
-4.4786 followers -0.3428
-2.9734 following -0.2991
-3.7796 follows -0.3325
-4.4786 food -0.3510
-2.0570 for -0.2438
-4.4786 forecast -0.3592
-4.4786 foreign -0.3602
-4.0015 forest -0.3454
-4.4786 forged -0.3590
-4.4786 forgot -0.3492
-3.7796 form -0.3052
-4.4786 formant -0.3606
-4.4786 formants -0.3568
-3.6335 format -0.3245
-4.1776 forms -0.3576
-4.4786 formula -0.3591
-4.1776 formulas -0.3405
-4.4786 fortune -0.3604
-3.8765 forum -0.3413
-3.3647 forward -0.3413
-4.4786 foster -0.3525
-3.3025 found -0.3197
-4.4786 founded -0.3584
-3.7004 four -0.3438
-4.4786 fourth -0.3510
-4.1776 frame -0.3418
-4.0015 frames -0.3321
-3.8765 framework -0.3353
-3.0984 free -0.2865
-3.7004 freedom -0.2924
-4.1776 freely -0.3587
-4.4786 french -0.3510
-3.6335 frequencies -0.3363
-4.1776 frequency -0.3574
-4.1776 fresh -0.3546
-4.4786 friend -0.3428
-4.4786 friendly -0.3342
-2.4658 from -0.2608
-3.5244 front -0.3476
-4.4786 frustrating -0.3492
-3.7796 full -0.3346
-3.8765 fully -0.3578
-4.4786 fun -0.3606
-3.1564 function -0.3001
-3.8765 functional -0.3486
-4.4786 functionality -0.3455
-4.4786 functionally -0.3593
-3.4786 functions -0.2973
-3.8765 fundamental -0.3591
-4.4786 fungus -0.3455
-3.7004 further -0.3449
-3.3025 furthermore -0.3421
-3.3994 future -0.3307
-4.4786 g -0.3428
-4.0015 gain -0.3426
-3.7004 gambler -0.3572
-4.0015 gambler's -0.3605
-4.0015 gamblers -0.3544
-4.4786 game -0.3546
-4.4786 games -0.3455
-4.4786 gaps -0.3510
-4.4786 garage -0.3428
-4.4786 gathered -0.3601
-4.4786 gauging -0.3568
-4.4786 geared -0.3605
-4.0015 gender -0.3423
-3.8765 general -0.3428
-4.4786 generalized -0.3597
-4.0015 generally -0.3603
-3.3647 generate -0.3234
-3.3325 generated -0.3547
-3.5755 generates -0.3255
-3.5244 generating -0.3255
-3.7004 generation -0.3231
-3.5755 generator -0.3153
-3.3647 get -0.3220
-3.8765 gets -0.3603
-4.4786 getting -0.3606
-4.4786 giants -0.3455
-4.1776 give -0.3255
-3.1169 given -0.2928
-4.0015 gives -0.3253
-4.4786 giving -0.3603
-4.4786 glad -0.3600
-4.4786 glib -0.3428
-4.0015 gmail -0.3427
-4.0015 gnu -0.3425
-3.6335 go -0.3260
-3.7796 goal -0.3360
-4.0015 goals -0.3411
-4.4786 gobs -0.3505
-4.1776 goes -0.3603
-3.7796 going -0.3456
-4.4786 golden -0.3606
-3.1998 good -0.3342
-4.4786 gotten -0.3606
-4.4786 gov -0.3600
-4.4786 government -0.3606
-4.0015 grade -0.3559
-4.4786 grades -0.3568
-4.4786 gradient -0.3455
-4.1776 grading -0.3448
-4.4786 gradually -0.3605
-3.8765 gram -0.3591
-4.1776 grammar -0.3327
-4.4786 grammars -0.3510
-4.4786 grammatical -0.3510
-4.4786 grammatically -0.3605
-4.4786 grams -0.3601
-4.1776 granted -0.3271
-4.4786 grants -0.3603
-4.1776 graphical -0.3597
-4.4786 graphics -0.3492
-4.4786 grasses -0.3428
-4.4786 grateful -0.3590
-4.4786 grazing -0.3606
-4.0015 great -0.3606
-4.1776 greater -0.3605
-4.1776 greatest -0.3605
-4.0015 greatly -0.3591
-4.4786 grep -0.3605
-4.4786 grounds -0.3568
-3.5244 group -0.3297
-3.7796 groups -0.3003
-4.1776 grow -0.3559
-4.4786 growing -0.3455
-4.4786 grows -0.3449
-3.7004 growth -0.3341
-4.4786 guarantee -0.3578
-4.4786 guidance -0.3598
-4.1776 guide -0.3606
-4.4786 guides -0.3455
-4.1776 h -0.3428
-4.4786 habits -0.3606
-4.4786 hackers -0.3604
-3.3647 had -0.2921
-4.4786 hamming -0.3605
-3.3647 hand -0.3229
-4.1776 handing -0.3513
-3.7796 handle -0.3509
-3.8765 handling -0.3158
-4.1776 hands -0.3152
-4.4786 handy -0.3605
-4.1776 happen -0.3597
-4.4786 happening -0.3602
-4.1776 happy -0.3492
-4.1776 hard -0.3492
-4.4786 harder -0.3428
-3.7796 hardware -0.3247
-4.4786 harm -0.3492
-4.1776 harvesting -0.3406
-4.1776 harvests -0.3509
-2.6933 has -0.2827
-4.0015 hash -0.3606
-4.4786 hasn't -0.3604
-4.4786 hassenzahl -0.3603
-2.6657 have -0.2849
-3.3325 having -0.3109
-4.0015 he -0.3521
-4.1776 head -0.3489
-4.4786 headless -0.3602
-4.1776 heads -0.3355
-3.8765 health -0.3455
-4.4786 healthcare -0.3455
-4.4786 heart -0.3455
-4.4786 heat -0.3342
-4.1776 heavily -0.3606
-3.8765 held -0.3425
-4.4786 hello -0.3455
-3.4372 help -0.3105
-3.7004 helped -0.3217
-4.4786 helpful -0.3492
-3.6335 helps -0.3329
-4.4786 hence -0.3342
-4.0015 her -0.3600
-3.8765 here -0.3502
-4.4786 hertz -0.3510
-4.4786 hesitate -0.3492
-4.4786 hesitation -0.3591
-4.0015 heuristic -0.3602
-3.8765 hi -0.3265
-3.5755 hidden -0.3275
-4.4786 hide -0.3600
-4.4786 hiding -0.3342
-3.4786 high -0.3420
-3.7796 higher -0.3328
-4.1776 highlight -0.3603
-4.4786 highlights -0.3342
-4.4786 hill -0.3581
-4.4786 him -0.3525
-3.7004 his -0.3589
-4.4786 historically -0.3593
-4.1776 history -0.3503
-4.0015 hit -0.3341
-4.4786 hitting -0.3605
-3.2745 hmm -0.2620
-4.0015 hobby -0.3451
-4.1776 hold -0.3606
-4.1776 holding -0.3341
-3.8765 home -0.3321
-4.1776 homes -0.3428
-4.1776 hope -0.3569
-4.4786 hopes -0.3578
-4.4786 hospitals -0.3606
-4.1776 hot -0.3604
-3.8765 hours -0.3219
-4.4786 houseboat -0.3537
-3.0015 how -0.2871
-2.9471 however -0.3141
-3.7796 http -0.3591
-4.4786 hub -0.3605
-4.4786 huge -0.3606
-3.4372 human -0.3555
-4.4786 humanistic -0.3455
-4.1776 humans -0.3271
-4.1776 hundreds -0.3489
-4.4786 hypotheses -0.3510
-4.0015 hypothesis -0.3481
-4.4786 hypothesized -0.3585
-2.4963 i -0.2808
-4.4786 i'm -0.3606
-4.4786 iOS -0.3510
-4.4786 iTunes -0.3428
-4.4786 iceberg -0.3455
-4.1776 icer -0.3436
-4.4786 icons -0.3510
-4.1776 id -0.3271
-4.4786 ide -0.3588
-4.4786 idea -0.3606
-3.8765 ideals -0.3321
-4.0015 ideas -0.3278
-3.4372 identified -0.3210
-4.0015 identifiers -0.3579
-3.3325 identify -0.3216
-4.0015 identifying -0.3150
-2.7304 if -0.3102
-4.4786 ignored -0.3598
-4.0015 ii -0.3326
-4.0015 iii -0.3447
-4.4786 illustrate -0.3342
-3.8765 illustrated -0.3574
-3.7796 illustrates -0.3342
-4.1776 image -0.3309
-4.4786 imagination -0.3449
-4.4786 imbalance -0.3546
-4.4786 immediate -0.3606
-4.4786 immediately -0.3428
-4.4786 immense -0.3605
-4.0015 impact -0.3258
-4.4786 impacting -0.3604
-4.4786 impacts -0.3602
-3.8765 implement -0.3425
-3.8765 implementation -0.3276
-3.4786 implemented -0.3170
-4.4786 implementing -0.3606
-4.4786 importance -0.3455
-3.0636 important -0.3373
-4.4786 importantly -0.3455
-4.0015 impossible -0.3451
-3.5755 improve -0.3328
-4.0015 improved -0.3349
-3.8765 improvement -0.3177
-3.6335 improvements -0.3390
-4.1776 improves -0.3598
-4.4786 improving -0.3597
-1.8574 in -0.1972
-4.1776 inc -0.3428
-4.1776 incentives -0.3337
-4.4786 inception -0.3574
-3.3647 include -0.3059
-3.2745 included -0.3393
-3.5755 includes -0.3496
-3.7796 including -0.3339
-3.7004 incoming -0.3584
-4.1776 incomplete -0.3449
-4.4786 inconsistently -0.3605
-4.4786 incorporated -0.3600
-3.5755 incorrect -0.3403
-4.4786 incorrectly -0.3591
-3.7004 increase -0.2975
-4.0015 increased -0.3392
-3.6335 increases -0.3175
-3.7796 increasing -0.3340
-4.4786 incremental -0.3604
-4.4786 indeed -0.3606
-4.4786 independence -0.3455
-3.7004 independent -0.3378
-4.4786 index -0.3428
-4.1776 indicate -0.3419
-4.1776 indicating -0.3578
-4.4786 indigenous -0.3606
-3.4372 individual -0.3592
-4.1776 individually -0.3571
-4.1776 individuals -0.3337
-4.4786 induction -0.3605
-4.4786 industrial -0.3606
-4.1776 industries -0.3428
-4.4786 inescapable -0.3428
-4.4786 inexpensive -0.3606
-4.1776 infinite -0.3606
-4.1776 influenced -0.3567
-4.1776 info -0.3606
-3.1362 information -0.3201
-3.7796 infrastructure -0.3588
-4.1776 ingredients -0.3412
-4.1776 initial -0.3604
-4.1776 initially -0.3455
-4.4786 initiatives -0.3455
-4.4786 injection -0.3455
-4.4786 innovation -0.3455
-3.0472 input -0.2908
-3.3994 inputs -0.2797
-4.4786 insane -0.3605
-3.8765 insert -0.3564
-4.4786 inserted -0.3455
-4.4786 insertions -0.3606
-4.4786 inserts -0.3342
-3.8765 inside -0.3224
-4.1776 inspections -0.3355
-3.7004 install -0.3230
-3.8765 installation -0.3199
-4.4786 installations -0.3510
-3.6335 installed -0.3299
-4.1776 installing -0.3342
-4.0015 instance -0.3349
-4.4786 instances -0.3588
-3.7796 instead -0.3343
-4.1776 institute -0.3477
-3.4786 instructions -0.3204
-4.4786 instructor -0.3510
-4.4786 instrument -0.3606
-4.4786 integrate -0.3603
-4.1776 integrated -0.3582
-4.1776 integration -0.3574
-4.1776 integrity -0.3309
-4.4786 intelligible -0.3585
-3.8765 intended -0.3331
-4.4786 intensity -0.3546
-4.4786 intensively -0.3606
-4.4786 intention -0.3505
-4.4786 intentionally -0.3606
-4.4786 intentions -0.3492
-4.1776 interact -0.3590
-4.4786 interacting -0.3590
-4.1776 interaction -0.3605
-3.4372 interactive -0.3294
-3.8765 interest -0.3134
-4.4786 interesting -0.3449
-4.1776 interests -0.3427
-3.3994 interface -0.3197
-3.7004 interfaces -0.3413
-4.4786 interference -0.3604
-4.4786 intermediate -0.3606
-4.4786 internal -0.3606
-4.4786 internally -0.3546
-4.1776 international -0.3593
-3.7796 internet -0.3269
-4.4786 interoperability -0.3590
-4.4786 interpret -0.3605
-4.4786 intervene -0.3568
-4.4786 intervention -0.3584
-2.8451 into -0.3178
-4.4786 intranet -0.3428
-4.1776 introduce -0.3593
-3.6335 introduced -0.3410
-4.4786 introduces -0.3606
-4.4786 introducing -0.3606
-3.8765 introduction -0.3325
-4.4786 introductory -0.3606
-4.0015 intuition -0.3509
-4.1776 invariant -0.3475
-4.4786 investment -0.3606
-4.4786 invited -0.3492
-4.1776 involved -0.3532
-4.0015 involves -0.3327
-4.4786 involving -0.3606
-1.7974 is -0.1594
-4.4786 isolated -0.3606
-4.1776 issue -0.3420
-3.1169 issues -0.3002
-2.1169 it -0.2310
-4.0015 it's -0.3523
-4.4786 itchy -0.3606
-4.4786 items -0.3492
-4.4786 iterative -0.3606
-2.9345 its -0.3537
-4.1776 itself -0.3412
-4.0015 j -0.3418
-3.3325 jar -0.3588
-3.3647 java -0.3349
-4.1776 jersey -0.3605
-4.4786 jimmy -0.3605
-4.1776 job -0.3605
-3.8765 jobs -0.3537
-4.4786 john -0.3606
-4.4786 joke -0.3588
-4.1776 journey -0.3599
-4.4786 junction -0.3605
-3.3647 just -0.3084
-3.4786 justice -0.2781
-4.4786 justifies -0.3342
-4.4786 justify -0.3600
-3.8765 k -0.3409
-4.4786 kb -0.3428
-3.8765 keep -0.3334
-4.4786 keeps -0.3606
-4.4786 kept -0.3603
-3.7796 key -0.3386
-3.7004 keyboard -0.3069
-4.4786 keyboards -0.3455
-2.8351 keyword -0.3033
-2.9872 keywords -0.2782
-4.1776 kind -0.3505
-4.4786 king -0.3588
-4.4786 knew -0.3573
-3.4786 know -0.3362
-4.4786 knowing -0.3342
-4.1776 knowledge -0.3502
-3.4372 known -0.3545
-4.0015 knows -0.3325
-4.4786 l -0.3428
-4.4786 labor -0.3606
-4.1776 lack -0.3234
-4.0015 land -0.3367
-2.6525 language -0.2689
-3.4786 languages -0.3148
-3.1362 large -0.3352
-4.4786 larger -0.3606
-4.4786 largest -0.3605
-3.4786 last -0.3588
-4.1776 lastly -0.3455
-3.7004 late -0.3581
-3.6335 later -0.3599
-3.8765 latest -0.3530
-4.4786 latter -0.3605
-4.4786 launching -0.3510
-4.1776 law -0.3428
-4.4786 laws -0.3428
-4.1776 layer -0.3505
-4.4786 lead -0.3492
-4.4786 leaders -0.3510
-4.1776 leaks -0.3510
-3.8765 learn -0.3595
-3.7796 learned -0.3389
-4.4786 learner -0.3449
-3.2481 learning -0.3136
-3.8765 least -0.3417
-4.1776 leaving -0.3598
-4.4786 led -0.3492
-4.4786 left -0.3606
-4.4786 legal -0.3428
-4.1776 legally -0.3425
-4.4786 legislation -0.3546
-3.8765 length -0.3153
-4.1776 lengths -0.3455
-3.7004 less -0.3504
-4.4786 lessons -0.3606
-3.7796 let -0.3588
-3.8765 let's -0.3600
-3.6335 level -0.3418
-4.0015 levels -0.3477
-3.3647 library -0.3182
-4.4786 license -0.3428
-4.4786 licenses -0.3606
-4.4786 licensing -0.3606
-3.7796 life -0.3567
-4.4786 lifetime -0.3428
-4.4786 light -0.3581
-4.4786 lighter -0.3510
-3.1998 like -0.3352
-3.7796 likelihood -0.3405
-3.6335 likely -0.3412
-4.4786 limit -0.3604
-4.4786 limitation -0.3606
-3.7004 limited -0.3093
-4.1776 limiting -0.3605
-4.1776 limits -0.3505
-3.3994 line -0.2907
-4.4786 linear -0.3602
-4.0015 lines -0.3322
-4.1776 linguist -0.3395
-4.4786 linguistic -0.3601
-4.4786 linguists -0.3546
-4.4786 linked -0.3492
-2.9104 list -0.2915
-4.1776 listed -0.3587
-4.0015 listen -0.3391
-3.4786 listening -0.3170
-4.4786 listing -0.3342
-4.0015 literal -0.3600
-4.0015 little -0.3582
-3.8765 live -0.3577
-4.4786 lives -0.3428
-4.1776 living -0.3271
-3.8765 load -0.3426
-4.1776 loaded -0.3600
-4.4786 loads -0.3591
-3.8765 local -0.3605
-4.4786 locally -0.3455
-3.8765 located -0.3530
-3.8765 location -0.3288
-3.7796 locations -0.3227
-4.4786 locators -0.3605
-4.0015 locked -0.3605
-3.7004 log -0.3420
-4.4786 logarithmic -0.3606
-4.4786 logged -0.3546
-4.4786 loggers -0.3428
-3.7004 logging -0.3170
-4.1776 logic -0.3508
-4.0015 login -0.3603
-4.4786 logistical -0.3606
-4.4786 logs -0.3588
-3.8765 long -0.3569
-4.1776 longer -0.3601
-3.5244 look -0.3347
-3.8765 looking -0.3320
-4.0015 looks -0.3573
-3.6335 loop -0.3526
-3.8765 loops -0.3441
-4.4786 lose -0.3601
-4.4786 loses -0.3573
-4.4786 losing -0.3606
-3.7796 loss -0.3201
-3.7004 losses -0.3264
-4.1776 love -0.3422
-3.7796 low -0.3412
-3.5244 lower -0.3350
-4.4786 lowering -0.3606
-4.4786 lure -0.3449
-3.7004 m -0.3264
-4.4786 mac -0.3604
-3.7004 machine -0.3516
-4.0015 machines -0.3602
-4.1776 mad -0.3271
-3.4372 made -0.3047
-4.4786 magnification -0.3455
-4.4786 mail -0.3591
-2.9223 main -0.3540
-3.5755 mainframe -0.3291
-3.4372 mainframes -0.3134
-4.4786 mainly -0.3606
-4.1776 maintain -0.3342
-4.4786 maintained -0.3546
-4.1776 maintaining -0.3590
-3.7004 major -0.3601
-4.1776 majority -0.3428
-3.0015 make -0.3125
-4.4786 maker -0.3606
-4.0015 makes -0.3522
-3.6335 making -0.3211
-4.4786 manage -0.3492
-3.7004 managed -0.3406
-3.4786 management -0.3070
-4.0015 manager -0.3574
-4.4786 manages -0.3342
-3.4372 managing -0.3599
-4.4786 mandarin -0.3428
-4.4786 manipulate -0.3342
-4.4786 manipulating -0.3342
-4.1776 manner -0.3505
-4.4786 manners -0.3455
-3.8765 manually -0.3427
-4.1776 manuals -0.3427
-4.1776 manufacturer -0.3589
-4.1776 manufacturers -0.3383
-4.4786 manufactures -0.3603
-4.4786 manufacturing -0.3537
-3.1169 many -0.3505
-4.4786 mapped -0.3606
-4.1776 mapping -0.3339
-4.4786 maps -0.3588
-4.4786 marginal -0.3606
-4.1776 marine -0.3606
-4.4786 mark -0.3594
-4.4786 market -0.3606
-4.4786 marketing -0.3455
-4.4786 marks -0.3603
-4.4786 markup -0.3594
-3.4786 martingale -0.3184
-4.4786 mass -0.3606
-3.8765 master -0.3589
-4.1776 match -0.3605
-4.1776 matches -0.3574
-4.4786 material -0.3537
-4.4786 materials -0.3428
-4.4786 mathematical -0.3606
-3.7796 matrix -0.3418
-4.1776 matter -0.3221
-4.4786 mature -0.3510
-3.8765 maximization -0.3602
-4.1776 maximize -0.3342
-4.4786 maximizes -0.3342
-4.0015 maximum -0.3600
-3.1998 may -0.3538
-3.0807 me -0.2440
-4.0015 mean -0.3597
-4.1776 meaning -0.3476
-4.4786 meaningful -0.3605
-3.4786 means -0.3281
-4.1776 measure -0.3342
-4.4786 measured -0.3606
-3.7796 measurement -0.3307
-3.5244 measures -0.3380
-4.0015 measuring -0.3333
-3.8765 mechanical -0.3449
-4.4786 mechanics -0.3537
-4.4786 media -0.3604
-4.1776 medical -0.3604
-4.4786 medication -0.3605
-4.4786 medium -0.3492
-4.1776 meet -0.3152
-4.1776 meeting -0.3590
-4.4786 melding -0.3605
-4.1776 melon -0.3605
-4.4786 member -0.3505
-3.5755 members -0.3353
-3.2481 memory -0.3172
-4.4786 men -0.3510
-4.0015 mention -0.3578
-4.4786 mentioned -0.3606
-4.1776 menu -0.3322
-4.4786 mere -0.3606
-4.1776 merely -0.3325
-3.3647 message -0.3185
-3.4786 messages -0.3327
-3.2745 method -0.2826
-3.7004 methods -0.3320
-4.1776 metric -0.3591
-3.8765 metrics -0.3404
-4.4786 mfcc -0.3606
-4.4786 micro -0.3600
-3.8765 microphone -0.3509
-4.4786 microwaved -0.3606
-4.4786 middle -0.3606
-3.2745 might -0.3535
-4.4786 migrate -0.3601
-4.4786 miles -0.3606
-4.1776 milestones -0.3406
-4.1776 milliseconds -0.3428
-4.4786 mimic -0.3525
-4.1776 mind -0.3327
-4.4786 minded -0.3605
-4.0015 minimize -0.3342
-4.1776 minimum -0.3505
-4.1776 minor -0.3604
-4.4786 minute -0.3598
-4.1776 minutes -0.3327
-4.4786 missed -0.3428
-4.0015 missing -0.3581
-4.0015 mission -0.3345
-4.4786 mistake -0.3606
-4.4786 mistakes -0.3606
-4.4786 misunderstood -0.3600
-4.1776 mo -0.3605
-4.1776 mobile -0.3602
-3.2481 mode -0.2714
-2.6397 model -0.2017
-4.4786 modeled -0.3606
-3.7796 modeling -0.3243
-2.8988 models -0.2590
-3.8765 modern -0.3586
-3.5755 modes -0.3118
-4.4786 modification -0.3455
-4.1776 modified -0.3477
-4.4786 modify -0.3342
-4.4786 modular -0.3606
-4.4786 module -0.3568
-4.4786 modules -0.3428
-4.4786 mom -0.3455
-4.4786 moment -0.3578
-3.5755 money -0.3140
-4.4786 monitor -0.3455
-4.4786 monitored -0.3546
-4.4786 monitoring -0.3606
-4.4786 monitors -0.3546
-4.4786 month -0.3505
-4.4786 months -0.3492
-4.4786 mood -0.3428
-4.4786 moose -0.3510
-4.4786 moral -0.3606
-4.4786 morals -0.3510
-2.6461 more -0.3163
-3.7004 moreover -0.3455
-4.4786 morning -0.3428
-2.7382 most -0.3091
-4.1776 mostly -0.3504
-3.7796 mouse -0.3426
-3.8765 move -0.3503
-4.4786 movement -0.3606
-4.4786 moving -0.3510
-3.8765 mp -0.3603
-3.3325 much -0.3116
-4.0015 multi -0.3581
-4.4786 multilingual -0.3602
-4.4786 multimedia -0.3510
-4.4786 multiplatform -0.3591
-3.5244 multiple -0.3584
-4.4786 multiprocessing -0.3591
-4.1776 multitasking -0.3591
-4.1776 multithreading -0.3591
-4.4786 multiuser -0.3591
-3.8765 museum -0.3219
-3.8765 music -0.3436
-4.4786 musical -0.3606
-4.4786 musician -0.3455
-3.2481 must -0.3404
-4.4786 mvs -0.3588
-2.8351 my -0.3411
-4.1776 myself -0.3411
-2.8875 n -0.2832
-3.1362 name -0.3120
-4.0015 named -0.3543
-3.7796 names -0.3569
-4.4786 naming -0.3606
-3.7796 native -0.3483
-4.4786 natives -0.3604
-4.1776 natural -0.3492
-4.1776 nature -0.3350
-4.1776 navigate -0.3508
-4.0015 navigation -0.3417
-4.4786 ncr -0.3428
-3.8765 near -0.3437
-4.4786 nearby -0.3604
-3.5244 necessary -0.3388
-3.0162 need -0.3174
-3.3025 needed -0.2984
-2.9872 needs -0.2976
-4.4786 negative -0.3455
-4.4786 nerwork -0.3597
-3.5755 net -0.3592
-3.3025 network -0.3311
-3.3647 networking -0.3492
-3.8765 networks -0.3298
-4.0015 neural -0.3604
-4.0015 never -0.3606
-3.7004 nevertheless -0.3455
-2.8254 new -0.3144
-4.0015 newer -0.3589
-4.1776 newly -0.3604
-4.1776 news -0.3350
-3.5755 next -0.3424
-4.0015 nice -0.3605
-4.4786 nightmare -0.3602
-3.1564 no -0.3402
-3.8765 nobody -0.3606
-4.4786 nodes -0.3579
-3.8765 noise -0.3562
-4.4786 noisy -0.3591
-3.6335 non -0.3581
-4.0015 none -0.3505
-3.6335 nonetheless -0.3455
-4.4786 normalized -0.3510
-4.4786 norms -0.3510
-2.5810 not -0.2821
-4.1776 notably -0.3338
-4.4786 notation -0.3546
-3.7796 note -0.3240
-4.4786 notes -0.3492
-4.4786 notice -0.3578
-4.4786 nourishment -0.3605
-4.4786 novel -0.3605
-4.4786 novell -0.3606
-4.4786 novice -0.3598
-3.4786 now -0.3069
-3.1169 number -0.3158
-4.4786 numbering -0.3603
-3.8765 numbers -0.3462
-4.4786 numeric -0.3591
-4.4786 numerically -0.3606
-4.4786 numerous -0.3604
-3.7796 o -0.3381
-4.4786 obeying -0.3606
-3.4372 object -0.3506
-4.4786 objective -0.3505
-3.5244 objects -0.3473
-4.4786 obligated -0.3492
-4.4786 observable -0.3606
-3.3325 observation -0.3535
-3.7004 observations -0.3106
-4.1776 observed -0.3603
-3.8765 obtain -0.3325
-3.7796 obtained -0.3588
-4.4786 obtaining -0.3590
-4.1776 occupation -0.3322
-4.4786 occur -0.3597
-4.1776 occurrence -0.3388
-4.1776 occurring -0.3601
-4.4786 occurs -0.3600
-4.4786 oceans -0.3455
-4.4786 odd -0.3606
-1.6360 of -0.2016
-3.5755 off -0.3243
-4.1776 offered -0.3486
-3.6335 office -0.3066
-4.4786 offices -0.3510
-4.4786 official -0.3603
-3.3325 often -0.3425
-3.7796 ogg -0.3412
-4.4786 oh -0.3605
-3.7796 old -0.3446
-4.4786 older -0.3597
-4.4786 ols -0.3606
-2.3747 on -0.2446
-3.3325 once -0.2950
-2.6793 one -0.2472
-3.6335 ones -0.3119
-4.0015 online -0.3603
-2.8254 only -0.2788
-4.4786 onto -0.3342
-4.4786 ontology -0.3505
-4.4786 oops -0.3455
-4.4786 opacity -0.3455
-3.3647 open -0.2913
-4.1776 operate -0.3428
-4.4786 operates -0.3546
-2.9872 operating -0.3572
-3.0015 operation -0.3062
-4.1776 operations -0.3455
-4.4786 operator -0.3591
-4.4786 operators -0.3546
-4.4786 opinion -0.3428
-4.4786 opportunities -0.3428
-4.0015 opportunity -0.3385
-4.1776 opposed -0.3492
-4.4786 opposite -0.3606
-4.4786 opt -0.3492
-4.4786 optic -0.3606
-4.1776 optimality -0.3449
-4.1776 optimization -0.3603
-4.1776 optimize -0.3342
-4.4786 optimized -0.3605
-4.4786 option -0.3505
-3.8765 options -0.3394
-2.4574 or -0.2512
-2.6034 order -0.3220
-4.1776 org -0.3600
-4.4786 organization -0.3428
-4.4786 organizational -0.3606
-3.7796 organizations -0.3225
-4.4786 organize -0.3600
-3.8765 organized -0.3315
-3.8765 organizer -0.3405
-4.1776 organizing -0.3503
-4.0015 orientation -0.3253
-4.1776 oriented -0.3604
-4.0015 origin -0.3504
-3.8765 original -0.3582
-4.4786 originality -0.3606
-4.4786 originated -0.3592
-2.7543 other -0.3141
-3.5244 others -0.3324
-3.8765 otherwise -0.3453
-3.3025 our -0.3557
-3.2745 out -0.2736
-4.4786 outage -0.3455
-4.4786 outbound -0.3605
-4.1776 outcome -0.3600
-4.4786 outdated -0.3510
-4.1776 outline -0.3307
-4.4786 outlined -0.3546
-4.4786 outlining -0.3342
-3.2481 output -0.3203
-3.7796 outputs -0.3279
-4.4786 outrageous -0.3606
-3.7004 outside -0.2969
-4.4786 outsiders -0.3428
-4.4786 oven -0.3492
-3.6335 over -0.3217
-3.3994 overall -0.3435
-4.0015 overcome -0.3545
-4.4786 overcoming -0.3601
-4.4786 overflow -0.3455
-4.4786 overflows -0.3428
-4.1776 overhead -0.3455
-4.4786 overlapped -0.3546
-4.4786 overlooked -0.3602
-4.4786 overseas -0.3606
-4.1776 overview -0.3486
-4.4786 owing -0.3603
-4.4786 owls -0.3588
-3.3647 own -0.3574
-4.4786 owner -0.3592
-2.9104 p -0.3124
-4.1776 package -0.3419
-4.1776 packaged -0.3602
-3.7004 page -0.3059
-3.4786 pages -0.3138
-4.4786 paging -0.3455
-4.4786 pair -0.3505
-4.0015 paper -0.3510
-4.4786 paragraph -0.3428
-4.4786 parallel -0.3606
-4.4786 paralysis -0.3455
-3.7004 parameter -0.3355
-3.4786 parameters -0.2977
-4.4786 paramount -0.3606
-4.1776 parasitic -0.3606
-4.4786 pared -0.3605
-4.0015 parents -0.3417
-4.4786 parity -0.3606
-4.4786 parsing -0.3449
-3.3647 part -0.3505
-3.8765 partial -0.3603
-4.4786 participants -0.3588
-4.4786 participate -0.3590
-4.1776 participating -0.3546
-3.8765 participation -0.3481
-4.1776 particular -0.3603
-4.0015 particularly -0.3601
-4.4786 partitioned -0.3600
-4.4786 partitioning -0.3342
-3.6335 parts -0.3177
-3.8765 party -0.3589
-4.4786 pass -0.3606
-4.4786 passed -0.3604
-4.4786 passes -0.3601
-4.4786 passing -0.3604
-4.4786 password -0.3428
-4.1776 past -0.3605
-4.4786 paste -0.3546
-4.4786 pastime -0.3597
-4.4786 patented -0.3606
-3.1362 path -0.3218
-3.7004 paths -0.3021
-4.0015 patterns -0.3268
-4.4786 pause -0.3510
-4.4786 pauses -0.3604
-4.1776 pay -0.3564
-4.0015 paying -0.3606
-4.4786 peer -0.3605
-4.4786 peers -0.3428
-3.8765 pencil -0.3250
-4.1776 pencils -0.3349
-4.4786 pent -0.3581
-3.4372 people -0.3090
-3.6335 per -0.3568
-4.4786 perceive -0.3578
-4.4786 perceived -0.3606
-4.4786 percent -0.3537
-4.4786 percentage -0.3449
-4.4786 perception -0.3537
-4.4786 perceptions -0.3606
-4.4786 perfect -0.3599
-3.7004 perform -0.3154
-2.9223 performance -0.2656
-3.7796 performed -0.3336
-4.0015 performing -0.3584
-4.1776 performs -0.3342
-4.4786 perhaps -0.3603
-4.1776 period -0.3492
-4.4786 peripheral -0.3606
-4.4786 permissions -0.3505
-4.4786 perpetrator -0.3593
-4.4786 persistence -0.3505
-3.3994 person -0.3493
-3.4372 personal -0.3530
-4.4786 personality -0.3428
-4.4786 personalization -0.3428
-4.4786 personally -0.3606
-4.1776 persons -0.3309
-4.4786 perspective -0.3428
-3.6335 phase -0.3401
-4.0015 phases -0.3466
-4.4786 philosophies -0.3584
-4.0015 phoenix -0.3425
-3.4372 phone -0.3299
-3.6335 phoneme -0.3467
-3.4372 phonemes -0.2943
-4.0015 phones -0.3301
-3.4786 phonetic -0.3595
-4.4786 phonetical -0.3597
-4.4786 photo -0.3606
-4.4786 photographer -0.3455
-4.4786 photography -0.3537
-4.1776 phrase -0.3405
-4.4786 phrases -0.3428
-3.7796 physical -0.3589
-4.4786 physiological -0.3492
-4.1776 pick -0.3602
-4.4786 picture -0.3455
-4.4786 piece -0.3505
-4.4786 pile -0.3505
-4.4786 piling -0.3602
-4.4786 ping -0.3606
-4.4786 pipe -0.3546
-4.4786 pipelines -0.3455
-4.1776 pis -0.3590
-3.6335 place -0.3215
-3.7004 placed -0.3526
-4.4786 places -0.3455
-4.1776 placing -0.3573
-4.1776 plain -0.3606
-4.0015 plan -0.3413
-4.0015 planning -0.3337
-4.1776 plans -0.3510
-3.7796 plant -0.3349
-4.4786 plants -0.3605
-4.1776 plastic -0.3605
-4.1776 platform -0.3603
-4.0015 platforms -0.3271
-3.4372 play -0.3141
-3.5244 played -0.2924
-4.4786 player -0.3428
-3.7004 playing -0.2988
-4.4786 plays -0.3590
-3.3325 please -0.3449
-4.4786 plug -0.3581
-4.4786 plus -0.3606
-4.4786 pneumonia -0.3455
-4.1776 poaching -0.3355
-3.8765 point -0.3472
-4.4786 pointer -0.3492
-4.4786 pointers -0.3455
-4.4786 points -0.3602
-4.4786 poisoning -0.3455
-4.4786 polices -0.3606
-4.4786 policies -0.3600
-4.4786 policy -0.3606
-4.1776 polymorphism -0.3581
-4.4786 pool -0.3591
-4.4786 pooling -0.3604
-4.0015 poor -0.3505
-3.6335 popular -0.3364
-3.8765 port -0.3425
-4.0015 portable -0.3454
-4.4786 ported -0.3510
-4.4786 portions -0.3505
-4.4786 ports -0.3588
-3.6335 position -0.3068
-4.4786 positioning -0.3600
-4.4786 possessed -0.3606
-4.4786 possibilities -0.3505
-4.1776 possibility -0.3433
-3.1362 possible -0.3037
-4.1776 post -0.3343
-4.4786 posted -0.3584
-4.4786 posterior -0.3605
-4.4786 posts -0.3546
-3.6335 potential -0.3482
-4.1776 pots -0.3606
-3.3325 power -0.3315
-3.7796 powerful -0.3320
-4.1776 practical -0.3453
-3.7004 practice -0.3265
-4.0015 practices -0.3455
-4.4786 pre -0.3581
-4.4786 pre-emphasis -0.3606
-4.0015 pre-emphasized -0.3455
-4.0015 preceded -0.3584
-4.0015 preceding -0.3510
-4.4786 preconventional -0.3605
-4.4786 predecessor -0.3428
-3.8765 predefined -0.3601
-4.4786 predetermined -0.3602
-4.1776 predict -0.3320
-4.4786 predicted -0.3604
-4.0015 preferences -0.3326
-4.4786 preferred -0.3492
-4.4786 preliminary -0.3605
-4.4786 premier -0.3505
-4.4786 prepackaged -0.3603
-4.4786 prepare -0.3568
-4.4786 prerelease -0.3606
-4.4786 prescriptions -0.3601
-3.8765 present -0.3486
-4.4786 presentation -0.3592
-3.7004 presented -0.3396
-3.7004 presents -0.3167
-4.4786 president -0.3505
-4.4786 press -0.3606
-4.0015 pressing -0.3509
-4.4786 pressure -0.3455
-3.6335 pretty -0.3591
-4.1776 prevent -0.3603
-4.4786 prevents -0.3599
-3.4372 previous -0.3571
-3.8765 previously -0.3449
-4.1776 primary -0.3591
-3.4786 principles -0.3098
-4.4786 print -0.3604
-4.4786 printer -0.3428
-4.1776 printing -0.3603
-4.0015 prior -0.3216
-4.4786 priorities -0.3579
-4.1776 privacy -0.3521
-4.4786 privately -0.3606
-4.4786 probabilistic -0.3606
-3.3325 probabilities -0.2970
-2.9734 probability -0.2944
-3.8765 probable -0.3598
-4.4786 probably -0.3342
-3.1998 problem -0.2771
-3.5755 problems -0.3188
-4.4786 procedural -0.3605
-3.6335 procedure -0.3050
-4.4786 procedures -0.3597
-4.0015 proceeded -0.3490
-3.0162 process -0.2795
-4.1776 processed -0.3455
-4.0015 processes -0.3247
-3.1362 processing -0.2435
-4.4786 processor -0.3606
-3.7796 processors -0.3236
-4.0015 produce -0.3523
-3.8765 produced -0.3126
-4.1776 producing -0.3524
-3.7796 product -0.3153
-4.1776 production -0.3604
-3.7004 productivity -0.3313
-4.0015 products -0.3412
-4.1776 professional -0.3604
-4.4786 professionals -0.3492
-4.4786 proficient -0.3597
-4.1776 profile -0.3564
-4.4786 profiling -0.3573
-4.1776 profit -0.3510
-4.4786 profitable -0.3455
-2.8765 program -0.2860
-4.1776 programmed -0.3458
-3.7796 programmer -0.3424
-4.0015 programmers -0.3576
-3.6335 programming -0.3429
-3.3994 programs -0.3088
-4.1776 progresses -0.3455
-2.7796 project -0.2338
-3.5244 projects -0.3370
-4.4786 proliferate -0.3606
-4.4786 proliferation -0.3505
-4.4786 promote -0.3606
-4.1776 promoting -0.3603
-4.4786 promotions -0.3455
-4.1776 pronounced -0.3574
-3.7796 pronunciation -0.3021
-4.4786 pronunciations -0.3592
-4.4786 proof -0.3505
-4.4786 propagation -0.3602
-3.6335 proper -0.3580
-3.5244 properly -0.3598
-4.1776 properties -0.3350
-4.4786 property -0.3605
-4.4786 proposals -0.3510
-3.4786 proprietary -0.2899
-4.4786 prospective -0.3606
-4.1776 protect -0.3342
-4.4786 protected -0.3604
-3.7796 protection -0.3409
-4.4786 protects -0.3573
-4.0015 protocol -0.3355
-4.0015 protocols -0.3537
-4.4786 prove -0.3525
-4.4786 proved -0.3492
-3.3994 provide -0.3054
-3.6335 provided -0.2920
-3.3994 provides -0.3227
-3.6335 providing -0.3520
-4.4786 pruning -0.3510
-4.4786 public -0.3605
-4.4786 publications -0.3492
-3.7796 publicly -0.3601
-3.8765 published -0.3580
-4.4786 pulls -0.3602
-4.4786 pulp -0.3510
-4.4786 punctuation -0.3606
-4.0015 punishment -0.3496
-4.4786 purchase -0.3342
-4.1776 purchased -0.3580
-4.4786 pure -0.3606
-4.1776 purely -0.3606
-4.4786 purports -0.3492
-3.7004 purpose -0.3321
-4.1776 purposes -0.3292
-4.4786 push -0.3428
-3.7004 put -0.3568
-4.1776 python -0.3600
-4.0015 q -0.3596
-4.4786 qt -0.3578
-4.0015 quality -0.3350
-4.4786 quantification -0.3505
-4.1776 quantify -0.3337
-4.1776 quantities -0.3505
-4.4786 queries -0.3588
-3.7004 question -0.3399
-4.4786 questions -0.3455
-4.0015 quickly -0.3309
-4.4786 quiet -0.3428
-3.7796 quit -0.3343
-4.4786 quite -0.3606
-4.4786 quoted -0.3455
-4.0015 r -0.3428
-4.4786 races -0.3510
-4.4786 racism -0.3428
-3.7796 radio -0.3428
-4.4786 raid -0.3588
-4.4786 railroads -0.3455
-4.4786 rain-forested -0.3606
-4.0015 rainforest -0.3503
-4.4786 rainforests -0.3605
-4.4786 raise -0.3606
-4.4786 ram -0.3588
-4.4786 ran -0.3606
-4.4786 ranch -0.3606
-4.0015 random -0.3600
-4.4786 randomly -0.3606
-4.0015 range -0.3505
-4.4786 ranges -0.3428
-4.4786 rapid -0.3455
-4.4786 rapidly -0.3606
-4.4786 rash -0.3449
-3.3325 rate -0.2706
-4.1776 rates -0.3581
-3.6335 rather -0.3451
-4.4786 raven -0.3455
-4.4786 raw -0.3600
-3.8765 re -0.3581
-4.0015 re-encoding -0.3342
-3.8765 reached -0.3445
-4.4786 reaching -0.3605
-4.4786 react -0.3449
-4.4786 reaction -0.3492
-4.4786 reacts -0.3601
-3.7004 read -0.3335
-4.1776 reading -0.3595
-4.1776 reads -0.3491
-3.6335 ready -0.2927
-3.6335 real -0.3565
-4.0015 realistic -0.3601
-4.0015 really -0.3605
-3.3325 reason -0.3348
-4.1776 reasoning -0.3271
-3.8765 reasons -0.3382
-4.4786 recapitulates -0.3342
-4.1776 receive -0.3525
-3.7796 received -0.3376
-4.0015 receives -0.3524
-4.4786 recently -0.3455
-4.4786 recipe -0.3568
-4.4786 reciprocity -0.3606
-2.6933 recognition -0.2777
-4.1776 recognize -0.3599
-4.4786 recognized -0.3605
-3.2745 recognizer -0.3177
-3.8765 recognizers -0.3455
-3.7004 recognizing -0.3394
-4.0015 recommend -0.3605
-3.5755 recommended -0.3307
-4.4786 recommends -0.3606
-3.8765 record -0.3213
-4.0015 recording -0.3588
-4.1776 recordings -0.3500
-4.1776 records -0.3591
-4.1776 recover -0.3601
-4.4786 recovering -0.3606
-4.4786 recruit -0.3605
-4.4786 recurrence -0.3606
-4.4786 recursively -0.3606
-4.4786 recycling -0.3428
-4.1776 red -0.3573
-4.4786 redesign -0.3342
-4.0015 reduce -0.3342
-4.1776 reduced -0.3590
-3.7796 reducing -0.3451
-4.4786 reduction -0.3598
-4.1776 refactoring -0.3502
-3.8765 refer -0.3492
-4.4786 referenced -0.3428
-3.7796 references -0.3581
-4.4786 referred -0.3492
-4.4786 refers -0.3492
-4.4786 refine -0.3455
-4.4786 reflexes -0.3455
-4.4786 refuses -0.3492
-4.0015 regard -0.3337
-3.7796 regarding -0.3322
-4.4786 regardless -0.3505
-4.4786 regional -0.3606
-4.1776 register -0.3510
-4.0015 registration -0.3425
-4.1776 regular -0.3605
-4.4786 regularly -0.3606
-4.4786 regulation -0.3505
-4.4786 rehouse -0.3455
-3.5244 related -0.3487
-4.1776 relationship -0.3606
-4.4786 relative -0.3492
-4.4786 relativistic -0.3455
-4.4786 relaxed -0.3584
-3.8765 release -0.3326
-4.4786 releases -0.3455
-4.4786 relevant -0.3492
-3.8765 reliability -0.3492
-4.4786 reliable -0.3599
-4.4786 reliably -0.3492
-4.4786 religion -0.3455
-4.4786 rely -0.3588
-4.1776 remain -0.3605
-4.4786 remained -0.3342
-4.1776 remaining -0.3595
-4.4786 remains -0.3606
-4.4786 remarkable -0.3455
-4.4786 remedies -0.3574
-4.1776 remote -0.3605
-4.4786 remotely -0.3428
-4.4786 remove -0.3606
-4.4786 removes -0.3606
-4.4786 renaming -0.3525
-4.4786 rent -0.3568
-4.4786 repeated -0.3606
-4.4786 repeatedly -0.3606
-4.4786 repeating -0.3342
-4.4786 repetitions -0.3591
-4.1776 replaced -0.3584
-4.4786 replacement -0.3428
-4.4786 replaces -0.3342
-4.4786 replicating -0.3585
-3.6335 report -0.3304
-4.4786 reported -0.3342
-4.0015 repository -0.3385
-3.4786 represent -0.3244
-3.4372 representation -0.3093
-4.1776 represented -0.3318
-4.4786 representing -0.3342
-4.0015 represents -0.3245
-4.4786 reproduce -0.3525
-4.4786 reputation -0.3428
-4.1776 request -0.3492
-4.0015 requested -0.3376
-4.4786 requests -0.3568
-3.6335 require -0.3292
-3.3325 required -0.3183
-4.4786 requirement -0.3428
-3.2481 requirements -0.3186
-3.4786 requires -0.3437
-3.1998 research -0.3159
-4.4786 researchers -0.3597
-4.4786 researching -0.3606
-4.4786 reserve -0.3342
-4.1776 reside -0.3580
-4.4786 residents -0.3428
-4.1776 resizing -0.3514
-4.0015 resolve -0.3570
-3.8765 resource -0.3578
-3.5244 resources -0.2969
-3.4786 resp-generator -0.3151
-4.0015 respect -0.3491
-4.4786 respectively -0.3428
-3.3025 response -0.2923
-3.3025 responses -0.2836
-4.4786 responsibility -0.3455
-4.4786 responsible -0.3606
-4.4786 restart -0.3342
-4.4786 restarted -0.3606
-4.4786 restarting -0.3342
-4.4786 restored -0.3455
-4.4786 restrict -0.3342
-4.0015 restricted -0.3492
-4.4786 restrictive -0.3606
-3.6335 result -0.3253
-4.4786 resultant -0.3603
-4.4786 resulted -0.3546
-4.1776 resulting -0.3524
-3.2233 results -0.2984
-4.4786 retrieve -0.3605
-3.8765 retrieved -0.3591
-4.1776 return -0.3473
-4.4786 returned -0.3592
-4.4786 returns -0.3579
-3.8765 reusability -0.3459
-4.4786 reusable -0.3428
-4.0015 revaluator -0.3583
-4.1776 reveal -0.3342
-4.4786 revealed -0.3492
-4.4786 reverberation -0.3605
-4.4786 reverse -0.3605
-3.7796 review -0.3119
-4.1776 reviewed -0.3425
-4.4786 reviews -0.3605
-4.4786 revolution -0.3606
-4.4786 reward -0.3455
-4.4786 rewarding -0.3606
-4.4786 richest -0.3606
-4.4786 rife -0.3590
-4.0015 right -0.3324
-3.5755 rights -0.3318
-4.4786 rise -0.3505
-4.4786 rises -0.3606
-4.4786 roadblocks -0.3505
-3.7004 robot -0.3548
-4.4786 robotics -0.3510
-3.8765 robust -0.3323
-3.7796 robustness -0.3322
-4.0015 role -0.3511
-4.4786 roles -0.3428
-4.4786 rollover -0.3455
-3.7796 room -0.3296
-4.4786 rooms -0.3568
-4.4786 root -0.3604
-4.1776 ros -0.3518
-4.4786 rose -0.3492
-4.4786 roulette -0.3574
-3.7004 round -0.3504
-4.4786 row -0.3505
-4.4786 royalty -0.3581
-4.1776 rudimentary -0.3451
-3.8765 rule -0.3366
-3.7004 rules -0.3365
-3.1169 run -0.2958
-3.5755 running -0.3321
-4.4786 runs -0.3601
-4.4786 runtime -0.3606
-2.7152 s -0.3028
-4.4786 sacrificing -0.3600
-4.4786 safe -0.3604
-4.4786 safety -0.3455
-3.8765 said -0.3463
-4.4786 sake -0.3428
-3.8765 sales -0.3509
-4.1776 salmon -0.3606
-2.9471 same -0.3170
-4.1776 sample -0.3595
-4.1776 sampled -0.3508
-4.4786 samples -0.3605
-4.1776 satisfaction -0.3393
-4.4786 saturation -0.3455
-4.0015 save -0.3453
-3.6335 say -0.3289
-4.4786 saying -0.3342
-4.4786 says -0.3492
-3.8765 scalability -0.3558
-4.1776 scalable -0.3355
-3.8765 scale -0.3344
-4.4786 scales -0.3455
-4.4786 scanner -0.3606
-4.4786 scanning -0.3342
-3.8765 schedule -0.3229
-4.1776 scheduled -0.3605
-4.1776 scheme -0.3482
-4.4786 scholarships -0.3599
-4.4786 school -0.3593
-4.4786 schooled -0.3573
-4.4786 sci -0.3600
-4.4786 science -0.3510
-4.4786 scientific -0.3606
-4.4786 scope -0.3505
-4.0015 score -0.3306
-4.4786 scouting -0.3568
-3.7796 scratch -0.3393
-4.4786 screen -0.3428
-4.4786 screwed -0.3605
-4.1776 scripting -0.3606
-4.1776 scripts -0.3587
-3.6335 search -0.3527
-4.4786 searched -0.3455
-4.4786 season -0.3606
-4.4786 seatmate -0.3597
-3.4786 second -0.3576
-4.1776 seconds -0.3524
-4.4786 secret -0.3606
-3.3025 section -0.2995
-4.0015 sections -0.3470
-4.0015 secure -0.3599
-3.0984 security -0.3271
-3.6335 see -0.3086
-4.1776 seeing -0.3342
-4.4786 seek -0.3525
-4.4786 seekers -0.3606
-4.4786 seeks -0.3492
-4.1776 seemed -0.3492
-4.1776 seems -0.3492
-3.1169 seen -0.3159
-4.4786 segment -0.3606
-4.4786 segmentation -0.3604
-3.6335 select -0.3189
-3.7004 selected -0.3449
-3.7796 selecting -0.3513
-4.1776 selection -0.3428
-4.4786 selector -0.3568
-3.6335 self -0.3484
-4.4786 sell -0.3342
-4.4786 sells -0.3606
-4.4786 semantic -0.3606
-4.4786 semi -0.3581
-3.8765 send -0.3517
-4.4786 sending -0.3605
-4.4786 senior -0.3599
-3.4786 sense -0.3315
-3.3647 sentence -0.2906
-2.9601 sentences -0.2458
-4.4786 sentences-file -0.3428
-4.0015 separate -0.3594
-4.4786 separately -0.3592
-3.3325 sequence -0.2937
-4.1776 sequences -0.3412
-4.4786 sequentially -0.3428
-3.8765 serial -0.3426
-4.4786 serially -0.3606
-4.1776 series -0.3344
-4.4786 serious -0.3598
-3.2481 server -0.2719
-3.7004 servers -0.3142
-3.8765 service -0.3575
-3.7004 services -0.3131
-4.4786 servicing -0.3605
-4.4786 serving -0.3428
-4.1776 session -0.3447
-3.0472 set -0.3121
-4.1776 sets -0.3463
-4.0015 settings -0.3528
-4.4786 settled -0.3584
-4.4786 setup -0.3342
-4.1776 seven -0.3599
-3.1362 several -0.3451
-4.4786 shadow -0.3606
-3.3025 shall -0.3547
-4.4786 shapes -0.3510
-3.8765 share -0.3595
-4.4786 shared -0.3606
-4.4786 shares -0.3598
-4.4786 sharing -0.3510
-4.4786 sheet -0.3601
-4.0015 shelf -0.3599
-4.4786 shipment -0.3606
-4.4786 ships -0.3590
-4.1776 short -0.3581
-4.4786 shortages -0.3505
-2.9734 should -0.3517
-4.4786 shoulders -0.3505
-3.7796 show -0.3512
-4.4786 showing -0.3602
-3.7796 shown -0.3512
-3.8765 shows -0.3342
-4.4786 shrinking -0.3510
-4.4786 shrinks -0.3590
-4.1776 side -0.3482
-4.4786 sign -0.3604
-2.8765 signal -0.3028
-4.1776 signals -0.3422
-4.1776 signature -0.3518
-4.4786 significant -0.3606
-4.4786 significantly -0.3605
-4.4786 silence -0.3598
-4.4786 silly -0.3428
-3.8765 silver -0.3585
-3.5755 similar -0.3131
-3.3025 similarly -0.3167
-3.7004 simple -0.3476
-4.1776 simpler -0.3509
-4.1776 simplest -0.3504
-4.4786 simplicity -0.3606
-4.4786 simplification -0.3606
-3.8765 simplified -0.3228
-4.4786 simplify -0.3342
-4.4786 simplistic -0.3605
-4.4786 simulated -0.3606
-3.6335 simulation -0.3419
-4.4786 simultaneously -0.3606
-3.4786 since -0.3184
-4.4786 sincerity -0.3428
-3.7004 single -0.3590
-4.4786 sip -0.3428
-4.4786 sister -0.3510
-3.7796 site -0.3195
-4.0015 sites -0.3355
-4.4786 situations -0.3510
-4.4786 six -0.3605
-3.2745 size -0.2985
-4.4786 sized -0.3588
-4.1776 sizes -0.3322
-4.4786 sketches -0.3591
-4.4786 skills -0.3510
-3.8765 slightly -0.3595
-4.4786 slipped -0.3525
-4.4786 slow -0.3492
-3.2481 small -0.3275
-3.4786 smaller -0.2959
-4.1776 smallest -0.3604
-4.4786 smarter -0.3604
-3.7004 smith -0.3605
-3.0472 so -0.3171
-4.4786 social -0.3606
-4.1776 society -0.3309
-4.4786 sockeye -0.3604
-2.7710 software -0.2811
-4.0015 solution -0.3237
-4.0015 solutions -0.3537
-3.7796 solve -0.3219
-4.1776 solved -0.3594
-4.4786 solves -0.3342
-2.7974 some -0.3268
-4.1776 somehow -0.3449
-4.1776 someone -0.3606
-3.8765 something -0.3561
-3.8765 sometimes -0.3436
-4.4786 somewhat -0.3505
-4.1776 somewhere -0.3509
-4.4786 song -0.3606
-4.4786 sons -0.3606
-4.4786 soon -0.3568
-4.4786 sop -0.3605
-3.7796 sophisticated -0.3478
-4.4786 sorts -0.3605
-4.4786 soul -0.3428
-3.7004 sound -0.3372
-3.7796 sounds -0.3261
-3.1776 source -0.3146
-3.7004 sources -0.3500
-3.8765 space -0.3192
-3.7004 spaghetti -0.3458
-4.4786 spare -0.3606
-3.7796 speak -0.3330
-3.0314 speaker -0.3199
-3.7796 speakers -0.3161
-3.7004 speaking -0.3325
-4.1776 special -0.3604
-4.4786 specialize -0.3546
-4.1776 species -0.3603
-3.4786 specific -0.3488
-4.0015 specifically -0.3454
-3.7796 specifications -0.3141
-3.5755 specified -0.3321
-4.1776 specifies -0.3524
-3.8765 specify -0.3250
-4.4786 specifying -0.3590
-4.0015 spectral -0.3599
-3.8765 spectrum -0.3381
-2.3142 speech -0.2672
-4.4786 speeches -0.3600
-4.0015 speed -0.3493
-4.4786 spelling -0.3605
-4.0015 spend -0.3600
-4.1776 spent -0.3599
-3.0807 sphinx -0.2925
-4.1776 sphinxbase -0.3428
-4.1776 spite -0.3505
-3.8765 spoken -0.3595
-4.1776 spontaneous -0.3585
-4.4786 spot -0.3602
-4.4786 stability -0.3510
-3.8765 stack -0.3586
-4.1776 staff -0.3597
-3.4786 stage -0.3355
-3.4786 stages -0.3299
-4.1776 stake -0.3420
-4.1776 stakeholders -0.3327
-4.4786 stances -0.3492
-4.4786 stand -0.3588
-3.6335 standard -0.3385
-4.4786 standardize -0.3342
-3.7004 standards -0.3206
-4.1776 standing -0.3541
-4.4786 stands -0.3568
-3.4372 start -0.3278
-4.0015 started -0.3501
-4.4786 starting -0.3600
-3.7004 starts -0.3256
-4.1776 startup -0.3446
-3.0472 state -0.2765
-3.8765 statement -0.3600
-3.7004 statements -0.3175
-3.5755 states -0.3266
-3.4786 static -0.3592
-4.4786 stating -0.3342
-4.1776 station -0.3604
-4.4786 statistic -0.3606
-4.4786 statistical -0.3584
-3.7004 statistics -0.3288
-3.7796 status -0.3351
-4.4786 stay -0.3546
-4.4786 stayed -0.3606
-4.4786 staying -0.3605
-4.1776 steam -0.3606
-4.4786 steepest -0.3449
-3.4786 step -0.2828
-3.6335 steps -0.3145
-3.4786 still -0.3529
-4.4786 stochastic -0.3606
-4.4786 stock -0.3606
-4.4786 stockholders -0.3455
-3.8765 stop -0.3442
-4.4786 stopped -0.3605
-4.4786 stops -0.3605
-4.1776 storage -0.3355
-4.0015 stored -0.3541
-4.4786 storehouse -0.3505
-4.1776 story -0.3502
-4.4786 straight -0.3606
-4.4786 straightforward -0.3574
-3.8765 strategies -0.3383
-3.6335 strategy -0.3367
-4.1776 streak -0.3412
-4.1776 streaks -0.3594
-4.1776 streaming -0.3502
-4.4786 streamline -0.3603
-4.4786 streams -0.3597
-4.4786 strength -0.3492
-4.4786 stretching -0.3342
-4.4786 strict -0.3606
-4.4786 strictest -0.3606
-4.4786 strictly -0.3605
-4.4786 stride -0.3606
-4.4786 strides -0.3546
-4.4786 strike -0.3603
-3.4372 string -0.3335
-4.4786 strings -0.3505
-4.4786 strong -0.3604
-4.4786 strongly -0.3605
-3.7004 structure -0.3270
-3.8765 students -0.3394
-4.4786 studies -0.3546
-3.7796 studio -0.3089
-4.0015 study -0.3598
-4.4786 studying -0.3455
-4.4786 stuff -0.3604
-4.4786 stumps -0.3606
-3.8765 style -0.3270
-4.1776 subconscious -0.3605
-3.8765 subject -0.3388
-4.1776 submission -0.3271
-4.1776 submit -0.3603
-4.1776 submits -0.3325
-4.4786 submitted -0.3601
-4.4786 subsequently -0.3455
-3.8765 subset -0.3505
-4.4786 substantial -0.3606
-4.1776 substitute -0.3342
-4.4786 substituted -0.3597
-4.4786 substitutions -0.3606
-4.4786 subsystems -0.3505
-4.4786 succeeded -0.3584
-4.1776 succeeding -0.3604
-3.8765 success -0.3320
-3.7796 successful -0.3603
-3.8765 successfully -0.3407
-2.9223 such -0.3555
-4.1776 suffer -0.3510
-4.4786 suffered -0.3592
-4.4786 suffering -0.3592
-4.4786 suffers -0.3606
-4.0015 sufficiency -0.3251
-4.1776 sufficient -0.3492
-4.4786 suggest -0.3342
-4.1776 suggested -0.3584
-4.4786 suggestions -0.3568
-4.0015 suggests -0.3455
-4.4786 suitable -0.3604
-4.4786 suited -0.3492
-4.1776 summaries -0.3579
-3.5244 summary -0.3157
-4.4786 superior -0.3492
-4.4786 supplementary -0.3606
-4.0015 supplied -0.3522
-3.3994 support -0.3288
-4.0015 supported -0.3523
-4.0015 supporting -0.3337
-3.8765 supports -0.3530
-4.4786 suppose -0.3578
-4.1776 supposed -0.3492
-4.4786 suppressing -0.3603
-3.3647 sure -0.3129
-4.4786 surely -0.3455
-4.4786 sustain -0.3606
-4.0015 sustainable -0.3605
-4.4786 swapping -0.3455
-4.4786 swing -0.3492
-4.1776 switches -0.3409
-4.4786 switching -0.3449
-4.0015 syllables -0.3406
-4.4786 syllabus -0.3605
-4.0015 symbol -0.3275
-3.7796 symbols -0.3166
-4.4786 synchronization -0.3505
-4.4786 synonymous -0.3590
-4.4786 syntactical -0.3606
-4.4786 syntax -0.3510
-4.4786 synthesized -0.3606
-2.2968 system -0.1890
-4.4786 system,comma -0.3510
-2.6525 systems -0.2499
-3.2745 t -0.2918
-3.3994 table -0.3417
-4.4786 tables -0.3606
-4.4786 tails -0.3428
-3.7004 take -0.3252
-4.1776 taken -0.3486
-3.5755 takes -0.3503
-4.0015 taking -0.3579
-4.0015 talk -0.3486
-4.0015 talking -0.3425
-4.4786 tape -0.3606
-4.4786 tapers -0.3605
-4.4786 target -0.3606
-4.1776 targeting -0.3604
-3.3025 task -0.2872
-3.7796 tasks -0.3425
-4.1776 taught -0.3452
-4.4786 taxi -0.3606
-3.0472 team -0.3059
-4.4786 teammates -0.3455
-3.7004 teams -0.3358
-4.4786 teamwork -0.3537
-4.4786 technically -0.3606
-3.1169 technique -0.3010
-3.7004 techniques -0.3531
-4.1776 technological -0.3447
-2.8988 technology -0.2495
-4.4786 tedious -0.3605
-3.5755 telephone -0.3454
-4.1776 telephony -0.3454
-3.8765 tell -0.3589
-4.1776 temperature -0.3383
-3.8765 ten -0.3602
-4.4786 tend -0.3492
-4.4786 tended -0.3492
-4.4786 tends -0.3492
-4.4786 tens -0.3505
-4.4786 tenth -0.3606
-4.1776 terabytes -0.3505
-4.1776 term -0.3606
-4.4786 terminal -0.3597
-4.4786 terminate -0.3342
-3.8765 terms -0.3505
-3.0636 test -0.2794
-3.0472 tested -0.2700
-4.0015 tester -0.3583
-3.4786 testers -0.3073
-2.5009 testing -0.1952
-3.3025 tests -0.2767
-2.8451 text -0.3157
-4.4786 texts -0.3592
-3.0472 than -0.2863
-4.4786 thank -0.3604
-4.4786 thanks -0.3568
-2.1819 that -0.1999
-4.4786 that's -0.3603
-1.2287 the -0.1945
-2.9345 their -0.3538
-3.0807 them -0.2848
-4.0015 themselves -0.3379
-3.1998 then -0.3060
-4.4786 theoretically -0.3594
-4.4786 theory -0.3606
-2.8875 there -0.3025
-4.4786 thereafter -0.3449
-3.3647 therefore -0.3365
-2.8254 these -0.3520
-3.8765 thesis -0.3381
-2.8875 they -0.3534
-4.4786 thing -0.3584
-3.6335 things -0.3368
-3.7004 think -0.3138
-4.1776 thinking -0.3502
-3.6335 third -0.3577
-2.1169 this -0.2433
-4.4786 thorough -0.3593
-4.0015 thoroughly -0.3216
-3.3025 those -0.3555
-4.1776 though -0.3334
-3.8765 thought -0.3398
-4.4786 thousand -0.3597
-3.6335 thousands -0.3505
-4.4786 threads -0.3603
-4.4786 threatens -0.3606
-4.4786 threats -0.3579
-3.5244 three -0.3583
-4.4786 thrive -0.3588
-3.3025 through -0.2920
-3.6335 thus -0.3451
-4.4786 timber -0.3428
-2.7974 time -0.2068
-4.4786 timed -0.3590
-3.3994 times -0.3028
-4.4786 timing -0.3606
-4.4786 tip -0.3505
-1.5859 to -0.1995
-3.7004 today -0.3319
-3.6335 together -0.3033
-4.0015 tokenize -0.3342
-4.0015 tokenizer -0.3600
-4.1776 told -0.3600
-4.4786 tolerant -0.3606
-4.1776 too -0.3601
-3.8765 took -0.3289
-2.7543 tool -0.2435
-3.8765 toolkit -0.3425
-3.0015 tools -0.2730
-4.4786 tooth -0.3605
-4.4786 topics -0.3568
-4.4786 topologies -0.3606
-3.7796 total -0.3484
-4.4786 touch -0.3606
-4.1776 toward -0.3601
-3.4786 towards -0.3164
-4.1776 toxic -0.3606
-4.4786 traced -0.3492
-4.4786 track -0.3428
-3.8765 tract -0.3452
-4.4786 tractors -0.3510
-4.4786 tracts -0.3510
-4.4786 trading -0.3597
-4.4786 trailer -0.3510
-4.4786 trailers -0.3428
-3.5244 train -0.3120
-4.0015 trained -0.3490
-3.1998 training -0.3259
-4.4786 traits -0.3578
-4.4786 trans -0.3606
-3.5755 transaction -0.3391
-4.1776 transactions -0.3427
-3.8765 transcript -0.3398
-4.1776 transfer -0.3271
-4.4786 transferred -0.3604
-4.0015 transform -0.3342
-3.8765 transition -0.3503
-4.1776 transitions -0.3426
-4.1776 translated -0.3600
-4.4786 transmission -0.3606
-4.4786 trash -0.3428
-4.4786 traversal -0.3455
-4.4786 treated -0.3606
-4.4786 treaty -0.3428
-3.8765 tree -0.3533
-3.7796 trees -0.3250
-4.4786 trend -0.3581
-4.4786 trials -0.3602
-4.1776 tribe -0.3440
-4.4786 tricks -0.3578
-4.1776 tried -0.3492
-4.4786 tries -0.3492
-4.1776 triggered -0.3525
-4.0015 trigram -0.3597
-3.8765 trip -0.3588
-4.1776 triphone -0.3583
-4.1776 triphones -0.3355
-4.4786 trouble -0.3606
-4.4786 troublesome -0.3510
-3.5755 trucking -0.3478
-4.1776 true -0.3600
-4.4786 truly -0.3606
-4.4786 trunk -0.3606
-3.6335 try -0.3455
-3.8765 trying -0.3492
-4.4786 tuned -0.3603
-4.4786 turing -0.3597
-4.4786 turn -0.3428
-4.1776 tutorial -0.3599
-4.4786 tutorials -0.3588
-4.4786 tweaking -0.3573
-4.4786 twisted -0.3604
-4.1776 twitter -0.3605
-3.0636 two -0.3422
-3.3325 txt -0.3030
-3.2481 type -0.3371
-3.7796 types -0.3229
-3.4786 typical -0.3574
-3.5244 typically -0.3354
-4.4786 typing -0.3605
-4.1776 typos -0.3327
-4.4786 u -0.3428
-4.4786 unable -0.3492
-4.4786 uncertainty -0.3428
-4.4786 uncover -0.3600
-3.5755 under -0.3513
-4.4786 underline -0.3594
-4.4786 underlying -0.3603
-4.4786 underneath -0.3606
-3.5244 understand -0.3186
-4.4786 understandability -0.3510
-4.0015 understandable -0.3415
-4.4786 understandably -0.3455
-3.3994 understanding -0.2832
-4.4786 understood -0.3602
-4.4786 undo -0.3578
-4.0015 unethical -0.3489
-4.4786 unfair -0.3606
-4.4786 unfeasible -0.3603
-4.4786 unfortunately -0.3455
-4.4786 unified -0.3604
-4.0015 uniform -0.3420
-4.4786 uniformity -0.3455
-4.4786 unique -0.3606
-4.4786 unit -0.3428
-4.1776 units -0.3579
-3.8765 universal -0.3598
-3.5244 university -0.3157
-4.4786 unknowns -0.3428
-4.1776 unless -0.3590
-4.1776 unlike -0.3525
-4.4786 unlucky -0.3594
-4.4786 unrealistic -0.3574
-4.0015 until -0.3337
-4.4786 unto -0.3605
-4.1776 unusual -0.3602
-2.9734 up -0.2302
-4.4786 upbringing -0.3428
-4.1776 update -0.3422
-3.6335 updated -0.3147
-4.0015 updates -0.3408
-4.1776 updating -0.3388
-4.4786 upgrades -0.3428
-4.4786 uphold -0.3606
-4.0015 upon -0.3572
-3.8765 us -0.3239
-4.1776 usability -0.3595
-4.4786 usable -0.3606
-3.8765 usage -0.3477
-2.7304 use -0.2401
-2.5101 used -0.2235
-3.7004 useful -0.3474
-4.4786 useless -0.3605
-2.7304 user -0.2451
-3.2233 users -0.2891
-3.3647 uses -0.3135
-2.6397 using -0.2911
-4.4786 usual -0.3606
-3.5755 usually -0.3599
-3.5755 utilities -0.3081
-4.4786 utilize -0.3600
-4.4786 utilized -0.3492
-4.4786 utilizing -0.3593
-4.4786 utmost -0.3606
-3.6335 utterance -0.3323
-4.1776 utterances -0.3451
-4.4786 valid -0.3606
-4.4786 validate -0.3342
-4.4786 validates -0.3342
-4.1776 validation -0.3455
-4.0015 valuable -0.3457
-3.3025 value -0.3173
-3.2481 values -0.3015
-3.3994 variability -0.2939
-3.8765 variable -0.3602
-4.4786 variance -0.3606
-4.4786 variation -0.3510
-3.6335 variations -0.3386
-4.4786 varies -0.3606
-4.0015 variety -0.3505
-3.7004 various -0.3597
-4.4786 vary -0.3605
-4.4786 vast -0.3606
-3.7004 vb -0.3347
-3.7004 vector -0.3259
-3.7796 vectors -0.3407
-3.8765 verification -0.3438
-4.0015 verified -0.3578
-4.1776 verify -0.3342
-4.1776 verifying -0.3593
-4.4786 versatile -0.3603
-3.5244 version -0.3202
-3.7796 versions -0.3298
-3.0472 very -0.3566
-4.4786 vi -0.3606
-3.7004 via -0.3517
-4.4786 vice -0.3606
-4.4786 vicissitudes -0.3505
-4.4786 video -0.3606
-3.7796 view -0.3129
-4.4786 viewing -0.3603
-3.7796 virtual -0.3593
-4.4786 virus -0.3606
-4.1776 viruses -0.3355
-4.1776 visible -0.3425
-4.4786 vision -0.3606
-4.4786 vista -0.3510
-4.0015 visual -0.3606
-4.4786 visualized -0.3546
-4.4786 visualizing -0.3606
-4.4786 vital -0.3605
-4.1776 vocab -0.3542
-3.5244 vocabularies -0.3210
-3.1362 vocabulary -0.2916
-3.6335 vocal -0.3604
-3.5755 voice -0.3441
-4.4786 void -0.3601
-4.1776 volume -0.3605
-4.4786 volunteering -0.3597
-4.4786 von -0.3606
-4.4786 vowel -0.3606
-4.4786 vowels -0.3606
-4.4786 vs -0.3428
-4.4786 vulnerabilities -0.3606
-3.1362 w -0.3515
-4.4786 waiting -0.3568
-4.4786 walking -0.3603
-4.1776 walkthroughs -0.3427
-3.5755 wall -0.3352
-3.8765 want -0.3484
-4.4786 war -0.3606
-4.4786 warping -0.3455
-4.4786 warrantee -0.3428
-2.6397 was -0.2773
-4.1776 waste -0.3365
-4.4786 watching -0.3342
-4.1776 waveform -0.3601
-4.1776 waves -0.3539
-3.5755 way -0.2696
-4.4786 ways -0.3428
-2.7884 we -0.3320
-4.1776 wealth -0.3441
-4.4786 weapon -0.3605
-4.4786 weather -0.3510
-3.0636 web -0.3402
-4.4786 websites -0.3602
-4.4786 wee -0.3606
-3.4372 week -0.3474
-3.8765 weekly -0.3602
-4.1776 weeks -0.3494
-4.4786 weight -0.3603
-4.4786 wel. -0.3449
-4.1776 welcome -0.3393
-2.9734 well -0.2784
-4.4786 went -0.3492
-2.9734 were -0.3411
-4.4786 west -0.3606
-3.1776 what -0.3001
-4.1776 what's -0.3602
-4.4786 whatever -0.3428
-2.8351 when -0.3108
-3.8765 whenever -0.3249
-2.9734 where -0.3110
-4.4786 whether -0.3573
-2.9601 which -0.2788
-3.2745 while -0.3477
-4.4786 whistler -0.3604
-3.3647 white -0.3413
-3.5244 who -0.3527
-3.7004 whole -0.3577
-4.1776 whose -0.3606
-3.7796 why -0.3332
-4.1776 wide -0.3606
-4.4786 widespread -0.3606
-4.1776 wiki -0.3600
-4.1776 wildlife -0.3271
-4.4786 wildly -0.3602
-2.4830 will -0.3117
-4.4786 willing -0.3449
-4.4786 willows -0.3455
-4.0015 win -0.3504
-3.3994 window -0.2975
-4.4786 windowing -0.3510
-2.6335 windows -0.2628
-4.1776 winning -0.3593
-3.8765 wins -0.3354
-4.1776 wire -0.3605
-3.7796 wish -0.3482
-2.4103 with -0.2798
-3.3325 within -0.3222
-3.3647 without -0.3228
-4.4786 witnessed -0.3606
-4.4786 wives -0.3428
-3.8765 wk -0.3606
-4.4786 woman -0.3597
-4.4786 women -0.3606
-4.4786 wood -0.3606
-2.8158 word -0.2909
-2.6657 words -0.2432
-3.1362 work -0.2960
-3.7796 working -0.3568
-3.8765 workload -0.3495
-4.4786 workloads -0.3492
-3.7004 works -0.3161
-4.4786 workshop -0.3606
-4.4786 workspaces -0.3579
-4.4786 workstation -0.3449
-4.1776 workstations -0.3603
-3.6335 world -0.3405
-4.4786 worth -0.3573
-2.8875 would -0.3502
-4.4786 wrapping -0.3606
-4.0015 write -0.3407
-3.7004 writing -0.3414
-3.2481 written -0.3267
-4.1776 wrong -0.3605
-4.4786 www -0.3428
-4.1776 x -0.3453
-4.4786 xss -0.3588
-4.1776 yeah -0.3455
-4.4786 year -0.3510
-3.5244 years -0.3052
-4.4786 yes -0.3573
-4.4786 yet -0.3428
-2.8351 you -0.3174
-4.4786 young -0.3606
-3.2745 your -0.3591
-4.4786 yourself -0.3428
-3.7004 zero -0.3266
-4.4786 zoo -0.3602
-3.5755 |pipe-symbol -0.3575
-4.1776 ®registered-sign -0.3606
-4.1776 °C -0.3409
-4.0015 °F -0.3593
-4.4786 °degree-sign -0.3588
-4.4786 â -0.3601
-4.4786 â -0.3601
-4.1776 ™trademark-sign -0.3423

\2-grams:
-0.2486 !exclamation-point </s> 0.2287
-2.1931 "quote (left-paren -0.1153
-1.1931 "quote )right-paren -0.0218
-0.9890 "quote ,comma -0.1038
-1.8921 "quote .dot -0.0763
-2.1931 "quote Hank 0.0131
-2.1931 "quote Kroll -0.1027
-1.8921 "quote Learn 0.2298
-1.8921 "quote a -0.1278
-2.1931 "quote advocating 0.0131
-2.1931 "quote among -0.0403
-1.8921 "quote and -0.1069
-2.1931 "quote apply 0.0131
-2.1931 "quote attributes -0.0403
-1.8921 "quote button 0.0740
-2.1931 "quote cold 0.2298
-1.8921 "quote collect 0.1561
-2.1931 "quote colon 0.2298
-2.1931 "quote custom -0.1170
-2.1931 "quote doubling 0.2298
-2.1931 "quote exclamation 0.2298
-1.8921 "quote for -0.1271
-2.1931 "quote free -0.0648
-2.1931 "quote front -0.1027
-2.1931 "quote gamblers -0.0403
-2.1931 "quote hot 0.0131
-2.1931 "quote i -0.1231
-2.1931 "quote incoming 0.0740
-2.1931 "quote is -0.1303
-1.8921 "quote make -0.0789
-2.1931 "quote no -0.1190
-2.1931 "quote occurring 0.2298
-2.1931 "quote of -0.1305
-1.7160 "quote or -0.1190
-2.1931 "quote out -0.1153
-2.1931 "quote period 0.0131
-2.1931 "quote question -0.0880
-1.8921 "quote streaks 0.2298
-2.1931 "quote such -0.1240
-2.1931 "quote take -0.0880
-2.1931 "quote the -0.1304
-2.1931 "quote theoretically 0.2298
-2.1931 "quote unlucky 0.2298
-1.8921 "quote use -0.1220
-2.1931 "quote with -0.0914
-2.1931 "quote would -0.1050
-1.3480 "quote |pipe-symbol 0.1647
-1.0268 %percent .period -0.0300
-0.5496 %percent 2 -0.0903
-1.0268 %percent deduction 0.2298
-1.0268 %percent loop -0.0944
-2.0045 'single-quote </s> 0.2287
-1.7035 'single-quote measures -0.0403
-0.2802 'single-quote s 0.1838
-2.0045 'single-quote t -0.1153
-1.4527 (left-paren )right-paren -0.1289
-1.4527 (left-paren 232.2 0.2298
-1.4527 (left-paren 907 0.2298
-1.4527 (left-paren OS 0.0740
-1.4527 (left-paren and -0.1305
-1.4527 (left-paren artificial 0.2298
-1.4527 (left-paren as -0.1298
-1.4527 (left-paren dog 0.2298
-1.4527 (left-paren for -0.1289
-1.4527 (left-paren hence 0.2298
-1.4527 (left-paren instances 0.2298
-1.4527 (left-paren king 0.2298
-1.4527 (left-paren or -0.1238
-1.4527 (left-paren red 0.0131
-1.4527 (left-paren silver -0.0648
-1.4527 (left-paren °degree-sign 0.2298
-0.2486 (left-parenâ 1 -0.0991
-2.3524 )right-paren )right-paren -0.0905
-1.0513 )right-paren ,comma -0.0230
-2.3524 )right-paren -hyphen -0.1295
-0.8209 )right-paren .dot 0.0475
-2.0514 )right-paren .period -0.0300
-2.3524 )right-paren 283 0.2298
-2.3524 )right-paren :colon -0.1286
-1.3523 )right-paren </s> 0.2287
-2.3524 )right-paren Look 0.2298
-2.3524 )right-paren algorithm -0.1148
-1.4493 )right-paren and -0.0961
-2.3524 )right-paren as -0.1264
-2.0514 )right-paren can 0.0491
-2.3524 )right-paren contributing 0.2298
-2.3524 )right-paren cos 0.2298
-2.3524 )right-paren encouraged 0.2298
-2.3524 )right-paren environment -0.1170
-2.3524 )right-paren estimated -0.0403
-2.3524 )right-paren evolved -0.0403
-2.3524 )right-paren for -0.0991
-2.3524 )right-paren function -0.1190
-2.0514 )right-paren has -0.0219
-2.0514 )right-paren in -0.0897
-2.3524 )right-paren integrated 0.0131
-2.3524 )right-paren interference 0.2298
-1.7504 )right-paren is -0.0902
-2.3524 )right-paren keeps 0.2298
-2.3524 )right-paren lines -0.0403
-2.3524 )right-paren method -0.0991
-2.3524 )right-paren musical 0.2298
-2.0514 )right-paren or -0.1262
-2.3524 )right-paren orientation -0.0403
-1.8753 )right-paren p -0.1105
-2.3524 )right-paren participating 0.2298
-2.3524 )right-paren represents -0.0403
-2.0514 )right-paren salmon 0.2298
-2.3524 )right-paren services -0.0880
-2.3524 )right-paren since -0.0789
-2.0514 )right-paren the -0.1298
-2.3524 )right-paren to -0.1296
-2.3524 )right-paren typically -0.1027
-2.0514 )right-paren using -0.0447
-2.3524 )right-paren was -0.1273
-2.3524 )right-paren web -0.1016
-2.3524 )right-paren where -0.1231
-2.3524 )right-paren which -0.1234
-0.8507 *asterisk PocketSphinx -0.1211
-0.5496 *asterisk algorithm -0.0894
-0.8507 *asterisk decoding -0.1184
-0.5496 +plus-symbol or -0.1285
-0.5496 +plus-symbol to -0.1298
-2.5621 ,comma "quote -0.1138
-2.9600 ,comma )right-paren -0.0552
-1.4829 ,comma </s> 0.2287
-3.2610 ,comma CA 0.2298
-3.2610 ,comma Compiz 0.0740
-3.2610 ,comma Debian 0.2298
-3.2610 ,comma Evan 0.2298
-3.2610 ,comma Fedora 0.2298
-3.2610 ,comma File 0.2298
-3.2610 ,comma FreeBSD 0.2298
-3.2610 ,comma FreeSpeech 0.2298
-3.2610 ,comma Gb 0.0131
-3.2610 ,comma German 0.2298
-3.2610 ,comma Hank 0.0131
-2.9600 ,comma Henry -0.0403
-2.7839 ,comma I -0.0815
-3.2610 ,comma Jacob 0.2298
-3.2610 ,comma Josh 0.2298
-2.7839 ,comma Linux -0.1168
-3.2610 ,comma Mageia 0.2298
-3.2610 ,comma McLeod 0.1200
-3.2610 ,comma Missouri 0.2298
-3.2610 ,comma NJ 0.2298
-3.2610 ,comma Ohio 0.0131
-3.2610 ,comma OpenSuse 0.0131
-3.2610 ,comma PCLinuxOS 0.2298
-2.5621 ,comma PocketSphinx -0.0098
-3.2610 ,comma RCA 0.2298
-3.2610 ,comma Sean 0.2298
-2.7839 ,comma Sharon 0.2298
-3.2610 ,comma Slackware 0.2298
-3.2610 ,comma UNIX 0.2298
-3.2610 ,comma USA 0.2298
-3.2610 ,comma Virginia 0.2298
-3.2610 ,comma Wolfgang 0.2298
-1.8993 ,comma a -0.0853
-3.2610 ,comma according 0.2298
-2.9600 ,comma acoustic 0.0364
-3.2610 ,comma adaptive 0.2298
-3.2610 ,comma administrator 0.0131
-3.2610 ,comma adopting 0.2298
-3.2610 ,comma age -0.0648
-3.2610 ,comma all -0.1248
-3.2610 ,comma almost -0.0648
-2.7839 ,comma also -0.0890
-2.7839 ,comma among 0.0740
-2.9600 ,comma an -0.1178
-1.3214 ,comma and -0.0389
-3.2610 ,comma apple 0.2298
-3.2610 ,comma around -0.1116
-3.2610 ,comma articulatory -0.0403
-1.9186 ,comma as 0.0085
-3.2610 ,comma attached 0.0131
-2.9600 ,comma automotive 0.0740
-3.2610 ,comma available -0.1238
-2.9600 ,comma b 0.0740
-2.9600 ,comma being -0.0839
-3.2610 ,comma berg 0.2298
-3.2610 ,comma berries 0.2298
-2.9600 ,comma bill -0.0198
-3.2610 ,comma blank 0.2298
-3.2610 ,comma both -0.0969
-3.2610 ,comma boundary 0.1080
-3.2610 ,comma branch 0.2298
-3.2610 ,comma breathing 0.2298
-3.2610 ,comma browse 0.2298
-3.2610 ,comma browsed 0.2298
-3.2610 ,comma buffer -0.0789
-1.8631 ,comma but 0.1541
-3.2610 ,comma by -0.1293
-3.2610 ,comma cables 0.0131
-3.2610 ,comma call 0.0264
-3.2610 ,comma caller -0.0403
-3.2610 ,comma calls -0.0648
-2.9600 ,comma can 0.0515
-3.2610 ,comma canals 0.2298
-3.2610 ,comma certain -0.0991
-3.2610 ,comma character -0.0403
-3.2610 ,comma checked -0.0403
-3.2610 ,comma children -0.0403
-3.2610 ,comma cited 0.2298
-3.2610 ,comma click -0.0880
-3.2610 ,comma coasts 0.2298
-3.2610 ,comma code -0.1238
-3.2610 ,comma codename 0.0131
-3.2610 ,comma collect 0.1561
-3.2610 ,comma color 0.0131
-3.2610 ,comma combined 0.0131
-3.2610 ,comma commentaries 0.2298
-3.2610 ,comma competitive 0.0131
-3.2610 ,comma component -0.0648
-3.2610 ,comma composing 0.2298
-3.2610 ,comma compound 0.2298
-3.2610 ,comma conditions 0.0740
-3.2610 ,comma conferencing 0.2298
-2.9600 ,comma continuous -0.0198
-3.2610 ,comma convert -0.0648
-3.2610 ,comma converts 0.0131
-3.2610 ,comma copyrighted 0.2298
-3.2610 ,comma coupled 0.2298
-2.7839 ,comma creating -0.0703
-3.2610 ,comma cross 0.2298
-3.2610 ,comma customers -0.0403
-3.2610 ,comma databases -0.0648
-3.2610 ,comma decode -0.0198
-3.2610 ,comma decoding -0.1184
-3.2610 ,comma deleted 0.2298
-3.2610 ,comma delta -0.0727
-3.2610 ,comma depending 0.2298
-3.2610 ,comma described -0.0991
-3.2610 ,comma design -0.0403
-3.2610 ,comma developed -0.0969
-3.2610 ,comma development -0.1207
-3.2610 ,comma die 0.2298
-3.2610 ,comma different -0.1245
-3.2610 ,comma digestion 0.2298
-3.2610 ,comma dimming 0.2298
-3.2610 ,comma discovery -0.0403
-3.2610 ,comma divide 0.2298
-2.9600 ,comma do -0.0740
-3.2610 ,comma documentation -0.1080
-3.2610 ,comma due 0.1714
-2.9600 ,comma during 0.1106
-3.2610 ,comma duty 0.2298
-3.2610 ,comma e 0.0131
-2.6590 ,comma each -0.0715
-3.2610 ,comma ease -0.0403
-3.2610 ,comma efficiency -0.0403
-3.2610 ,comma efficient -0.0789
-3.2610 ,comma embedded -0.0991
-3.2610 ,comma employees 0.0131
-3.2610 ,comma epistemology 0.2298
-2.9600 ,comma especially 0.2298
-2.9600 ,comma etc 0.2298
-3.2610 ,comma ethics -0.1205
-2.9600 ,comma even -0.0766
-3.2610 ,comma eventually -0.0403
-3.2610 ,comma executive -0.0648
-3.2610 ,comma failing 0.2298
-3.2610 ,comma fewer 0.2298
-3.2610 ,comma fields 0.2298
-3.2610 ,comma figure -0.1123
-3.2610 ,comma file -0.1271
-3.2610 ,comma fine 0.2298
-3.2610 ,comma fisherman 0.2298
-3.2610 ,comma followed 0.0131
-2.2196 ,comma for -0.0670
-3.2610 ,comma format -0.0944
-3.2610 ,comma four -0.0880
-3.2610 ,comma free -0.1205
-3.2610 ,comma french 0.2298
-3.2610 ,comma from -0.1285
-3.2610 ,comma g 0.2298
-3.2610 ,comma gamblers -0.0403
-3.2610 ,comma given -0.1090
-3.2610 ,comma goal -0.0198
-3.2610 ,comma greatly -0.0403
-3.2610 ,comma grep 0.2298
-3.2610 ,comma growing 0.2298
-3.2610 ,comma h 0.0131
-2.9600 ,comma has -0.0930
-2.9600 ,comma have -0.1233
-2.7839 ,comma having -0.0545
-3.2610 ,comma healthcare 0.2298
-2.9600 ,comma highlight 0.2298
-3.2610 ,comma hold 0.0131
-2.4829 ,comma however 0.1828
-2.9600 ,comma human -0.0839
-2.3579 ,comma i -0.0372
-3.2610 ,comma identifying -0.0403
-2.2196 ,comma if 0.0317
-3.2610 ,comma impacting 0.2298
-2.3579 ,comma in 0.0018
-3.2610 ,comma inc 0.2298
-3.2610 ,comma included -0.1153
-2.6590 ,comma including 0.1298
-2.9600 ,comma insert 0.0131
-3.2610 ,comma inspections 0.0131
-3.2610 ,comma instead 0.0486
-3.2610 ,comma international 0.0131
-2.5621 ,comma is -0.1110
-1.6078 ,comma it 0.0438
-3.2610 ,comma its -0.1238
-3.2610 ,comma j -0.0403
-3.2610 ,comma k 0.0131
-3.2610 ,comma keyboard -0.0880
-3.2610 ,comma l 0.2298
-3.2610 ,comma learner 0.2298
-3.2610 ,comma learning -0.1162
-3.2610 ,comma leaving 0.0131
-3.2610 ,comma let -0.0789
-3.2610 ,comma let's -0.0648
-3.2610 ,comma lighter 0.2298
-3.2610 ,comma like -0.1043
-3.2610 ,comma listening -0.1056
-3.2610 ,comma loop -0.0545
-3.2610 ,comma loops 0.0131
