This is an ARPA-format language model file, generated by CMU Sphinx
\data\
ngram 1=4061
ngram 2=18759
ngram 3=27987

\1-grams:
-4.5433 <UNK> 0.0000
-3.8443 !exclamation-point -0.3679
-2.6294 "quote -0.2777
-3.6981 %percent -0.3624
-4.2422 &ampersand -0.3831
-2.6982 'single-quote -0.3665
-3.2880 (left-paren -0.3631
-4.5433 (left-paren− -0.3830
-2.2832 )right-paren -0.2144
-3.7651 *asterisk -0.3816
-4.2422 +plus-symbol -0.3709
-1.4634 ,comma -0.1305
-2.2088 -hyphen -0.3215
-4.5433 -hyphen-hyphendash -0.3822
-3.0118 . -0.3679
-3.2210 ...ellipsis -0.3098
-2.5939 .dot -0.3128
-1.3875 .period -0.1460
-2.5347 /slash -0.3562
-2.9992 0 -0.3296
-2.9522 1 -0.3319
-4.5433 1456 -0.3724
-4.5433 18th -0.3834
-2.9992 2 -0.3491
-4.5433 283 -0.3807
-2.9992 3 -0.3255
-3.2008 4 -0.3474
-3.1815 5 -0.3467
-4.5433 50 -0.3834
-3.3971 6 -0.3805
-4.5433 65 -0.3834
-3.3971 7 -0.3711
-3.2645 8 -0.3529
-3.7651 9 -0.3788
-4.5433 907 -0.3812
-2.3672 :colon -0.3057
-3.1815 ;semi-colon -0.3568
-1.4551 </s> -0.3679
-1.4551 <s> -0.0849
-4.5433 <s>typical -0.3834
-4.0661 =equals-sign -0.3824
-3.0381 ?question-mark -0.3544
-4.2422 A -0.3833
-4.0661 ASCII -0.3679
-4.5433 Alaska -0.3653
-4.5433 Arguments -0.3832
-4.5433 Atal -0.3740
-4.5433 AttrList -0.3829
-4.5433 August -0.3653
-4.5433 Bahl -0.3740
-4.5433 CA -0.3682
-4.5433 CSS -0.3834
-4.5433 Callhome -0.3679
-4.5433 Chapman -0.3834
-4.5433 Charts -0.3740
-4.5433 Cook -0.3834
-4.5433 Cooley -0.3740
-4.5433 Data -0.3832
-4.5433 David -0.3834
-4.5433 Evan -0.3834
-4.2422 Facebook -0.3833
-4.2422 File -0.3832
-4.5433 Firefox -0.3832
-4.5433 France -0.3653
-4.5433 FreeSpeech -0.3769
-4.5433 Frequently -0.3834
-4.5433 Hanauer -0.3682
-4.2422 Hank -0.3823
-3.1453 Henry -0.3223
-4.5433 Huffman -0.3833
-3.3391 I -0.3771
-4.5433 I'm -0.3833
-4.5433 I've -0.3834
-4.5433 III -0.3653
-4.5433 Inlet -0.3774
-4.5433 Is -0.3833
-4.5433 Jacob -0.3834
-4.5433 Jeremy -0.3834
-4.5433 Joe -0.3679
-4.5433 Josh -0.3834
-4.5433 Journal -0.3682
-4.5433 July -0.3653
-4.5433 June -0.3740
-4.5433 Kitco -0.3653
-4.5433 Kitcosilver -0.3823
-4.5433 Klenk -0.3682
-3.5890 Kroll -0.3584
-4.2422 Learn -0.3824
-4.5433 Lechner -0.3834
-2.7509 Linux -0.2950
-4.5433 Louchart -0.3834
-4.5433 Mercer -0.3834
-4.5433 Microsystems -0.3682
-4.5433 Mountain -0.3834
-4.5433 Museet -0.3679
-4.5433 NCT -0.3822
-4.5433 Nathaniel -0.3834
-3.9412 Nelson -0.3682
-4.5433 Noren -0.3679
-4.5433 Oppenheim -0.3774
-4.5433 Polytechnic -0.3834
-4.5433 Popen -0.3834
-4.0661 Python -0.3834
-4.0661 Python's -0.3834
-4.5433 Richard -0.3834
-3.6981 SHA -0.3822
-4.5433 Saturday -0.3730
-3.5019 Scientology -0.3632
-4.5433 SeaMonkey -0.3830
-4.5433 Selma -0.3834
-4.5433 September -0.3834
-4.0661 Sharon -0.3824
-4.5433 Siegler -0.3682
-4.5433 Silver -0.3834
-4.0661 SourceForge -0.3653
-4.5433 SouthCentral -0.3834
-4.5433 Spain -0.3832
-4.5433 Spanish -0.3653
-4.5433 Street -0.3834
-4.5433 Sun -0.3834
-4.5433 SunOS -0.3740
-4.2422 Sweden -0.3825
-4.2422 Swedish -0.3834
-4.5433 Switchboard -0.3740
-4.5433 Taleb -0.3834
-4.5433 Tekniska -0.3834
-4.5433 Tereza -0.3834
-4.5433 The -0.3834
-4.5433 Tony -0.3834
-3.9412 Trevino -0.3682
-4.5433 Tripp -0.3831
-4.5433 True -0.3653
-4.5433 Tsimshian -0.3834
-4.5433 Turing -0.3830
-4.5433 UN -0.3832
-4.5433 UOP -0.3679
-3.5019 URLs -0.3361
-4.5433 US -0.3833
-4.5433 USA -0.3682
-3.5890 UTF -0.3807
-4.5433 Uganda -0.3832
-3.4641 Unicode -0.3826
-4.5433 Used -0.3834
-4.5433 VPN -0.3831
-4.5433 View -0.3682
-4.5433 Virginia -0.3834
-4.5433 Viterbi's -0.3832
-4.5433 Vorbis -0.3653
-4.5433 Wall -0.3834
-4.2422 Welch -0.3829
-4.2422 What's -0.3830
-4.5433 Where -0.3809
-4.2422 Williams -0.3682
-4.5433 Wolfgang -0.3834
-4.5433 Zedar -0.3682
-3.7651 [left-bracket -0.3819
-2.9098 \backslash -0.3744
-3.5890 ]right-bracket -0.3481
-3.3672 _underscore -0.3815
-4.5433 `agrave -0.3832
-1.7270 a -0.2667
-4.5433 aardvark -0.3833
-4.5433 abbreviated -0.3834
-4.5433 abbreviations -0.3740
-4.5433 aberdares -0.3834
-3.9412 ability -0.3537
-3.0519 able -0.3724
-3.3128 about -0.3413
-4.2422 above -0.3807
-4.5433 abrego -0.3834
-4.5433 absent -0.3730
-4.5433 absolutes -0.3740
-4.2422 abstract -0.3666
-4.5433 abundance -0.3730
-4.5433 academic -0.3834
-4.2422 accent -0.3585
-4.0661 acceptable -0.3666
-4.5433 acceptance -0.3653
-3.7651 accepted -0.3482
-3.4641 access -0.3619
-3.8443 accessed -0.3814
-4.5433 accessible -0.3832
-4.5433 accessing -0.3805
-4.5433 accommodate -0.3833
-4.5433 accompany -0.3568
-4.5433 accomplish -0.3825
-4.5433 accomplished -0.3811
-3.3128 according -0.3724
-3.8443 account -0.3448
-4.5433 accounting -0.3682
-4.5433 accumulating -0.3653
-2.9751 accuracy -0.3213
-3.8443 accurate -0.3822
-4.5433 achieve -0.3834
-3.5890 achieved -0.3480
-4.2422 achieving -0.3807
-4.5433 acknowledgements -0.3802
-2.9992 acoustic -0.3761
-4.5433 acoustical -0.3833
-4.2422 acousticresponses -0.3829
-4.0661 acoustics -0.3563
-4.5433 acquired -0.3833
-4.5433 acquisition -0.3730
-4.5433 acronyms -0.3682
-4.2422 across -0.3480
-4.5433 acting -0.3774
-3.8443 action -0.3619
-3.9412 actions -0.3494
-4.5433 active -0.3831
-4.2422 actively -0.3834
-4.0661 activities -0.3494
-4.5433 activity -0.3653
-3.9412 actual -0.3794
-4.2422 actually -0.3834
-4.5433 adamant -0.3740
-3.9412 adapt -0.3615
-4.5433 adaptable -0.3819
-4.5433 adaptation -0.3774
-4.2422 adapted -0.3708
-4.5433 adapting -0.3568
-4.5433 adaptive -0.3832
-4.5433 adapts -0.3819
-4.0661 add -0.3639
-4.0661 added -0.3714
-4.5433 addionally -0.3682
-3.9412 addition -0.3406
-3.5890 additional -0.3827
-3.5019 additionally -0.3406
-4.5433 additions -0.3807
-4.5433 additive -0.3834
-4.0661 address -0.3649
-4.5433 addressed -0.3724
-4.5433 adds -0.3568
-4.5433 addtionally -0.3682
-4.2422 adequate -0.3790
-4.5433 adequately -0.3834
-4.5433 adheres -0.3724
-4.5433 adhering -0.3724
-4.5433 adjust -0.3568
-4.5433 adjusted -0.3834
-4.5433 adjusting -0.3568
-4.5433 adjustment -0.3730
-4.2422 administrator -0.3614
-4.2422 administrators -0.3833
-4.5433 adopt -0.3682
-4.5433 adopted -0.3653
-4.5433 adopting -0.3833
-4.5433 adult -0.3833
-4.2422 adults -0.3653
-4.5433 advance -0.3682
-4.5433 advanced -0.3831
-4.5433 advancements -0.3831
-4.0661 advantage -0.3730
-3.6981 advantages -0.3590
-4.5433 adversely -0.3653
-4.5433 advocate -0.3834
-4.5433 advocated -0.3805
-4.5433 advocates -0.3834
-4.2422 advocating -0.3830
-4.2422 affect -0.3553
-4.5433 affected -0.3811
-4.5433 afford -0.3653
-3.6981 africana -0.3149
-4.5433 afrika -0.3679
-2.9870 after -0.3377
-4.2422 again -0.3653
-3.8443 against -0.3553
-3.8443 age -0.3370
-4.5433 agency -0.3834
-4.5433 ago -0.3653
-4.2422 agrees -0.3708
-4.5433 agroforestry -0.3831
-4.5433 aguirre -0.3822
-4.5433 ahead -0.3653
-4.5433 aid -0.3568
-4.0661 aim -0.3544
-4.2422 aimed -0.3724
-4.5433 aircraft -0.3834
-4.2422 al -0.3653
-4.5433 alarmingly -0.3682
-4.5433 alaska -0.3653
-4.5433 album -0.3653
-4.2422 albums -0.3809
-2.8900 algorithm -0.2541
-3.3128 algorithms -0.2960
-4.5433 align -0.3819
-4.5433 aligns -0.3819
-4.2422 alike -0.3585
-2.8805 all -0.2916
-4.5433 allergies -0.3809
-4.0661 allow -0.3568
-4.0661 allowed -0.3554
-3.3128 allows -0.3437
-3.9412 almost -0.3828
-4.5433 alone -0.3814
-3.8443 along -0.3623
-3.9412 alpha -0.3704
-4.2422 alphabet -0.3677
-3.8443 already -0.3770
-2.8531 also -0.3168
-3.9412 alt -0.3806
-3.7651 altair -0.3823
-4.5433 alternate -0.3833
-4.5433 alternative -0.3724
-4.0661 alternatively -0.3682
-4.5433 alternatives -0.3724
-3.4641 although -0.3498
-4.5433 always -0.3825
-3.5019 am -0.3799
-4.5433 ambient -0.3834
-3.5433 among -0.3816
-3.6402 amount -0.3730
-4.5433 amounts -0.3730
-4.5433 amplitude -0.3730
-2.4464 an -0.3685
-3.5433 analysis -0.3398
-4.2422 analyzers -0.3646
-4.5433 ancient -0.3833
-1.6676 and -0.0903
-4.5433 andrea -0.3834
-4.5433 andrepresents -0.3568
-4.2422 android -0.3651
-4.5433 anger -0.3653
-4.5433 ann -0.3812
-3.3672 another -0.3498
-4.5433 anova -0.3812
-4.5433 answered -0.3682
-4.2422 anthropocentric -0.3637
-3.8443 anti -0.3807
-4.5433 anticipating -0.3833
-4.2422 antivirus -0.3834
-3.1119 any -0.3653
-4.5433 anybody -0.3814
-4.2422 anyone -0.3824
-3.9412 anything -0.3614
-4.2422 anywhere -0.3774
-4.5433 apart -0.3819
-4.5433 api -0.3812
-4.5433 apparatus -0.3740
-4.2422 apparent -0.3832
-4.5433 apparently -0.3796
-4.5433 appeal -0.3653
-4.5433 appear -0.3774
-4.5433 appearing -0.3724
-4.5433 appears -0.3774
-4.5433 appended -0.3724
-4.5433 appendix -0.3752
-4.5433 applauds -0.3834
-4.5433 apple -0.3826
-4.5433 appliance -0.3682
-4.5433 applicable -0.3724
-4.5433 applicants -0.3819
-2.7237 application -0.2661
-3.1283 applications -0.3130
-3.9412 applied -0.3448
-4.0661 applies -0.3639
-4.0661 apply -0.3737
-4.5433 applying -0.3834
-4.5433 appreciated -0.3832
-3.3391 approach -0.2899
-3.3391 approaches -0.3390
-4.2422 appropriate -0.3823
-4.5433 approved -0.3682
-4.0661 approximate -0.3568
-4.2422 approximated -0.3823
-4.5433 approximating -0.3568
-4.2422 approximation -0.3729
-4.2422 arbitrarily -0.3831
-4.5433 arch -0.3827
-4.0661 architecture -0.3580
-2.2315 are -0.2417
-4.5433 are)right-paren -0.3834
-3.6981 area -0.3403
-3.3128 areas -0.3142
-4.5433 aren -0.3826
-3.8443 arguments -0.3676
-4.5433 arise -0.3774
-4.2422 arm -0.3834
-3.4293 around -0.2615
-4.2422 arpa -0.3810
-4.2422 arpabet -0.3677
-4.5433 arrangement -0.3653
-4.5433 arrangements -0.3740
-4.5433 array -0.3730
-4.5433 arrays -0.3682
-4.5433 arrives -0.3724
-4.5433 article -0.3834
-4.2422 articles -0.3817
-4.2422 articulated -0.3802
-4.5433 articulates -0.3820
-4.5433 articulation -0.3833
-4.0661 articulatory -0.3832
-4.5433 artificial -0.3833
-2.1367 as -0.2658
-4.5433 asleep -0.3679
-4.5433 aspects -0.3730
-4.2422 asplund -0.3795
-4.5433 asr -0.3833
-4.5433 assembly -0.3830
-4.5433 assessment -0.3834
-4.2422 assigned -0.3733
-4.5433 assigning -0.3833
-3.3971 assignment -0.3828
-3.6402 assignments -0.3622
-4.5433 assigns -0.3752
-4.2422 assist -0.3774
-3.9412 associated -0.3716
-4.2422 assume -0.3802
-4.2422 assumed -0.3696
-4.5433 assumes -0.3807
-3.7651 assuming -0.3725
-4.5433 assumption -0.3833
-4.5433 assure -0.3834
-4.5433 assures -0.3831
-4.5433 aster -0.3834
-4.5433 asterisk -0.3834
-2.6740 at -0.3361
-4.5433 att -0.3653
-4.2422 attached -0.3537
-4.5433 attempt -0.3724
-4.5433 attempting -0.3724
-4.0661 attempts -0.3724
-4.5433 attention -0.3653
-4.5433 attenuated -0.3803
-4.5433 attract -0.3834
-3.8443 attributes -0.3490
-4.2422 audacity -0.3585
-4.5433 audience -0.3653
-2.9522 audio -0.3805
-4.2422 august -0.3796
-4.5433 authentication -0.3682
-4.2422 author -0.3723
-4.5433 authorized -0.3832
-4.0661 automate -0.3566
-3.8443 automated -0.3631
-3.6402 automatic -0.3812
-3.8443 automatically -0.3391
-4.0661 automating -0.3467
-3.9412 automation -0.3574
-4.0661 automotive -0.3585
-4.5433 auxiliary -0.3832
-4.5433 availability -0.3822
-2.9751 available -0.3184
-4.5433 availed -0.3832
-3.9412 average -0.3830
-3.9412 avoid -0.3676
-4.5433 avoiding -0.3833
-4.5433 aware -0.3682
-4.0661 away -0.3429
-4.5433 aziz -0.3834
-3.7651 b -0.3467
-3.6402 back -0.3480
-4.2422 background -0.3832
-4.5433 backups -0.3730
-3.4641 backward -0.3821
-3.8443 bad -0.3578
-4.5433 badillo -0.3834
-4.0661 baker -0.3816
-4.2422 balance -0.3728
-4.5433 balances -0.3819
-4.5433 bandpass -0.3834
-4.5433 bandwidth -0.3834
-4.0661 bank -0.3456
-4.2422 bankrupt -0.3742
-4.2422 bark -0.3727
-4.0661 base -0.3831
-2.9635 based -0.3325
-4.5433 baseline -0.3679
-3.7651 basic -0.3816
-4.5433 basically -0.3834
-3.9412 bass -0.3648
-4.5433 bat -0.3833
-3.8443 batch -0.3559
-4.5433 batteries -0.3819
-4.0661 baum -0.3712
-2.0794 be -0.2721
-4.2422 beam -0.3806
-4.5433 bearer -0.3834
-4.5433 beating -0.3730
-3.9412 became -0.3752
-3.6402 because -0.3408
-3.5019 become -0.3519
-3.7651 becomes -0.3822
-4.2422 becoming -0.3833
-4.5433 bed -0.3653
-4.5433 bedroom -0.3653
-2.9098 been -0.3632
-4.5433 beetles -0.3740
-3.7651 before -0.3399
-4.0661 began -0.3723
-3.5890 begin -0.3498
-4.2422 beginning -0.3723
-4.5433 begins -0.3568
-4.5433 behave -0.3774
-4.5433 behaves -0.3831
-3.7651 behavior -0.3470
-4.5433 behavioral -0.3822
-4.5433 behaviors -0.3740
-3.9412 behind -0.3687
-3.5019 being -0.3498
-4.5433 bell -0.3834
-4.2422 belong -0.3724
-4.5433 below -0.3774
-4.0661 benchmark -0.3738
-4.5433 benchmarks -0.3653
-4.5433 beneficial -0.3724
-3.9412 benefit -0.3752
-4.2422 benefits -0.3725
-4.2422 berg -0.3522
-4.2422 bernstein -0.3682
-4.5433 berries -0.3682
-3.9412 besides -0.3565
-3.3391 best -0.3678
-4.2422 bet -0.3827
-3.6981 beta -0.3797
-3.9412 bets -0.3799
-3.3971 better -0.3357
-4.0661 betting -0.3832
-3.3971 between -0.3548
-4.2422 beyond -0.3563
-4.5433 bi -0.3834
-4.5433 biased -0.3834
-4.5433 bible -0.3724
-4.5433 bibliography -0.3752
-3.9412 big -0.3830
-4.0661 bigger -0.3829
-4.5433 biggest -0.3833
-4.0661 bigram -0.3671
-3.6402 bill -0.3573
-4.5433 bills -0.3830
-3.6402 bin -0.3801
-4.5433 binary -0.3834
-4.5433 biocentric -0.3653
-4.5433 biscuit -0.3834
-3.6402 biscuits -0.3296
-3.7651 bit -0.3797
-3.4641 black -0.3580
-4.5433 blank -0.3833
-4.5433 bleeding -0.3807
-4.5433 bliss -0.3653
-4.2422 blocks -0.3668
-4.5433 blow -0.3830
-4.5433 boats -0.3682
-4.0661 boilerpipe -0.3483
-4.0661 book -0.3700
-4.2422 bookrags -0.3653
-4.5433 bookstore -0.3832
-4.2422 boolean -0.3834
-4.5433 boon -0.3724
-4.5433 booting -0.3819
-4.5433 border -0.3834
-3.3391 both -0.3420
-4.5433 bound -0.3724
-4.0661 boundaries -0.3641
-3.9412 boundary -0.3767
-3.1630 box -0.3539
-4.0661 branch -0.3832
-4.2422 branches -0.3774
-4.2422 braude -0.3682
-4.5433 break -0.3819
-4.5433 breaks -0.3653
-4.5433 breathing -0.3682
-4.5433 breech -0.3825
-4.5433 brewing -0.3834
-4.0661 brief -0.3832
-4.5433 briggs -0.3679
-4.5433 bright -0.3833
-4.5433 brightness -0.3682
-4.5433 bring -0.3833
-4.2422 brings -0.3834
-4.5433 british -0.3834
-4.5433 broad -0.3834
-4.5433 broadcast -0.3812
-4.5433 broader -0.3834
-4.5433 broken -0.3834
-4.5433 brother -0.3774
-4.5433 brought -0.3834
-4.5433 browse -0.3724
-4.5433 browsed -0.3740
-3.9412 browser -0.3220
-4.0661 bsd -0.3490
-4.5433 budget -0.3834
-4.5433 budgeted -0.3724
-3.8443 buffer -0.3627
-3.7651 bugs -0.3791
-4.5433 build -0.3752
-3.7651 building -0.3655
-3.9412 built -0.3656
-4.2422 bullard -0.3682
-4.5433 bundled -0.3774
-4.5433 burroughs -0.3682
-3.2008 business -0.3406
-4.5433 businesses -0.3679
-4.5433 busy -0.3796
-2.9522 but -0.2940
-4.0661 button -0.3653
-4.5433 buttons -0.3653
-4.2422 buy -0.3752
-4.5433 buying -0.3568
-3.9412 buzzword -0.3678
-2.2736 by -0.3076
-4.5433 bye -0.3824
-4.0661 byte -0.3833
-4.5433 bytes -0.3819
-3.3672 c -0.3526
-4.5433 cabinet -0.3653
-4.5433 cable -0.3724
-4.2422 cables -0.3659
-4.5433 cache -0.3834
-4.0661 calculate -0.3566
-3.8443 calculated -0.3627
-4.2422 calculates -0.3480
-4.5433 calculating -0.3568
-4.5433 calculations -0.3653
-4.5433 california -0.3834
-3.4293 call -0.3607
-3.2880 called -0.3377
-4.0661 caller -0.3834
-3.8443 calls -0.3460
-2.3205 can -0.3214
-4.5433 canals -0.3682
-4.5433 cancer -0.3682
-4.5433 candidate -0.3828
-4.5433 candidates -0.3653
-4.2422 cannot -0.3798
-4.0661 capabilities -0.3460
-4.5433 capability -0.3682
-3.8443 capable -0.3571
-4.2422 capacity -0.3812
-4.5433 captain -0.3682
-4.5433 capture -0.3568
-4.2422 card -0.3494
-4.5433 cards -0.3682
-4.0661 care -0.3758
-4.2422 career -0.3742
-4.0661 careful -0.3720
-3.8443 carefully -0.3807
-3.8443 carnegie -0.3834
-4.5433 carried -0.3817
-4.0661 carrier -0.3811
-4.5433 carriers -0.3653
-4.5433 carry -0.3817
-4.5433 cars -0.3682
-3.3391 case -0.3207
-3.9412 cases -0.3171
-4.5433 castro -0.3834
-4.2422 casual -0.3656
-4.2422 catastrophic -0.3834
-4.5433 catch -0.3653
-4.5433 categorically -0.3830
-4.0661 categories -0.3543
-4.5433 categorization -0.3834
-4.5433 categorize -0.3568
-4.5433 category -0.3834
-4.5433 caters -0.3724
-4.5433 cause -0.3568
-4.5433 caused -0.3811
-4.2422 causes -0.3740
-4.5433 ccs -0.3830
-4.2422 cd -0.3640
-4.5433 ce -0.3682
-3.6981 cell -0.3612
-3.9412 center -0.3772
-4.5433 centers -0.3682
-4.5433 centos -0.3653
-4.2422 central -0.3831
-4.5433 centralized -0.3826
-3.6981 century -0.3109
-3.9412 cepstral -0.3829
-3.8443 cepstrum -0.3536
-4.5433 cer -0.3834
-3.5433 certain -0.3822
-4.5433 certainly -0.3834
-4.5433 certified -0.3811
-4.5433 certify -0.3568
-4.5433 cgi -0.3807
-4.0661 challenge -0.3796
-3.6981 challenges -0.3500
-4.0661 challenging -0.3828
-3.6981 change -0.3477
-3.6981 changed -0.3244
-3.8443 changes -0.3484
-4.2422 channel -0.3682
-4.2422 channels -0.3834
-3.5019 chapter -0.3579
-4.0661 character -0.3585
-4.0661 characteristic -0.3728
-4.0661 characteristics -0.3730
-4.5433 characterized -0.3811
-4.2422 characters -0.3666
-3.9412 charge -0.3544
-4.5433 charters -0.3740
-3.9412 charts -0.3616
-4.5433 chat -0.3834
-4.5433 chcon -0.3679
-4.0661 cheap -0.3740
-4.5433 cheaper -0.3724
-3.6981 check -0.3764
-3.9412 checkbook -0.3834
-4.0661 checked -0.3469
-3.5890 checking -0.3396
-4.2422 checks -0.3568
-4.0661 chicken -0.3515
-4.5433 child -0.3833
-4.5433 childhood -0.3653
-4.0661 children -0.3831
-4.5433 chinook -0.3832
-4.5433 chips -0.3653
-4.5433 choice -0.3796
-3.9412 choose -0.3561
-4.5433 choosing -0.3830
-4.5433 chores -0.3827
-4.0661 chose -0.3724
-3.9412 chosen -0.3830
-4.5433 chris -0.3679
-4.5433 chum -0.3832
-4.5433 chunks -0.3834
-4.5433 church -0.3832
-4.5433 ci -0.3769
-4.5433 ciencia -0.3834
-4.2422 circuit -0.3834
-3.9412 circuits -0.3651
-4.5433 circumstances -0.3682
-4.5433 cited -0.3682
-4.5433 citeseer -0.3682
-4.5433 citizens -0.3730
-4.5433 clarified -0.3807
-4.5433 clarify -0.3807
-4.5433 clarity -0.3682
-3.5890 class -0.3588
-3.9412 classes -0.3378
-4.5433 classic -0.3833
-4.5433 classified -0.3803
-4.5433 classify -0.3568
-4.2422 classroom -0.3652
-3.9412 clear -0.3419
-4.5433 cleared -0.3834
-4.2422 clearly -0.3832
-4.5433 cleveland -0.3682
-3.6981 click -0.3506
-4.5433 clicking -0.3568
-4.5433 clicks -0.3653
-4.2422 client -0.3834
-3.7651 clients -0.3566
-4.5433 climb -0.3724
-4.5433 climbing -0.3682
-4.5433 clones -0.3653
-4.0661 close -0.3283
-4.0661 closed -0.3539
-4.5433 clr -0.3812
-4.5433 cluster -0.3653
-3.1283 cmu -0.3473
-3.3672 cmuclmtk -0.3383
-4.2422 cmudict -0.3823
-3.8443 cmusphinx -0.3634
-4.2422 co -0.3807
-4.5433 coast -0.3653
-4.5433 coax -0.3820
-2.9751 code -0.3040
-4.2422 codename -0.3682
-4.5433 codified -0.3774
-4.0661 coding -0.3833
-3.6402 coefficients -0.3352
-4.2422 coffee -0.3647
-4.5433 coho -0.3832
-4.2422 coin -0.3834
-4.5433 cold -0.3824
-4.5433 collaborate -0.3740
-4.5433 collaboration -0.3816
-4.5433 colleagues -0.3740
-3.6981 collect -0.3642
-4.2422 collecting -0.3746
-4.5433 collection -0.3730
-3.7651 colney -0.3739
-4.5433 colons -0.3682
-4.2422 color -0.3834
-3.4641 com -0.3550
-4.2422 combination -0.3617
-4.2422 combined -0.3758
-4.5433 combining -0.3830
-4.0661 combo -0.3822
-4.0661 come -0.3818
-3.9412 comes -0.3808
-4.2422 coming -0.3832
-4.5433 comm -0.3834
-4.2422 comma -0.3807
-3.3672 command -0.3631
-3.5890 commands -0.3159
-4.5433 commas -0.3740
-4.5433 commentaries -0.3682
-3.8443 commercial -0.3811
-4.5433 commit -0.3724
-3.1815 common -0.3476
-4.2422 commonly -0.3820
-4.0661 communicate -0.3702
-4.5433 communicating -0.3819
-3.8443 communication -0.3578
-4.5433 communications -0.3724
-4.5433 communities -0.3724
-3.9412 community -0.3457
-4.5433 compact -0.3831
-3.9412 companies -0.3632
-3.3391 company -0.3033
-4.5433 comparable -0.3724
-4.2422 compare -0.3560
-3.9412 compared -0.3724
-4.5433 compares -0.3826
-4.5433 comparing -0.3827
-4.5433 comparison -0.3819
-4.5433 compatibility -0.3816
-4.0661 compatible -0.3818
-4.5433 compensated -0.3740
-3.9412 compensation -0.3573
-4.2422 competitive -0.3834
-3.8443 compile -0.3536
-3.9412 compiled -0.3696
-4.0661 compiler -0.3834
-4.5433 compilers -0.3653
-4.0661 compiling -0.3568
-4.0661 compiz -0.3766
-4.5433 complementary -0.3825
-4.5433 complements -0.3568
-3.6402 complete -0.3458
-4.0661 completed -0.3498
-4.2422 completely -0.3833
-4.5433 completes -0.3834
-4.0661 completion -0.3544
-3.6981 complex -0.3695
-4.2422 complexity -0.3574
-4.5433 complicated -0.3803
-3.5890 component -0.3632
-3.4641 components -0.3081
-3.8443 composed -0.3811
-4.5433 composing -0.3682
-4.0661 compound -0.3834
-4.5433 comprehensive -0.3834
-4.5433 compress -0.3568
-4.5433 compressing -0.3568
-4.5433 compression -0.3769
-4.5433 comprise -0.3833
-3.7651 comprises -0.3476
-4.5433 comprising -0.3830
-4.5433 compromise -0.3679
-4.5433 compromised -0.3830
-4.2422 computation -0.3544
-3.8443 computational -0.3829
-4.2422 computationally -0.3834
-4.5433 computations -0.3803
-3.5890 compute -0.3391
-3.8443 computed -0.3823
-3.2008 computer -0.3063
-3.8443 computers -0.3358
-4.5433 computes -0.3830
-4.5433 computing -0.3653
-4.5433 conacyt -0.3812
-4.2422 concatenation -0.3571
-4.2422 concept -0.3730
-4.5433 concepts -0.3653
-3.9412 concern -0.3461
-4.5433 concerned -0.3832
-4.0661 concerning -0.3750
-4.2422 concerns -0.3590
-3.8443 conclusion -0.3489
-4.0661 conclusions -0.3456
-4.0661 condition -0.3829
-4.5433 conditional -0.3830
-4.0661 conditions -0.3678
-4.0661 conference -0.3816
-4.5433 conferencing -0.3682
-4.5433 confidentiality -0.3834
-3.8443 configuration -0.3371
-4.2422 configurations -0.3659
-4.5433 configured -0.3834
-4.2422 confirm -0.3830
-4.5433 conflicted -0.3819
-4.5433 conform -0.3724
-4.5433 congo -0.3682
-4.5433 connect -0.3568
-4.5433 connected -0.3653
-3.7651 connecting -0.3833
-4.5433 connections -0.3653
-4.5433 connectivity -0.3834
-3.9412 connects -0.3723
-4.5433 consciously -0.3834
-4.5433 consecutive -0.3834
-4.5433 consejo -0.3834
-4.5433 consequently -0.3682
-4.5433 conservation -0.3831
-3.9412 consider -0.3249
-4.5433 consideration -0.3653
-3.9412 considered -0.3448
-4.2422 considering -0.3807
-4.2422 consist -0.3730
-4.2422 consisted -0.3756
-4.5433 consistencies -0.3774
-4.5433 consistent -0.3819
-4.5433 consists -0.3730
-4.5433 constant -0.3828
-4.0661 constrained -0.3810
-4.2422 constraints -0.3831
-4.2422 construct -0.3561
-4.5433 constructed -0.3819
-4.5433 construction -0.3730
-4.5433 constructor -0.3807
-3.4293 consulting -0.3594
-4.5433 consuming -0.3740
-3.6981 contact -0.3630
-3.5019 contain -0.3458
-4.5433 contained -0.3832
-4.5433 containers -0.3740
-3.2210 containing -0.3424
-3.6402 contains -0.3460
-4.5433 contaminated -0.3832
-3.6981 content -0.3677
-4.5433 contention -0.3807
-4.0661 contents -0.3730
-4.0661 context -0.3646
-3.9412 continue -0.3718
-4.2422 continued -0.3450
-4.5433 continues -0.3834
-3.4641 continuous -0.3480
-4.5433 continuously -0.3796
-4.5433 contract -0.3834
-4.5433 contracted -0.3811
-4.2422 contrast -0.3682
-4.5433 contribute -0.3724
-4.5433 contributes -0.3724
-4.5433 contributing -0.3834
-4.5433 contribution -0.3653
-4.5433 contributions -0.3809
-3.7651 control -0.3581
-4.5433 controlled -0.3811
-4.5433 controversial -0.3833
-4.5433 convenient -0.3796
-4.2422 convention -0.3813
-4.5433 conventions -0.3682
-4.5433 converge -0.3828
-4.2422 convergence -0.3730
-4.5433 conversation -0.3679
-4.2422 conversational -0.3717
-3.6981 conversion -0.3571
-3.8443 convert -0.3530
-4.0661 converted -0.3730
-4.5433 converter -0.3825
-4.5433 converting -0.3568
-4.2422 converts -0.3818
-4.5433 convey -0.3752
-4.5433 coordinate -0.3819
-4.5433 copied -0.3724
-3.7651 copy -0.3805
-4.5433 copyright -0.3834
-4.5433 copyrighted -0.3832
-4.0661 cordless -0.3832
-3.5433 core -0.3728
-4.0661 coreutils -0.3822
-4.5433 corner -0.3724
-4.5433 corners -0.3653
-4.5433 corpora -0.3832
-4.2422 corporate -0.3834
-3.0661 corpus -0.3151
-3.7651 correct -0.3646
-4.5433 corrected -0.3740
-4.5433 correction -0.3653
-3.3672 correctly -0.3466
-4.5433 correlated -0.3832
-4.2422 correspond -0.3724
-3.5890 corresponding -0.3537
-3.8443 corresponds -0.3724
-4.5433 cos -0.3828
-4.5433 cosine -0.3834
-4.0661 cosmetic -0.3738
-3.8443 cost -0.3814
-4.2422 costs -0.3768
-3.3391 could -0.3736
-4.2422 count -0.3833
-4.5433 countries -0.3809
-3.9412 couple -0.3730
-4.5433 coupled -0.3819
-3.8443 course -0.3199
-4.2422 courses -0.3821
-4.2422 covariance -0.3834
-4.5433 cover -0.3752
-3.3391 coverage -0.3445
-4.2422 cpus -0.3811
-4.5433 crashed -0.3833
-3.4293 create -0.3339
-3.1453 created -0.3236
-3.9412 creates -0.3752
-3.3971 creating -0.3446
-3.6981 creation -0.3469
-4.5433 creations -0.3740
-4.2422 creative -0.3834
-4.5433 creativity -0.3819
-4.2422 credential -0.3653
-4.2422 credentials -0.3700
-4.5433 creeds -0.3724
-4.5433 crew -0.3833
-4.2422 crewmen -0.3809
-4.5433 crisis -0.3682
-4.2422 criterion -0.3554
-4.2422 critical -0.3724
-4.0661 cron -0.3804
-4.5433 cropping -0.3830
-4.2422 cross -0.3807
-4.5433 cruel -0.3834
-4.5433 cruzon -0.3769
-4.5433 crying -0.3740
-4.0661 cs -0.3653
-4.5433 csci -0.3807
-4.5433 csplit -0.3679
-4.5433 cube -0.3833
-4.2422 cumbersome -0.3724
-4.5433 cup -0.3730
-4.5433 cure -0.3805
-4.5433 cures -0.3829
-3.4641 current -0.3633
-4.0661 currently -0.3645
-4.5433 curve -0.3819
-3.2422 custom -0.3800
-3.9412 customer -0.3831
-4.0661 customers -0.3532
-4.2422 cut -0.3829
-3.7651 cycle -0.3543
-4.5433 cycled -0.3832
-4.5433 cycles -0.3740
-4.5433 cynicism -0.3834
-2.9635 d -0.3652
-4.5433 daily -0.3834
-3.6981 darpa -0.3784
-4.5433 dat -0.3812
-2.8620 data -0.2956
-4.0661 database -0.3811
-3.9412 databases -0.3638
-4.2422 date -0.3760
-4.0661 dates -0.3679
-4.5433 daunting -0.3833
-3.5890 day -0.3362
-3.9412 days -0.3389
-4.5433 db -0.3829
-4.5433 dct -0.3812
-4.5433 de -0.3834
-4.2422 dead -0.3834
-4.2422 deal -0.3787
-4.0661 dealing -0.3819
-4.0661 deals -0.3819
-4.5433 debian -0.3834
-4.2422 debts -0.3830
-3.9412 debug -0.3827
-4.0661 debugging -0.3825
-4.2422 decade -0.3574
-3.7651 decades -0.3198
-3.9412 december -0.3818
-4.5433 decent -0.3830
-4.5433 decide -0.3724
-3.7651 decided -0.3724
-4.5433 decision -0.3834
-4.2422 decisions -0.3681
-3.5019 decode -0.3312
-3.5433 decoded -0.3594
-3.5890 decoder -0.3002
-4.2422 decoders -0.3649
-3.0961 decoding -0.3446
-4.5433 decrease -0.3568
-4.0661 decreasing -0.3562
-4.2422 dect -0.3807
-4.5433 deducted -0.3819
-4.5433 deduction -0.3796
-4.5433 deep -0.3833
-4.5433 deeply -0.3679
-3.2422 default -0.3354
-4.5433 defaut -0.3834
-4.5433 defect -0.3653
-4.5433 defends -0.3829
-4.5433 defense -0.3834
-4.5433 define -0.3752
-3.6981 defined -0.3528
-4.5433 defines -0.3833
-4.5433 defining -0.3752
-3.7651 definition -0.3569
-4.5433 definitions -0.3830
-4.2422 degradation -0.3716
-4.5433 degrees -0.3653
-4.5433 delay -0.3653
-4.5433 delayed -0.3834
-4.5433 delays -0.3774
-4.5433 delete -0.3834
-4.5433 deleted -0.3820
-4.5433 deletions -0.3831
-4.5433 delimited -0.3828
-4.5433 delivers -0.3834
-4.5433 dell -0.3834
-4.5433 dell</s> -0.3679
-4.5433 dellworkstation -0.3679
-3.5890 delta -0.3804
-3.9412 demand -0.3735
-4.5433 demands -0.3679
-4.5433 democratic -0.3834
-4.0661 demonstrate -0.3725
-4.5433 demonstrates -0.3807
-4.5433 dempster -0.3774
-4.5433 denote -0.3834
-4.0661 density -0.3830
-4.2422 department -0.3795
-4.5433 depend -0.3817
-4.5433 dependent -0.3834
-3.8443 depending -0.3817
-3.9412 depends -0.3811
-3.8443 depicted -0.3765
-4.0661 depicts -0.3547
-4.5433 deployment -0.3653
-4.5433 derivations -0.3682
-3.9412 describe -0.3529
-3.5890 described -0.3623
-3.5890 describes -0.3499
-4.5433 describing -0.3568
-3.8443 description -0.3233
-3.4293 design -0.3390
-3.4641 designed -0.3119
-4.5433 designer -0.3682
-4.2422 designing -0.3740
-3.7651 desired -0.3521
-4.5433 desires -0.3834
-4.0661 desk -0.3739
-3.7651 desktop -0.3465
-4.5433 desktops -0.3769
-3.9412 despite -0.3567
-3.9412 detail -0.3374
-3.6981 detailed -0.3699
-4.2422 details -0.3793
-4.5433 detect -0.3834
-3.4641 determine -0.3551
-3.6402 determined -0.3429
-4.5433 determines -0.3831
-4.5433 determining -0.3834
-3.5890 develop -0.3225
-3.2880 developed -0.3113
-3.9412 developer -0.3806
-4.0661 developers -0.3368
-4.2422 developing -0.3736
-2.8273 development -0.2978
-4.0661 device -0.3489
-3.5890 devices -0.3480
-4.5433 df -0.3834
-4.5433 dft -0.3812
-4.5433 diagnostic -0.3833
-3.9412 diagram -0.3159
-4.5433 diagrams -0.3682
-4.5433 dialog -0.3653
-3.4293 dic -0.3183
-4.5433 dictate -0.3827
-3.7651 dictation -0.3576
-3.5019 dictgenerator -0.3342
-3.9412 dictionaries -0.3558
-2.6512 dictionary -0.2268
-3.9412 did -0.3787
-4.5433 die -0.3833
-3.8443 difference -0.3723
-4.5433 differences -0.3774
-4.5433 differencexn -0.3752
-2.9200 different -0.3600
-4.2422 differentials -0.3730
-4.5433 differs -0.3819
-3.5433 difficult -0.3525
-4.0661 difficulties -0.3815
-4.0661 digest -0.3678
-4.5433 digestion -0.3682
-4.2422 digit -0.3494
-3.8443 digital -0.3827
-4.5433 digits -0.3796
-4.5433 dilemma -0.3822
-4.5433 dilemmas -0.3740
-4.5433 dimension -0.3769
-4.5433 dimming -0.3682
-4.5433 dir -0.3829
-4.5433 dircolors -0.3679
-3.8443 direct -0.3825
-4.2422 direction -0.3611
-4.5433 directions -0.3740
-3.8443 directly -0.3633
-4.5433 director -0.3730
-4.5433 directory -0.3834
-4.5433 disadvantages -0.3730
-4.5433 disappear -0.3653
-4.5433 disappearance -0.3730
-3.9412 discard -0.3803
-4.2422 discipline -0.3682
-4.5433 disciplines -0.3830
-4.5433 discover -0.3830
-4.5433 discovered -0.3833
-4.0661 discovery -0.3493
-4.2422 discrete -0.3834
-4.2422 discriminate -0.3739
-4.2422 discussed -0.3647
-4.2422 discusses -0.3567
-4.0661 discussion -0.3834
-4.5433 discussions -0.3811
-4.2422 disease -0.3637
-4.5433 diseases -0.3833
-4.5433 dishes -0.3653
-4.5433 disk -0.3740
-4.5433 disks -0.3834
-4.5433 dismantling -0.3834
-3.9412 display -0.3736
-3.7651 displayed -0.3484
-4.5433 disputes -0.3682
-4.5433 distance -0.3834
-4.5433 distinguish -0.3833
-4.0661 distortions -0.3696
-3.6981 distribution -0.3296
-4.2422 distributions -0.3834
-4.2422 distros -0.3717
-4.0661 distrowatch -0.3653
-4.2422 diverse -0.3833
-4.5433 diversity -0.3740
-4.5433 divide -0.3811
-4.5433 divided -0.3774
-4.5433 dll -0.3823
-4.5433 dmp -0.3679
-3.1815 do -0.3473
-4.5433 doctor -0.3774
-3.9412 document -0.3833
-3.4293 documentation -0.3292
-3.5433 documents -0.3758
-3.2880 does -0.3549
-4.5433 dog -0.3812
-3.7651 doing -0.3548
-3.9412 domain -0.3644
-4.5433 domains -0.3653
-4.5433 domestic -0.3834
-4.5433 don -0.3826
-3.3971 done -0.3474
-3.9412 double -0.3832
-4.5433 doubling -0.3830
-3.6402 down -0.3209
-3.6981 download -0.3260
-4.0661 downloaded -0.3819
-4.0661 downloading -0.3710
-4.5433 downloads -0.3827
-4.5433 dpnss -0.3796
-4.5433 drag -0.3834
-4.5433 drastically -0.3834
-4.5433 draw -0.3830
-4.5433 drawback -0.3730
-4.5433 drive -0.3653
-4.2422 driven -0.3811
-4.5433 drivers -0.3653
-4.5433 drives -0.3809
-4.5433 driving -0.3832
-4.5433 du -0.3834
-3.4293 due -0.3537
-4.5433 dumping -0.3834
-4.5433 dumps -0.3816
-4.2422 duo -0.3826
-4.2422 duration -0.3730
-2.8900 during -0.3347
-4.2422 duty -0.3807
-4.5433 dvd -0.3724
-4.5433 dwres -0.3653
-4.0661 dynamic -0.3833
-4.5433 dynamite -0.3740
-4.5433 dysuria -0.3682
-3.5433 e -0.3619
-2.7439 each -0.3280
-4.5433 eager -0.3724
-4.0661 earlier -0.3773
-4.0661 early -0.3773
-4.5433 earn -0.3568
-4.0661 ease -0.3456
-3.6981 easier -0.3363
-3.7651 easily -0.3644
-4.5433 east -0.3834
-4.2422 eastern -0.3828
-4.0661 easy -0.3721
-4.5433 eat -0.3834
-4.5433 ecampus -0.3653
-4.5433 ecarrier -0.3812
-4.5433 eco -0.3807
-4.2422 ecocentric -0.3668
-4.2422 economic -0.3834
-4.0661 economical -0.3660
-4.0661 ecosmiles -0.3582
-4.2422 ecosystem -0.3815
-4.0661 ed -0.3653
-4.5433 edgar -0.3834
-4.2422 edge -0.3816
-4.5433 edges -0.3820
-4.0661 edit -0.3568
-4.2422 edited -0.3617
-4.2422 editing -0.3633
-4.2422 edition -0.3768
-4.5433 editor -0.3820
-3.9412 edu -0.3822
-4.0661 education -0.3494
-3.9412 effect -0.3730
-3.9412 effective -0.3675
-4.2422 effectively -0.3590
-3.6402 effects -0.3546
-3.7651 efficiency -0.3536
-3.7651 efficient -0.3547
-4.2422 efficiently -0.3815
-4.5433 efforts -0.3774
-3.6981 either -0.3559
-4.5433 elaborated -0.3822
-4.5433 elapsed -0.3833
-4.2422 elements -0.3653
-4.5433 eliminates -0.3568
-4.5433 else -0.3834
-4.5433 em -0.3812
-4.2422 email -0.3723
-3.5890 embedded -0.3792
-4.5433 embodying -0.3568
-4.5433 emerged -0.3829
-4.5433 emergencies -0.3682
-3.7651 emission -0.3732
-4.5433 emitting -0.3740
-4.5433 emphasize -0.3807
-4.5433 emphasized -0.3740
-4.2422 employed -0.3662
-4.2422 employees -0.3494
-4.5433 employers -0.3724
-4.5433 employment -0.3834
-4.5433 empty -0.3826
-4.5433 emulate -0.3752
-4.0661 en -0.3645
-4.0661 enable -0.3831
-4.0661 enabled -0.3828
-4.5433 enables -0.3834
-4.2422 encapsulation -0.3805
-4.5433 encode -0.3822
-3.5890 encoding -0.3522
-4.5433 encourage -0.3833
-4.5433 encouraged -0.3819
-4.5433 encouragement -0.3829
-4.5433 encourages -0.3828
-4.5433 encouraging -0.3832
-4.5433 encryption -0.3834
-4.5433 encyclopedia -0.3653
-3.1453 end -0.2915
-4.5433 endanger -0.3568
-4.5433 endangered -0.3834
-4.2422 ends -0.3740
-3.6981 energy -0.3369
-4.2422 engagement -0.3832
-4.2422 engine -0.3833
-4.5433 engineer -0.3682
-4.0661 engineering -0.3502
-4.0661 english -0.3724
-4.0661 enhance -0.3563
-4.5433 enhanced -0.3820
-4.5433 enhancements -0.3740
-4.5433 enjoy -0.3833
-4.5433 enjoyable -0.3834
-3.6981 enough -0.3709
-3.4641 ensure -0.3520
-4.5433 ensured -0.3653
-4.2422 ensures -0.3567
-4.2422 ensuring -0.3723
-4.5433 enter -0.3752
-4.5433 entered -0.3828
-4.5433 entering -0.3830
-3.7651 entire -0.3795
-4.0661 entirely -0.3587
-4.5433 entitlement -0.3807
-4.5433 env -0.3834
-4.0661 envelope -0.3625
-3.2422 environment -0.3159
-2.9870 environmental -0.3515
-4.5433 envissues -0.3823
-4.5433 envissuesethics -0.3822
-4.5433 epistemology -0.3682
-4.5433 epsilon -0.3682
-4.2422 equal -0.3724
-4.5433 equation -0.3816
-4.5433 equidistant -0.3817
-3.8443 equipment -0.3471
-4.5433 equipped -0.3819
-4.5433 equitable -0.3834
-4.5433 equities -0.3829
-4.2422 equivalence -0.3834
-4.5433 er -0.3834
-4.5433 erase -0.3834
-3.3672 error -0.3629
-3.4293 errors -0.3395
-4.5433 escape -0.3833
-4.5433 escorts -0.3796
-4.5433 espeak -0.3834
-4.0661 especially -0.3829
-3.9412 essential -0.3777
-4.5433 essentially -0.3682
-4.5433 essentials -0.3653
-4.2422 established -0.3811
-3.9412 estimate -0.3338
-4.0661 estimated -0.3564
-3.9412 estimates -0.3534
-4.5433 estimating -0.3819
-4.5433 estimator -0.3774
-4.2422 et -0.3834
-4.2422 etc -0.3629
-3.1815 ethical -0.3798
-3.1283 ethics -0.3122
-4.5433 ethnobiology -0.3740
-4.5433 ethnobotanical -0.3831
-4.5433 etymology -0.3730
-4.5433 europe -0.3682
-3.3971 evaluate -0.3344
-3.9412 evaluated -0.3486
-3.7651 evaluating -0.3565
-3.3971 evaluation -0.3427
-3.1630 even -0.3375
-4.5433 evening -0.3653
-3.8443 event -0.3367
-4.5433 events -0.3807
-4.5433 eventual -0.3834
-4.0661 eventually -0.3833
-4.5433 ever -0.3653
-3.5890 everett -0.3583
-3.3672 every -0.3765
-4.2422 everyone -0.3785
-4.5433 everything -0.3769
-4.5433 evidence -0.3730
-4.2422 evolution -0.3730
-4.0661 evolved -0.3656
-4.5433 evolving -0.3834
-4.2422 exact -0.3832
-3.8443 exactly -0.3558
-4.5433 examine -0.3827
-4.5433 examiner -0.3816
-4.5433 examining -0.3752
-2.6799 example -0.3070
-4.0661 examples -0.3609
-4.2422 exceed -0.3830
-4.5433 excel -0.3774
-4.5433 exception -0.3769
-4.5433 exchange -0.3834
-4.5433 exciting -0.3832
-4.5433 excuse -0.3769
-4.5433 excused -0.3682
-4.0661 executable -0.3734
-3.3391 execute -0.3023
-3.7651 executed -0.3321
-4.5433 executes -0.3833
-3.9412 executing -0.3568
-3.2210 execution -0.2991
-3.9412 executive -0.3833
-4.5433 exercise -0.3834
-4.5433 exhibit -0.3752
-4.5433 exhibitions -0.3825
-4.5433 exico -0.3796
-3.8443 exist -0.3694
-4.5433 existence -0.3730
-3.3391 existing -0.3763
-4.2422 exit -0.3568
-4.5433 expand -0.3834
-4.5433 expanded -0.3834
-4.2422 expands -0.3740
-3.8443 expectation -0.3625
-4.2422 expectations -0.3811
-3.5433 expected -0.3686
-4.5433 expenses -0.3653
-4.5433 expensive -0.3833
-3.6402 experience -0.3533
-3.7651 experienced -0.3700
-4.5433 experiences -0.3774
-4.5433 experiment -0.3819
-4.5433 experimentation -0.3740
-4.5433 expert -0.3834
-4.5433 expertise -0.3830
-4.2422 explain -0.3806
-4.0661 explained -0.3825
-4.5433 explains -0.3807
-4.5433 exponential -0.3834
-4.5433 exponentially -0.3653
-4.5433 exports -0.3730
-4.2422 express -0.3677
-3.9412 expressed -0.3467
-4.0661 expressions -0.3689
-4.5433 extend -0.3827
-4.5433 extendable -0.3819
-4.0661 extended -0.3834
-4.2422 extension -0.3637
-4.5433 extensions -0.3724
-4.0661 extensive -0.3827
-3.8443 external -0.3818
-4.5433 extra -0.3833
-4.2422 extract -0.3563
-3.8443 extraction -0.3197
-3.2422 extractor -0.3317
-4.5433 extremely -0.3834
-4.5433 extremes -0.3833
-4.5433 eyes -0.3653
-4.2422 f -0.3829
-4.5433 face -0.3730
-4.2422 facebook -0.3673
-4.0661 faced -0.3816
-4.2422 facilitator -0.3831
-3.7651 fact -0.3654
-4.2422 factor -0.3768
-4.5433 factories -0.3774
-3.7651 factors -0.3623
-4.5433 factoryoutletstore -0.3653
-4.5433 failing -0.3724
-4.2422 fails -0.3627
-4.5433 failures -0.3830
-3.8443 fairly -0.3826
-4.5433 faith -0.3774
-4.5433 fallacy -0.3682
-4.5433 falling -0.3834
-4.5433 falloff -0.3730
-4.2422 false -0.3833
-4.5433 familiar -0.3819
-4.5433 families -0.3796
-3.9412 family -0.3443
-4.0661 far -0.3405
-4.2422 farm -0.3726
-4.5433 farms -0.3653
-4.5433 fashion -0.3682
-3.6402 fast -0.3687
-3.9412 faster -0.3301
-4.0661 fastest -0.3824
-4.5433 fate -0.3730
-4.5433 father -0.3826
-4.5433 favorite -0.3834
-4.5433 fb -0.3812
-4.5433 fear -0.3740
-4.0661 feasible -0.3723
-3.2645 feature -0.3640
-3.1283 features -0.3054
-4.5433 february -0.3819
-4.2422 fedora -0.3659
-4.2422 feel -0.3727
-4.5433 feeling -0.3834
-4.5433 feels -0.3724
-4.5433 felt -0.3834
-3.8443 few -0.3827
-4.5433 fewer -0.3834
-4.2422 fft -0.3812
-4.5433 fiber -0.3834
-4.2422 field -0.3668
-3.9412 fields -0.3681
-4.5433 fifty -0.3833
-2.7237 figure -0.3054
-4.5433 figures -0.3834
-2.5939 file -0.2250
-2.6982 files -0.2556
-4.2422 filesbypkg -0.3834
-4.5433 filled -0.3819
-3.7651 filter -0.3648
-3.5890 filtered -0.3648
-4.0661 filters -0.3369
-3.6402 final -0.3825
-3.5433 finally -0.3682
-4.5433 finance -0.3740
-4.5433 financial -0.3833
-3.4293 find -0.3183
-3.7651 finding -0.3463
-4.2422 finds -0.3719
-4.5433 fine -0.3807
-4.5433 finish -0.3830
-4.2422 finished -0.3563
-4.5433 finite -0.3807
-4.5433 fire -0.3834
-4.5433 fires -0.3682
-4.2422 firewall -0.3726
-4.5433 firewood -0.3796
-4.5433 firm -0.3830
-2.9992 first -0.3165
-4.5433 fischer -0.3682
-4.5433 fisherman -0.3682
-4.0661 fishing -0.3634
-4.0661 fit -0.3501
-3.7651 five -0.3601
-4.0661 fix -0.3724
-3.9412 fixed -0.3833
-4.5433 fixing -0.3834
-4.5433 flag -0.3653
-4.5433 fleet -0.3833
-4.0661 flexibility -0.3626
-3.8443 flexible -0.3516
-4.5433 fliers -0.3682
-4.5433 flip -0.3834
-4.5433 flipped -0.3833
-4.5433 floppy -0.3811
-4.5433 flow -0.3833
-3.8443 focus -0.3811
-3.9412 focused -0.3807
-3.9412 focuses -0.3817
-3.2880 folder -0.3119
-4.0661 folders -0.3640
-4.5433 folds -0.3809
-3.7651 follow -0.3474
-4.2422 followed -0.3807
-4.5433 followers -0.3653
-2.9992 following -0.3220
-3.8443 follows -0.3548
-4.5433 food -0.3740
-4.5433 foods -0.3822
-2.0519 for -0.2655
-4.5433 force -0.3796
-4.5433 forecast -0.3819
-4.5433 foreign -0.3831
-4.0661 forest -0.3681
-4.5433 forged -0.3819
-3.8443 form -0.3277
-4.5433 formant -0.3834
-4.5433 formants -0.3796
-3.5019 format -0.3292
-4.5433 formats -0.3682
-4.2422 forms -0.3806
-4.5433 formula -0.3816
-4.2422 formulas -0.3631
-4.5433 fortune -0.3832
-3.9412 forum -0.3640
-3.3128 forward -0.3641
-4.5433 foster -0.3752
-3.3128 found -0.3423
-4.5433 founded -0.3811
-3.6981 four -0.3641
-3.9412 fourier -0.3834
-4.5433 fourth -0.3740
-4.2422 frame -0.3644
-3.9412 frames -0.3544
-3.6981 framework -0.3444
-4.5433 france -0.3740
-4.5433 francisco -0.3834
-3.1283 free -0.3098
-4.5433 freebsd -0.3682
-3.7651 freedom -0.3150
-4.2422 freely -0.3816
-4.5433 freetts -0.3834
-4.5433 french -0.3740
-3.6402 frequencies -0.3589
-4.0661 frequency -0.3802
-4.2422 fresh -0.3774
-4.5433 friendly -0.3568
-2.4464 from -0.2842
-3.5890 front -0.3699
-4.5433 frustrating -0.3724
-4.2422 fsm -0.3798
-3.8443 full -0.3570
-3.9412 fully -0.3804
-4.2422 fun -0.3833
-3.1815 function -0.3235
-3.9412 functional -0.3715
-4.5433 functionality -0.3682
-4.5433 functionally -0.3820
-3.5019 functions -0.3198
-3.9412 fundamental -0.3821
-4.5433 funded -0.3740
-4.5433 funding -0.3682
-4.5433 fungus -0.3682
-3.6981 further -0.3676
-3.3391 furthermore -0.3652
-3.4641 future -0.3536
-3.8443 g -0.3653
-4.0661 gain -0.3651
-3.7651 gambler -0.3804
-4.0661 gambler's -0.3833
-4.0661 gamblers -0.3772
-4.5433 game -0.3774
-4.5433 games -0.3682
-4.5433 gaps -0.3740
-4.5433 garage -0.3653
-4.5433 garc -0.3834
-4.5433 gathered -0.3829
-4.5433 gauging -0.3796
-3.6981 gaussian -0.3733
-4.5433 gave -0.3834
-4.2422 gb -0.3730
-4.5433 geared -0.3833
-4.0661 gender -0.3658
-3.8443 general -0.3653
-4.5433 generalized -0.3823
-4.0661 generally -0.3831
-3.2422 generate -0.3461
-3.3672 generated -0.3539
-3.4641 generatedfiles -0.3829
-4.5433 generatelm -0.3653
-3.4641 generates -0.3308
-3.3971 generating -0.3467
-3.6981 generation -0.3453
-4.0661 generator -0.3825
-4.5433 german -0.3682
-3.3971 get -0.3430
-3.9412 gets -0.3831
-4.5433 getting -0.3834
-4.5433 ghantt -0.3834
-4.2422 gi -0.3826
-4.5433 giants -0.3682
-4.2422 give -0.3480
-3.1453 given -0.3155
-4.0661 gives -0.3478
-4.2422 giving -0.3831
-4.5433 glib -0.3653
-4.0661 gmail -0.3652
-3.6981 gnu -0.3636
-3.6981 go -0.3487
-3.8443 goal -0.3587
-4.0661 goals -0.3637
-4.5433 gobs -0.3730
-4.2422 goes -0.3831
-3.8443 going -0.3690
-4.5433 golden -0.3834
-3.2880 good -0.3566
-3.7651 google -0.3639
-4.5433 gotten -0.3834
-4.5433 gov -0.3822
-4.5433 government -0.3834
-4.5433 gpl -0.3834
-4.5433 gps -0.3834
-4.5433 graciela -0.3834
-4.0661 grade -0.3787
-4.5433 grades -0.3796
-4.5433 gradient -0.3682
-4.2422 grading -0.3679
-4.5433 gradually -0.3834
-4.5433 graduate -0.3679
-3.9412 gram -0.3816
-4.2422 grammar -0.3554
-4.5433 grammars -0.3740
-4.5433 grammatical -0.3740
-4.5433 grammatically -0.3833
-4.2422 grams -0.3563
-4.2422 granted -0.3494
-4.5433 grants -0.3832
-4.2422 graphical -0.3826
-4.5433 graphics -0.3724
-4.5433 grasses -0.3653
-4.5433 grateful -0.3819
-4.5433 gratitude -0.3724
-4.5433 grazing -0.3834
-4.0661 great -0.3833
-4.2422 greater -0.3833
-4.2422 greatest -0.3833
-4.0661 greatly -0.3818
-4.0661 grep -0.3721
-4.5433 grounds -0.3796
-3.5433 group -0.3520
-3.7651 groups -0.3054
-4.2422 grow -0.3787
-4.5433 growing -0.3682
-4.5433 grown -0.3834
-4.2422 grows -0.3673
-3.7651 growth -0.3565
-4.5433 guarantee -0.3807
-4.0661 gui -0.3655
-4.2422 guidance -0.3827
-4.0661 guide -0.3723
-4.5433 guidelines -0.3752
-4.5433 guides -0.3682
-3.9412 h -0.3653
-4.5433 habits -0.3834
-4.5433 hackers -0.3832
-3.4293 had -0.3146
-4.5433 half -0.3730
-4.5433 hamming -0.3833
-4.5433 hamud -0.3682
-3.4293 hand -0.3454
-4.5433 handheld -0.3833
-4.2422 handing -0.3742
-3.6981 handle -0.3465
-3.9412 handling -0.3378
-4.2422 hands -0.3374
-4.5433 handy -0.3833
-4.2422 happen -0.3825
-4.5433 happening -0.3830
-4.2422 happy -0.3724
-4.5433 hard -0.3834
-4.5433 harder -0.3653
-3.8443 hardware -0.3479
-4.5433 harm -0.3724
-4.5433 harvest -0.3730
-4.2422 harvesting -0.3633
-4.0661 harvests -0.3740
-2.6920 has -0.3060
-4.0661 hash -0.3834
-4.2422 hassenzahl -0.3678
-4.5433 hat -0.3682
-2.6982 have -0.3079
-3.3128 having -0.3339
-4.2422 he -0.3822
-4.2422 head -0.3711
-4.5433 headless -0.3830
-4.2422 heads -0.3585
-4.0661 health -0.3834
-4.5433 healthcare -0.3682
-4.5433 heart -0.3682
-4.0661 heavily -0.3833
-3.9412 held -0.3650
-4.5433 hello -0.3682
-3.5890 help -0.3316
-3.7651 helped -0.3447
-4.5433 helpful -0.3724
-3.6981 helps -0.3563
-4.5433 hence -0.3568
-3.8443 her -0.3826
-4.2422 herbal -0.3679
-3.7651 here -0.3426
-4.5433 hertz -0.3740
-4.5433 hesitate -0.3724
-4.5433 hesitation -0.3820
-4.0661 heuristic -0.3830
-4.5433 hh -0.3833
-3.9412 hi -0.3488
-3.3128 hidden -0.3472
-4.5433 hide -0.3828
-4.5433 hiding -0.3568
-3.5019 high -0.3645
-3.8443 higher -0.3555
-4.2422 highlight -0.3831
-4.5433 highlights -0.3568
-4.5433 hill -0.3807
-3.6402 his -0.3818
-4.2422 historical -0.3834
-4.5433 historically -0.3820
-4.0661 history -0.3455
-4.0661 hit -0.3566
-4.5433 hitting -0.3834
-3.2210 hmm -0.2795
-3.3391 hmms -0.3241
-4.0661 hobby -0.3678
-4.2422 hoboken -0.3682
-4.2422 hold -0.3834
-4.2422 holding -0.3566
-4.0661 home -0.3711
-4.2422 homes -0.3653
-4.2422 hope -0.3802
-4.5433 hopes -0.3807
-4.5433 horowitz -0.3682
-4.5433 hospitals -0.3834
-4.5433 hostid -0.3834
-4.2422 hot -0.3833
-3.9412 hours -0.3443
-4.5433 houseboat -0.3769
-3.0661 how -0.3110
-2.9412 however -0.3364
-3.7651 html -0.3673
-3.3128 http -0.3816
-4.5433 https -0.3816
-4.2422 hub -0.3805
-3.2422 huffman -0.3762
-4.5433 huge -0.3834
-3.4641 human -0.3781
-4.5433 humanistic -0.3682
-4.0661 humans -0.3482
-4.2422 hundreds -0.3716
-4.0661 hybrid -0.3821
-4.5433 hyperplasia -0.3682
-4.5433 hypertrophy -0.3740
-4.0661 hyplogfile -0.3830
-4.5433 hypotheses -0.3740
-4.0661 hypothesis -0.3712
-4.5433 hypothesized -0.3812
-2.5476 i -0.3038
-4.5433 iTunes -0.3653
-4.5433 iax -0.3834
-3.7651 ibm -0.3428
-4.5433 icassp -0.3834
-4.5433 iceberg -0.3682
-4.2422 icer -0.3659
-4.5433 icons -0.3740
-4.0661 id -0.3494
-4.5433 ide -0.3812
-4.2422 idea -0.3729
-3.9412 ideals -0.3542
-4.2422 ideas -0.3696
-3.3391 identified -0.3389
-4.0661 identifiers -0.3809
-3.3672 identify -0.3442
-4.0661 identifying -0.3378
-4.0661 ieee -0.3682
-2.7951 if -0.3297
-4.5433 ignored -0.3827
-3.9412 ii -0.3544
-3.9412 iii -0.3672
-4.5433 iis -0.3769
-4.5433 illustrate -0.3568
-3.9412 illustrated -0.3802
-3.7651 illustrates -0.3568
-4.2422 image -0.3537
-4.5433 imagination -0.3679
-4.5433 imbalance -0.3774
-4.5433 immediate -0.3834
-4.5433 immediately -0.3653
-4.5433 immense -0.3833
-4.0661 impact -0.3484
-4.5433 impacting -0.3832
-4.5433 impacts -0.3831
-3.9412 implement -0.3653
-3.7651 implementation -0.3504
-3.5019 implemented -0.3406
-4.5433 implementing -0.3834
-4.5433 importance -0.3682
-3.1119 important -0.3605
-4.2422 importantly -0.3682
-4.5433 imported -0.3828
-4.0661 impossible -0.3682
-3.5890 improve -0.3554
-4.0661 improved -0.3575
-3.8443 improvement -0.3400
-3.6402 improvements -0.3624
-4.2422 improves -0.3827
-4.5433 improving -0.3825
-1.8593 in -0.2203
-4.0661 inc -0.3653
-4.2422 incentives -0.3568
-4.5433 inception -0.3803
-3.4293 include -0.3281
-3.2645 included -0.3592
-3.6402 includes -0.3726
-3.7651 including -0.3557
-3.7651 incoming -0.3811
-4.2422 incomplete -0.3679
-4.5433 inconsistently -0.3833
-4.5433 incontinence -0.3653
-4.5433 incorporated -0.3828
-3.6402 incorrect -0.3627
-4.5433 incorrectly -0.3820
-3.7651 increase -0.3200
-3.6981 increased -0.3393
-3.6981 increases -0.3400
-3.8443 increasing -0.3566
-4.5433 incremental -0.3833
-4.5433 indeed -0.3834
-4.2422 independence -0.3494
-3.6981 independent -0.3600
-4.5433 index -0.3653
-4.5433 indian -0.3740
-4.2422 indicate -0.3651
-3.9412 indicating -0.3539
-3.5019 individual -0.3821
-4.2422 individually -0.3801
-4.2422 individuals -0.3568
-4.5433 induction -0.3833
-4.5433 industrial -0.3834
-4.2422 industries -0.3653
-4.5433 inescapable -0.3653
-4.5433 inexpensive -0.3834
-4.2422 infinite -0.3834
-4.0661 influenced -0.3526
-4.5433 influential -0.3833
-4.2422 info -0.3834
-3.1453 information -0.3431
-3.8443 infrastructure -0.3818
-4.2422 ingredients -0.3638
-4.5433 inhabiting -0.3568
-3.8443 initial -0.3578
-4.2422 initially -0.3682
-4.5433 initiatives -0.3682
-4.5433 injection -0.3682
-4.0661 innovation -0.3682
-3.0381 input -0.2890
-3.3672 inputs -0.2890
-4.5433 insane -0.3833
-3.9412 insert -0.3796
-4.5433 inserted -0.3682
-4.5433 insertions -0.3834
-4.5433 inserts -0.3568
-3.9412 inside -0.3446
-4.5433 insight -0.3730
-4.2422 inspections -0.3585
-3.6981 install -0.3439
-3.8443 installation -0.3423
-4.2422 installations -0.3739
-3.6981 installed -0.3524
-4.2422 installing -0.3568
-4.0661 instance -0.3572
-4.5433 instances -0.3812
-3.6402 instead -0.3377
-4.2422 institute -0.3708
-3.5433 instructions -0.3430
-4.5433 instructor -0.3740
-4.5433 instrument -0.3834
-4.5433 integrate -0.3831
-4.2422 integrated -0.3812
-4.2422 integration -0.3799
-4.2422 integrity -0.3537
-4.2422 intel -0.3833
-4.5433 intelligent -0.3834
-4.5433 intelligible -0.3812
-4.5433 intend -0.3724
-3.9412 intended -0.3565
-4.5433 intensity -0.3774
-4.5433 intensively -0.3834
-4.5433 intention -0.3730
-4.5433 intentionally -0.3834
-4.5433 intentions -0.3724
-4.5433 inter -0.3807
-4.2422 interact -0.3819
-4.5433 interacting -0.3819
-4.2422 interaction -0.3833
-3.5019 interactive -0.3527
-3.9412 interest -0.3359
-4.5433 interesting -0.3679
-4.2422 interests -0.3656
-3.4293 interface -0.3424
-3.7651 interfaces -0.3640
-4.5433 interference -0.3833
-4.5433 intermediate -0.3834
-4.5433 internal -0.3834
-4.5433 internally -0.3774
-3.9412 international -0.3823
-3.6981 internet -0.3493
-4.5433 interoperability -0.3819
-4.2422 interpret -0.3739
-4.5433 intervene -0.3796
-4.5433 intervention -0.3811
-2.8443 into -0.3380
-4.5433 intranet -0.3653
-4.2422 introduce -0.3824
-3.6981 introduced -0.3642
-4.5433 introduces -0.3834
-4.5433 introducing -0.3834
-3.7651 introduction -0.3447
-4.5433 introductory -0.3834
-4.0661 intuition -0.3740
-4.0661 invariant -0.3550
-4.5433 investment -0.3834
-4.5433 invited -0.3724
-4.0661 involved -0.3762
-4.0661 involves -0.3554
-4.5433 involving -0.3833
-4.2422 io -0.3830
-4.2422 ios -0.3740
-4.2422 ip -0.3735
-1.8223 is -0.2118
-4.0661 isdn -0.3567
-4.2422 isolated -0.3825
-4.5433 isproject -0.3829
-4.2422 issue -0.3646
-3.0519 issues -0.3248
-2.1703 it -0.2574
-4.5433 itchy -0.3834
-4.5433 items -0.3724
-4.5433 iterative -0.3834
-4.5433 iteratively -0.3834
-4.5433 ith -0.3834
-2.9635 its -0.3758
-4.2422 itself -0.3638
-3.8443 j -0.3642
-4.2422 james -0.3834
-4.2422 january -0.3679
-3.2880 jar -0.3803
-3.3128 java -0.3473
-4.5433 jcl -0.3812
-4.2422 jersey -0.3833
-4.5433 jim -0.3833
-4.5433 jimmy -0.3833
-3.9412 job -0.3827
-3.8443 jobs -0.3581
-4.2422 john -0.3834
-4.5433 johnson -0.3682
-4.2422 join -0.3833
-4.5433 joke -0.3817
-4.2422 joseph -0.3834
-4.2422 journey -0.3827
-4.2422 july -0.3806
-4.5433 junction -0.3833
-4.5433 june -0.3682
-3.4293 just -0.3314
-3.5433 justice -0.3008
-4.5433 justifies -0.3568
-4.5433 justify -0.3827
-3.8443 k -0.3629
-4.2422 kard -0.3810
-4.5433 kasey -0.3834
-4.5433 kb -0.3653
-3.1453 kda -0.3216
-3.9412 keep -0.3560
-4.5433 keeps -0.3834
-4.5433 kempelen -0.3834
-4.2422 kenya -0.3682
-4.5433 kept -0.3832
-3.5890 key -0.3496
-3.7651 keyboard -0.3125
-4.5433 keyboards -0.3682
-2.8109 keyword -0.3148
-2.9635 keywords -0.2798
-3.9412 kikuyu -0.3834
-4.2422 kind -0.3730
-4.5433 king -0.3812
-4.2422 kitcosilver -0.3757
-4.5433 knew -0.3805
-3.5890 know -0.3597
-4.5433 knowing -0.3568
-4.2422 knowledge -0.3728
-3.4293 known -0.3679
-4.5433 knows -0.3819
-4.2422 kohlberg -0.3826
-4.5433 kth -0.3834
-4.5433 kwords -0.3653
-4.2422 l -0.3653
-4.5433 label -0.3827
-4.5433 labels -0.3740
-4.5433 labor -0.3834
-4.5433 laboratories -0.3679
-4.2422 lack -0.3456
-4.5433 laface -0.3682
-4.5433 laguage -0.3823
-4.0661 land -0.3598
-2.5610 language -0.2914
-3.5019 languages -0.3375
-3.1119 large -0.3561
-4.5433 larger -0.3834
-4.5433 largest -0.3833
-4.2422 lars -0.3834
-3.4293 last -0.3810
-4.2422 lastly -0.3682
-3.7651 late -0.3811
-3.5890 later -0.3809
-3.8443 latest -0.3759
-4.5433 latter -0.3833
-4.5433 launching -0.3740
-4.2422 law -0.3653
-4.5433 laws -0.3653
-3.8443 layer -0.3729
-4.2422 layers -0.3653
-4.5433 lead -0.3724
-4.5433 leaders -0.3740
-4.2422 leaks -0.3740
-3.9412 learn -0.3824
-3.8443 learned -0.3624
-4.5433 learner -0.3679
-3.2880 learning -0.3298
-3.9412 least -0.3819
-4.2422 leaving -0.3826
-4.5433 led -0.3724
-4.2422 left -0.3807
-4.5433 legal -0.3653
-4.2422 legally -0.3649
-4.5433 legislation -0.3774
-3.9412 length -0.3377
-4.2422 lengths -0.3682
-3.6981 less -0.3733
-4.5433 lessons -0.3834
-3.9412 let -0.3818
-4.0661 let's -0.3830
-4.5433 lets -0.3568
-4.5433 letter -0.3819
-3.6981 level -0.3649
-4.0661 levels -0.3710
-3.3971 library -0.3388
-4.2422 license -0.3647
-4.5433 licenses -0.3834
-4.5433 licensing -0.3834
-3.8443 life -0.3795
-4.5433 lifetime -0.3653
-4.5433 light -0.3807
-4.5433 lighter -0.3740
-3.2008 like -0.3559
-3.7651 likelihood -0.3630
-3.6402 likely -0.3642
-4.2422 limit -0.3793
-4.5433 limitation -0.3834
-3.5433 limited -0.3306
-4.2422 limiting -0.3833
-4.0661 limits -0.3727
-3.3971 line -0.3138
-4.0661 linear -0.3830
-3.7651 lines -0.3060
-4.2422 linguist -0.3620
-4.5433 linguistic -0.3827
-4.5433 linguists -0.3774
-4.5433 linked -0.3724
-4.5433 links -0.3653
-2.8900 list -0.3135
-4.2422 listed -0.3815
-4.0661 listen -0.3625
-4.5433 listener -0.3653
-3.5433 listening -0.3406
-4.5433 listing -0.3568
-3.9412 lists -0.3560
-4.0661 literal -0.3828
-4.2422 little -0.3813
-3.9412 live -0.3804
-4.2422 living -0.3494
-4.0661 lm -0.3647
-4.5433 lmtool -0.3653
-3.9412 load -0.3655
-4.2422 loaded -0.3828
-4.5433 loads -0.3816
-3.9412 local -0.3833
-4.5433 locally -0.3682
-3.9412 located -0.3759
-3.9412 location -0.3510
-3.8443 locations -0.3460
-4.5433 locators -0.3833
-4.0661 locked -0.3833
-3.5433 log -0.3619
-4.5433 logarithm -0.3834
-4.5433 logarithmic -0.3834
-4.5433 logfile -0.3682
-4.5433 logfiles -0.3829
-4.2422 logged -0.3747
-4.5433 loggers -0.3653
-3.7651 logging -0.3399
-4.2422 logic -0.3738
-4.0661 login -0.3831
-4.5433 logistical -0.3834
-4.5433 logname -0.3679
-4.5433 logs -0.3817
-3.7651 long -0.3796
-4.0661 longer -0.3823
-3.5433 look -0.3575
-3.9412 looking -0.3555
-4.0661 looks -0.3801
-3.6981 loop -0.3755
-3.9412 loops -0.3668
-4.5433 lorin -0.3834
-4.5433 lose -0.3830
-4.5433 loses -0.3805
-4.5433 losing -0.3834
-3.8443 loss -0.3425
-3.7651 losses -0.3488
-4.0661 love -0.3367
-4.5433 loverde -0.3832
-3.9412 low -0.3636
-3.5890 lower -0.3578
-4.5433 lowering -0.3834
-4.0661 lpc -0.3811
-4.5433 lsfs -0.3812
-4.5433 lure -0.3679
-4.2422 luther -0.3802
-3.5433 m -0.3419
-4.5433 mac -0.3832
-4.5433 machiavellian -0.3774
-3.6981 machine -0.3751
-3.8443 machines -0.3830
-4.2422 mad -0.3494
-3.4293 made -0.3143
-4.5433 mageia -0.3682
-4.5433 magnification -0.3682
-4.5433 mail -0.3820
-2.9200 main -0.3762
-3.6402 mainframe -0.3519
-3.4293 mainframes -0.3337
-4.5433 mainly -0.3834
-4.2422 maintain -0.3568
-4.5433 maintained -0.3774
-4.2422 maintaining -0.3819
-3.6402 major -0.3828
-4.2422 majority -0.3653
-3.0661 make -0.3383
-4.5433 maker -0.3834
-4.0661 makes -0.3749
-3.6981 making -0.3441
-4.5433 males -0.3834
-4.5433 man -0.3826
-4.5433 manage -0.3724
-3.7651 managed -0.3638
-3.5433 management -0.3300
-3.8443 manager -0.3766
-4.5433 manages -0.3568
-3.2422 managing -0.3827
-4.5433 mandarin -0.3653
-4.5433 manipulate -0.3568
-4.5433 manipulating -0.3568
-4.2422 manner -0.3730
-4.5433 manners -0.3682
-3.9412 manually -0.3652
-4.2422 manuals -0.3656
-4.5433 manufacture -0.3730
-4.2422 manufacturer -0.3817
-4.2422 manufacturers -0.3614
-4.2422 manufactures -0.3831
-4.5433 manufacturing -0.3769
-3.1283 many -0.3721
-4.5433 map -0.3833
-4.5433 mapped -0.3834
-4.2422 mapping -0.3565
-4.5433 marginal -0.3834
-4.2422 market -0.3834
-4.5433 marketing -0.3682
-3.3672 markov -0.3815
-4.5433 marks -0.3830
-4.5433 markup -0.3824
-3.5433 martingale -0.3416
-4.5433 mass -0.3834
-3.9412 master -0.3816
-4.2422 match -0.3833
-4.0661 matches -0.3802
-4.5433 material -0.3769
-4.5433 materials -0.3653
-4.5433 mathematical -0.3834
-3.8443 matrix -0.3645
-4.2422 matter -0.3450
-4.5433 mature -0.3740
-4.5433 max -0.3832
-3.9412 maximization -0.3829
-4.0661 maximize -0.3568
-4.5433 maximizes -0.3568
-3.8443 maximum -0.3669
-3.2008 may -0.3755
-3.5890 mcleod -0.3682
-4.5433 mdh -0.3796
-3.1815 me -0.2663
-4.0661 mean -0.3826
-4.2422 meaning -0.3702
-4.5433 meaningful -0.3833
-3.5433 means -0.3504
-3.7651 measure -0.3467
-4.5433 measured -0.3834
-3.7651 measurement -0.3428
-3.5433 measures -0.3614
-3.6981 measuring -0.3559
-3.9412 mechanical -0.3679
-4.5433 mechanics -0.3769
-4.2422 media -0.3812
-4.2422 medical -0.3832
-4.5433 medication -0.3832
-4.5433 medium -0.3724
-3.9412 meet -0.3356
-4.2422 meeting -0.3819
-3.7651 mel -0.3807
-4.5433 melding -0.3833
-4.0661 mellon -0.3678
-4.2422 melon -0.3833
-4.5433 member -0.3730
-3.6402 members -0.3582
-3.3128 memory -0.3392
-4.5433 men -0.3740
-4.0661 mention -0.3807
-4.5433 mentioned -0.3834
-4.2422 menu -0.3544
-4.5433 mere -0.3834
-4.2422 merely -0.3551
-4.5433 mertins -0.3682
-4.5433 mesage -0.3834
-3.4293 message -0.3251
-3.4641 messages -0.3412
-3.2645 method -0.3049
-3.5019 methods -0.3217
-3.9412 metric -0.3686
-3.8443 metrics -0.3443
-4.0661 mfcc -0.3739
-4.5433 mfccs -0.3812
-4.5433 mgcp -0.3682
-4.5433 mhz -0.3682
-4.5433 michael -0.3653
-3.9412 microphone -0.3732
-3.8443 microsoft -0.3815
-4.5433 microtime -0.3832
-4.5433 microwaved -0.3834
-4.2422 middle -0.3729
-4.5433 midwest -0.3724
-3.3672 might -0.3767
-4.5433 migrate -0.3829
-4.5433 miles -0.3834
-4.0661 milestones -0.3633
-4.2422 milliseconds -0.3653
-4.5433 mimic -0.3752
-4.2422 mind -0.3554
-4.5433 minded -0.3833
-4.0661 minimize -0.3568
-4.5433 minimized -0.3653
-4.2422 minimum -0.3730
-4.5433 mint -0.3682
-4.5433 minutes -0.3740
-4.5433 missed -0.3653
-4.0661 missing -0.3811
-4.0661 mission -0.3570
-4.5433 missouri -0.3834
-4.5433 mistakes -0.3834
-4.5433 misunderstood -0.3828
-4.5433 mixtures -0.3653
-3.8443 mlp -0.3665
-3.5890 mlps -0.3525
-4.5433 mo -0.3834
-4.2422 mobile -0.3831
-3.2880 mode -0.2936
-2.5889 model -0.2163
-4.5433 modeled -0.3834
-3.7651 modeling -0.3361
-4.5433 modelpv -0.3679
-2.7798 models -0.2775
-3.7651 modern -0.3810
-4.5433 moderns -0.3825
-3.5433 modes -0.3226
-4.5433 modification -0.3682
-4.2422 modified -0.3709
-4.5433 modify -0.3568
-4.5433 modular -0.3834
-4.5433 module -0.3796
-4.5433 modules -0.3653
-4.5433 mom -0.3682
-4.5433 moment -0.3807
-3.6981 money -0.3370
-4.5433 monitor -0.3682
-4.5433 monitored -0.3774
-4.5433 monitoring -0.3834
-4.2422 monitors -0.3774
-4.5433 month -0.3730
-4.5433 months -0.3724
-4.5433 mood -0.3653
-4.5433 moose -0.3740
-4.5433 moral -0.3834
-4.5433 morals -0.3740
-2.6740 more -0.3395
-4.5433 morehouse -0.3682
-3.6981 moreover -0.3682
-4.2422 morning -0.3653
-2.7237 most -0.3313
-4.2422 mostly -0.3729
-4.5433 mountains -0.3834
-3.8443 mouse -0.3651
-3.9412 move -0.3733
-4.5433 movement -0.3834
-4.5433 moving -0.3740
-3.9412 mp -0.3830
-3.3672 much -0.3341
-3.7651 multi -0.3807
-4.5433 multilayer -0.3834
-4.5433 multilingual -0.3831
-4.2422 multimedia -0.3739
-4.5433 multiplatform -0.3816
-3.5433 multiple -0.3813
-4.5433 multiprocessing -0.3816
-4.2422 multitasking -0.3816
-4.2422 multithreading -0.3816
-4.5433 multiuser -0.3816
-4.2422 museet -0.3773
-3.9412 museum -0.3443
-3.9412 music -0.3664
-4.5433 musical -0.3834
-4.5433 musician -0.3682
-3.3128 must -0.3640
-4.0661 mvs -0.3779
-2.9098 my -0.3645
-4.2422 myself -0.3637
-4.5433 myspace -0.3830
-2.8357 n -0.3059
-4.5433 nacional -0.3834
-3.1283 name -0.3354
-4.2422 named -0.3800
-3.6981 names -0.3532
-4.5433 naming -0.3834
-4.5433 nasa -0.3814
-3.8443 native -0.3712
-4.5433 natives -0.3832
-4.0661 natural -0.3723
-4.0661 nature -0.3574
-4.2422 navigate -0.3738
-4.2422 navigation -0.3824
-4.5433 nazi -0.3824
-4.5433 ncr -0.3653
-4.5433 nd -0.3834
-4.0661 near -0.3670
-4.5433 nearby -0.3833
-3.5890 necessary -0.3620
-3.0247 need -0.3235
-3.3391 needed -0.3215
-3.0247 needs -0.3204
-4.5433 negative -0.3682
-4.2422 nerwork -0.3823
-3.5890 net -0.3814
-4.5433 netware -0.3826
-3.3128 network -0.3521
-3.3971 networking -0.3723
-3.5890 networks -0.3446
-3.5890 neural -0.3831
-4.0661 never -0.3834
-3.7651 nevertheless -0.3682
-2.8109 new -0.3375
-4.0661 newer -0.3818
-4.0661 newly -0.3831
-4.2422 news -0.3574
-3.5019 next -0.3651
-4.0661 nice -0.3833
-4.5433 nightmare -0.3830
-4.5433 ninilchick -0.3834
-4.5433 nist -0.3653
-4.2422 nj -0.3816
-3.2210 no -0.3628
-4.5433 nobody -0.3834
-4.5433 nodes -0.3809
-4.5433 nodigest -0.3834
-3.9412 noise -0.3793
-4.5433 noisy -0.3820
-3.6981 non -0.3807
-4.0661 none -0.3730
-3.6981 nonetheless -0.3682
-4.2422 normalized -0.3678
-4.5433 norms -0.3740
-4.5433 norton -0.3834
-4.5433 nosignature -0.3834
-2.6088 not -0.3013
-4.0661 notably -0.3554
-4.5433 notation -0.3774
-3.6981 note -0.3465
-4.5433 notes -0.3724
-4.5433 notice -0.3807
-4.5433 nourishment -0.3833
-4.5433 novel -0.3833
-4.5433 novell -0.3834
-4.5433 novice -0.3827
-3.5890 now -0.3495
-4.5433 nt -0.3833
-3.0247 number -0.3384
-4.5433 numbering -0.3831
-3.9412 numbers -0.3695
-4.5433 numeric -0.3820
-4.5433 numerically -0.3834
-4.5433 numerous -0.3831
-4.5433 nycturia -0.3682
-3.8443 o -0.3613
-4.5433 obeying -0.3834
-3.5019 object -0.3733
-4.5433 objective -0.3730
-3.5890 objects -0.3704
-4.5433 obligated -0.3724
-4.5433 observable -0.3834
-3.3391 observation -0.3762
-3.6402 observations -0.3164
-4.2422 observed -0.3831
-3.8443 obtain -0.3549
-3.6402 obtained -0.3776
-4.5433 obtaining -0.3819
-4.2422 occupation -0.3544
-4.5433 occur -0.3825
-4.5433 occurred -0.3833
-4.2422 occurrence -0.3612
-4.2422 occurring -0.3830
-4.5433 occurs -0.3829
-4.5433 odd -0.3834
-1.6242 of -0.2191
-3.6402 off -0.3467
-4.2422 offered -0.3713
-3.6981 office -0.3294
-4.5433 offices -0.3740
-4.5433 official -0.3831
-4.5433 ofs -0.3682
-3.3971 often -0.3657
-3.6981 ogg -0.3618
-4.5433 oh -0.3834
-4.2422 ohio -0.3652
-4.5433 ok -0.3774
-3.7651 old -0.3673
-4.5433 older -0.3825
-4.2422 ols -0.3811
-2.3910 on -0.2627
-3.3672 once -0.3177
-2.6740 one -0.2460
-3.6402 ones -0.3348
-3.9412 online -0.3830
-2.8620 only -0.3016
-4.5433 onto -0.3568
-4.5433 ontology -0.3730
-4.5433 oop -0.3682
-4.5433 opacity -0.3682
-3.4293 open -0.3142
-4.2422 opensuse -0.3585
-4.0661 operate -0.3651
-4.5433 operates -0.3774
-3.0519 operating -0.3803
-3.0247 operation -0.3288
-4.2422 operations -0.3682
-4.5433 operator -0.3820
-4.5433 operators -0.3774
-4.5433 opinion -0.3653
-4.5433 opportunities -0.3653
-3.8443 opportunity -0.3614
-4.2422 opposed -0.3724
-4.5433 opposite -0.3834
-4.5433 oprofile -0.3809
-4.5433 opt -0.3724
-4.5433 optic -0.3834
-4.2422 optimality -0.3679
-4.2422 optimization -0.3831
-4.2422 optimize -0.3568
-4.5433 optimized -0.3833
-4.5433 optimizing -0.3568
-4.2422 option -0.3617
-3.9412 options -0.3621
-2.4902 or -0.2868
-2.5795 order -0.3449
-4.5433 ords -0.3679
-4.0661 org -0.3666
-4.5433 organization -0.3653
-4.5433 organizational -0.3834
-3.8443 organizations -0.3457
-4.5433 organize -0.3828
-3.9412 organized -0.3544
-3.9412 organizer -0.3635
-4.2422 organizing -0.3728
-4.0661 orientation -0.3484
-4.2422 oriented -0.3832
-4.0661 origin -0.3729
-3.8443 original -0.3799
-4.5433 originality -0.3834
-4.5433 originated -0.3819
-4.5433 orkman -0.3834
-4.5433 orthognonalized -0.3811
-4.0661 os -0.3772
-3.6981 ot -0.3484
-4.5433 otalw -0.3834
-2.7798 other -0.3201
-3.5019 others -0.3455
-3.9412 otherwise -0.3680
-3.2880 our -0.3776
-3.3391 out -0.3171
-4.5433 outage -0.3682
-4.5433 outbound -0.3833
-4.2422 outcome -0.3827
-4.5433 outdated -0.3740
-4.2422 outline -0.3533
-4.5433 outlined -0.3774
-4.5433 outlining -0.3568
-3.2880 output -0.3080
-4.2422 outputdict -0.3653
-4.5433 outputpath -0.3829
-3.7651 outputs -0.3506
-4.5433 outrageous -0.3834
-3.8443 outside -0.3395
-4.2422 outsiders -0.3651
-4.5433 ov -0.3724
-3.4641 over -0.3713
-3.3672 overall -0.3649
-3.9412 overcome -0.3766
-4.5433 overcoming -0.3829
-4.5433 overflow -0.3682
-4.5433 overflows -0.3653
-4.2422 overhead -0.3682
-4.5433 overlapped -0.3774
-4.2422 overlooked -0.3798
-4.5433 overseas -0.3834
-4.2422 overview -0.3712
-4.5433 owing -0.3831
-3.4293 own -0.3805
-4.5433 owner -0.3822
-2.9412 p -0.3331
-3.7651 package -0.3419
-4.2422 packaged -0.3830
-4.5433 packages -0.3834
-3.7651 page -0.3285
-3.4293 pages -0.3348
-4.5433 paging -0.3682
-4.5433 pair -0.3730
-4.5433 pango -0.3823
-4.0661 paper -0.3740
-4.5433 paragraph -0.3653
-4.5433 parallel -0.3834
-4.5433 paralysis -0.3682
-3.6402 parameter -0.3420
-3.4293 parameters -0.3134
-4.5433 paramount -0.3834
-4.2422 parasitic -0.3834
-4.5433 pared -0.3833
-4.0661 parents -0.3642
-4.5433 parity -0.3834
-4.5433 parsing -0.3679
-3.3672 part -0.3730
-3.9412 partial -0.3831
-4.5433 participants -0.3812
-4.2422 participate -0.3758
-4.2422 participating -0.3774
-3.9412 participation -0.3713
-4.2422 particular -0.3831
-4.0661 particularly -0.3830
-4.5433 partitioned -0.3828
-4.5433 partitioning -0.3568
-3.6981 parts -0.3400
-3.9412 party -0.3816
-4.5433 pass -0.3834
-4.5433 passed -0.3832
-4.5433 passes -0.3829
-4.5433 passing -0.3832
-4.5433 password -0.3653
-4.2422 past -0.3833
-4.5433 paste -0.3774
-4.5433 pastime -0.3824
-4.5433 patented -0.3833
-3.1815 path -0.3337
-3.7651 paths -0.3249
-4.5433 patients -0.3834
-4.5433 patrik -0.3834
-4.0661 patterns -0.3492
-3.9412 pause -0.3553
-4.5433 paused -0.3834
-4.5433 pauses -0.3832
-4.2422 pay -0.3791
-4.0661 paying -0.3834
-3.6981 pbx -0.3467
-3.9412 pbxs -0.3724
-3.5890 pc -0.3338
-4.5433 pcLinuxos -0.3682
-3.9412 pcs -0.3730
-4.5433 pdf -0.3653
-4.2422 pdfs -0.3810
-4.5433 peer -0.3833
-4.5433 peers -0.3653
-3.9412 pencil -0.3474
-4.2422 pencils -0.3582
-4.5433 pent -0.3807
-3.4641 people -0.3321
-3.5019 per -0.3794
-4.5433 perceive -0.3807
-4.5433 perceived -0.3834
-4.2422 percent -0.3760
-4.2422 percentage -0.3571
-4.2422 perception -0.3745
-4.2422 perceptron -0.3653
-4.0661 perceptrons -0.3681
-4.5433 perfect -0.3828
-3.7651 perform -0.3379
-2.9305 performance -0.2887
-3.7651 performed -0.3557
-4.0661 performing -0.3813
-4.2422 performs -0.3567
-4.2422 perhaps -0.3831
-4.5433 period -0.3730
-4.5433 peripheral -0.3834
-4.5433 perl -0.3740
-4.5433 permissions -0.3730
-4.5433 perpetrator -0.3822
-4.5433 persistence -0.3730
-3.4293 person -0.3727
-3.5019 personal -0.3759
-4.5433 personality -0.3653
-4.5433 personalization -0.3653
-4.5433 personally -0.3834
-3.9412 persons -0.3472
-4.5433 perspective -0.3653
-4.5433 pharmaceuticals -0.3796
-3.6981 phase -0.3628
-4.0661 phases -0.3690
-4.5433 phd -0.3834
-4.5433 philosophies -0.3814
-4.5433 phl -0.3822
-3.9412 phoenix -0.3650
-3.3672 phone -0.3432
-3.5890 phoneme -0.3674
-3.4293 phonemes -0.2994
-3.6981 phones -0.3330
-3.5019 phonetic -0.3822
-4.2422 phonetical -0.3825
-4.5433 photo -0.3834
-4.5433 photographer -0.3682
-4.5433 photography -0.3769
-4.0661 php -0.3665
-4.2422 phrase -0.3631
-4.5433 phrases -0.3653
-3.6981 physical -0.3816
-4.5433 physiological -0.3724
-4.2422 pick -0.3830
-4.5433 picture -0.3682
-4.5433 piece -0.3730
-4.5433 pile -0.3730
-4.5433 piling -0.3830
-4.5433 ping -0.3834
-4.5433 pipe -0.3568
-4.5433 pipelines -0.3682
-4.2422 pis -0.3820
-3.7651 pitts -0.3664
-3.6402 place -0.3442
-3.6981 placed -0.3755
-4.5433 places -0.3682
-4.2422 placing -0.3805
-4.2422 plain -0.3834
-4.0661 plan -0.3638
-4.0661 planning -0.3568
-4.2422 plans -0.3740
-3.8443 plant -0.3578
-4.5433 plants -0.3833
-4.2422 plastic -0.3833
-4.2422 platform -0.3832
-3.8443 platforms -0.3494
-3.5019 play -0.3372
-3.4293 played -0.3131
-4.5433 player -0.3653
-3.7651 playing -0.3217
-4.5433 plays -0.3819
-3.3672 please -0.3676
-4.5433 plug -0.3807
-4.2422 plus -0.3825
-4.5433 pneumonia -0.3682
-4.2422 poaching -0.3585
-2.7798 pocketsphinx -0.2822
-4.0661 point -0.3717
-4.5433 pointer -0.3724
-4.5433 pointers -0.3682
-4.5433 points -0.3829
-4.5433 poisoning -0.3682
-4.5433 polices -0.3834
-4.5433 policies -0.3828
-4.5433 policy -0.3834
-4.2422 polymorphism -0.3807
-4.5433 polyuria -0.3682
-4.5433 pool -0.3816
-4.5433 pooling -0.3832
-4.0661 poor -0.3735
-3.6981 popular -0.3592
-3.9412 port -0.3650
-3.9412 portable -0.3669
-4.5433 ported -0.3740
-4.5433 portions -0.3730
-4.5433 ports -0.3817
-4.2422 pos -0.3822
-3.7651 position -0.3295
-4.5433 positioning -0.3822
-4.5433 posix -0.3682
-4.5433 possessed -0.3834
-4.5433 possibilities -0.3730
-4.2422 possibility -0.3662
-3.2008 possible -0.3267
-4.5433 post -0.3752
-4.5433 posted -0.3811
-4.5433 posterior -0.3833
-4.5433 posts -0.3774
-3.6981 potential -0.3710
-4.2422 pots -0.3834
-3.3971 power -0.3550
-3.8443 powerful -0.3547
-4.5433 powerpoint -0.3834
-4.2422 practical -0.3684
-3.7651 practice -0.3489
-4.0661 practices -0.3682
-4.5433 pre -0.3807
-4.0661 preceded -0.3811
-4.0661 preceding -0.3740
-4.5433 preconventional -0.3833
-4.5433 predecessor -0.3653
-3.6981 predefined -0.3828
-4.5433 predetermined -0.3830
-4.2422 predict -0.3543
-4.5433 predicted -0.3833
-4.2422 predictive -0.3834
-4.5433 preemphasis -0.3834
-4.0661 preemphasized -0.3682
-4.5433 preferable -0.3724
-4.5433 preference -0.3769
-4.0661 preferences -0.3560
-4.5433 preferred -0.3724
-4.5433 preliminary -0.3833
-4.5433 prepackaged -0.3831
-4.5433 prepare -0.3796
-4.5433 prerelease -0.3834
-4.5433 prescriptions -0.3829
-3.9412 present -0.3718
-4.5433 presentation -0.3822
-3.7651 presented -0.3628
-3.6981 presents -0.3377
-4.5433 president -0.3730
-4.5433 press -0.3834
-4.0661 pressing -0.3740
-4.5433 pressure -0.3682
-3.6981 pretty -0.3820
-4.5433 prevent -0.3831
-4.5433 prevents -0.3827
-3.5019 previous -0.3799
-3.8443 previously -0.3665
-4.5433 pri -0.3834
-4.2422 primary -0.3820
-3.5433 principles -0.3325
-4.2422 print -0.3828
-4.5433 printenv -0.3834
-4.5433 printer -0.3653
-4.5433 printf -0.3834
-4.2422 printing -0.3832
-4.0661 prior -0.3446
-3.9412 priorities -0.3446
-4.5433 priority -0.3730
-4.2422 privacy -0.3750
-4.5433 privately -0.3834
-4.2422 probabilistic -0.3833
-3.2645 probabilities -0.3079
-2.9870 probability -0.3155
-3.9412 probable -0.3826
-4.5433 probably -0.3568
-3.2422 problem -0.3180
-3.6402 problems -0.3414
-4.5433 proc -0.3653
-4.5433 procedural -0.3833
-3.5890 procedure -0.3101
-4.5433 procedures -0.3826
-4.0661 proceeded -0.3722
-4.2422 proceedings -0.3653
-3.0118 process -0.3028
-4.2422 processed -0.3682
-4.0661 processes -0.3472
-3.1119 processing -0.2583
-4.5433 processor -0.3834
-3.8443 processors -0.3461
-3.9412 produce -0.3751
-3.9412 produced -0.3348
-4.2422 producing -0.3752
-3.8443 product -0.3377
-4.2422 production -0.3832
-3.7651 productivity -0.3542
-4.0661 products -0.3637
-4.2422 professional -0.3832
-4.5433 professionals -0.3724
-4.5433 professor -0.3834
-4.5433 proficient -0.3825
-4.5433 profile -0.3820
-4.5433 profiling -0.3805
-4.2422 profit -0.3740
-4.5433 profitable -0.3682
-2.9522 program -0.3104
-4.5433 programed -0.3724
-4.5433 programmed -0.3805
-3.8443 programmer -0.3649
-4.0661 programmers -0.3806
-3.6402 programming -0.3658
-3.4293 programs -0.3313
-4.2422 progresses -0.3682
-4.5433 progressively -0.3653
-2.7951 project -0.2565
-3.5433 projects -0.3589
-4.5433 proliferate -0.3834
-4.5433 proliferation -0.3730
-4.5433 promote -0.3834
-4.2422 promoting -0.3830
-4.5433 promotions -0.3682
-4.2422 pronounced -0.3802
-3.8443 pronunciation -0.3249
-4.5433 pronunciations -0.3819
-4.5433 proof -0.3730
-4.2422 propagation -0.3829
-3.6981 proper -0.3810
-3.5890 properly -0.3825
-4.2422 properties -0.3574
-4.5433 property -0.3833
-4.5433 proposals -0.3740
-4.5433 proposed -0.3774
-3.5433 proprietary -0.3124
-4.5433 prospective -0.3834
-4.0661 prostate -0.3682
-4.5433 protect -0.3834
-4.5433 protected -0.3832
-4.5433 protecting -0.3568
-3.8443 protection -0.3631
-4.5433 protects -0.3805
-3.8443 protocol -0.3584
-3.8443 protocols -0.3740
-4.5433 prove -0.3752
-4.5433 proved -0.3724
-4.5433 proven -0.3724
-3.4293 provide -0.3284
-3.6402 provided -0.3146
-4.5433 providers -0.3653
-3.4293 provides -0.3452
-3.6402 providing -0.3743
-4.5433 pruning -0.3740
-3.6981 prunus -0.3834
-4.5433 public -0.3833
-4.5433 publications -0.3724
-3.8443 publicly -0.3830
-3.7651 published -0.3808
-4.5433 pulls -0.3830
-4.5433 pulp -0.3740
-4.5433 punctuation -0.3834
-4.0661 punishment -0.3727
-4.5433 purchase -0.3568
-4.2422 purchased -0.3810
-4.5433 pure -0.3834
-4.2422 purely -0.3834
-4.5433 purports -0.3724
-3.6402 purpose -0.3542
-4.2422 purposes -0.3522
-4.5433 push -0.3653
-3.6981 put -0.3528
-4.5433 python -0.3834
-3.7651 q -0.3820
-4.5433 qsig -0.3796
-4.5433 qt -0.3807
-3.9412 quality -0.3579
-4.5433 quantification -0.3730
-4.2422 quantify -0.3563
-4.2422 quantities -0.3730
-4.5433 queried -0.3819
-4.2422 queries -0.3734
-4.5433 query -0.3568
-3.8443 question -0.3649
-4.5433 questions -0.3682
-4.5433 quich -0.3834
-4.5433 quick -0.3740
-4.0661 quickly -0.3538
-4.5433 quiet -0.3653
-4.5433 quintero -0.3730
-3.8443 quit -0.3576
-4.2422 quite -0.3819
-4.5433 quotas -0.3834
-4.5433 quoted -0.3682
-3.9412 r -0.3653
-4.5433 races -0.3740
-4.5433 racism -0.3653
-3.8443 radio -0.3652
-4.5433 raid -0.3812
-4.5433 railroads -0.3682
-3.9412 rainforest -0.3578
-4.5433 rainforested -0.3834
-4.5433 rainforests -0.3833
-4.2422 raise -0.3729
-4.5433 ram -0.3812
-4.2422 ran -0.3819
-4.5433 ranch -0.3834
-4.0661 random -0.3829
-4.5433 randomly -0.3833
-4.0661 range -0.3730
-4.5433 ranges -0.3653
-4.5433 rapid -0.3682
-4.5433 rapidly -0.3834
-4.5433 rash -0.3679
-3.3971 rate -0.2928
-4.2422 rates -0.3811
-3.6402 rather -0.3678
-4.2422 raven -0.3682
-4.5433 raw -0.3827
-4.5433 rbs -0.3834
-4.5433 rca -0.3682
-3.9412 re -0.3807
-3.9412 reached -0.3671
-4.5433 reaching -0.3833
-4.5433 react -0.3679
-4.5433 reaction -0.3724
-4.5433 reacts -0.3830
-3.7651 read -0.3561
-4.2422 reading -0.3817
-4.0661 reads -0.3719
-3.6981 ready -0.3157
-3.5890 real -0.3768
-4.0661 realistic -0.3829
-4.5433 really -0.3834
-3.2422 reason -0.3292
-4.2422 reasoning -0.3494
-3.9412 reasons -0.3609
-4.5433 recapitulates -0.3568
-4.0661 receive -0.3750
-3.8443 received -0.3599
-3.8443 receives -0.3742
-4.5433 recently -0.3682
-4.5433 recipe -0.3796
-4.5433 reciprocity -0.3834
-2.6799 recognition -0.2800
-3.9412 recognize -0.3551
-4.5433 recognized -0.3833
-3.2008 recognizer -0.3368
-3.7651 recognizers -0.3498
-3.7651 recognizing -0.3622
-4.0661 recommend -0.3833
-3.6402 recommended -0.3535
-4.5433 recommends -0.3834
-4.0661 record -0.3718
-4.0661 recorded -0.3710
-4.0661 recording -0.3818
-4.2422 recordings -0.3726
-4.2422 records -0.3819
-4.2422 recover -0.3829
-4.5433 recovering -0.3834
-4.5433 recruit -0.3833
-4.5433 recurrence -0.3834
-4.5433 recursively -0.3834
-4.0661 red -0.3797
-4.5433 redesign -0.3568
-4.5433 redistribution -0.3653
-4.0661 reduce -0.3567
-4.2422 reduced -0.3816
-4.0661 reducing -0.3830
-4.5433 reduction -0.3826
-4.0661 reencoding -0.3568
-4.2422 refactoring -0.3727
-3.8443 refer -0.3724
-4.5433 referenced -0.3653
-3.7651 references -0.3806
-4.5433 referred -0.3724
-4.5433 refers -0.3724
-4.5433 refine -0.3682
-4.5433 reflect -0.3752
-4.5433 reflexes -0.3682
-4.5433 refuses -0.3724
-3.9412 regard -0.3568
-3.6981 regarding -0.3548
-4.5433 regardless -0.3730
-4.5433 regional -0.3834
-4.2422 register -0.3740
-4.0661 registration -0.3650
-4.2422 regular -0.3834
-4.5433 regularly -0.3834
-4.5433 regulation -0.3730
-3.4293 related -0.3719
-4.2422 relationship -0.3834
-4.5433 relative -0.3724
-4.5433 relativistic -0.3682
-4.5433 relaxed -0.3811
-3.9412 release -0.3553
-4.5433 releases -0.3682
-4.5433 relevant -0.3724
-3.9412 reliability -0.3720
-4.5433 reliable -0.3828
-4.5433 reliably -0.3724
-4.5433 religion -0.3682
-4.5433 rely -0.3817
-4.2422 remain -0.3834
-4.5433 remained -0.3568
-4.2422 remaining -0.3823
-4.5433 remains -0.3834
-4.5433 remarkable -0.3682
-4.5433 rembetski -0.3682
-4.0661 remedies -0.3668
-4.0661 remote -0.3833
-4.2422 remotely -0.3634
-4.5433 remove -0.3834
-4.5433 removes -0.3834
-4.5433 renaming -0.3752
-4.5433 rent -0.3796
-4.5433 repeatability -0.3774
-4.2422 repeated -0.3833
-4.5433 repeatedly -0.3834
-4.5433 repeating -0.3568
-4.5433 repetitions -0.3820
-4.2422 replaced -0.3811
-4.5433 replacement -0.3653
-4.5433 replaces -0.3568
-4.5433 replicating -0.3812
-4.5433 replication -0.3834
-3.4293 report -0.3434
-4.2422 reported -0.3403
-3.9412 repository -0.3588
-3.5433 represent -0.3469
-3.3672 representation -0.3138
-4.5433 representationn -0.3833
-3.9412 represented -0.3531
-4.5433 representing -0.3568
-3.9412 represents -0.3470
-4.5433 reproduce -0.3752
-4.5433 republic -0.3730
-4.5433 reputation -0.3653
-4.2422 request -0.3723
-4.0661 requested -0.3606
-4.5433 requests -0.3796
-3.6981 require -0.3522
-3.3672 required -0.3412
-4.5433 requirement -0.3653
-3.2880 requirements -0.3408
-3.5433 requires -0.3665
-3.1453 research -0.3356
-4.5433 researchers -0.3826
-4.5433 researching -0.3834
-4.5433 reserve -0.3568
-4.2422 reside -0.3810
-4.5433 residents -0.3653
-4.2422 resizing -0.3743
-4.0661 resolve -0.3801
-3.7651 resource -0.3803
-3.5890 resources -0.3198
-4.0661 respect -0.3722
-4.5433 respectively -0.3653
-3.4641 respgenerator -0.3358
-3.3971 response -0.3161
-4.5433 responsei -0.3830
-3.3128 responses -0.3068
-4.5433 responsibility -0.3682
-4.5433 responsible -0.3834
-4.5433 restart -0.3568
-4.5433 restarted -0.3834
-4.5433 restarting -0.3568
-4.5433 restored -0.3682
-4.5433 restrict -0.3568
-4.0661 restricted -0.3724
-4.5433 restrictive -0.3834
-3.6402 result -0.3474
-4.5433 resultant -0.3829
-4.2422 resulted -0.3774
-4.0661 resulting -0.3745
-3.1815 results -0.3209
-4.0661 resume -0.3820
-4.5433 retreived -0.3834
-4.5433 retrieve -0.3833
-3.6402 retrieved -0.3818
-4.5433 retrieves -0.3568
-4.2422 return -0.3706
-4.5433 returned -0.3819
-4.5433 returns -0.3809
-3.9412 reusability -0.3687
-4.5433 reusable -0.3653
-3.4641 revaluator -0.3425
-4.2422 reveal -0.3567
-4.5433 revealed -0.3724
-4.5433 reverberation -0.3833
-4.5433 reverse -0.3833
-3.7651 review -0.3140
-4.2422 reviewed -0.3655
-4.5433 reviews -0.3833
-4.5433 revolution -0.3834
-4.5433 reward -0.3682
-4.5433 rewarding -0.3834
-4.5433 rf -0.3812
-4.5433 richest -0.3834
-4.5433 rife -0.3819
-3.8443 right -0.3552
-3.6402 rights -0.3554
-4.2422 riordan -0.3768
-4.5433 ris -0.3682
-4.5433 rises -0.3834
-4.5433 roadblocks -0.3730
-4.5433 robbed -0.3834
-3.7651 robot -0.3780
-4.5433 robotics -0.3740
-3.9412 robust -0.3550
-3.8443 robustness -0.3550
-4.5433 roi -0.3812
-3.9412 role -0.3740
-4.5433 roles -0.3653
-4.5433 rollover -0.3682
-3.8443 room -0.3526
-4.5433 rooms -0.3796
-4.5433 root -0.3832
-4.2422 ros -0.3745
-4.5433 rose -0.3724
-4.5433 rosenfeld -0.3682
-4.5433 roughly -0.3568
-4.5433 roulette -0.3803
-3.7651 round -0.3729
-4.5433 row -0.3730
-4.5433 royalty -0.3807
-3.9412 rpm -0.3831
-4.5433 rsop -0.3834
-4.2422 rudimentary -0.3678
-4.5433 rudnicky -0.3653
-3.9412 rule -0.3591
-3.7651 rules -0.3592
-3.1283 run -0.2995
-4.5433 runcon -0.3831
-3.5890 running -0.3549
-3.9412 runs -0.3827
-4.5433 runtime -0.3834
-2.6740 s -0.2978
-4.5433 sacrificing -0.3827
-4.2422 safe -0.3737
-3.9412 said -0.3696
-4.2422 sake -0.3544
-3.9412 sales -0.3739
-4.2422 salmon -0.3834
-4.5433 samate -0.3653
-2.9412 same -0.3385
-4.2422 sample -0.3823
-4.2422 sampled -0.3738
-4.5433 samples -0.3833
-4.2422 satisfaction -0.3627
-4.5433 saturation -0.3682
-4.2422 save -0.3680
-4.5433 saw -0.3568
-3.7651 say -0.3532
-4.5433 saying -0.3568
-4.5433 says -0.3724
-3.9412 scalability -0.3785
-4.2422 scalable -0.3585
-3.9412 scale -0.3573
-4.5433 scales -0.3682
-4.5433 scanner -0.3834
-4.5433 scanning -0.3568
-3.9412 schedule -0.3452
-4.2422 scheduled -0.3834
-4.5433 scheduling -0.3834
-4.2422 scheme -0.3714
-4.5433 scholarships -0.3827
-4.2422 school -0.3717
-4.5433 schooled -0.3802
-4.5433 sci -0.3822
-4.5433 science -0.3740
-4.5433 scientific -0.3834
-4.5433 scope -0.3730
-4.0661 score -0.3527
-4.5433 scouting -0.3796
-3.8443 scratch -0.3620
-4.5433 screen -0.3653
-4.2422 scripting -0.3834
-4.2422 scripts -0.3816
-4.5433 seLinux -0.3834
-4.5433 sean -0.3834
-3.6402 search -0.3757
-4.5433 searched -0.3682
-4.5433 season -0.3834
-3.4641 second -0.3802
-4.0661 seconds -0.3751
-4.5433 secret -0.3833
-3.3128 section -0.3206
-4.0661 sections -0.3700
-3.9412 secure -0.3815
-3.1630 security -0.3497
-3.7651 see -0.3311
-4.2422 seeing -0.3568
-4.5433 seek -0.3752
-4.5433 seekers -0.3834
-4.5433 seeks -0.3724
-4.2422 seemed -0.3724
-4.0661 seems -0.3724
-3.1630 seen -0.3366
-4.5433 segment -0.3834
-4.2422 segmentation -0.3727
-3.6981 select -0.3416
-3.5890 selected -0.3609
-3.8443 selecting -0.3740
-4.2422 selection -0.3652
-4.5433 selector -0.3796
-3.6402 self -0.3698
-4.5433 sell -0.3568
-4.5433 semantic -0.3834
-4.5433 semi -0.3807
-4.2422 send -0.3748
-4.5433 sending -0.3834
-4.5433 senior -0.3827
-3.5433 sense -0.3541
-3.3672 sentence -0.3093
-2.8273 sentences -0.2637
-4.5433 sentencesfile -0.3653
-4.0661 separate -0.3822
-4.2422 separated -0.3822
-4.5433 separately -0.3819
-4.5433 sept -0.3812
-4.5433 seq -0.3679
-3.3672 sequence -0.3167
-3.9412 sequences -0.3651
-4.5433 sequential -0.3812
-4.5433 sequentially -0.3653
-3.9412 serial -0.3651
-4.5433 serially -0.3834
-4.2422 series -0.3571
-4.5433 serious -0.3825
-3.2880 server -0.2944
-3.7651 servers -0.3369
-3.7651 service -0.3641
-3.7651 services -0.3356
-4.5433 servicing -0.3833
-4.5433 serving -0.3653
-4.2422 session -0.3678
-2.9305 set -0.3357
-3.9412 sets -0.3427
-4.5433 setting -0.3830
-4.0661 settings -0.3759
-4.5433 settled -0.3811
-3.9412 setup -0.3336
-4.2422 seven -0.3827
-3.1630 several -0.3668
-4.5433 seymore -0.3682
-4.5433 shadow -0.3834
-3.3672 shall -0.3779
-4.5433 shapes -0.3740
-3.9412 share -0.3824
-4.5433 shared -0.3834
-4.5433 shares -0.3826
-4.5433 sharing -0.3740
-4.5433 sheet -0.3828
-4.0661 shelf -0.3828
-4.5433 shipment -0.3834
-4.5433 ships -0.3819
-4.2422 short -0.3807
-4.5433 shortages -0.3730
-3.0247 should -0.3750
-4.5433 shoulders -0.3730
-3.7651 show -0.3725
-4.5433 showing -0.3830
-3.8443 shown -0.3742
-3.8443 shows -0.3560
-4.5433 shred -0.3679
-4.5433 shrinking -0.3740
-4.5433 shrinks -0.3819
-4.2422 side -0.3709
-2.9200 signal -0.3266
-4.5433 signaling -0.3812
-4.5433 signalling -0.3834
-4.2422 signals -0.3647
-4.2422 signature -0.3745
-4.2422 significant -0.3833
-4.5433 significantly -0.3833
-4.5433 silence -0.3826
-4.5433 silly -0.3653
-3.9412 silver -0.3809
-3.5433 similar -0.3361
-3.3128 similarly -0.3391
-3.6981 simple -0.3704
-4.2422 simpler -0.3739
-4.0661 simplest -0.3728
-4.5433 simplicity -0.3834
-4.5433 simplification -0.3834
-3.8443 simplified -0.3443
-4.5433 simplify -0.3568
-4.5433 simplistic -0.3833
-4.5433 simply -0.3834
-4.2422 simulated -0.3832
-3.5890 simulation -0.3645
-4.5433 simultaneously -0.3834
-3.5019 since -0.3421
-4.5433 sincerity -0.3653
-3.6981 single -0.3818
-4.0661 sip -0.3392
-4.5433 sister -0.3740
-3.8443 site -0.3423
-4.0661 sites -0.3584
-4.5433 situations -0.3740
-4.5433 six -0.3833
-3.2422 size -0.3193
-4.5433 sized -0.3817
-4.2422 sizes -0.3544
-4.5433 sketches -0.3820
-4.5433 skills -0.3740
-4.5433 slackware -0.3827
-3.9412 slightly -0.3824
-4.5433 slipped -0.3752
-4.5433 slow -0.3724
-3.3128 small -0.3503
-3.5433 smaller -0.3178
-4.2422 smallest -0.3832
-4.5433 smarter -0.3832
-3.7651 smith -0.3833
-3.1119 so -0.3411
-4.5433 social -0.3834
-4.2422 society -0.3537
-4.5433 sockeye -0.3832
-2.8190 software -0.3043
-4.0661 solution -0.3468
-3.8443 solutions -0.3759
-3.8443 solve -0.3445
-4.2422 solved -0.3820
-4.2422 solves -0.3568
-2.7724 some -0.3447
-4.2422 somehow -0.3679
-4.2422 someone -0.3834
-3.9412 something -0.3791
-3.9412 sometimes -0.3668
-4.5433 somewhat -0.3730
-4.5433 song -0.3834
-4.2422 sons -0.3682
-4.5433 soon -0.3798
-3.8443 sophisticated -0.3707
-4.5433 sorted -0.3834
-4.5433 sorts -0.3833
-4.5433 soul -0.3653
-3.6981 sound -0.3440
-3.8443 sounds -0.3488
-3.2210 source -0.3374
-3.7651 sources -0.3725
-3.8443 space -0.3404
-4.5433 spaces -0.3833
-3.7651 spaghetti -0.3691
-4.5433 spare -0.3834
-3.7651 speak -0.3561
-3.0809 speaker -0.3428
-3.8443 speakers -0.3387
-3.6981 speaking -0.3434
-4.2422 special -0.3832
-4.5433 specialize -0.3774
-4.0661 species -0.3830
-3.5433 specific -0.3717
-4.0661 specifically -0.3681
-3.7651 specifications -0.3277
-3.6402 specified -0.3546
-4.2422 specifies -0.3751
-3.9412 specify -0.3475
-4.5433 specifying -0.3819
-3.5890 spectral -0.3811
-3.9412 spectrum -0.3612
-2.2832 speech -0.2893
-4.5433 speeches -0.3828
-3.9412 speed -0.3720
-4.5433 spelling -0.3833
-4.0661 spend -0.3828
-4.2422 spent -0.3828
-3.0961 sphinx -0.3119
-4.2422 sphinxbase -0.3652
-4.2422 spite -0.3730
-4.2422 split -0.3825
-3.8443 spoken -0.3822
-4.2422 spontaneous -0.3812
-4.5433 spot -0.3830
-4.5433 spread -0.3833
-4.5433 st -0.3834
-4.5433 stability -0.3740
-3.7651 stack -0.3815
-4.2422 staff -0.3825
-3.5433 stage -0.3587
-3.5433 stages -0.3523
-4.2422 stake -0.3646
-4.5433 stakeholder -0.3769
-3.9412 stakeholders -0.3392
-4.5433 stances -0.3724
-4.5433 stand -0.3817
-3.6402 standard -0.3609
-4.5433 standardize -0.3568
-4.5433 standardized -0.3811
-3.7651 standards -0.3437
-4.2422 standing -0.3770
-4.5433 stands -0.3796
-3.5019 start -0.3506
-3.9412 started -0.3615
-4.5433 starting -0.3829
-3.7651 starts -0.3486
-4.2422 startup -0.3673
-4.5433 stat -0.3679
-3.0519 state -0.2993
-3.9412 statement -0.3829
-3.7651 statements -0.3401
-3.5433 states -0.3466
-3.5433 static -0.3821
-4.5433 stating -0.3568
-4.2422 station -0.3832
-4.5433 statistic -0.3834
-3.8443 statistical -0.3802
-3.7651 statistics -0.3512
-3.7651 status -0.3416
-4.5433 stay -0.3774
-4.5433 stayed -0.3834
-4.5433 staying -0.3833
-4.2422 steam -0.3834
-4.5433 steepest -0.3679
-3.4641 step -0.3051
-3.6981 steps -0.3370
-3.5433 still -0.3760
-4.5433 stochastic -0.3834
-4.5433 stock -0.3834
-4.5433 stockholders -0.3682
-3.8443 stop -0.3673
-4.5433 stopped -0.3833
-4.5433 stops -0.3833
-4.2422 storage -0.3584
-3.9412 stored -0.3769
-4.5433 storehouse -0.3730
-4.2422 story -0.3728
-4.5433 straight -0.3834
-4.5433 straightforward -0.3803
-3.9412 strategies -0.3609
-3.6402 strategy -0.3570
-4.2422 streak -0.3638
-4.2422 streaks -0.3824
-4.5433 stream -0.3679
-4.2422 streaming -0.3727
-4.5433 streamline -0.3832
-4.5433 streams -0.3826
-4.5433 strength -0.3724
-4.5433 stretching -0.3568
-4.5433 strict -0.3834
-4.5433 strictest -0.3834
-4.5433 strictly -0.3833
-4.5433 stride -0.3834
-4.5433 strides -0.3774
-4.5433 strike -0.3831
-4.5433 striking -0.3752
-3.5019 string -0.3564
-4.5433 strings -0.3730
-4.5433 strong -0.3832
-4.5433 strongly -0.3833
-3.5433 structure -0.3197
-3.8443 students -0.3621
-4.5433 studies -0.3774
-3.8443 studio -0.3315
-3.9412 study -0.3825
-4.2422 studying -0.3620
-4.5433 stuff -0.3832
-4.5433 stumps -0.3834
-3.9412 style -0.3494
-4.2422 subconscious -0.3833
-3.9412 subject -0.3616
-4.2422 submission -0.3494
-4.2422 submit -0.3832
-4.2422 submits -0.3551
-4.5433 submitted -0.3830
-4.5433 subsequently -0.3682
-3.8443 subset -0.3730
-4.5433 substantial -0.3834
-4.2422 substitute -0.3567
-4.5433 substituted -0.3825
-4.5433 substitutions -0.3834
-4.5433 subsystems -0.3730
-4.5433 succeeded -0.3811
-4.2422 succeeding -0.3832
-4.0661 succesfully -0.3652
-3.9412 success -0.3542
-3.8443 successful -0.3831
-4.0661 successfully -0.3813
-2.9522 such -0.3799
-4.0661 suffer -0.3736
-4.5433 suffered -0.3819
-4.5433 suffering -0.3819
-4.5433 suffers -0.3834
-4.0661 sufficiency -0.3477
-4.2422 sufficient -0.3724
-4.5433 suggest -0.3568
-4.2422 suggested -0.3811
-4.5433 suggestions -0.3796
-4.0661 suggests -0.3682
-4.5433 suitable -0.3832
-4.5433 suited -0.3724
-3.7651 sum -0.3677
-4.2422 summaries -0.3808
-3.5433 summary -0.3387
-4.5433 superior -0.3724
-4.5433 supervisor -0.3816
-4.5433 supplementary -0.3834
-4.0661 supplied -0.3750
-3.4293 support -0.3511
-3.9412 supported -0.3750
-4.0661 supporting -0.3563
-3.9412 supports -0.3762
-4.5433 suppose -0.3807
-4.2422 supposed -0.3724
-4.5433 suppressing -0.3832
-3.4293 sure -0.3357
-4.5433 surely -0.3682
-4.5433 sustain -0.3834
-3.8443 sustainable -0.3832
-4.5433 swapping -0.3682
-4.5433 swing -0.3724
-4.2422 switches -0.3634
-4.5433 switching -0.3679
-4.0661 syllables -0.3632
-4.5433 syllabus -0.3833
-4.0661 symbol -0.3512
-3.8443 symbols -0.3392
-4.5433 synchronization -0.3730
-4.5433 synonymous -0.3819
-4.5433 syntactical -0.3834
-4.5433 syntax -0.3740
-4.5433 synthesis -0.3825
-4.5433 synthesized -0.3834
-2.3501 system -0.2125
-4.5433 system,comma -0.3740
-2.6512 systems -0.2524
-4.5433 systen -0.3653
-3.1283 t -0.3110
-3.3672 table -0.3394
-4.2422 tables -0.3834
-4.5433 tabs -0.3834
-4.5433 tac -0.3679
-4.5433 tails -0.3653
-3.6402 take -0.3485
-4.2422 taken -0.3717
-3.6981 takes -0.3732
-4.0661 taking -0.3806
-4.0661 talk -0.3718
-4.2422 talking -0.3651
-4.2422 tape -0.3820
-4.5433 tapers -0.3833
-4.5433 target -0.3834
-4.2422 targeting -0.3832
-3.3672 task -0.3095
-3.7651 tasks -0.3645
-4.5433 tata -0.3822
-4.2422 taught -0.3679
-4.5433 taxi -0.3834
-4.5433 tcp -0.3820
-3.1119 team -0.3293
-4.5433 teammates -0.3682
-3.7651 teams -0.3587
-4.5433 teamwork -0.3769
-4.5433 technically -0.3834
-3.1815 technique -0.3243
-3.7651 techniques -0.3765
-4.2422 technological -0.3678
-2.9200 technology -0.2730
-4.5433 tecnolog -0.3834
-4.5433 tedious -0.3833
-4.5433 tee -0.3834
-4.0661 tekniska -0.3829
-4.5433 telecom -0.3682
-3.6402 telephone -0.3686
-4.2422 telephony -0.3681
-3.9412 tell -0.3818
-4.5433 temperature -0.3682
-4.0661 ten -0.3831
-4.5433 tend -0.3724
-4.5433 tended -0.3724
-4.5433 tends -0.3724
-4.5433 tens -0.3730
-4.5433 tenth -0.3834
-4.2422 terabytes -0.3730
-4.2422 term -0.3834
-4.0661 terminal -0.3639
-4.5433 terminate -0.3568
-3.9412 terms -0.3730
-2.9870 test -0.2957
-3.1119 tested -0.2924
-4.0661 tester -0.3812
-3.5433 testers -0.3300
-2.5520 testing -0.2153
-3.3128 tests -0.2991
-2.7579 text -0.3025
-4.5433 texts -0.3819
-3.6402 th -0.3566
-3.0809 than -0.3093
-4.0661 thank -0.3565
-2.2068 that -0.2242
-1.2248 the -0.1607
-2.9522 their -0.3758
-3.0809 them -0.2758
-4.0661 themselves -0.3603
-3.2422 then -0.3287
-4.5433 theoretically -0.3824
-4.5433 theory -0.3834
-2.8998 there -0.3253
-4.5433 thereafter -0.3679
-3.3971 therefore -0.3560
-2.8620 these -0.3743
-3.9412 thesis -0.3611
-2.8712 they -0.3731
-4.5433 thing -0.3811
-3.8443 things -0.3632
-3.7651 think -0.3362
-4.2422 thinking -0.3728
-3.6981 third -0.3803
-2.1299 this -0.2627
-4.5433 thorough -0.3822
-4.0661 thoroughly -0.3446
-3.3672 those -0.3784
-4.2422 though -0.3560
-3.9412 thought -0.3630
-4.5433 thousand -0.3825
-3.6402 thousands -0.3730
-4.5433 threads -0.3831
-4.5433 threats -0.3809
-3.4641 three -0.3811
-4.5433 thrive -0.3817
-3.3391 through -0.3153
-4.5433 throughout -0.3568
-3.6402 thus -0.3678
-4.5433 timber -0.3653
-2.8109 time -0.2261
-4.2422 timed -0.3792
-3.4293 times -0.3252
-4.5433 timing -0.3834
-4.5433 tip -0.3730
-4.5433 tittle -0.3682
-4.5433 tm -0.3812
-1.5993 to -0.2231
-3.7651 today -0.3546
-3.6402 together -0.3257
-4.0661 tokenize -0.3568
-4.0661 tokenizer -0.3822
-4.2422 told -0.3829
-4.5433 tolerant -0.3834
-4.5433 tomsho -0.3682
-4.5433 too -0.3832
-3.9412 took -0.3514
-2.6682 tool -0.2321
-3.2645 toolkit -0.3196
-3.0247 tools -0.2947
-4.5433 tooth -0.3833
-4.5433 topics -0.3796
-4.5433 topologies -0.3834
-4.5433 topology -0.3682
-3.7651 total -0.3718
-4.5433 touch -0.3834
-4.2422 toward -0.3829
-3.5019 towards -0.3393
-4.2422 toxic -0.3834
-4.5433 traced -0.3724
-4.5433 track -0.3653
-3.9412 tract -0.3680
-4.5433 tractors -0.3740
-4.5433 tracts -0.3740
-4.5433 trade -0.3774
-4.5433 trading -0.3825
-4.5433 trailer -0.3740
-4.5433 trailers -0.3653
-3.4293 train -0.3342
-4.0661 trained -0.3721
-3.2008 training -0.3481
-4.5433 traits -0.3807
-4.5433 trans -0.3834
-3.6402 transaction -0.3618
-4.2422 transactions -0.3652
-3.9412 transcript -0.3626
-4.2422 transfer -0.3494
-4.5433 transferred -0.3832
-3.7651 transform -0.3405
-3.8443 transition -0.3733
-3.9412 transitions -0.3552
-4.2422 translate -0.3820
-4.2422 translated -0.3828
-4.5433 transmission -0.3834
-4.5433 trash -0.3653
-4.5433 traversal -0.3682
-4.5433 treated -0.3834
-4.5433 treating -0.3834
-4.5433 treaty -0.3653
-3.6981 tree -0.3737
-3.8443 trees -0.3479
-4.5433 trend -0.3807
-4.5433 tri -0.3807
-4.5433 trials -0.3830
-3.7651 tribe -0.3572
-4.5433 tricks -0.3807
-4.0661 tried -0.3724
-4.5433 tries -0.3724
-4.2422 triggered -0.3752
-4.0661 trigram -0.3823
-3.9412 trip -0.3817
-3.7651 triphone -0.3560
-4.0661 triphones -0.3584
-4.5433 troublesome -0.3740
-3.6402 trucking -0.3710
-4.2422 true -0.3822
-4.5433 truly -0.3834
-4.5433 truncate -0.3828
-4.2422 trunk -0.3834
-3.7651 try -0.3721
-3.9412 trying -0.3724
-3.8443 tts -0.3550
-4.2422 tuned -0.3720
-4.5433 turkey -0.3682
-4.5433 turn -0.3653
-4.2422 tutorial -0.3824
-4.5433 tutorials -0.3817
-4.5433 tweaking -0.3805
-4.5433 twisted -0.3832
-4.2422 twitter -0.3834
-2.9751 two -0.3627
-3.2422 txt -0.2939
-3.2880 type -0.3621
-3.8443 types -0.3457
-3.4641 typical -0.3800
-3.4293 typically -0.3566
-4.5433 typing -0.3833
-4.2422 typos -0.3554
-4.5433 u -0.3653
-4.0661 ubuntu -0.3676
-4.5433 udp -0.3834
-4.2422 ui -0.3805
-4.5433 unable -0.3724
-4.5433 uncertainty -0.3653
-4.5433 uncover -0.3829
-3.5433 under -0.3469
-4.5433 underline -0.3824
-4.5433 underlying -0.3831
-4.5433 underneath -0.3834
-3.5890 understand -0.3444
-4.5433 understandability -0.3740
-4.0661 understandable -0.3642
-4.5433 understandably -0.3682
-3.4641 understanding -0.3052
-4.5433 understood -0.3831
-4.5433 undo -0.3807
-4.0661 unethical -0.3721
-4.5433 unfair -0.3834
-4.5433 unfeasible -0.3831
-4.5433 unfortunately -0.3682
-4.5433 unified -0.3832
-4.0661 uniform -0.3645
-4.5433 uniformity -0.3682
-4.2422 unique -0.3834
-4.5433 unit -0.3653
-4.2422 units -0.3809
-3.9412 universal -0.3826
-3.5890 university -0.3376
-4.5433 unix -0.3682
-4.2422 unless -0.3819
-4.2422 unlike -0.3752
-4.5433 unlucky -0.3824
-4.5433 unrealistic -0.3803
-3.9412 until -0.3562
-4.5433 unto -0.3833
-4.2422 unusual -0.3830
-4.5433 uopx -0.3822
-3.0247 up -0.2531
-4.5433 upbringing -0.3653
-4.2422 update -0.3647
-3.6981 updated -0.3374
-4.0661 updates -0.3634
-4.2422 updating -0.3617
-4.5433 upgrades -0.3653
-4.5433 uphold -0.3834
-4.5433 upload -0.3752
-4.0661 upon -0.3801
-3.6402 url -0.3625
-3.8443 us -0.3295
-4.2422 usability -0.3822
-4.5433 usable -0.3834
-3.8443 usage -0.3704
-2.6740 use -0.2615
-2.4940 used -0.2453
-3.7651 useful -0.3693
-4.5433 useless -0.3833
-2.7579 user -0.2678
-3.2210 users -0.3122
-3.3672 uses -0.3357
-2.5889 using -0.3109
-4.5433 usual -0.3834
-3.5433 usually -0.3827
-3.5433 utilities -0.3216
-4.5433 utilization -0.3730
-4.5433 utilize -0.3828
-4.5433 utilized -0.3724
-4.5433 utilizing -0.3822
-4.5433 utmost -0.3834
-3.5890 utterance -0.3388
-3.8443 utterances -0.3486
-4.5433 valgrind -0.3740
-4.2422 valid -0.3682
-4.5433 validate -0.3568
-4.5433 validates -0.3568
-4.2422 validation -0.3682
-4.0661 valuable -0.3693
-3.3672 value -0.3410
-3.3128 values -0.3242
-3.4293 variability -0.3144
-3.9412 variable -0.3829
-4.5433 variance -0.3834
-4.5433 variation -0.3740
-3.6402 variations -0.3445
-4.5433 varies -0.3834
-4.0661 variety -0.3730
-3.6402 various -0.3822
-4.5433 vary -0.3833
-4.5433 vast -0.3834
-3.7651 vb -0.3575
-3.6402 vector -0.3540
-3.6402 vectors -0.3432
-4.5433 vendors -0.3822
-3.7651 verification -0.3667
-3.9412 verified -0.3784
-4.2422 verify -0.3568
-4.2422 verifying -0.3823
-4.5433 versatile -0.3830
-3.5433 version -0.3428
-3.7651 versions -0.3515
-3.1283 very -0.3797
-4.5433 vi -0.3834
-3.6981 via -0.3744
-4.5433 vice -0.3834
-4.5433 vicissitudes -0.3730
-4.2422 video -0.3811
-3.7651 view -0.3353
-4.5433 viewing -0.3831
-3.8443 virtual -0.3822
-4.5433 virus -0.3834
-4.2422 viruses -0.3585
-4.2422 visible -0.3650
-4.5433 vision -0.3834
-4.5433 vista -0.3740
-4.0661 visual -0.3834
-4.5433 visualize -0.3740
-4.5433 visualized -0.3774
-4.5433 visualizing -0.3833
-4.5433 vital -0.3833
-3.8443 vocab -0.3690
-3.5433 vocabularies -0.3437
-3.1119 vocabulary -0.3042
-3.6981 vocal -0.3832
-3.5890 voice -0.3570
-4.5433 void -0.3830
-4.0661 volume -0.3832
-4.5433 volunteering -0.3825
-4.5433 von -0.3834
-4.5433 vowel -0.3834
-4.5433 vowels -0.3834
-4.2422 vs -0.3653
-4.5433 vulnerabilities -0.3834
-3.1815 w -0.3586
-4.5433 waiting -0.3796
-4.5433 walking -0.3832
-4.2422 walkthroughs -0.3652
-3.6402 wall -0.3585
-4.5433 wan -0.3834
-3.8443 want -0.3718
-4.5433 war -0.3834
-4.5433 warping -0.3682
-4.5433 warrantee -0.3653
-2.6402 was -0.2998
-4.2422 waste -0.3590
-4.2422 waveform -0.3829
-4.2422 waves -0.3768
-3.4641 way -0.2879
-4.2422 ways -0.3537
-2.7874 we -0.3555
-4.2422 wealth -0.3670
-4.5433 weather -0.3740
-3.1283 web -0.3631
-4.5433 websites -0.3830
-4.5433 wee -0.3834
-3.5019 week -0.3700
-3.9412 weekly -0.3830
-4.2422 weeks -0.3726
-4.5433 weight -0.3831
-4.5433 weights -0.3774
-4.2422 welcome -0.3627
-2.9870 well -0.3003
-4.5433 went -0.3724
-2.9870 were -0.3637
-4.5433 west -0.3834
-3.2008 what -0.3253
-4.5433 whatever -0.3653
-2.8805 when -0.3343
-3.8443 whenever -0.3474
-3.0118 where -0.3367
-4.5433 wherein -0.3829
-4.5433 whether -0.3805
-2.8805 which -0.2912
-3.2422 while -0.3431
-4.5433 whistler -0.3832
-3.4293 white -0.3635
-3.6402 who -0.3760
-3.8443 whole -0.3807
-4.0661 whose -0.3833
-3.8443 why -0.3559
-4.2422 wide -0.3834
-4.5433 widespread -0.3834
-4.2422 wiki -0.3822
-4.0661 wikipedia -0.3489
-4.5433 wildly -0.3830
-4.0661 wiley -0.3554
-2.5476 will -0.3355
-4.5433 willing -0.3679
-4.5433 willows -0.3682
-4.0661 win -0.3734
-3.4641 window -0.3205
-4.5433 windowing -0.3740
-2.6624 windows -0.2872
-4.2422 winning -0.3824
-3.9412 wins -0.3581
-4.0661 wire -0.3830
-3.8443 wish -0.3713
-2.4498 with -0.3044
-3.3128 within -0.3343
-3.3971 without -0.3456
-4.5433 witnessed -0.3834
-3.9412 wk -0.3834
-4.5433 woman -0.3826
-4.5433 women -0.3834
-4.5433 won -0.3826
-4.5433 wood -0.3834
-2.8443 word -0.3138
-2.6740 words -0.2649
-3.1630 work -0.3183
-3.6981 working -0.3758
-3.9412 workload -0.3727
-4.5433 workloads -0.3724
-3.7651 works -0.3387
-4.2422 workshop -0.3682
-4.5433 workspaces -0.3809
-4.2422 workstations -0.3831
-3.7651 world -0.3647
-4.5433 worth -0.3805
-2.8998 would -0.3737
-4.5433 wrapping -0.3834
-4.0661 write -0.3638
-3.7651 writing -0.3644
-3.2645 written -0.3498
-4.2422 wrong -0.3833
-3.5433 www -0.3641
-3.9412 x -0.3614
-3.4641 xp -0.3488
-4.5433 xss -0.3812
-4.5433 y -0.3834
-4.2422 yeah -0.3682
-4.2422 year -0.3585
-3.5890 years -0.3162
-4.5433 yes -0.3805
-4.5433 york -0.3816
-2.9870 you -0.3438
-4.5433 young -0.3834
-3.3971 your -0.3823
-4.5433 zaleski -0.3740
-3.7651 zero -0.3490
-4.5433 zoo -0.3830
-4.5433 {left-brace -0.3834
-3.5890 |pipe-symbol -0.3801
-4.5433 ¨ -0.3679
-3.9412 ´ -0.3661
-4.5433 µ -0.3740
-4.2422 ıa -0.3834
-4.5433 ˚ -0.3803
-4.5433 − -0.3828
-4.5433 ∗ -0.3829

\2-grams:
-0.2318 !exclamation-point </s> 0.2385
-1.1914 "quote )right-paren -0.0406
-0.9995 "quote ,comma -0.1160
-1.8446 "quote .dot -0.0928
-2.1456 "quote Hank 0.0063
-2.1456 "quote Kroll -0.1152
-1.8446 "quote Learn 0.2390
-1.8446 "quote a -0.1417
-2.1456 "quote advocating 0.0063
-2.1456 "quote among -0.0604
-1.8446 "quote and -0.1179
-2.1456 "quote apply -0.0500
-2.1456 "quote attributes -0.0902
-2.1456 "quote but -0.1312
-1.8446 "quote button 0.0709
-2.1456 "quote by -0.1403
-2.1456 "quote cold 0.2390
-1.8446 "quote collect 0.1588
-2.1456 "quote doubling 0.2390
-2.1456 "quote for -0.1420
-2.1456 "quote free -0.0813
-2.1456 "quote front -0.1152
-2.1456 "quote function -0.1332
-2.1456 "quote gamblers -0.0500
-2.1456 "quote hot 0.0063
-2.1456 "quote i -0.1366
-2.1456 "quote incoming 0.0709
-2.1456 "quote is -0.1439
-1.8446 "quote make -0.0902
-2.1456 "quote no -0.1321
-2.1456 "quote occurring 0.2390
-2.1456 "quote of -0.1441
-1.6685 "quote or -0.1353
-2.1456 "quote out -0.1282
-1.8446 "quote streaks 0.2390
-2.1456 "quote such -0.1377
-2.1456 "quote take -0.1114
-1.8446 "quote the -0.1439
-2.1456 "quote theoretically 0.2390
-2.1456 "quote unlucky 0.2390
-1.8446 "quote use -0.1375
-2.1456 "quote with -0.1035
-2.1456 "quote would -0.1206
-1.3005 "quote |pipe-symbol 0.1201
-1.0769 %percent )right-paren -0.1288
-1.0769 %percent .period -0.0570
-0.5998 %percent 2 -0.1220
-1.0769 %percent deduction 0.2390
-1.0769 %percent loop -0.1064
-0.2318 &ampersand t -0.1244
-2.0769 'single-quote </s> 0.2385
-1.7759 'single-quote measures -0.0604
-0.2707 'single-quote s 0.1699
-1.5998 'single-quote t -0.0697
-1.4871 (left-paren %percent -0.1064
-0.8850 (left-paren )right-paren -0.0597
-1.4871 (left-paren 907 0.2390
-1.4871 (left-paren [left-bracket -0.0500
-1.4871 (left-paren and -0.1441
-1.4871 (left-paren artificial 0.2390
-1.4871 (left-paren as -0.1434
-1.4871 (left-paren dog 0.2390
-1.4871 (left-paren for -0.1428
-1.4871 (left-paren hence 0.2390
