This is an ARPA-format language model file, generated by CMU Sphinx
\data\
ngram 1=3691
ngram 2=16672
ngram 3=24502

\1-grams:
-4.4783 <UNK> 0.0000
-3.8762 !exclamation-point -0.3496
-2.5338 "quote -0.2631
-3.7001 %percent -0.3473
-2.7223 'single-quote -0.3483
-3.3643 (left-paren -0.3450
-4.4783 (left-paren− -0.3651
-2.3848 )right-paren -0.2092
-3.7793 *asterisk -0.3639
-4.1772 +plus-symbol -0.3525
-1.4688 ,comma -0.1131
-2.2377 -hyphen -0.3181
-2.9597 . -0.3496
-3.1995 ...ellipsis -0.2920
-2.6789 .dot -0.2976
-1.3966 .period -0.1370
-2.8251 /slash -0.3411
-3.0633 0 -0.3135
-3.0803 1 -0.3356
-4.4783 1456 -0.3541
-4.4783 18th -0.3654
-3.1560 2 -0.3335
-4.4783 283 -0.3630
-3.0011 3 -0.3097
-3.3321 4 -0.3317
-3.3321 5 -0.3469
-4.4783 50 -0.3654
-3.5239 6 -0.3633
-4.4783 65 -0.3655
-3.4783 7 -0.3536
-3.1995 8 -0.3349
-3.7793 9 -0.3629
-4.4783 907 -0.3637
-2.4329 :colon -0.2977
-3.1995 ;semi-colon -0.3430
-1.4444 </s> -0.3496
-1.4440 <s> -0.0376
-4.4783 <s>typical -0.3654
-4.1772 =equals-sign -0.3648
-2.9869 ?question-mark -0.3351
-4.1772 A -0.3653
-4.4783 API -0.3637
-4.0011 ASCII -0.3496
-4.4783 ASR -0.3653
-4.4783 Afrikaner/s> -0.3496
-4.4783 Aguirre -0.3641
-4.1772 Alaska -0.3477
-3.7001 Altair -0.3641
-4.4783 Arguments -0.3653
-4.4783 August -0.3477
-4.1772 BSD -0.3495
-4.4783 Bernstein -0.3505
-4.1772 Bitcoin -0.3654
-4.1772 Boolean -0.3654
-4.4783 Briggs -0.3496
-4.1772 Bullard -0.3505
-4.4783 Burroughs -0.3505
-4.4783 CA -0.3505
-4.4783 CE -0.3505
-4.4783 CLR -0.3637
-3.2478 CMU -0.3596
-3.8762 CMUSphinx -0.3469
-4.1772 CPUs -0.3637
-4.4783 CSS -0.3654
-4.4783 California -0.3654
-4.4783 Call -0.3654
-3.7793 Carnegie -0.3654
-4.4783 Centos -0.3477
-4.4783 Chapman -0.3655
-4.4783 Chris -0.3496
-4.4783 Cleveland -0.3505
-3.8762 Colney -0.3558
-4.0011 Compiz -0.3584
-4.4783 Cook -0.3655
-4.4783 Cruzon -0.3586
-4.4783 DAT -0.3637
-4.4783 DFT -0.3637
-4.0011 Darpa -0.3627
-4.4783 David -0.3655
-4.4783 Debian -0.3655
-4.4783 Debra -0.3505
-4.1772 December -0.3639
-4.4783 Edgar -0.3655
-4.1772 English -0.3576
-4.4783 Evan -0.3655
-3.5239 Everett -0.3403
-4.4783 FFT -0.3637
-4.1772 Facebook -0.3653
-4.4783 February -0.3640
-4.4783 Fedora -0.3505
-4.1772 File -0.3652
-4.4783 Firefox -0.3653
-4.4783 Fischer -0.3505
-4.1772 Fourier -0.3654
-4.4783 France -0.3477
-4.4783 FreeBSD -0.3505
-4.4783 FreeSpeech -0.3586
-4.4783 Frequently -0.3655
-4.1772 GI -0.3647
-4.4783 GNU -0.3648
-4.4783 GPS -0.3654
-4.0011 GUI -0.3482
-3.8762 Gaussian -0.3648
-4.1772 Gb -0.3552
-4.4783 German -0.3505
-4.4783 Ghantt -0.3654
-4.1772 Google -0.3641
-4.1772 HTML -0.3650
-4.1772 Hank -0.3641
-3.0803 Henry -0.3042
-4.4783 Hoboken -0.3505
-3.1560 Huffman -0.3583
-3.2478 I -0.3588
-4.4783 I'm -0.3653
-4.4783 I've -0.3654
-4.0011 IBM -0.3482
-4.4783 III -0.3477
-4.4783 IIS -0.3586
-4.1772 IO -0.3650
-4.1772 ISDN -0.3390
-4.4783 Indian -0.3558
-4.4783 Inlet -0.3594
-4.1772 Intel -0.3653
-4.4783 Is -0.3654
-4.4783 Jacob -0.3654
-4.4783 James -0.3655
-4.1772 January -0.3496
-4.4783 Jeremy -0.3655
-4.4783 Jim -0.3653
-4.4783 Joe -0.3496
-4.1772 Joseph -0.3654
-4.4783 Josh -0.3655
-4.4783 Journal -0.3505
-4.1772 July -0.3470
-4.4783 June -0.3558
-4.4783 Kempelen -0.3655
-4.4783 Kikuyu -0.3654
-4.4783 Kitco -0.3477
-4.4783 Kitcosilver -0.3586
-4.4783 Klenk -0.3505
-4.1772 Kohlberg -0.3647
-3.5239 Kroll -0.3403
-4.1772 Learn -0.3642
-4.4783 Lechner -0.3652
-2.7539 Linux -0.2678
-4.4783 Look -0.3645
-4.4783 Lorin -0.3655
-4.4783 Louchart -0.3655
-4.4783 Loverde -0.3651
-4.1772 Luther -0.3622
-4.4783 MHz -0.3505
-4.4783 Machiavellian -0.3594
-4.4783 Mageia -0.3505
-3.6332 Markov -0.3639
-3.5239 McLeod -0.3504
-4.0011 Mel -0.3630
-4.0011 Mellon -0.3494
-4.4783 Mexico -0.3616
-3.7793 Microsoft -0.3636
-4.4783 Microsystems -0.3505
-4.4783 Midwest -0.3541
-4.4783 Mint -0.3505
-4.4783 Missouri -0.3654
-4.4783 Mountain -0.3655
-4.0011 Museet -0.3432
-4.4783 MySpace -0.3650
-4.4783 NASA -0.3633
-4.4783 NCT -0.3648
-4.4783 NJ -0.3639
-4.4783 NT -0.3653
-4.4783 Nathaniel -0.3655
-3.8762 Nelson -0.3505
-4.4783 Netware -0.3645
-4.4783 Ninilchick -0.3654
-4.4783 Noren -0.3496
-4.4783 Norton -0.3654
-4.4783 OK -0.3594
-4.4783 OOP -0.3505
-4.1772 OS -0.3630
-4.1772 Ohio -0.3476
-4.1772 OpenSuse -0.3405
-4.4783 Oppenheim -0.3594
-3.6332 PBX -0.3296
-3.5239 PC -0.3159
-4.4783 PCLinuxOS -0.3505
-3.8762 PCs -0.3547
-4.4783 PDFs -0.3637
-4.1772 PHP -0.3498
-4.1772 POS -0.3648
-4.4783 POSIX -0.3505
-4.4783 Perl -0.3558
-4.4783 PhD -0.3654
-3.8762 Pitts -0.3487
-2.7707 PocketSphinx -0.2658
-4.4783 Polytechnic -0.3654
-4.4783 Popen -0.3655
-4.4783 PowerPoint -0.3655
-4.0011 Python -0.3654
-4.0011 Python's -0.3654
-4.4783 RCA -0.3505
-4.4783 RF -0.3637
-4.4783 ROI -0.3637
-4.4783 Rembetski -0.3505
-4.4783 Richard -0.3655
-4.1772 Riordan -0.3586
-4.4783 Saturday -0.3552
-3.4369 Scientology -0.3456
-4.4783 SeaMonkey -0.3652
-4.4783 Sean -0.3655
-4.4783 Selma -0.3655
-4.4783 September -0.3655
-4.0011 Sharon -0.3645
-4.4783 Slackware -0.3647
-4.1772 SourceForge -0.3477
-4.4783 SouthCentral -0.3654
-4.4783 Spanish -0.3477
-4.4783 Street -0.3655
-4.4783 Sun -0.3655
-4.1772 Swedish -0.3654
-4.4783 Switchboard -0.3558
-4.4783 TCP -0.3639
-4.4783 TM -0.3637
-4.4783 Taleb -0.3654
-4.0011 Tekniska -0.3654
-4.4783 Tereza -0.3655
-4.4783 The -0.3654
-4.4783 Tony -0.3655
-3.8762 Trevino -0.3504
-4.4783 Trippe -0.3651
-4.4783 True -0.3477
-4.4783 Tsimshian -0.3655
-4.4783 Turing -0.3651
-4.4783 UDP -0.3654
-4.1772 UI -0.3624
-4.4783 UNIX -0.3505
-4.4783 UOP -0.3496
-3.6332 URL -0.3453
-3.5239 URLs -0.3411
-4.4783 USA -0.3505
-3.5239 UTF -0.3630
-4.0011 Ubuntu -0.3497
-3.3991 Unicode -0.3646
-4.4783 Used -0.3655
-4.4783 VPN -0.3650
-4.4783 Valgrind -0.3558
-4.4783 View -0.3505
-4.4783 Virginia -0.3655
-4.4783 Viterbi's -0.3652
-4.4783 Wall -0.3655
-4.1772 What's -0.3650
-4.4783 Where -0.3628
-4.0011 Wikipedia -0.3315
-4.4783 Wiley -0.3655
-4.1772 Williams -0.3504
-4.4783 Windows -0.3655
-4.4783 Wolfgang -0.3655
-3.3991 XP -0.3303
-4.4783 Zaleski -0.3558
-4.4783 Zedar -0.3505
-4.4783 [left-bracket -0.3653
-3.3022 \backslash -0.3585
-4.1772 ]right-bracket -0.3433
-3.6332 _underscore -0.3645
-1.7224 a -0.2497
-4.4783 aardvark -0.3654
-4.4783 abbreviated -0.3654
-4.4783 abbreviations -0.3558
-3.8762 ability -0.3358
-3.0011 able -0.3541
-3.2230 about -0.3231
-4.1772 above -0.3626
-4.4783 abrogate -0.3655
-4.4783 absent -0.3552
-4.4783 absolutes -0.3558
-4.4783 abstract -0.3648
-4.4783 abundance -0.3552
-4.4783 academic -0.3654
-4.1772 accent -0.3405
-4.0011 acceptable -0.3483
-4.4783 acceptance -0.3477
-3.7001 accepted -0.3300
-3.3991 access -0.3431
-3.8762 accessed -0.3635
-4.4783 accessible -0.3653
-4.4783 accessing -0.3622
-4.4783 accommodate -0.3652
-4.4783 accompany -0.3391
-4.4783 accomplish -0.3646
-4.4783 accomplished -0.3632
-3.3321 according -0.3541
-3.7793 account -0.3315
-4.4783 accounting -0.3505
-4.4783 accumulating -0.3477
-2.9869 accuracy -0.3037
-3.7793 accurate -0.3642
-4.4783 achieve -0.3654
-3.6332 achieved -0.3467
-4.1772 achieving -0.3626
-4.4783 acknowledgments -0.3622
-3.0011 acoustic -0.3591
-4.1772 acoustics -0.3536
-4.4783 acquired -0.3654
-4.4783 acquisition -0.3552
-4.4783 acronyms -0.3505
-4.1772 across -0.3302
-4.4783 acting -0.3594
-3.7793 action -0.3432
-3.8762 actions -0.3320
-4.4783 active -0.3651
-4.1772 actively -0.3654
-4.0011 activities -0.3320
-4.4783 activity -0.3477
-3.8762 actual -0.3612
-4.1772 actually -0.3654
-4.4783 adamant -0.3558
-3.8762 adapt -0.3427
-4.4783 adaptable -0.3638
-4.1772 adapted -0.3526
-4.4783 adapting -0.3391
-4.4783 adaptive -0.3653
-4.1772 add -0.3612
-4.0011 added -0.3531
-3.8762 addition -0.3231
-3.5239 additional -0.3647
-3.3991 additionally -0.3231
-4.4783 additions -0.3627
-4.4783 additive -0.3654
-4.0011 address -0.3473
-4.4783 addressed -0.3541
-4.4783 adds -0.3391
-4.1772 adequate -0.3610
-4.4783 adequately -0.3654
-4.4783 adheres -0.3541
-4.4783 adhering -0.3541
-4.4783 adjusted -0.3654
-4.4783 adjusting -0.3391
-4.4783 adjustment -0.3552
-4.1772 administrator -0.3433
-4.1772 administrators -0.3653
-4.4783 adopt -0.3505
-4.4783 adopted -0.3477
-4.4783 adopting -0.3653
-4.4783 adult -0.3654
-4.1772 adults -0.3477
-4.4783 advance -0.3505
-4.4783 advantage -0.3552
-3.6332 advantages -0.3411
-4.4783 adversely -0.3477
-4.4783 advocate -0.3654
-4.4783 advocated -0.3622
-4.4783 advocates -0.3654
-4.1772 advocating -0.3650
-4.1772 affect -0.3374
-4.4783 affected -0.3632
-4.4783 afford -0.3477
-2.9342 after -0.3193
-4.1772 again -0.3477
-3.7793 against -0.3376
-3.8762 age -0.3354
-4.1772 agrees -0.3524
-4.4783 ahead -0.3477
-4.4783 aid -0.3391
-4.0011 aim -0.3370
-4.1772 aimed -0.3541
-4.4783 aircraft -0.3654
-4.4783 alarmingly -0.3505
-4.4783 album -0.3477
-4.1772 albums -0.3628
-2.9597 algorithm -0.2366
-3.3321 algorithms -0.2774
-4.4783 align -0.3638
-4.4783 aligns -0.3638
-4.1772 alike -0.3405
-2.8762 all -0.2734
-4.0011 allow -0.3391
-4.1772 allowed -0.3376
-3.3321 allows -0.3260
-3.8762 almost -0.3648
-4.1772 alone -0.3454
-3.7793 along -0.3446
-3.8762 alpha -0.3526
-4.1772 alphabet -0.3494
-3.7001 already -0.3581
-2.8448 also -0.2998
-3.8762 alt -0.3629
-4.4783 alternate -0.3653
-4.4783 alternative -0.3541
-4.1772 alternatively -0.3505
-4.4783 alternatives -0.3541
-3.4783 although -0.3319
-4.4783 always -0.3647
-3.3991 am -0.3619
-4.4783 ambient -0.3654
-3.5239 among -0.3639
-3.5752 amount -0.3552
-4.4783 amounts -0.3552
-4.4783 amplitude -0.3552
-2.4214 an -0.3502
-3.5752 analysis -0.3231
-4.1772 analyzers -0.3471
-4.4783 ancient -0.3653
-1.6574 and -0.0825
-4.1772 android -0.3475
-4.4783 anger -0.3477
-3.3991 another -0.3331
-4.4783 anova -0.3637
-4.4783 answered -0.3505
-4.1772 anthropocentric -0.3459
-3.7793 anti -0.3630
-4.4783 anticipating -0.3653
-4.1772 antivirus -0.3654
-3.0469 any -0.3473
-4.4783 anybody -0.3633
-4.1772 anyone -0.3643
-3.8762 anything -0.3433
-4.1772 anywhere -0.3594
-4.4783 apart -0.3640
-4.4783 apparatus -0.3558
-4.1772 apparent -0.3652
-4.4783 apparently -0.3616
-4.4783 appeal -0.3477
-4.4783 appearing -0.3541
-4.4783 appears -0.3594
-4.4783 appended -0.3541
-4.4783 appendix -0.3572
-4.4783 applauds -0.3654
-4.4783 apple -0.3647
-4.4783 appliance -0.3505
-4.4783 applicable -0.3541
-4.4783 applicants -0.3638
-2.7379 application -0.2487
-3.0633 applications -0.2944
-4.1772 applied -0.3541
-4.1772 applies -0.3541
-4.1772 apply -0.3556
-4.4783 applying -0.3654
-4.4783 appreciated -0.3653
-3.3022 approach -0.2722
-3.3321 approaches -0.3212
-4.1772 appropriate -0.3643
-4.4783 approved -0.3505
-4.1772 approximate -0.3391
-4.1772 approximated -0.3645
-4.4783 approximating -0.3391
-4.1772 approximation -0.3551
-4.4783 arbitrarily -0.3652
-4.4783 arch -0.3647
-4.0011 architecture -0.3400
-2.2088 are -0.2241
-4.4783 are)right-paren -0.3654
-3.6332 area -0.3225
-3.2478 areas -0.2964
-4.0011 arguments -0.3649
-4.4783 arise -0.3594
-4.1772 arm -0.3654
-4.4783 army -0.3655
-3.3643 around -0.2436
-4.0011 arpa -0.3633
-4.4783 arrangement -0.3477
-4.4783 arrangements -0.3558
-4.4783 array -0.3552
-4.4783 arrays -0.3505
-4.4783 arrives -0.3541
-4.4783 art -0.3639
-4.4783 article -0.3655
-4.1772 articles -0.3638
-4.4783 articulated -0.3645
-4.4783 articulates -0.3639
-4.4783 articulation -0.3654
-4.0011 articulatory -0.3652
-4.4783 artificial -0.3654
-4.4783 artists -0.3648
-2.1358 as -0.2479
-4.4783 asleep -0.3496
-4.4783 aspects -0.3552
-4.4783 assembly -0.3650
-4.4783 assessment -0.3654
-4.1772 assigned -0.3550
-4.4783 assigning -0.3654
-3.3321 assignment -0.3648
-3.5752 assignments -0.3437
-4.4783 assigns -0.3572
-4.1772 assist -0.3594
-3.8762 associated -0.3535
-4.1772 assume -0.3621
-4.1772 assumed -0.3512
-4.4783 assumes -0.3627
-3.7793 assuming -0.3543
-4.4783 assumption -0.3653
-2.6587 at -0.3189
-4.1772 attached -0.3358
-4.4783 attempt -0.3541
-4.4783 attempting -0.3541
-4.1772 attempts -0.3541
-4.4783 attention -0.3477
-4.4783 attenuated -0.3623
-4.4783 attorney -0.3655
-4.4783 attract -0.3654
-4.0011 attributes -0.3429
-4.1772 audacity -0.3405
-4.4783 audience -0.3477
-2.9342 audio -0.3626
-4.4783 august -0.3637
-4.4783 authentication -0.3505
-4.1772 author -0.3540
-4.4783 authorized -0.3652
-4.1772 automate -0.3389
-3.8762 automated -0.3454
-3.7001 automatic -0.3633
-3.7793 automatically -0.3215
-3.8762 automation -0.3398
-4.0011 automotive -0.3405
-4.4783 auxiliary -0.3653
-4.4783 availability -0.3641
-2.9342 available -0.3007
-4.4783 availed -0.3651
-3.8762 average -0.3650
-4.0011 avoid -0.3652
-4.4783 avoiding -0.3653
-4.4783 aware -0.3505
-4.0011 away -0.3255
-3.7001 b -0.3298
-3.7001 back -0.3311
-4.1772 background -0.3652
-4.4783 backups -0.3552
-3.5239 backward -0.3642
-3.7793 bad -0.3402
-4.1772 balance -0.3550
-4.4783 balances -0.3638
-4.4783 bandwidth -0.3655
-4.4783 bank -0.3391
-4.1772 bankrupt -0.3559
-4.4783 base -0.3653
-2.9342 based -0.3141
-4.4783 baseline -0.3496
-3.7793 basic -0.3639
-4.4783 basically -0.3655
-4.1772 bass -0.3650
-3.7793 batch -0.3384
-4.4783 batteries -0.3638
-2.0550 be -0.2552
-4.1772 beam -0.3628
-4.4783 beating -0.3552
-3.8762 became -0.3572
-3.5752 because -0.3227
-3.5239 become -0.3366
-3.7001 becomes -0.3642
-4.1772 becoming -0.3654
-4.4783 bed -0.3477
-4.4783 bedroom -0.3477
-2.8872 been -0.3456
-4.4783 beetles -0.3558
-3.7793 before -0.3497
-4.0011 began -0.3540
-3.4783 begin -0.3319
-4.1772 beginning -0.3545
-4.4783 begins -0.3391
-4.4783 behave -0.3594
-4.4783 behaves -0.3650
-3.7001 behavior -0.3290
-4.4783 behavioral -0.3641
-4.4783 behaviors -0.3558
-3.8762 behind -0.3507
-3.4369 being -0.3320
-4.1772 belong -0.3541
-4.4783 below -0.3594
-4.0011 benchmark -0.3556
-4.4783 benchmarks -0.3477
-4.4783 beneficial -0.3541
-3.8762 benefit -0.3570
-4.1772 benefits -0.3547
-4.4783 berg -0.3496
-4.4783 berries -0.3505
-4.0011 besides -0.3390
-3.2741 best -0.3496
-3.8762 bet -0.3487
-3.6332 beta -0.3620
-3.8762 bets -0.3617
-3.3321 better -0.3177
-4.0011 betting -0.3653
-3.3643 between -0.3371
-4.4783 beyond -0.3391
-4.4783 bi-gram -0.3645
-4.4783 biased -0.3654
-4.4783 bible -0.3541
-4.4783 bibliography -0.3572
-3.8762 big -0.3650
-4.0011 bigger -0.3649
-4.4783 biggest -0.3654
-4.1772 bigram -0.3494
-3.7793 bill -0.3576
-4.4783 bills -0.3650
-4.1772 bin -0.3653
-4.4783 binary -0.3654
-4.4783 biocentric -0.3477
-4.4783 biscuit -0.3655
-3.7793 biscuits -0.3312
-3.7793 bit -0.3615
-3.3991 black -0.3394
-4.4783 blank -0.3653
-4.4783 bleeding -0.3630
-4.4783 bliss -0.3477
-4.4783 blocks -0.3552
-4.4783 blow -0.3650
-4.4783 boats -0.3505
-4.4783 boiler -0.3655
-4.0011 book -0.3521
-4.4783 bookstore -0.3652
-4.4783 boon -0.3541
-4.4783 border -0.3654
-3.3022 both -0.3237
-4.4783 bound -0.3541
-4.0011 boundaries -0.3462
-3.8762 boundary -0.3584
-3.0981 box -0.3359
-4.0011 branch -0.3652
-4.1772 branches -0.3594
-4.4783 break -0.3640
-4.4783 breaks -0.3477
-4.4783 breathing -0.3505
-4.4783 breech -0.3645
-4.4783 brewing -0.3654
-4.0011 brief -0.3653
-4.4783 bright -0.3653
-4.4783 brightness -0.3505
-4.4783 bring -0.3654
-4.1772 brings -0.3654
-4.4783 broad -0.3654
-4.4783 broadcast -0.3637
-4.4783 broader -0.3655
-4.4783 broken -0.3655
-4.4783 brother -0.3594
-4.4783 browse -0.3541
-4.4783 browsed -0.3558
-3.8762 browser -0.3040
-4.4783 budget -0.3654
-4.4783 budgeted -0.3541
-3.7793 buffer -0.3449
-3.7001 bugs -0.3610
-4.4783 build -0.3572
-3.7793 building -0.3473
-3.8762 built -0.3478
-4.4783 bundled -0.3594
-3.1358 business -0.3213
-4.4783 businesses -0.3496
-4.4783 busy -0.3616
-2.9468 but -0.2885
-4.0011 button -0.3477
-4.4783 buttons -0.3477
-4.1772 buy -0.3571
-4.4783 buying -0.3391
-3.8762 buzzword -0.3494
-4.1772 bxs -0.3541
-2.2851 by -0.2926
-4.4783 bye -0.3642
-4.0011 byte -0.3653
-4.4783 bytes -0.3640
-3.3643 c -0.3356
-4.4783 cabinet -0.3477
-4.4783 cable -0.3541
-4.1772 cables -0.3486
-4.4783 cache -0.3654
-4.1772 calculate -0.3388
-3.8762 calculated -0.3454
-4.1772 calculates -0.3302
-4.4783 calculating -0.3391
-4.4783 calculations -0.3477
-3.3643 call -0.3430
-3.3991 called -0.3209
-4.0011 caller -0.3654
-3.8762 calls -0.3470
-2.3022 can -0.2895
-4.4783 canals -0.3505
-4.4783 candidate -0.3649
-4.4783 candidates -0.3477
-4.4783 cannot -0.3616
-4.0011 capabilities -0.3286
-4.4783 capability -0.3505
-3.8762 capable -0.3389
-4.1772 capacity -0.3637
-4.4783 captain -0.3505
-4.4783 card -0.3505
-4.4783 cards -0.3505
-4.0011 care -0.3576
-4.1772 career -0.3562
-4.0011 careful -0.3538
-4.0011 carefully -0.3629
-4.4783 carried -0.3636
-4.4783 carrier -0.3654
-4.4783 carriers -0.3477
-4.4783 carry -0.3636
-4.4783 cars -0.3505
-3.3321 case -0.3157
-3.8762 cases -0.2997
-4.1772 casual -0.3473
-4.1772 catastrophic -0.3654
-4.4783 catch -0.3477
-4.4783 categorically -0.3651
-4.0011 categories -0.3369
-4.4783 categorization -0.3655
-4.4783 categorize -0.3391
-4.4783 category -0.3654
-4.4783 cause -0.3391
-4.4783 caused -0.3632
-4.1772 causes -0.3558
-3.6332 cell -0.3430
-3.8762 center -0.3592
-4.4783 centers -0.3505
-4.1772 central -0.3651
-4.4783 centralized -0.3647
-4.1772 century -0.3572
-4.1772 cepstral -0.3654
-3.8762 cepstrum -0.3358
-3.5752 certain -0.3642
-4.4783 certainly -0.3654
-4.4783 certify -0.3391
-4.0011 challenge -0.3616
-3.6332 challenges -0.3322
-4.0011 challenging -0.3648
-3.7001 change -0.3298
-3.6332 changed -0.3067
-3.7793 changes -0.3304
-4.4783 channel -0.3505
-4.4783 channels -0.3655
-3.4369 chapter -0.3402
-4.0011 character -0.3405
-4.4783 characteristic -0.3653
-4.1772 characteristics -0.3552
-4.4783 characterized -0.3632
-4.4783 characters -0.3505
-3.8762 charge -0.3370
-4.4783 charters -0.3558
-4.1772 charts -0.3482
-4.4783 chat -0.3654
-4.0011 cheap -0.3558
-4.4783 cheaper -0.3541
-3.6332 check -0.3579
-3.8762 checkbook -0.3654
-4.0011 checked -0.3296
-3.5239 checking -0.3221
-4.1772 checks -0.3387
-4.4783 chicken -0.3558
-4.4783 child -0.3653
-4.4783 childhood -0.3477
-4.0011 children -0.3651
-4.4783 chinook -0.3653
-4.4783 chips -0.3477
-4.4783 choice -0.3616
-3.8762 choose -0.3386
-4.4783 choosing -0.3651
-4.4783 chores -0.3648
-4.0011 chose -0.3541
-3.8762 chosen -0.3649
-4.4783 chum -0.3653
-4.4783 church -0.3652
-4.1772 circuit -0.3654
-4.4783 circuits -0.3655
-4.4783 circumstances -0.3505
-4.4783 cited -0.3505
-4.4783 citizens -0.3552
-4.4783 city -0.3655
-4.4783 clarity -0.3505
-3.5239 class -0.3404
-3.8762 classes -0.3201
-4.4783 classic -0.3653
-4.1772 classroom -0.3476
-3.8762 clear -0.3235
-4.4783 cleared -0.3654
-4.1772 clearly -0.3652
-3.7001 click -0.3328
-4.4783 clicking -0.3391
-4.4783 clicks -0.3477
-4.0011 client -0.3476
-3.7001 clients -0.3386
-4.4783 climb -0.3541
-4.4783 climbing -0.3505
-4.4783 clones -0.3477
-4.0011 close -0.3105
-4.1772 closed -0.3515
-4.4783 cluster -0.3477
-4.1772 co -0.3630
-4.1772 co-variance -0.3654
-4.4783 coast -0.3477
-4.4783 coax -0.3639
-2.9220 code -0.2860
-4.1772 codename -0.3504
-4.4783 codified -0.3594
-4.4783 coding -0.3654
-4.1772 coefficients -0.3505
-4.1772 coffee -0.3470
-4.4783 coho -0.3653
-4.1772 coin -0.3654
-4.4783 cold -0.3642
-4.4783 collaborate -0.3558
-4.4783 collaboration -0.3639
-4.4783 collaborative -0.3653
-4.4783 colleagues -0.3558
-3.6332 collect -0.3464
-4.1772 collecting -0.3565
-4.4783 collection -0.3552
-4.4783 colon -0.3642
-4.4783 colons -0.3505
-4.1772 color -0.3654
-4.1772 combination -0.3435
-4.1772 combined -0.3577
-4.4783 combining -0.3651
-4.0011 combo -0.3641
-4.1772 come -0.3638
-4.0011 comes -0.3644
-4.1772 coming -0.3652
-3.3991 command -0.3468
-3.5752 commands -0.2982
-4.4783 commas -0.3558
-4.4783 commentaries -0.3505
-3.7793 commercial -0.3631
-4.4783 commit -0.3541
-3.1995 common -0.3333
-4.4783 commonly -0.3654
-4.0011 communicate -0.3517
-3.8762 communication -0.3552
-4.4783 communications -0.3541
-4.4783 communities -0.3541
-4.0011 community -0.3285
-4.4783 compact -0.3651
-3.8762 companies -0.3451
-3.3022 company -0.2847
-4.4783 comparable -0.3541
-4.4783 compare -0.3648
-3.8762 compared -0.3541
-4.4783 comparing -0.3647
-4.4783 comparison -0.3638
-4.4783 compatibility -0.3639
-4.1772 compatible -0.3637
-3.8762 compensation -0.3393
-4.1772 competitive -0.3654
-3.7793 compile -0.3356
-4.0011 compiled -0.3514
-4.0011 compiler -0.3654
-4.4783 compilers -0.3477
-4.0011 compiling -0.3391
-4.4783 complements -0.3391
-3.6332 complete -0.3284
-4.0011 completed -0.3321
-4.1772 completely -0.3653
-4.4783 completes -0.3654
-4.0011 completion -0.3370
-3.6332 complex -0.3513
-4.1772 complexity -0.3398
-4.4783 complicated -0.3623
-3.5239 component -0.3450
-3.3991 components -0.2897
-3.8762 composed -0.3632
-4.4783 composing -0.3505
-4.0011 compound -0.3654
-4.4783 comprehensive -0.3654
-4.4783 compressing -0.3391
-4.4783 comprise -0.3653
-3.7793 comprises -0.3386
-4.4783 comprising -0.3650
-4.4783 compromise -0.3496
-4.4783 compromised -0.3650
-4.4783 computation -0.3477
-3.7793 computational -0.3649
-4.1772 computationally -0.3654
-4.4783 computations -0.3623
-3.8762 compute -0.3382
-3.8762 computed -0.3645
-3.1772 computer -0.2892
-3.7793 computers -0.3175
-4.1772 concatenation -0.3389
-4.1772 concept -0.3552
-4.4783 concepts -0.3477
-3.8762 concern -0.3283
-4.4783 concerned -0.3652
-4.0011 concerning -0.3569
-4.1772 concerns -0.3414
-3.7793 conclusion -0.3308
-4.0011 conclusions -0.3281
-4.0011 condition -0.3649
-4.4783 conditional -0.3650
-4.0011 conditions -0.3500
-4.4783 conference -0.3654
-4.4783 conferencing -0.3505
-4.4783 confidentiality -0.3654
-3.7793 configuration -0.3199
-4.1772 configurations -0.3486
-4.4783 configured -0.3654
-4.1772 confirm -0.3650
-4.4783 conflicted -0.3638
-4.4783 conform -0.3541
-4.4783 connect -0.3391
-4.4783 connected -0.3477
-4.0011 connecting -0.3654
-4.4783 connections -0.3477
-4.4783 connectivity -0.3654
-4.0011 connects -0.3540
-4.4783 consciously -0.3655
-4.4783 consecutive -0.3654
-4.4783 consequently -0.3505
-4.4783 conservation -0.3651
-3.8762 consider -0.3064
-4.4783 consideration -0.3477
-3.8762 considered -0.3268
-4.1772 considering -0.3626
-4.1772 consist -0.3552
-4.1772 consisted -0.3576
-4.4783 consistencies -0.3594
-4.4783 consistent -0.3638
-4.4783 consists -0.3552
-4.4783 constant -0.3648
-4.0011 constrained -0.3631
-4.1772 constraints -0.3652
-4.1772 construct -0.3384
-4.4783 constructed -0.3638
-4.4783 constructor -0.3630
-3.3643 consulting -0.3417
-4.4783 consuming -0.3558
-3.7001 contact -0.3470
-3.4369 contain -0.3281
-4.4783 contained -0.3653
-4.4783 containers -0.3558
-3.2478 containing -0.3254
-3.6332 contains -0.3291
-4.4783 contaminated -0.3652
-3.6332 content -0.3493
-4.4783 contention -0.3627
-4.1772 contents -0.3552
-4.1772 context -0.3470
-3.8762 continue -0.3534
-4.1772 continued -0.3270
-4.4783 continues -0.3654
-3.4783 continuous -0.3312
-4.4783 continuously -0.3616
-4.4783 contract -0.3655
-4.4783 contracted -0.3632
-4.1772 contrast -0.3505
-4.4783 contribute -0.3541
-4.4783 contributes -0.3541
-4.4783 contributing -0.3654
-4.1772 contribution -0.3466
-4.1772 contributions -0.3449
-3.7793 control -0.3416
-4.4783 controlled -0.3632
-4.4783 controversial -0.3653
-4.4783 convenient -0.3616
-4.4783 convention -0.3650
-4.4783 conventions -0.3505
-4.4783 converge -0.3649
-4.1772 convergence -0.3552
-4.4783 conversation -0.3496
-4.1772 conversational -0.3536
-3.6332 conversion -0.3389
-3.8762 convert -0.3616
-4.1772 converted -0.3565
-4.4783 converter -0.3647
-4.4783 converting -0.3391
-4.1772 converts -0.3638
-4.4783 convey -0.3572
-4.4783 coordinate -0.3638
-4.4783 copied -0.3541
-4.0011 copy -0.3627
-4.4783 copyright -0.3654
-4.4783 copyrighted -0.3652
-3.5239 core -0.3550
-4.4783 corner -0.3541
-4.4783 corners -0.3477
-4.4783 corpora -0.3652
-4.1772 corporate -0.3654
-3.1165 corpus -0.3062
-3.7001 correct -0.3470
-4.4783 corrected -0.3558
-4.4783 correction -0.3477
-3.3991 correctly -0.3309
-4.4783 correlated -0.3653
-4.1772 correspond -0.3541
-3.7001 corresponding -0.3532
-3.8762 corresponds -0.3541
-4.4783 cos -0.3649
-4.0011 cosmetic -0.3556
-3.7793 cost -0.3637
-4.1772 costs -0.3585
-3.2741 could -0.3550
-4.1772 count -0.3653
-4.4783 countries -0.3628
-4.0011 couple -0.3552
-4.4783 coupled -0.3638
-3.7793 course -0.3028
-4.1772 courses -0.3641
-4.4783 cover -0.3572
-3.2741 coverage -0.3268
-4.4783 crashed -0.3653
-3.3643 create -0.3158
-3.2478 created -0.3067
-4.1772 creates -0.3572
-3.3643 creating -0.3270
-3.7001 creation -0.3394
-4.4783 creations -0.3558
-4.0011 creative -0.3654
-4.4783 creativity -0.3638
-4.1772 credential -0.3477
-4.1772 credentials -0.3518
-4.4783 creeds -0.3541
-4.4783 crew -0.3653
-4.1772 crewmen -0.3628
-4.4783 crisis -0.3505
-4.1772 criterion -0.3376
-4.1772 critical -0.3541
-4.4783 cropping -0.3650
-4.1772 cross -0.3630
-4.4783 cruel -0.3655
-4.4783 crying -0.3558
-4.4783 cube -0.3653
-4.1772 cumbersome -0.3541
-4.4783 cup -0.3552
-4.4783 cure -0.3622
-4.4783 cures -0.3650
-3.3991 current -0.3455
-4.0011 currently -0.3465
-4.4783 curve -0.3638
-3.2230 custom -0.3613
-3.8762 customer -0.3651
-4.0011 customers -0.3353
-4.4783 cut -0.3654
-3.7001 cycle -0.3364
-4.4783 cycled -0.3653
-4.4783 cycles -0.3558
-4.4783 cynicism -0.3654
-3.0803 d -0.3476
-4.4783 daily -0.3654
-2.8347 data -0.2772
-4.0011 database -0.3636
-3.8762 databases -0.3460
-4.1772 date -0.3579
-4.0011 dates -0.3501
-4.4783 daunting -0.3653
-3.5239 day -0.3189
-3.7793 days -0.3183
-4.4783 db -0.3648
-4.1772 dead -0.3654
-4.1772 deal -0.3606
-4.0011 dealing -0.3638
-4.0011 deals -0.3638
-4.1772 debts -0.3650
-3.8762 debug -0.3650
-4.0011 debugging -0.3645
-4.4783 decade -0.3505
-3.8762 decades -0.3139
-4.4783 decent -0.3650
-4.4783 decide -0.3541
-3.8762 decided -0.3541
-4.4783 decision -0.3654
-4.4783 decisions -0.3505
-3.4783 decode -0.3136
-3.6332 decoded -0.3427
-3.5752 decoder -0.2823
-4.1772 decoders -0.3472
-3.1165 decoding -0.3286
-4.4783 decrease -0.3391
-4.0011 decreasing -0.3384
-4.4783 deduction -0.3616
-4.4783 deep -0.3653
-4.4783 deeply -0.3496
-3.1772 default -0.3179
-4.4783 defect -0.3477
-4.4783 defends -0.3649
-4.4783 define -0.3572
-3.7001 defined -0.3351
-4.4783 defines -0.3653
-3.7001 definition -0.3393
-4.4783 definitions -0.3650
-4.4783 degradation -0.3552
-4.4783 degrees -0.3477
-4.4783 delay -0.3477
-4.4783 delayed -0.3655
-4.4783 delays -0.3594
-4.4783 deleted -0.3639
-4.4783 deletions -0.3652
-4.0011 dell -0.3495
-3.5239 delta -0.3626
-4.0011 demand -0.3616
-4.4783 demands -0.3496
-4.0011 demonstrate -0.3543
-4.4783 demonstrates -0.3627
-4.4783 dempster -0.3594
-4.4783 denote -0.3655
-4.0011 density -0.3650
-4.4783 department -0.3616
-4.4783 depend -0.3636
-4.4783 dependent -0.3654
-3.7793 depending -0.3636
-4.0011 depends -0.3630
-3.7793 depicted -0.3585
-4.0011 depicts -0.3369
-4.4783 deployment -0.3477
-4.4783 derivations -0.3505
-3.8762 describe -0.3351
-3.5752 described -0.3440
-3.5239 describes -0.3322
-4.4783 describing -0.3391
-3.8762 description -0.3099
-3.5239 design -0.3324
-3.3991 designed -0.2941
-4.4783 designer -0.3505
-4.1772 designing -0.3558
-3.7001 desired -0.3344
-4.4783 desires -0.3654
-4.0011 desk -0.3557
-3.7001 desktop -0.3292
-4.4783 desktops -0.3586
-4.0011 despite -0.3390
-3.8762 detail -0.3201
-3.7793 detailed -0.3519
-4.1772 details -0.3611
-4.4783 detect -0.3654
-3.4369 determine -0.3373
-3.5752 determined -0.3255
-4.4783 determines -0.3650
-4.4783 determining -0.3654
-3.5239 develop -0.3043
-3.3022 developed -0.2930
-3.8762 developer -0.3624
-4.0011 developers -0.3195
-4.4783 developing -0.3638
-2.7793 development -0.2794
-4.0011 device -0.3309
-3.6332 devices -0.3308
-4.4783 diagnostic -0.3653
-3.8762 diagram -0.2976
-4.4783 diagrams -0.3505
-4.4783 dialog -0.3477
-3.5239 dic -0.3251
-3.5239 dict -0.3476
-4.4783 dict-generator -0.3650
-4.4783 dictate -0.3648
-3.7001 dictation -0.3396
-3.8762 dictionaries -0.3380
-2.6394 dictionary -0.2176
-3.8762 did -0.3605
-4.4783 die -0.3654
-3.7793 difference -0.3463
-4.4783 differences -0.3594
-2.8872 different -0.3417
-4.1772 differentials -0.3552
-4.4783 differs -0.3640
-3.5239 difficult -0.3528
-4.0011 difficulties -0.3638
-4.4783 digestion -0.3505
-4.1772 digit -0.3320
-3.8762 digital -0.3647
-4.4783 digits -0.3616
-4.4783 dilemma -0.3641
-4.4783 dilemmas -0.3558
-4.4783 dimension -0.3586
-4.4783 dimming -0.3505
-4.0011 direct -0.3650
-4.1772 direction -0.3424
-4.4783 directions -0.3558
-3.7793 directly -0.3458
-4.4783 director -0.3552
-4.4783 directory -0.3655
-4.4783 disadvantages -0.3552
-4.4783 disappear -0.3477
-4.4783 disappearance -0.3552
-3.8762 discard -0.3620
-4.1772 discipline -0.3505
-4.4783 disciplines -0.3650
-4.4783 discover -0.3650
-4.4783 discovered -0.3653
-4.0011 discovery -0.3320
-4.4783 discrete -0.3654
-4.1772 discriminate -0.3557
-4.1772 discussed -0.3470
-4.1772 discusses -0.3390
-4.0011 discussion -0.3654
-4.4783 discussions -0.3632
-4.4783 dishes -0.3477
-4.4783 disk -0.3558
-4.4783 disks -0.3655
-4.4783 dismantling -0.3654
-3.8762 display -0.3555
-3.7001 displayed -0.3305
-4.4783 disputes -0.3505
-4.4783 distance -0.3654
-4.4783 distinguish -0.3654
-4.1772 distortions -0.3541
-3.7793 distribution -0.3197
-4.1772 distributions -0.3654
-4.1772 distros -0.3556
-4.1772 diverse -0.3653
-4.4783 diversity -0.3558
-4.4783 divide -0.3632
-4.4783 dll -0.3645
-3.1165 do -0.3287
-4.4783 doctor -0.3594
-3.8762 document -0.3653
-3.4369 documentation -0.3304
-3.5239 documents -0.3578
-3.3022 does -0.3370
-4.4783 dog -0.3637
-3.7001 doing -0.3371
-3.8762 domain -0.3458
-4.4783 domains -0.3477
-4.4783 domestic -0.3654
-4.4783 don -0.3647
-3.3991 done -0.3567
-3.8762 double -0.3653
-4.4783 doubling -0.3650
-3.5752 down -0.3031
-3.7001 download -0.3086
-4.0011 downloaded -0.3640
-4.0011 downloading -0.3525
-4.4783 downloads -0.3649
-4.4783 drag -0.3654
-4.4783 drastically -0.3654
-4.4783 draw -0.3650
-4.4783 drawback -0.3552
-4.4783 drive -0.3477
-4.1772 driven -0.3632
-4.4783 drivers -0.3477
-4.4783 drives -0.3628
-4.4783 driving -0.3651
-3.5239 due -0.3358
-4.4783 dumping -0.3654
-4.4783 dumps -0.3639
-4.1772 duo -0.3647
-4.1772 duration -0.3552
-2.8655 during -0.3164
-4.1772 duty -0.3630
-4.1772 dynamic -0.3654
-4.4783 dynamite -0.3558
-3.8762 e -0.3473
-2.7539 each -0.3272
-4.4783 eager -0.3541
-4.0011 earlier -0.3593
-4.0011 early -0.3593
-4.4783 earn -0.3391
-4.0011 ease -0.3281
-3.6332 easier -0.3182
-3.7793 easily -0.3466
-4.4783 east -0.3655
-4.1772 eastern -0.3648
-4.1772 easy -0.3539
-4.4783 eat -0.3654
-4.4783 ecocentric -0.3639
-4.1772 economic -0.3654
-4.0011 economical -0.3476
-4.4783 ecosmiles -0.3505
-4.1772 ecosystem -0.3634
-4.1772 edge -0.3635
-4.4783 edges -0.3639
-4.0011 edit -0.3391
-4.1772 edited -0.3433
-4.1772 editing -0.3453
-4.1772 edition -0.3586
-4.4783 editor -0.3639
-4.1772 education -0.3477
-3.8762 effect -0.3552
-3.8762 effective -0.3497
-4.1772 effectively -0.3414
-3.5752 effects -0.3369
-3.7001 efficiency -0.3357
-3.7793 efficient -0.3369
-4.1772 efficiently -0.3635
-4.4783 efforts -0.3594
-3.6332 either -0.3381
-4.4783 elaborated -0.3645
-4.4783 elapsed -0.3653
-4.1772 elements -0.3468
-4.4783 eliminates -0.3391
-4.4783 else -0.3654
-4.4783 em -0.3637
-4.1772 email -0.3541
-3.5752 embedded -0.3611
-4.4783 emergencies -0.3505
-3.7793 emission -0.3550
-4.4783 emitting -0.3558
-4.4783 emphasize -0.3627
-4.4783 emphasized -0.3558
-4.1772 employed -0.3479
-4.1772 employees -0.3320
-4.4783 employers -0.3541
-4.4783 employment -0.3655
-4.4783 empty -0.3645
-4.4783 emulate -0.3572
-4.4783 en -0.3477
-4.0011 enable -0.3652
-4.0011 enabled -0.3647
-4.4783 enables -0.3654
-4.1772 encapsulation -0.3627
-3.5239 encoding -0.3340
-4.4783 encourage -0.3653
-4.4783 encouraged -0.3638
-4.4783 encouragement -0.3649
-4.4783 encouraging -0.3652
-4.4783 encryption -0.3654
-4.4783 encyclopedia -0.3477
-3.0981 end -0.2755
-4.4783 endanger -0.3391
-4.1772 ends -0.3558
-3.7793 energy -0.3189
-4.1772 engagement -0.3653
-4.1772 engine -0.3653
-4.4783 engineer -0.3505
-4.4783 engineering -0.3505
-4.0011 enhance -0.3385
-4.4783 enhanced -0.3639
-4.4783 enhancements -0.3558
-4.4783 enjoy -0.3653
-4.4783 enjoyable -0.3654
-3.7793 enough -0.3535
-3.4783 ensure -0.3341
-4.4783 ensured -0.3477
-4.1772 ensures -0.3390
-4.1772 ensuring -0.3540
-4.4783 enter -0.3572
-4.4783 entered -0.3649
-4.4783 entering -0.3650
-4.4783 enthused -0.3652
-3.7001 entire -0.3612
-4.1772 entirely -0.3414
-4.4783 entitlement -0.3630
-4.1772 envelope -0.3476
-3.2230 environment -0.2981
-3.0469 environmental -0.3499
-4.4783 epistemology -0.3505
-4.4783 epsilon -0.3505
-4.1772 equal -0.3541
-4.4783 equation -0.3639
-4.4783 equidistant -0.3636
-3.7793 equipment -0.3293
-4.4783 equipped -0.3638
-4.4783 equitable -0.3654
-4.4783 equities -0.3650
-4.1772 equivalence -0.3654
-4.4783 er -0.3655
-3.3022 error -0.3455
-3.4369 errors -0.3250
-4.4783 escape -0.3653
-4.4783 escorts -0.3616
-4.1772 especially -0.3648
-3.8762 essential -0.3596
-4.4783 essentially -0.3505
-4.1772 established -0.3632
-4.1772 estimate -0.3453
-4.0011 estimated -0.3387
-3.8762 estimates -0.3359
-4.4783 estimating -0.3640
-4.4783 estimator -0.3594
-4.1772 etc -0.3458
-3.1165 ethical -0.3613
-3.0981 ethics -0.2940
-4.4783 ethnobiology -0.3558
-4.4783 ethnobotanical -0.3652
-4.4783 etymology -0.3552
-3.4783 evaluate -0.3333
-4.0011 evaluated -0.3312
-4.0011 evaluating -0.3387
-3.5752 evaluation -0.3362
-3.0981 even -0.3192
-4.4783 evening -0.3477
-3.7793 event -0.3187
-4.4783 events -0.3627
-4.4783 eventual -0.3654
-4.0011 eventually -0.3653
-4.4783 ever -0.3477
-3.3022 every -0.3583
-4.1772 everyone -0.3604
-4.4783 everything -0.3586
-4.4783 evidence -0.3552
-4.1772 evolution -0.3552
-4.0011 evolved -0.3473
-4.4783 evolving -0.3654
-4.1772 exact -0.3652
-3.7793 exactly -0.3381
-4.4783 examine -0.3647
-4.4783 examining -0.3572
-2.6789 example -0.2969
-4.0011 examples -0.3429
-4.1772 exceed -0.3651
-4.4783 exception -0.3586
-4.4783 exciting -0.3652
-4.4783 exclamation -0.3630
-4.4783 excuse -0.3586
-4.4783 excused -0.3505
-4.1772 executable -0.3552
-3.3321 execute -0.2879
-3.7001 executed -0.3139
-4.4783 executes -0.3653
-3.8762 executing -0.3391
-3.1995 execution -0.2812
-3.8762 executive -0.3653
-4.4783 exercise -0.3654
-4.4783 exhibit -0.3572
-4.4783 exhibitions -0.3645
-3.8762 exist -0.3512
-4.4783 existence -0.3552
-3.3321 existing -0.3595
-4.1772 exit -0.3391
-4.4783 expanded -0.3654
-4.1772 expands -0.3558
-3.7793 expectation -0.3451
-4.1772 expectations -0.3636
-3.4783 expected -0.3501
-4.4783 expenses -0.3477
-4.4783 expensive -0.3653
-3.6332 experience -0.3456
-3.7001 experienced -0.3516
-4.4783 experiences -0.3594
-4.4783 experiment -0.3638
-4.4783 experimentation -0.3558
-4.4783 expert -0.3654
-4.4783 expertise -0.3650
-4.1772 explain -0.3626
-4.0011 explained -0.3645
-4.4783 explains -0.3627
-4.4783 exponential -0.3654
-4.4783 exponentially -0.3477
-4.4783 express -0.3496
-3.8762 expressed -0.3290
-4.0011 expressions -0.3505
-4.4783 extend -0.3647
-4.4783 extendable -0.3640
-4.0011 extended -0.3654
-4.1772 extension -0.3462
-4.4783 extensions -0.3541
-4.1772 extensive -0.3651
-3.7793 external -0.3639
-4.4783 extra -0.3653
-4.1772 extract -0.3385
-3.8762 extraction -0.3029
-3.3321 extractor -0.3247
-4.4783 extremely -0.3655
-4.4783 extremes -0.3653
-4.4783 eyes -0.3477
-4.4783 f -0.3649
-4.1772 face -0.3453
-4.0011 faced -0.3636
-4.1772 facilitator -0.3651
-3.7793 fact -0.3475
-4.1772 factor -0.3588
-4.4783 factories -0.3594
-3.7793 factors -0.3442
-4.4783 failing -0.3541
-4.1772 fails -0.3442
-4.4783 failures -0.3650
-3.7793 fairly -0.3646
-4.4783 faith -0.3594
-4.4783 fallacy -0.3505
-4.4783 falling -0.3655
-4.4783 falloff -0.3552
-4.1772 false -0.3654
-4.4783 familiar -0.3638
-4.4783 families -0.3616
-3.8762 family -0.3266
-4.1772 far -0.3504
-4.1772 farm -0.3542
-4.4783 farms -0.3477
-3.5752 fast -0.3509
-3.8762 faster -0.3121
-4.0011 fastest -0.3644
-4.4783 fate -0.3552
-4.4783 father -0.3647
-4.4783 favorite -0.3655
-4.4783 fear -0.3558
-4.0011 feasible -0.3541
-3.3643 feature -0.3454
-3.1165 features -0.3021
-4.1772 feel -0.3548
-4.4783 feeling -0.3654
-4.4783 feels -0.3541
-4.4783 fees -0.3477
-4.4783 felt -0.3654
-3.7793 few -0.3648
-4.4783 fewer -0.3655
-4.4783 fiber -0.3655
-4.1772 field -0.3490
-4.1772 fields -0.3505
-4.4783 fifty -0.3654
-2.7459 figure -0.2893
-4.4783 figures -0.3654
-2.6458 file -0.2145
-2.6654 files -0.2400
-4.4783 filled -0.3640
-3.8762 filter -0.3504
-4.0011 filtered -0.3472
-4.1772 filters -0.3386
-3.6332 final -0.3647
-3.5752 finally -0.3505
-4.4783 finance -0.3558
-4.4783 financial -0.3653
-3.3643 find -0.3003
-3.7793 finding -0.3284
-4.1772 finds -0.3538
-4.4783 fine -0.3630
-4.4783 finish -0.3650
-4.1772 finished -0.3385
-4.4783 fire -0.3655
-4.4783 fires -0.3505
-4.1772 firewall -0.3542
-4.4783 firewood -0.3616
-4.4783 firm -0.3650
-3.0011 first -0.3020
-4.4783 fisherman -0.3505
-4.0011 fishing -0.3458
-4.4783 fist -0.3477
-4.0011 fit -0.3324
-3.7001 five -0.3419
-4.0011 fix -0.3540
-3.8762 fixed -0.3653
-4.4783 fixing -0.3654
-4.4783 flag -0.3477
-4.4783 fleet -0.3653
-4.0011 flexibility -0.3453
-3.8762 flexible -0.3371
-4.4783 fliers -0.3505
-4.4783 flip -0.3654
-4.4783 flipped -0.3653
-4.4783 flow -0.3653
-3.7793 focus -0.3631
-4.1772 focused -0.3627
-3.8762 focuses -0.3636
-3.2741 folder -0.2871
-4.0011 folders -0.3462
-4.4783 folds -0.3628
-3.7001 follow -0.3296
-4.1772 followed -0.3627
-4.4783 followers -0.3477
-2.9731 following -0.3036
-3.7793 follows -0.3374
-4.4783 food -0.3558
-2.0567 for -0.2479
-4.4783 forecast -0.3640
-4.4783 foreign -0.3651
-4.0011 forest -0.3503
-4.4783 forged -0.3638
-3.7793 form -0.3097
-4.4783 formant -0.3654
-4.4783 formants -0.3616
-3.6332 format -0.3293
-4.1772 forms -0.3625
-4.4783 formula -0.3639
-4.1772 formulas -0.3454
-4.4783 fortune -0.3653
-3.8762 forum -0.3462
-3.3643 forward -0.3461
-4.4783 foster -0.3572
-3.2741 found -0.3246
-4.4783 founded -0.3632
-3.7001 four -0.3485
-4.4783 fourth -0.3558
-4.1772 frame -0.3467
-4.0011 frames -0.3370
-3.8762 framework -0.3401
-3.0981 free -0.2912
-3.7001 freedom -0.2972
-4.1772 freely -0.3635
-4.4783 french -0.3558
-3.6332 frequencies -0.3412
-4.1772 frequency -0.3623
-4.1772 fresh -0.3594
-4.4783 friendly -0.3391
-2.4696 from -0.2657
-3.5239 front -0.3523
-4.4783 frustrating -0.3541
-3.7793 full -0.3394
-3.8762 fully -0.3627
-4.4783 fun -0.3654
-3.1560 function -0.3051
-3.8762 functional -0.3534
-4.4783 functionality -0.3505
-4.4783 functionally -0.3641
-3.4783 functions -0.3023
-3.8762 fundamental -0.3640
-4.4783 fungus -0.3505
-3.7001 further -0.3498
-3.3022 furthermore -0.3471
-3.3991 future -0.3356
-4.4783 g -0.3477
-4.0011 gain -0.3475
-3.7001 gambler -0.3621
-4.0011 gambler's -0.3653
-4.0011 gamblers -0.3592
-4.4783 game -0.3594
-4.4783 games -0.3505
-4.4783 gaps -0.3558
-4.4783 garage -0.3477
-4.4783 gathered -0.3649
-4.4783 gauging -0.3616
-4.4783 geared -0.3653
-4.0011 gender -0.3472
-3.8762 general -0.3477
-4.4783 generalized -0.3645
-4.0011 generally -0.3651
-3.3643 generate -0.3281
-3.3321 generated -0.3594
-3.5752 generates -0.3302
-3.3991 generating -0.3302
-3.7001 generation -0.3278
-3.5239 generator -0.3202
-3.3643 get -0.3266
-3.8762 gets -0.3651
-4.4783 getting -0.3654
-4.4783 giants -0.3505
-4.1772 give -0.3302
-3.1165 given -0.2974
-4.0011 gives -0.3300
-4.4783 giving -0.3651
-4.4783 glib -0.3477
-4.0011 gmail -0.3476
-4.0011 gnu -0.3474
-3.6332 go -0.3309
-3.7793 goal -0.3408
-4.0011 goals -0.3459
-4.4783 gobs -0.3552
-4.1772 goes -0.3652
-3.7793 going -0.3505
-4.4783 golden -0.3654
-3.2230 good -0.3388
-4.4783 gotten -0.3654
-4.4783 gov -0.3648
-4.4783 government -0.3655
-4.0011 grade -0.3608
-4.4783 grades -0.3616
-4.4783 gradient -0.3505
-4.1772 grading -0.3495
-4.4783 gradually -0.3654
-3.8762 gram -0.3639
-4.1772 grammar -0.3376
-4.4783 grammars -0.3558
-4.4783 grammatical -0.3558
-4.4783 grammatically -0.3654
-4.4783 grams -0.3650
-4.1772 granted -0.3320
-4.4783 grants -0.3651
-4.1772 graphical -0.3645
-4.4783 graphics -0.3541
-4.4783 grasses -0.3477
-4.4783 grateful -0.3638
-4.4783 grazing -0.3654
-4.0011 great -0.3654
-4.1772 greater -0.3653
-4.1772 greatest -0.3653
-4.0011 greatly -0.3639
-4.4783 grep -0.3653
-4.4783 grounds -0.3616
-3.5239 group -0.3345
-3.7793 groups -0.3053
-4.1772 grow -0.3608
-4.4783 growing -0.3505
-4.4783 grows -0.3496
-3.7001 growth -0.3389
-4.4783 guarantee -0.3627
-4.4783 guidance -0.3647
-4.1772 guide -0.3654
-4.4783 guidelines -0.3572
-4.4783 guides -0.3505
-4.1772 h -0.3477
-4.4783 habits -0.3655
-4.4783 hackers -0.3653
-3.3643 had -0.2969
-4.4783 hamming -0.3653
-3.3643 hand -0.3279
-4.1772 handing -0.3562
-3.7793 handle -0.3557
-3.8762 handling -0.3206
-4.1772 hands -0.3201
-4.4783 handy -0.3654
-4.1772 happen -0.3645
-4.4783 happening -0.3650
-4.1772 happy -0.3541
-4.4783 hard -0.3655
-4.4783 harder -0.3477
-3.7793 hardware -0.3297
-4.4783 harm -0.3541
-4.1772 harvesting -0.3453
-4.1772 harvests -0.3559
-2.7001 has -0.2873
-4.0011 hash -0.3654
-4.4783 hasn't -0.3652
-4.4783 hassenzahl -0.3651
-2.6721 have -0.2897
-3.3321 having -0.3157
-4.1772 he -0.3640
-4.1772 head -0.3535
-4.4783 headless -0.3650
-4.1772 heads -0.3405
-4.0011 health -0.3654
-4.4783 healthcare -0.3505
-4.4783 heart -0.3505
-4.1772 heavily -0.3654
-3.8762 held -0.3474
-4.4783 hello -0.3505
-3.5239 help -0.3162
-3.7001 helped -0.3266
-4.4783 helpful -0.3541
-3.6332 helps -0.3376
-4.4783 hence -0.3391
-4.0011 her -0.3648
-3.8762 here -0.3551
-4.4783 hertz -0.3558
-4.4783 hesitate -0.3541
-4.4783 hesitation -0.3639
-4.0011 heuristic -0.3650
-3.8762 hi -0.3314
-3.5752 hidden -0.3323
-4.4783 hide -0.3648
-4.4783 hiding -0.3391
-3.4783 high -0.3469
-3.7793 higher -0.3376
-4.1772 highlight -0.3651
-4.4783 highlights -0.3391
-4.4783 hill -0.3630
-3.7001 his -0.3637
-4.4783 historically -0.3641
-4.1772 history -0.3551
-4.0011 hit -0.3389
-4.4783 hitting -0.3654
-3.2478 hmm -0.2671
-4.0011 hobby -0.3500
-4.1772 hold -0.3654
-4.1772 holding -0.3389
-3.8762 home -0.3367
-4.1772 homes -0.3477
-4.1772 hope -0.3618
-4.4783 hopes -0.3627
-4.4783 hospitals -0.3655
-4.1772 hot -0.3653
-3.8762 hours -0.3266
-4.4783 houseboat -0.3586
-3.0011 how -0.2920
-2.9468 however -0.3192
-3.7793 http -0.3639
-4.4783 hub -0.3653
-4.4783 huge -0.3655
-3.4783 human -0.3604
-4.4783 humanistic -0.3505
-4.1772 humans -0.3320
-4.1772 hundreds -0.3536
-4.4783 hypotheses -0.3558
-4.0011 hypothesis -0.3529
-4.4783 hypothesized -0.3633
-2.4960 i -0.2858
-4.4783 iOS -0.3558
-4.4783 iTunes -0.3477
-4.4783 iceberg -0.3505
-4.1772 icer -0.3486
-4.4783 icons -0.3558
-4.1772 id -0.3320
-4.4783 ide -0.3637
-4.4783 idea -0.3654
-3.8762 ideals -0.3368
-4.0011 ideas -0.3328
-3.4369 identified -0.3260
-4.0011 identifiers -0.3628
-3.3321 identify -0.3263
-4.0011 identifying -0.3197
-2.7301 if -0.3151
-4.4783 ignored -0.3647
-3.8762 ii -0.3365
-3.8762 iii -0.3488
-4.4783 illustrate -0.3391
-3.8762 illustrated -0.3623
-3.7793 illustrates -0.3391
-4.1772 image -0.3358
-4.4783 imagination -0.3496
-4.4783 imbalance -0.3594
-4.4783 immediate -0.3654
-4.4783 immediately -0.3477
-4.4783 immense -0.3653
-4.0011 impact -0.3306
-4.4783 impacting -0.3653
-4.4783 impacts -0.3650
-3.8762 implement -0.3471
-3.8762 implementation -0.3325
-3.4783 implemented -0.3220
-4.4783 implementing -0.3654
-4.4783 importance -0.3505
-3.0633 important -0.3422
-4.4783 importantly -0.3505
-4.0011 impossible -0.3499
-3.5752 improve -0.3377
-4.0011 improved -0.3398
-3.8762 improvement -0.3225
-3.6332 improvements -0.3439
-4.1772 improves -0.3647
-4.4783 improving -0.3646
-1.8592 in -0.2020
-4.1772 inc -0.3477
-4.1772 incentives -0.3387
-4.4783 inception -0.3623
-3.3643 include -0.3103
-3.2741 included -0.3442
-3.5752 includes -0.3544
-3.7793 including -0.3388
-3.7001 incoming -0.3632
-4.1772 incomplete -0.3495
-4.4783 inconsistently -0.3654
-4.4783 incorporated -0.3649
-3.5752 incorrect -0.3451
-4.4783 incorrectly -0.3639
-3.7001 increase -0.3023
-4.0011 increased -0.3442
-3.6332 increases -0.3225
-3.7793 increasing -0.3388
-4.4783 incremental -0.3653
-4.4783 indeed -0.3654
-4.4783 independence -0.3505
-3.7001 independent -0.3426
-4.4783 index -0.3477
-4.1772 indicate -0.3467
-4.1772 indicating -0.3627
-4.4783 indigenous -0.3655
-3.4369 individual -0.3640
-4.1772 individually -0.3620
-4.1772 individuals -0.3387
-4.4783 induction -0.3653
-4.4783 industrial -0.3655
-4.1772 industries -0.3477
-4.4783 inescapable -0.3477
-4.4783 inexpensive -0.3655
-4.1772 infinite -0.3654
-4.1772 influenced -0.3615
-4.1772 info -0.3654
-3.1358 information -0.3252
-3.7793 infrastructure -0.3637
-4.1772 ingredients -0.3461
-4.1772 initial -0.3652
-4.1772 initially -0.3505
-4.4783 initiatives -0.3505
-4.4783 injection -0.3505
-4.4783 innovation -0.3505
-3.0469 input -0.2954
-3.3991 inputs -0.2848
-4.4783 insane -0.3654
-3.8762 insert -0.3613
-4.4783 inserted -0.3505
-4.4783 insertions -0.3655
-4.4783 inserts -0.3391
-3.8762 inside -0.3271
-4.1772 inspections -0.3405
-3.7001 install -0.3277
-3.7793 installation -0.3246
-4.4783 installations -0.3558
-3.6332 installed -0.3348
-4.1772 installing -0.3391
-4.0011 instance -0.3397
-4.4783 instances -0.3637
-3.7793 instead -0.3388
-4.1772 institute -0.3526
-3.4783 instructions -0.3253
-4.4783 instructor -0.3558
-4.4783 instrument -0.3654
-4.4783 integrate -0.3651
-4.1772 integrated -0.3631
-4.1772 integration -0.3623
-4.1772 integrity -0.3358
-4.4783 intelligible -0.3633
-3.8762 intended -0.3378
-4.4783 intensity -0.3594
-4.4783 intensively -0.3654
-4.4783 intention -0.3552
-4.4783 intentionally -0.3655
-4.4783 intentions -0.3541
-4.1772 interact -0.3638
-4.4783 interacting -0.3638
-4.1772 interaction -0.3653
-3.4369 interactive -0.3340
-3.8762 interest -0.3182
-4.4783 interesting -0.3496
-4.1772 interests -0.3477
-3.3991 interface -0.3248
-3.7001 interfaces -0.3462
-4.4783 interference -0.3653
-4.4783 intermediate -0.3655
-4.4783 internal -0.3654
-4.4783 internally -0.3594
-4.1772 international -0.3641
-3.7793 internet -0.3319
-4.4783 interoperability -0.3638
-4.4783 interpret -0.3654
-4.4783 intervene -0.3616
-4.4783 intervention -0.3632
-2.8448 into -0.3225
-4.4783 intranet -0.3477
-4.1772 introduce -0.3642
-3.6332 introduced -0.3460
-4.4783 introduces -0.3655
-4.4783 introducing -0.3654
-3.8762 introduction -0.3372
-4.4783 introductory -0.3654
-4.0011 intuition -0.3558
-4.1772 invariant -0.3524
-4.4783 investment -0.3655
-4.4783 invited -0.3541
-4.1772 involved -0.3580
-4.0011 involves -0.3375
-4.4783 involving -0.3654
-1.8034 is -0.1910
-4.4783 isolated -0.3655
-4.1772 issue -0.3468
-3.1358 issues -0.3070
-2.1242 it -0.2366
-4.4783 it's -0.3654
-4.4783 itchy -0.3655
-4.4783 items -0.3541
-4.4783 iterative -0.3655
-2.9342 its -0.3584
-4.1772 itself -0.3461
-4.0011 j -0.3467
-3.3321 jar -0.3635
-3.3643 java -0.3398
-4.1772 jersey -0.3653
-4.4783 jimmy -0.3653
-4.1772 job -0.3654
-3.8762 jobs -0.3586
-4.4783 john -0.3655
-4.4783 joke -0.3636
-4.1772 journey -0.3648
-4.4783 junction -0.3653
-3.3643 just -0.3132
-3.4783 justice -0.2832
-4.4783 justifies -0.3391
-4.4783 justify -0.3648
-3.8762 k -0.3458
-4.4783 kb -0.3477
-3.8762 keep -0.3382
-4.4783 keeps -0.3655
-4.4783 kept -0.3651
-3.7793 key -0.3433
-3.7001 keyboard -0.2940
-4.4783 keyboards -0.3505
-2.8155 keyword -0.3083
-2.9731 keywords -0.2832
-4.1772 kind -0.3552
-4.4783 king -0.3637
-4.4783 knew -0.3622
-3.4783 know -0.3412
-4.4783 knowing -0.3391
-4.1772 knowledge -0.3549
-3.4369 known -0.3594
-4.4783 knows -0.3640
-4.4783 l -0.3477
-4.4783 labor -0.3654
-4.1772 lack -0.3281
-4.0011 land -0.3418
-2.6394 language -0.2739
-3.4783 languages -0.3198
-3.1358 large -0.3400
-4.4783 larger -0.3655
-4.4783 largest -0.3653
-3.4783 last -0.3637
-4.1772 lastly -0.3505
-3.7001 late -0.3629
-3.6332 later -0.3647
-3.8762 latest -0.3578
-4.4783 latter -0.3653
-4.4783 launching -0.3558
-4.1772 law -0.3477
-4.4783 laws -0.3477
-4.1772 layer -0.3552
-4.4783 lead -0.3541
-4.4783 leaders -0.3558
-4.1772 leaks -0.3558
-3.8762 learn -0.3643
-3.7793 learned -0.3438
-4.4783 learner -0.3496
-3.2478 learning -0.3186
-4.0011 least -0.3645
-4.1772 leaving -0.3647
-4.4783 led -0.3541
-4.4783 left -0.3654
-4.4783 legal -0.3477
-4.1772 legally -0.3473
-4.4783 legislation -0.3594
-3.8762 length -0.3199
-4.1772 lengths -0.3505
-3.7001 less -0.3553
-4.4783 lessons -0.3654
-3.7793 let -0.3637
-4.0011 let's -0.3650
-3.6332 level -0.3466
-4.0011 levels -0.3525
-3.3643 library -0.3233
-4.4783 license -0.3477
-4.4783 licenses -0.3655
-4.4783 licensing -0.3655
-3.7793 life -0.3615
-4.4783 lifetime -0.3477
-4.4783 light -0.3630
-4.4783 lighter -0.3558
-3.2230 like -0.3406
-3.7793 likelihood -0.3452
-3.6332 likely -0.3462
-4.4783 limit -0.3653
-4.4783 limitation -0.3654
-3.5239 limited -0.3128
-4.1772 limiting -0.3653
-4.1772 limits -0.3552
-3.3991 line -0.2954
-4.4783 linear -0.3650
-4.0011 lines -0.3371
-4.1772 linguist -0.3444
-4.4783 linguistic -0.3649
-4.4783 linguists -0.3594
-4.4783 linked -0.3541
-2.8762 list -0.2962
-4.1772 listed -0.3635
-4.0011 listen -0.3439
-3.4783 listening -0.3220
-4.4783 listing -0.3391
-4.0011 literal -0.3648
-4.1772 little -0.3631
-3.8762 live -0.3624
-4.4783 lives -0.3477
-4.1772 living -0.3320
-3.8762 load -0.3473
-4.1772 loaded -0.3649
-4.4783 loads -0.3639
-3.8762 local -0.3654
-4.4783 locally -0.3505
-3.8762 located -0.3579
-3.8762 location -0.3336
-3.7793 locations -0.3277
-4.4783 locators -0.3653
-4.0011 locked -0.3653
-3.7001 log -0.3469
-4.4783 logarithmic -0.3655
-4.4783 logged -0.3594
-4.4783 loggers -0.3477
-3.7001 logging -0.3221
-4.1772 logic -0.3556
-4.0011 login -0.3651
-4.4783 logistical -0.3654
-4.4783 logs -0.3636
-3.8762 long -0.3617
-4.1772 longer -0.3650
-3.4783 look -0.3394
-3.8762 looking -0.3368
-4.0011 looks -0.3622
-3.6332 loop -0.3574
-3.8762 loops -0.3490
-4.4783 lose -0.3650
-4.4783 loses -0.3622
-4.4783 losing -0.3654
-3.7793 loss -0.3251
-3.7001 losses -0.3314
-4.1772 love -0.3470
-3.7793 low -0.3461
-3.5239 lower -0.3400
-4.4783 lowering -0.3654
-4.4783 lure -0.3496
-3.7001 m -0.3311
-4.4783 mac -0.3652
-3.7001 machine -0.3565
-4.0011 machines -0.3650
-4.1772 mad -0.3320
-3.4369 made -0.3096
-4.4783 magnification -0.3505
-4.4783 mail -0.3639
-2.9220 main -0.3588
-3.5752 mainframe -0.3341
-3.4369 mainframes -0.3184
-4.4783 mainly -0.3654
-4.1772 maintain -0.3391
-4.4783 maintained -0.3594
-4.1772 maintaining -0.3638
-3.7001 major -0.3649
-4.1772 majority -0.3477
-3.0159 make -0.3174
-4.4783 maker -0.3655
-4.0011 makes -0.3568
-3.6332 making -0.3259
-4.4783 manage -0.3541
-3.7001 managed -0.3455
-3.4783 management -0.3118
-4.0011 manager -0.3622
-4.4783 manages -0.3391
-3.4369 managing -0.3648
-4.4783 mandarin -0.3477
-4.4783 manipulate -0.3391
-4.4783 manipulating -0.3391
-4.1772 manner -0.3552
-4.4783 manners -0.3505
-3.8762 manually -0.3476
-4.1772 manuals -0.3477
-4.1772 manufacturer -0.3638
-4.1772 manufacturers -0.3433
-4.4783 manufactures -0.3652
-4.4783 manufacturing -0.3586
-3.1358 many -0.3553
-4.4783 mapped -0.3655
-4.1772 mapping -0.3388
-4.4783 maps -0.3637
-4.4783 marginal -0.3654
-4.4783 mark -0.3642
-4.4783 market -0.3655
-4.4783 marketing -0.3505
-4.4783 marks -0.3651
-4.4783 markup -0.3642
-3.4783 martingale -0.3233
-4.4783 mass -0.3654
-3.8762 master -0.3637
-4.1772 match -0.3653
-4.1772 matches -0.3623
-4.4783 material -0.3586
-4.4783 materials -0.3477
-4.4783 mathematical -0.3654
-3.7793 matrix -0.3468
-4.1772 matter -0.3270
-4.4783 mature -0.3558
-3.8762 maximization -0.3650
-4.1772 maximize -0.3391
-4.4783 maximizes -0.3391
-4.0011 maximum -0.3648
-3.1995 may -0.3586
-3.0803 me -0.2488
-4.0011 mean -0.3646
-4.1772 meaning -0.3523
-4.4783 meaningful -0.3654
-3.4783 means -0.3329
-4.1772 measure -0.3391
-4.4783 measured -0.3654
-3.7793 measurement -0.3357
-3.5239 measures -0.3429
-4.0011 measuring -0.3381
-3.8762 mechanical -0.3495
-4.4783 mechanics -0.3586
-4.4783 media -0.3652
-4.1772 medical -0.3653
-4.4783 medication -0.3653
-4.4783 medium -0.3541
-4.1772 meet -0.3201
-4.1772 meeting -0.3638
-4.4783 melding -0.3654
-4.1772 melon -0.3653
-4.4783 member -0.3552
-3.5752 members -0.3402
-3.2478 memory -0.3220
-4.4783 men -0.3558
-4.0011 mention -0.3627
-4.4783 mentioned -0.3654
-4.1772 menu -0.3370
-4.4783 mere -0.3655
-4.1772 merely -0.3373
-3.3321 message -0.3060
-3.4369 messages -0.3231
-3.2741 method -0.2875
-3.7001 methods -0.3370
-4.1772 metric -0.3639
-3.8762 metrics -0.3450
-4.1772 mfcc -0.3654
-4.4783 micro -0.3648
-3.8762 microphone -0.3558
-4.4783 microwaved -0.3655
-4.4783 middle -0.3654
-3.3022 might -0.3584
-4.4783 migrate -0.3649
-4.4783 miles -0.3654
-4.0011 milestones -0.3453
-4.1772 milliseconds -0.3477
-4.4783 mimic -0.3572
-4.1772 mind -0.3376
-4.4783 minded -0.3653
-4.0011 minimize -0.3391
-4.1772 minimum -0.3552
-4.4783 minute -0.3647
-4.1772 minutes -0.3376
-4.4783 missed -0.3477
-4.0011 missing -0.3630
-4.0011 mission -0.3393
-4.4783 mistakes -0.3655
-4.4783 misunderstood -0.3648
-4.1772 mo -0.3654
-4.1772 mobile -0.3651
-3.2478 mode -0.2763
-2.6270 model -0.2065
-4.4783 modeled -0.3654
-3.7793 modeling -0.3293
-2.8985 models -0.2643
-3.8762 modern -0.3635
-3.5752 modes -0.3168
-4.4783 modification -0.3505
-4.1772 modified -0.3525
-4.4783 modify -0.3391
-4.4783 modular -0.3654
-4.4783 module -0.3616
-4.4783 modules -0.3477
-4.4783 mom -0.3505
-4.4783 moment -0.3627
-3.5752 money -0.3190
-4.4783 monitor -0.3505
-4.4783 monitored -0.3594
-4.4783 monitoring -0.3654
-4.4783 monitors -0.3594
-4.4783 month -0.3552
-4.4783 months -0.3541
-4.4783 mood -0.3477
-4.4783 moose -0.3558
-4.4783 moral -0.3654
-4.4783 morals -0.3558
-2.6458 more -0.3210
-3.7001 moreover -0.3505
-4.1772 morning -0.3477
-2.7379 most -0.3137
-4.1772 mostly -0.3551
-3.7793 mouse -0.3475
-3.8762 move -0.3551
-4.4783 movement -0.3655
-4.4783 moving -0.3558
-3.8762 mp -0.3650
-3.3321 much -0.3162
-4.0011 multi -0.3629
-4.4783 multilingual -0.3650
-4.4783 multimedia -0.3558
-4.4783 multiplatform -0.3639
-3.5239 multiple -0.3632
-4.4783 multiprocessing -0.3639
-4.1772 multitasking -0.3639
-4.1772 multithreading -0.3639
-4.4783 multiuser -0.3639
-3.8762 museum -0.3266
-3.8762 music -0.3485
-4.4783 musical -0.3655
-4.4783 musician -0.3505
-3.2478 must -0.3451
-4.4783 mvs -0.3637
-2.8448 my -0.3458
-4.1772 myself -0.3459
-2.8762 n -0.2882
-3.1358 name -0.3169
-4.1772 named -0.3624
-3.7793 names -0.3617
-4.4783 naming -0.3655
-3.7793 native -0.3531
-4.4783 natives -0.3653
-4.1772 natural -0.3541
-4.1772 nature -0.3398
-4.1772 navigate -0.3556
-4.1772 navigation -0.3644
-4.4783 ncr -0.3477
-3.8762 near -0.3484
-4.4783 nearby -0.3653
-3.5239 necessary -0.3437
-3.0159 need -0.3221
-3.3022 needed -0.3032
-2.9869 needs -0.3022
-4.4783 negative -0.3505
-4.1772 nerwork -0.3645
-3.5752 net -0.3640
-3.3022 network -0.3360
-3.3643 networking -0.3540
-3.8762 networks -0.3347
-4.0011 neural -0.3652
-4.0011 never -0.3654
-3.7001 nevertheless -0.3505
-2.7970 new -0.3191
-4.0011 newer -0.3637
-4.1772 newly -0.3652
-4.1772 news -0.3398
-3.5752 next -0.3473
-4.0011 nice -0.3653
-4.4783 nightmare -0.3650
-3.1560 no -0.3450
-4.4783 nobody -0.3655
-4.4783 nodes -0.3628
-3.8762 noise -0.3611
-4.4783 noisy -0.3639
-3.6332 non -0.3630
-4.0011 none -0.3552
-3.6332 nonetheless -0.3505
-4.4783 normalized -0.3558
-4.4783 norms -0.3558
-2.5752 not -0.2869
-4.1772 notably -0.3387
-4.4783 notation -0.3594
-3.7793 note -0.3290
-4.4783 notes -0.3541
-4.4783 notice -0.3627
-4.4783 nourishment -0.3654
-4.4783 novel -0.3653
-4.4783 novell -0.3655
-4.4783 novice -0.3647
-3.5239 now -0.3313
-3.1165 number -0.3206
-4.4783 numbering -0.3651
-3.8762 numbers -0.3511
-4.4783 numeric -0.3639
-4.4783 numerically -0.3654
-4.4783 numerous -0.3652
-3.7793 o -0.3432
-4.4783 obeying -0.3654
-3.4369 object -0.3556
-4.4783 objective -0.3552
-3.5239 objects -0.3522
-4.4783 obligated -0.3541
-4.4783 observable -0.3654
-3.3321 observation -0.3584
-3.7001 observations -0.3154
-4.1772 observed -0.3651
-3.7793 obtain -0.3373
-3.7793 obtained -0.3637
-4.4783 obtaining -0.3638
-4.1772 occupation -0.3370
-4.4783 occur -0.3645
-4.1772 occurrence -0.3437
-4.1772 occurring -0.3650
-4.4783 occurs -0.3648
-4.4783 odd -0.3655
-1.6307 of -0.2058
-3.5752 off -0.3292
-4.1772 offered -0.3533
-3.6332 office -0.3116
-4.4783 offices -0.3558
-4.4783 official -0.3651
-3.3321 often -0.3474
-3.7001 ogg -0.3461
-4.4783 oh -0.3654
-3.7793 old -0.3496
-4.4783 older -0.3646
-4.4783 ols -0.3654
-2.3745 on -0.2492
-3.3321 once -0.2999
-2.6789 one -0.2519
-3.6332 ones -0.3170
-4.0011 online -0.3652
-2.8251 only -0.2834
-4.4783 onto -0.3391
-4.4783 ontology -0.3552
-4.4783 opacity -0.3505
-3.3643 open -0.2962
-4.1772 operate -0.3477
-4.4783 operates -0.3594
-3.0011 operating -0.3621
-3.0011 operation -0.3112
-4.1772 operations -0.3505
-4.4783 operator -0.3639
-4.4783 operators -0.3594
-4.4783 opinion -0.3477
-4.4783 opportunities -0.3477
-4.0011 opportunity -0.3433
-4.1772 opposed -0.3541
-4.4783 opposite -0.3654
-4.4783 opt -0.3541
-4.4783 optic -0.3654
-4.1772 optimality -0.3496
-4.1772 optimization -0.3651
-4.1772 optimize -0.3391
-4.4783 optimized -0.3653
-4.4783 option -0.3552
-3.8762 options -0.3443
-2.4530 or -0.2559
-2.6031 order -0.3265
-4.1772 org -0.3648
-4.4783 organization -0.3477
-4.4783 organizational -0.3655
-3.7793 organizations -0.3275
-4.4783 organize -0.3648
-3.8762 organized -0.3364
-3.8762 organizer -0.3451
-4.1772 organizing -0.3550
-4.0011 orientation -0.3303
-4.1772 oriented -0.3652
-4.0011 origin -0.3551
-3.8762 original -0.3630
-4.4783 originality -0.3654
-4.4783 originated -0.3640
-2.7623 other -0.3188
-3.5239 others -0.3374
-3.8762 otherwise -0.3503
-3.3022 our -0.3605
-3.3022 out -0.2993
-4.4783 outage -0.3505
-4.4783 outbound -0.3653
-4.1772 outcome -0.3648
-4.4783 outdated -0.3558
-4.1772 outline -0.3356
-4.4783 outlined -0.3594
-4.4783 outlining -0.3391
-3.2478 output -0.3250
-3.7793 outputs -0.3328
-4.4783 outrageous -0.3654
-3.7793 outside -0.3214
-4.4783 outsiders -0.3477
-3.7001 over -0.3536
-3.3991 overall -0.3484
-4.0011 overcome -0.3593
-4.4783 overcoming -0.3649
-4.4783 overflow -0.3505
-4.4783 overflows -0.3477
-4.1772 overhead -0.3505
-4.4783 overlapped -0.3594
-4.4783 overlooked -0.3650
-4.4783 overseas -0.3654
-4.1772 overview -0.3533
-4.4783 owing -0.3651
-4.4783 owls -0.3637
-3.3643 own -0.3622
-4.4783 owner -0.3641
-2.9101 p -0.3173
-4.1772 package -0.3468
-4.1772 packaged -0.3651
-3.7001 page -0.3107
-3.4783 pages -0.3187
-4.4783 paging -0.3505
-4.4783 pair -0.3552
-4.0011 paper -0.3558
-4.4783 paragraph -0.3477
-4.4783 parallel -0.3654
-4.4783 paralysis -0.3505
-3.7001 parameter -0.3405
-3.4783 parameters -0.3026
-4.4783 paramount -0.3654
-4.1772 parasitic -0.3654
-4.4783 pared -0.3654
-4.0011 parents -0.3466
-4.4783 parity -0.3654
-4.4783 parsing -0.3496
-3.3643 part -0.3552
-3.8762 partial -0.3651
-4.4783 participants -0.3637
-4.4783 participate -0.3638
-4.4783 participating -0.3594
-3.8762 participation -0.3530
-4.1772 particular -0.3651
-4.0011 particularly -0.3650
-4.4783 partitioned -0.3649
-4.4783 partitioning -0.3391
-3.6332 parts -0.3224
-3.8762 party -0.3637
-4.4783 pass -0.3654
-4.4783 passed -0.3653
-4.4783 passes -0.3649
-4.4783 passing -0.3653
-4.4783 password -0.3477
-4.1772 past -0.3653
-4.4783 paste -0.3594
-4.4783 pastime -0.3645
-4.4783 patented -0.3654
-3.1358 path -0.3267
-3.7001 paths -0.3071
-4.0011 patterns -0.3318
-4.0011 pause -0.3556
-4.4783 paused -0.3654
-4.4783 pauses -0.3653
-4.1772 pay -0.3612
-4.0011 paying -0.3654
-4.4783 peer -0.3654
-4.4783 peers -0.3477
-3.8762 pencil -0.3299
-4.1772 pencils -0.3396
-4.4783 pent -0.3630
-3.4369 people -0.3138
-3.6332 per -0.3616
-4.4783 perceive -0.3627
-4.4783 perceived -0.3654
-4.4783 percent -0.3586
-4.4783 percentage -0.3496
-4.4783 perception -0.3586
-4.4783 perceptions -0.3655
-4.4783 perfect -0.3648
-3.7001 perform -0.3202
-2.9220 performance -0.2705
-3.7793 performed -0.3386
-4.0011 performing -0.3632
-4.1772 performs -0.3390
-4.4783 perhaps -0.3651
-4.1772 period -0.3539
-4.4783 peripheral -0.3654
-4.4783 permissions -0.3552
-4.4783 perpetrator -0.3641
-4.4783 persistence -0.3552
-3.3991 person -0.3543
-3.4369 personal -0.3578
-4.4783 personality -0.3477
-4.4783 personalization -0.3477
-4.4783 personally -0.3655
-4.1772 persons -0.3358
-4.4783 perspective -0.3477
-3.6332 phase -0.3448
-4.0011 phases -0.3513
-4.4783 philosophies -0.3633
-4.4783 phl -0.3648
-4.0011 phoenix -0.3474
-3.4369 phone -0.3349
-3.6332 phoneme -0.3517
-3.4369 phonemes -0.2994
-4.0011 phones -0.3349
-3.4783 phonetic -0.3642
-4.1772 phonetical -0.3645
-4.4783 photo -0.3655
-4.4783 photographer -0.3505
-4.4783 photography -0.3586
-4.1772 phrase -0.3454
-4.4783 phrases -0.3477
-3.7793 physical -0.3637
-4.4783 physiological -0.3541
-4.1772 pick -0.3650
-4.4783 picture -0.3505
-4.4783 piece -0.3552
-4.4783 pile -0.3552
-4.4783 piling -0.3650
-4.4783 ping -0.3655
-4.4783 pipe -0.3594
-4.4783 pipelines -0.3505
-4.1772 pis -0.3639
-3.6332 place -0.3263
-3.7001 placed -0.3574
-4.4783 places -0.3505
-4.1772 placing -0.3622
-4.1772 plain -0.3654
-4.0011 plan -0.3462
-4.0011 planning -0.3387
-4.1772 plans -0.3558
-3.7793 plant -0.3398
-4.4783 plants -0.3653
-4.1772 plastic -0.3654
-4.1772 platform -0.3652
-4.0011 platforms -0.3320
-3.4369 play -0.3188
-3.5239 played -0.2971
-4.4783 player -0.3477
-3.7001 playing -0.3036
-4.4783 plays -0.3638
-3.3643 please -0.3500
-4.4783 plug -0.3630
-4.4783 plus -0.3654
-4.4783 pneumonia -0.3505
-4.1772 poaching -0.3405
-3.8762 point -0.3521
-4.4783 pointer -0.3541
-4.4783 pointers -0.3505
-4.4783 points -0.3650
-4.4783 poisoning -0.3505
-4.4783 polices -0.3655
-4.4783 policies -0.3649
-4.4783 policy -0.3654
-4.1772 polymorphism -0.3629
-4.4783 pool -0.3639
-4.4783 pooling -0.3653
-4.0011 poor -0.3553
-3.7001 popular -0.3415
-3.8762 port -0.3474
-4.0011 portable -0.3503
-4.4783 ported -0.3558
-4.4783 portions -0.3552
-4.4783 ports -0.3636
-3.6332 position -0.3118
-4.4783 positioning -0.3648
-4.4783 possessed -0.3654
-4.4783 possibilities -0.3552
-4.1772 possibility -0.3481
-3.1358 possible -0.3088
-4.4783 post -0.3572
-4.4783 posted -0.3632
-4.4783 posterior -0.3654
-4.4783 posts -0.3594
-3.6332 potential -0.3529
-4.1772 pots -0.3654
-3.3321 power -0.3364
-3.7793 powerful -0.3368
-4.1772 practical -0.3502
-3.7001 practice -0.3314
-4.0011 practices -0.3504
-4.4783 pre -0.3630
-4.4783 pre-emphasis -0.3654
-4.0011 pre-emphasized -0.3504
-4.0011 preceded -0.3632
-4.0011 preceding -0.3558
-4.4783 preconventional -0.3653
-4.4783 predecessor -0.3477
-3.7001 predefined -0.3649
-4.4783 predetermined -0.3650
-4.1772 predict -0.3368
-4.4783 predicted -0.3653
-4.0011 preferences -0.3373
-4.4783 preferred -0.3541
-4.4783 preliminary -0.3653
-4.4783 premier -0.3552
-4.4783 prepackaged -0.3651
-4.4783 prepare -0.3616
-4.4783 prerelease -0.3654
-4.4783 prescriptions -0.3649
-3.8762 present -0.3534
-4.4783 presentation -0.3641
-3.7001 presented -0.3445
-3.7001 presents -0.3214
-4.4783 president -0.3552
-4.4783 press -0.3655
-4.0011 pressing -0.3558
-4.4783 pressure -0.3505
-3.6332 pretty -0.3639
-4.4783 prevent -0.3651
-4.4783 prevents -0.3647
-3.4369 previous -0.3619
-3.8762 previously -0.3498
-4.1772 primary -0.3639
-3.4783 principles -0.3147
-4.4783 print -0.3653
-4.4783 printer -0.3477
-4.1772 printing -0.3651
-4.0011 prior -0.3265
-4.4783 priorities -0.3628
-4.1772 privacy -0.3570
-4.4783 privately -0.3654
-4.4783 probabilistic -0.3654
-3.3321 probabilities -0.3017
-2.9731 probability -0.2994
-3.8762 probable -0.3646
-4.4783 probably -0.3391
-3.2230 problem -0.3025
-3.5752 problems -0.3238
-4.4783 procedural -0.3653
-3.5752 procedure -0.2919
-4.4783 procedures -0.3646
-4.0011 proceeded -0.3539
-3.0011 process -0.2844
-4.1772 processed -0.3505
-4.0011 processes -0.3297
-3.1165 processing -0.2484
-4.4783 processor -0.3654
-3.7793 processors -0.3286
-4.0011 produce -0.3570
-3.8762 produced -0.3176
-4.1772 producing -0.3571
-3.7793 product -0.3199
-4.1772 production -0.3652
-3.7001 productivity -0.3362
-4.0011 products -0.3460
-4.1772 professional -0.3653
-4.4783 professionals -0.3541
-4.4783 proficient -0.3645
-4.1772 profile -0.3612
-4.4783 profiling -0.3622
-4.1772 profit -0.3558
-4.4783 profitable -0.3505
-2.8872 program -0.2912
-4.1772 programmed -0.3507
-3.7793 programmer -0.3473
-4.0011 programmers -0.3625
-3.6332 programming -0.3476
-3.3991 programs -0.3139
-4.1772 progresses -0.3505
-2.7623 project -0.2387
-3.5239 projects -0.3419
-4.4783 proliferate -0.3655
-4.4783 proliferation -0.3552
-4.4783 promote -0.3654
-4.1772 promoting -0.3651
-4.4783 promotions -0.3505
-4.1772 pronounced -0.3622
-3.7793 pronunciation -0.3068
-4.4783 pronunciations -0.3640
-4.4783 proof -0.3552
-4.4783 propagation -0.3650
-3.6332 proper -0.3628
-3.5239 properly -0.3646
-4.1772 properties -0.3398
-4.4783 property -0.3653
-4.4783 proposals -0.3558
-3.4783 proprietary -0.2950
-4.4783 prospective -0.3654
-4.1772 protect -0.3390
-4.4783 protected -0.3652
-3.7793 protection -0.3457
-4.4783 protects -0.3622
-4.0011 protocol -0.3405
-4.0011 protocols -0.3586
-4.4783 prove -0.3572
-4.4783 proved -0.3541
-3.3991 provide -0.3101
-3.6332 provided -0.2970
-3.3991 provides -0.3274
-3.6332 providing -0.3567
-4.4783 pruning -0.3558
-4.4783 public -0.3653
-4.4783 publications -0.3541
-3.7793 publicly -0.3650
-3.8762 published -0.3629
-4.4783 pulls -0.3650
-4.4783 pulp -0.3558
-4.4783 punctuation -0.3654
-4.0011 punishment -0.3544
-4.4783 purchase -0.3391
-4.1772 purchased -0.3629
-4.4783 pure -0.3655
-4.1772 purely -0.3654
-4.4783 purports -0.3541
-3.7001 purpose -0.3368
-4.1772 purposes -0.3340
-4.4783 push -0.3477
-3.7001 put -0.3617
-4.4783 python -0.3654
-4.0011 q -0.3644
-4.4783 qt -0.3627
-4.0011 quality -0.3400
-4.4783 quantification -0.3552
-4.1772 quantify -0.3385
-4.1772 quantities -0.3552
-4.4783 queries -0.3636
-3.7001 question -0.3447
-4.4783 questions -0.3505
-4.0011 quickly -0.3358
-4.4783 quiet -0.3477
-3.7793 quit -0.3389
-4.4783 quite -0.3655
-4.4783 quoted -0.3505
-4.0011 r -0.3477
-4.4783 races -0.3558
-4.4783 racism -0.3477
-3.7793 radio -0.3476
-4.4783 raid -0.3637
-4.4783 railroads -0.3505
-4.4783 rain-forested -0.3655
-4.0011 rainforest -0.3551
-4.4783 rainforests -0.3653
-4.1772 raise -0.3551
-4.4783 ram -0.3637
-4.4783 ran -0.3655
-4.4783 ranch -0.3654
-4.0011 random -0.3649
-4.4783 randomly -0.3654
-4.0011 range -0.3552
-4.4783 ranges -0.3477
-4.4783 rapid -0.3505
-4.4783 rapidly -0.3654
-4.4783 rash -0.3496
-3.3321 rate -0.2755
-4.1772 rates -0.3630
-3.6332 rather -0.3500
-4.4783 raven -0.3505
-4.4783 raw -0.3649
-3.8762 re -0.3630
-4.0011 re-encoding -0.3391
-3.8762 reached -0.3494
-4.4783 reaching -0.3653
-4.4783 react -0.3496
-4.4783 reaction -0.3541
-4.4783 reacts -0.3650
-3.7001 read -0.3384
-4.1772 reading -0.3643
-4.1772 reads -0.3540
-3.7001 ready -0.2976
-3.6332 real -0.3613
-4.0011 realistic -0.3649
-4.4783 really -0.3654
-3.3321 reason -0.3399
-4.1772 reasoning -0.3320
-3.8762 reasons -0.3432
-4.4783 recapitulates -0.3391
-4.1772 receive -0.3572
-3.7793 received -0.3425
-4.0011 receives -0.3571
-4.4783 recently -0.3505
-4.4783 recipe -0.3616
-4.4783 reciprocity -0.3654
-2.6789 recognition -0.2825
-4.1772 recognize -0.3648
-4.4783 recognized -0.3653
-3.2230 recognizer -0.3222
-3.8762 recognizers -0.3504
-3.7001 recognizing -0.3440
-4.0011 recommend -0.3653
-3.5752 recommended -0.3356
-4.4783 recommends -0.3655
-4.0011 record -0.3534
-4.0011 recording -0.3637
-4.1772 recordings -0.3547
-4.1772 records -0.3640
-4.1772 recover -0.3649
-4.4783 recovering -0.3654
-4.4783 recruit -0.3653
-4.4783 recurrence -0.3654
-4.4783 recursively -0.3654
-4.1772 red -0.3621
-4.4783 redesign -0.3391
-4.0011 reduce -0.3390
-4.1772 reduced -0.3638
-4.0011 reducing -0.3650
-4.4783 reduction -0.3646
-4.1772 refactoring -0.3549
-3.8762 refer -0.3541
-4.4783 referenced -0.3477
-3.7793 references -0.3629
-4.4783 referred -0.3541
-4.4783 refers -0.3541
-4.4783 refine -0.3505
-4.4783 reflexes -0.3505
-4.4783 refuses -0.3541
-4.0011 regard -0.3387
-3.7793 regarding -0.3371
-4.4783 regardless -0.3552
-4.4783 regional -0.3655
-4.1772 register -0.3558
-4.0011 registration -0.3473
-4.1772 regular -0.3654
-4.4783 regularly -0.3654
-4.4783 regulation -0.3552
-4.4783 rehouse -0.3505
-3.5239 related -0.3536
-4.1772 relationship -0.3654
-4.4783 relative -0.3541
-4.4783 relativistic -0.3505
-4.4783 relaxed -0.3632
-3.8762 release -0.3375
-4.4783 releases -0.3505
-4.4783 relevant -0.3541
-3.8762 reliability -0.3540
-4.4783 reliable -0.3647
-4.4783 reliably -0.3541
-4.4783 religion -0.3505
-4.4783 rely -0.3636
-4.1772 remain -0.3654
-4.4783 remained -0.3391
-4.1772 remaining -0.3643
-4.4783 remains -0.3654
-4.4783 remarkable -0.3505
-4.4783 remedies -0.3623
-4.1772 remote -0.3653
-4.4783 remotely -0.3477
-4.4783 remove -0.3654
-4.4783 removes -0.3654
-4.4783 renaming -0.3572
-4.4783 rent -0.3616
-4.4783 repeated -0.3654
-4.4783 repeatedly -0.3654
-4.4783 repeating -0.3391
-4.4783 repetitions -0.3639
-4.1772 replaced -0.3632
-4.4783 replacement -0.3477
-4.4783 replaces -0.3391
-4.4783 replicating -0.3633
-3.6332 report -0.3354
-4.4783 reported -0.3391
-4.0011 repository -0.3433
-3.4783 represent -0.3291
-3.4369 representation -0.3140
-4.1772 represented -0.3367
-4.4783 representing -0.3391
-4.0011 represents -0.3292
-4.4783 reproduce -0.3572
-4.4783 reputation -0.3477
-4.1772 request -0.3540
-4.0011 requested -0.3425
-4.4783 requests -0.3616
-3.6332 require -0.3342
-3.3321 required -0.3232
-4.4783 requirement -0.3477
-3.2478 requirements -0.3235
-3.4783 requires -0.3484
-3.1995 research -0.3208
-4.4783 researchers -0.3646
-4.4783 researching -0.3654
-4.4783 reserve -0.3391
-4.1772 reside -0.3628
-4.4783 residents -0.3477
-4.1772 resizing -0.3561
-4.0011 resolve -0.3618
-3.8762 resource -0.3626
-3.5239 resources -0.3017
-3.4369 resp-generator -0.3180
-4.0011 respect -0.3539
-4.4783 respectively -0.3477
-3.3022 response -0.2974
-3.2230 responses -0.2878
-4.4783 responsibility -0.3505
-4.4783 responsible -0.3654
-4.4783 restart -0.3391
-4.4783 restarted -0.3654
-4.4783 restarting -0.3391
-4.4783 restored -0.3505
-4.4783 restrict -0.3391
-4.0011 restricted -0.3541
-4.4783 restrictive -0.3655
-3.6332 result -0.3301
-4.4783 resultant -0.3651
-4.4783 resulted -0.3594
-4.1772 resulting -0.3572
-3.2230 results -0.3034
-4.0011 resume -0.3639
-4.4783 retrieve -0.3653
-3.8762 retrieved -0.3639
-4.1772 return -0.3522
-4.4783 returned -0.3640
-4.4783 returns -0.3628
-3.8762 reusability -0.3507
-4.4783 reusable -0.3477
-3.7001 revaluator -0.3471
-4.1772 reveal -0.3390
-4.4783 revealed -0.3541
-4.4783 reverberation -0.3654
-4.4783 reverse -0.3653
-3.7793 review -0.3166
-4.1772 reviewed -0.3472
-4.4783 reviews -0.3653
-4.4783 revolution -0.3654
-4.4783 reward -0.3505
-4.4783 rewarding -0.3655
-4.4783 richest -0.3655
-4.4783 rife -0.3638
-4.0011 right -0.3372
-3.5752 rights -0.3367
-4.4783 rises -0.3655
-4.4783 roadblocks -0.3552
-3.7001 robot -0.3597
-4.4783 robotics -0.3558
-3.8762 robust -0.3371
-3.7793 robustness -0.3369
-4.0011 role -0.3560
-4.4783 roles -0.3477
-4.4783 rollover -0.3505
-3.7793 room -0.3346
-4.4783 rooms -0.3616
-4.4783 root -0.3652
-4.1772 ros -0.3568
-4.4783 rose -0.3541
-4.4783 roulette -0.3623
-3.7001 round -0.3551
-4.4783 row -0.3552
-4.4783 royalty -0.3630
-4.1772 rudimentary -0.3500
-3.8762 rule -0.3416
-3.7001 rules -0.3412
-3.1165 run -0.3005
-3.5752 running -0.3371
-4.4783 runs -0.3649
-4.4783 runtime -0.3655
-2.7148 s -0.3077
-4.4783 sacrificing -0.3648
-4.4783 safe -0.3652
-3.8762 said -0.3512
-4.4783 sake -0.3477
-3.8762 sales -0.3557
-4.1772 salmon -0.3654
-2.9468 same -0.3216
-4.1772 sample -0.3643
-4.1772 sampled -0.3556
-4.4783 samples -0.3653
-4.1772 satisfaction -0.3442
-4.4783 saturation -0.3505
-4.0011 save -0.3502
-3.6332 say -0.3339
-4.4783 saying -0.3391
-4.4783 says -0.3541
-3.8762 scalability -0.3606
-4.1772 scalable -0.3405
-3.8762 scale -0.3394
-4.4783 scales -0.3505
-4.4783 scanner -0.3655
-4.4783 scanning -0.3391
-3.8762 schedule -0.3278
-4.1772 scheduled -0.3654
-4.1772 scheme -0.3531
-4.4783 scholarships -0.3648
-4.4783 school -0.3641
-4.4783 schooled -0.3622
-4.4783 sci -0.3648
-4.4783 science -0.3558
-4.4783 scientific -0.3655
-4.4783 scope -0.3552
-4.0011 score -0.3354
-4.4783 scouting -0.3616
-3.7793 scratch -0.3443
-4.4783 screen -0.3477
-4.1772 scripting -0.3654
-4.1772 scripts -0.3635
-3.5752 search -0.3576
-4.4783 searched -0.3505
-4.4783 season -0.3654
-4.4783 seatmate -0.3477
-3.4783 second -0.3625
-4.1772 seconds -0.3571
-4.4783 secret -0.3654
-3.3022 section -0.3044
-4.0011 sections -0.3518
-4.0011 secure -0.3647
-3.0981 security -0.3320
-3.6332 see -0.3134
-4.1772 seeing -0.3391
-4.4783 seek -0.3572
-4.4783 seekers -0.3654
-4.4783 seeks -0.3541
-4.1772 seemed -0.3541
-4.1772 seems -0.3541
-3.1358 seen -0.3398
-4.4783 segment -0.3654
-4.4783 segmentation -0.3652
-3.6332 select -0.3236
-3.7001 selected -0.3498
-3.7793 selecting -0.3559
-4.1772 selection -0.3476
-4.4783 selector -0.3616
-3.6332 self -0.3532
-4.4783 sell -0.3391
-4.4783 semantic -0.3655
-4.4783 semi -0.3630
-3.8762 send -0.3564
-4.4783 sending -0.3654
-4.4783 senior -0.3647
-3.4783 sense -0.3364
-3.3643 sentence -0.2955
-2.9220 sentences -0.2461
-4.4783 sentences-file -0.3477
-4.0011 separate -0.3642
-4.4783 separately -0.3640
-3.3321 sequence -0.2986
-4.1772 sequences -0.3461
-4.4783 sequentially -0.3477
-3.8762 serial -0.3475
-4.4783 serially -0.3655
-4.1772 series -0.3389
-4.4783 serious -0.3647
-3.2478 server -0.2769
-3.7001 servers -0.3192
-3.8762 service -0.3624
-3.7001 services -0.3178
-4.4783 servicing -0.3653
-4.4783 serving -0.3477
-4.1772 session -0.3494
-3.0159 set -0.3168
-4.1772 sets -0.3512
-4.0011 settings -0.3577
-4.4783 settled -0.3632
-4.1772 setup -0.3221
-4.1772 seven -0.3647
-3.1358 several -0.3497
-4.4783 shadow -0.3654
-3.3022 shall -0.3595
-4.4783 shapes -0.3558
-3.8762 share -0.3643
-4.4783 shared -0.3654
-4.4783 shares -0.3646
-4.4783 sharing -0.3558
-4.4783 sheet -0.3649
-4.0011 shelf -0.3647
-4.4783 shipment -0.3654
-4.4783 ships -0.3638
-4.1772 short -0.3630
-4.4783 shortages -0.3552
-2.9731 should -0.3565
-4.4783 shoulders -0.3552
-3.7793 show -0.3559
-4.4783 showing -0.3650
-3.7793 shown -0.3561
-3.8762 shows -0.3391
-4.4783 shrinking -0.3558
-4.4783 shrinks -0.3638
-4.1772 side -0.3530
-2.8655 signal -0.3080
-4.1772 signals -0.3471
-4.1772 signature -0.3568
-4.4783 significant -0.3654
-4.4783 significantly -0.3653
-4.4783 silence -0.3646
-4.4783 silly -0.3477
-3.8762 silver -0.3634
-3.5752 similar -0.3179
-3.3022 similarly -0.3217
-3.7001 simple -0.3524
-4.1772 simpler -0.3557
-4.1772 simplest -0.3551
-4.4783 simplicity -0.3654
-4.4783 simplification -0.3654
-3.8762 simplified -0.3277
-4.4783 simplify -0.3391
-4.4783 simplistic -0.3653
-4.4783 simulated -0.3655
-3.6332 simulation -0.3469
-4.4783 simultaneously -0.3654
-3.5239 since -0.3238
-4.4783 sincerity -0.3477
-3.7793 single -0.3639
-4.4783 sip -0.3477
-4.4783 sister -0.3558
-3.7793 site -0.3246
-4.0011 sites -0.3405
-4.4783 situations -0.3558
-4.4783 six -0.3653
-3.2741 size -0.3029
-4.4783 sized -0.3636
-4.1772 sizes -0.3370
-4.4783 sketches -0.3639
-4.4783 skills -0.3558
-3.8762 slightly -0.3643
-4.4783 slipped -0.3572
-4.4783 slow -0.3541
-3.2478 small -0.3324
-3.4783 smaller -0.3008
-4.1772 smallest -0.3652
-4.4783 smarter -0.3653
-3.7001 smith -0.3653
-3.0469 so -0.3223
-4.4783 social -0.3655
-4.1772 society -0.3358
-4.4783 sockeye -0.3653
-2.7707 software -0.2861
-4.0011 solution -0.3287
-3.8762 solutions -0.3586
-3.7793 solve -0.3267
-4.1772 solved -0.3642
-4.4783 solves -0.3391
-2.7970 some -0.3313
-4.1772 somehow -0.3496
-4.1772 someone -0.3654
-3.8762 something -0.3609
-3.8762 sometimes -0.3483
-4.4783 somewhat -0.3552
-4.4783 somewhere -0.3654
-4.4783 song -0.3655
-4.4783 sons -0.3654
-4.4783 soon -0.3616
-4.4783 sop -0.3654
-3.7793 sophisticated -0.3526
-4.4783 sorts -0.3653
-4.4783 soul -0.3477
-3.7001 sound -0.3422
-3.7793 sounds -0.3308
-3.1560 source -0.3192
-3.7001 sources -0.3547
-3.8762 space -0.3239
-3.7001 spaghetti -0.3506
-4.4783 spare -0.3655
-3.7793 speak -0.3380
-3.0469 speaker -0.3256
-3.7793 speakers -0.3210
-3.7001 speaking -0.3373
-4.1772 special -0.3652
-4.4783 specialize -0.3594
-4.1772 species -0.3651
-3.4783 specific -0.3536
-4.0011 specifically -0.3503
-3.7793 specifications -0.3192
-3.5752 specified -0.3371
-4.1772 specifies -0.3571
-3.8762 specify -0.3297
-4.4783 specifying -0.3638
-4.0011 spectral -0.3647
-3.8762 spectrum -0.3430
-2.3050 speech -0.2720
-4.4783 speeches -0.3649
-4.0011 speed -0.3541
-4.4783 spelling -0.3653
-4.0011 spend -0.3648
-4.1772 spent -0.3648
-3.0633 sphinx -0.2969
-4.1772 sphinxbase -0.3476
-4.1772 spite -0.3552
-3.8762 spoken -0.3643
-4.1772 spontaneous -0.3633
-4.4783 spot -0.3650
-4.4783 stability -0.3558
-3.8762 stack -0.3634
-4.1772 staff -0.3645
-3.4783 stage -0.3405
-3.4783 stages -0.3347
-4.1772 stake -0.3468
-4.1772 stakeholders -0.3376
-4.4783 stances -0.3541
-4.4783 stand -0.3636
-3.6332 standard -0.3434
-4.4783 standardize -0.3391
-3.7001 standards -0.3256
-4.1772 standing -0.3590
-4.4783 stands -0.3616
-3.4369 start -0.3328
-4.0011 started -0.3549
-4.4783 starting -0.3649
-3.7001 starts -0.3305
-4.1772 startup -0.3496
-3.0311 state -0.2817
-3.8762 statement -0.3648
-3.7001 statements -0.3225
-3.5752 states -0.3314
-3.4783 static -0.3640
-4.4783 stating -0.3391
-4.1772 station -0.3652
-4.4783 statistic -0.3655
-4.1772 statistical -0.3623
-3.7001 statistics -0.3336
-3.7793 status -0.3400
-4.4783 stay -0.3594
-4.4783 stayed -0.3655
-4.4783 staying -0.3653
-4.1772 steam -0.3654
-4.4783 steepest -0.3496
-3.4783 step -0.2879
-3.6332 steps -0.3191
-3.4783 still -0.3578
-4.4783 stochastic -0.3654
-4.4783 stock -0.3655
-4.4783 stockholders -0.3505
-3.7793 stop -0.3488
-4.4783 stopped -0.3653
-4.4783 stops -0.3653
-4.1772 storage -0.3405
-4.0011 stored -0.3589
-4.4783 storehouse -0.3552
-4.1772 story -0.3549
-4.4783 straight -0.3654
-4.4783 straightforward -0.3623
-3.8762 strategies -0.3432
-3.6332 strategy -0.3416
-4.1772 streak -0.3461
-4.1772 streaks -0.3642
-4.1772 streaming -0.3549
-4.4783 streamline -0.3652
-4.4783 streams -0.3645
-4.4783 strength -0.3541
-4.4783 stretching -0.3391
-4.4783 strict -0.3655
-4.4783 strictest -0.3655
-4.4783 strictly -0.3653
-4.4783 stride -0.3654
-4.4783 strides -0.3594
-4.4783 strike -0.3651
-3.4369 string -0.3381
-4.4783 strings -0.3552
-4.4783 strong -0.3653
-4.4783 strongly -0.3654
-3.5239 structure -0.3017
-3.8762 students -0.3443
-4.4783 studies -0.3594
-3.7793 studio -0.3137
-4.0011 study -0.3646
-4.4783 studying -0.3505
-4.4783 stuff -0.3652
-4.4783 stumps -0.3655
-3.8762 style -0.3320
-4.1772 subconscious -0.3654
-3.8762 subject -0.3435
-4.1772 submission -0.3320
-4.1772 submit -0.3651
-4.1772 submits -0.3373
-4.4783 submitted -0.3650
-4.4783 subsequently -0.3505
-3.8762 subset -0.3552
-4.4783 substantial -0.3655
-4.1772 substitute -0.3390
-4.4783 substituted -0.3645
-4.4783 substitutions -0.3655
-4.4783 subsystems -0.3552
-4.4783 succeeded -0.3632
-4.1772 succeeding -0.3653
-3.8762 success -0.3368
-3.7793 successful -0.3651
-3.8762 successfully -0.3456
-2.9342 such -0.3619
-4.1772 suffer -0.3557
-4.4783 suffered -0.3640
-4.4783 suffering -0.3640
-4.4783 suffers -0.3654
-4.0011 sufficiency -0.3300
-4.1772 sufficient -0.3541
-4.4783 suggest -0.3391
-4.1772 suggested -0.3632
-4.4783 suggestions -0.3616
-4.0011 suggests -0.3504
-4.4783 suitable -0.3652
-4.4783 suited -0.3541
-4.1772 summaries -0.3627
-3.5239 summary -0.3203
-4.4783 superior -0.3541
-4.4783 supplementary -0.3654
-4.0011 supplied -0.3571
-3.3991 support -0.3338
-4.0011 supported -0.3571
-4.0011 supporting -0.3386
-3.8762 supports -0.3579
-4.4783 suppose -0.3627
-4.1772 supposed -0.3541
-4.4783 suppressing -0.3652
-3.4369 sure -0.3180
-4.4783 surely -0.3505
-4.4783 sustain -0.3654
-4.0011 sustainable -0.3653
-4.4783 swapping -0.3505
-4.4783 swing -0.3541
-4.1772 switches -0.3458
-4.4783 switching -0.3496
-4.0011 syllables -0.3455
-4.4783 syllabus -0.3653
-4.0011 symbol -0.3322
-3.7793 symbols -0.3216
-4.4783 synchronization -0.3552
-4.4783 synonymous -0.3638
-4.4783 syntactical -0.3654
-4.4783 syntax -0.3558
-4.4783 synthesized -0.3655
-2.3022 system -0.1947
-4.4783 system,comma -0.3558
-2.6521 systems -0.2554
-3.2741 t -0.2967
-3.3991 table -0.3462
-4.1772 tables -0.3654
-4.4783 tails -0.3477
-3.7001 take -0.3297
-4.1772 taken -0.3535
-3.5752 takes -0.3550
-4.0011 taking -0.3627
-4.0011 talk -0.3535
-4.0011 talking -0.3474
-4.4783 tape -0.3655
-4.4783 tapers -0.3654
-4.4783 target -0.3655
-4.1772 targeting -0.3652
-3.3022 task -0.2919
-3.7793 tasks -0.3474
-4.1772 taught -0.3501
-4.4783 taxi -0.3655
-3.0469 team -0.3110
-4.4783 teammates -0.3505
-3.7001 teams -0.3405
-4.4783 teamwork -0.3586
-4.4783 technically -0.3655
-3.1165 technique -0.3061
-3.7001 techniques -0.3580
-4.1772 technological -0.3494
-2.8872 technology -0.2547
-4.4783 tedious -0.3654
-3.5752 telephone -0.3503
-4.1772 telephony -0.3504
-3.8762 tell -0.3637
-4.4783 temperature -0.3505
-3.8762 ten -0.3650
-4.4783 tend -0.3541
-4.4783 tended -0.3541
-4.4783 tends -0.3541
-4.4783 tens -0.3552
-4.4783 tenth -0.3655
-4.1772 terabytes -0.3552
-4.1772 term -0.3654
-4.4783 terminal -0.3645
-4.4783 terminate -0.3391
-3.8762 terms -0.3552
-3.0469 test -0.2964
-3.0469 tested -0.2750
-4.0011 tester -0.3631
-3.4783 testers -0.3124
-2.5005 testing -0.2002
-3.2741 tests -0.2818
-2.8448 text -0.3207
-4.4783 texts -0.3640
-3.0469 than -0.2909
-4.4783 thank -0.3653
-2.1905 that -0.2063
-1.2291 the -0.1976
-2.9342 their -0.3585
-3.0803 them -0.2898
-4.0011 themselves -0.3428
-3.1995 then -0.3111
-4.4783 theoretically -0.3642
-4.4783 theory -0.3654
-2.8985 there -0.3077
-4.4783 thereafter -0.3496
-3.3643 therefore -0.3413
-2.8251 these -0.3568
-3.8762 thesis -0.3431
-2.8872 they -0.3583
-4.4783 thing -0.3632
-3.7793 things -0.3455
-3.7001 think -0.3187
-4.1772 thinking -0.3549
-3.6332 third -0.3626
-2.1222 this -0.2480
-4.4783 thorough -0.3641
-4.0011 thoroughly -0.3265
-3.3022 those -0.3604
-4.1772 though -0.3383
-3.8762 thought -0.3447
-4.4783 thousand -0.3645
-3.6332 thousands -0.3552
-4.4783 threads -0.3651
-4.4783 threats -0.3628
-3.4783 three -0.3632
-4.4783 thrive -0.3636
-3.3022 through -0.2966
-3.6332 thus -0.3500
-4.4783 timber -0.3477
-2.7970 time -0.2118
-4.4783 timed -0.3638
-3.3991 times -0.3079
-4.4783 timing -0.3655
-4.4783 tip -0.3552
-1.5873 to -0.2041
-3.7001 today -0.3367
-3.6332 together -0.3082
-4.0011 tokenize -0.3391
-4.0011 tokenizer -0.3648
-4.1772 told -0.3648
-4.4783 tolerant -0.3654
-4.4783 too -0.3652
-3.8762 took -0.3338
-2.7301 tool -0.2486
-3.7793 toolkit -0.3308
-3.0011 tools -0.2783
-4.4783 tooth -0.3654
-4.4783 topics -0.3616
-4.4783 topologies -0.3655
-3.7793 total -0.3531
-4.4783 touch -0.3654
-4.1772 toward -0.3650
-3.4783 towards -0.3211
-4.1772 toxic -0.3654
-4.4783 traced -0.3541
-4.4783 track -0.3477
-3.8762 tract -0.3502
-4.4783 tractors -0.3558
-4.4783 tracts -0.3558
-4.4783 trading -0.3645
-4.4783 trailer -0.3558
-4.4783 trailers -0.3477
-3.5239 train -0.3166
-4.0011 trained -0.3539
-3.1772 training -0.3306
-4.4783 traits -0.3627
-4.4783 trans -0.3654
-3.5752 transaction -0.3440
-4.1772 transactions -0.3476
-3.8762 transcript -0.3447
-4.1772 transfer -0.3320
-4.4783 transferred -0.3653
-4.0011 transform -0.3390
-3.8762 transition -0.3551
-4.1772 transitions -0.3475
-4.1772 translated -0.3649
-4.4783 transmission -0.3655
-4.4783 trash -0.3477
-4.4783 traversal -0.3505
-4.4783 treated -0.3654
-4.4783 treaty -0.3477
-3.7793 tree -0.3583
-3.7793 trees -0.3299
-4.4783 trend -0.3630
-4.4783 trials -0.3650
-4.1772 tribe -0.3489
-4.4783 tricks -0.3627
-4.1772 tried -0.3541
-4.4783 tries -0.3541
-4.1772 triggered -0.3572
-4.0011 trigram -0.3645
-3.8762 trip -0.3636
-4.0011 triphone -0.3632
-4.1772 triphones -0.3405
-4.4783 troublesome -0.3558
-3.5752 trucking -0.3527
-4.1772 true -0.3648
-4.4783 truly -0.3655
-4.4783 trunk -0.3654
-3.7001 try -0.3537
-3.8762 trying -0.3541
-4.4783 tuned -0.3651
-4.4783 turn -0.3477
-4.1772 tutorial -0.3646
-4.4783 tutorials -0.3636
-4.4783 tweaking -0.3622
-4.4783 twisted -0.3653
-4.1772 twitter -0.3654
-3.0633 two -0.3469
-3.3321 txt -0.3078
-3.2741 type -0.3440
-3.7793 types -0.3277
-3.3991 typical -0.3618
-3.5239 typically -0.3401
-4.4783 typing -0.3654
-4.1772 typos -0.3376
-4.4783 u -0.3477
-4.4783 unable -0.3541
-4.4783 uncertainty -0.3477
-4.4783 uncover -0.3649
-3.5752 under -0.3560
-4.4783 underline -0.3642
-4.4783 underlying -0.3651
-4.4783 underneath -0.3655
-3.5752 understand -0.3265
-4.4783 understandability -0.3558
-4.0011 understandable -0.3465
-4.4783 understandably -0.3505
-3.3991 understanding -0.2878
-4.4783 understood -0.3650
-4.4783 undo -0.3627
-4.0011 unethical -0.3538
-4.4783 unfair -0.3655
-4.4783 unfeasible -0.3651
-4.4783 unfortunately -0.3505
-4.4783 unified -0.3652
-4.0011 uniform -0.3469
-4.4783 uniformity -0.3505
-4.4783 unique -0.3654
-4.4783 unit -0.3477
-4.1772 units -0.3628
-3.8762 universal -0.3646
-3.5239 university -0.3205
-4.1772 unless -0.3638
-4.1772 unlike -0.3572
-4.4783 unlucky -0.3642
-4.4783 unrealistic -0.3623
-4.0011 until -0.3385
-4.4783 unto -0.3653
-4.1772 unusual -0.3651
-2.9869 up -0.2351
-4.4783 upbringing -0.3477
-4.1772 update -0.3470
-3.6332 updated -0.3197
-4.0011 updates -0.3457
-4.1772 updating -0.3435
-4.4783 upgrades -0.3477
-4.4783 uphold -0.3654
-4.0011 upon -0.3621
-3.8762 us -0.3287
-4.1772 usability -0.3643
-4.4783 usable -0.3654
-3.8762 usage -0.3525
-2.7301 use -0.2447
-2.5098 used -0.2285
-3.7793 useful -0.3523
-4.4783 useless -0.3653
-2.7301 user -0.2504
-3.2230 users -0.2939
-3.3643 uses -0.3182
-2.6332 using -0.2957
-4.4783 usual -0.3655
-3.5752 usually -0.3647
-3.5752 utilities -0.3132
-4.4783 utilize -0.3648
-4.4783 utilized -0.3541
-4.4783 utilizing -0.3641
-4.4783 utmost -0.3655
-3.6332 utterance -0.3374
-4.1772 utterances -0.3500
-4.4783 valid -0.3655
-4.4783 validate -0.3391
-4.4783 validates -0.3391
-4.1772 validation -0.3505
-4.0011 valuable -0.3506
-3.3022 value -0.3221
-3.2478 values -0.3062
-3.3991 variability -0.2990
-3.8762 variable -0.3651
-4.4783 variance -0.3655
-4.4783 variation -0.3558
-3.6332 variations -0.3434
-4.4783 varies -0.3654
-4.0011 variety -0.3552
-3.7001 various -0.3645
-4.4783 vary -0.3653
-4.4783 vast -0.3654
-3.7001 vb -0.3397
-3.7001 vector -0.3307
-3.7001 vectors -0.3289
-3.7793 verification -0.3485
-4.0011 verified -0.3627
-4.1772 verify -0.3391
-4.1772 verifying -0.3642
-4.4783 versatile -0.3651
-3.5239 version -0.3250
-3.7793 versions -0.3346
-3.0633 very -0.3615
-4.4783 vi -0.3654
-3.7001 via -0.3564
-4.4783 vice -0.3655
-4.4783 vicissitudes -0.3552
-4.4783 video -0.3655
-3.7793 view -0.3176
-4.4783 viewing -0.3651
-3.7793 virtual -0.3642
-4.4783 virus -0.3654
-4.1772 viruses -0.3405
-4.1772 visible -0.3474
-4.4783 vision -0.3654
-4.4783 vista -0.3558
-4.0011 visual -0.3654
-4.4783 visualized -0.3594
-4.4783 visualizing -0.3654
-4.4783 vital -0.3653
-4.1772 vocab -0.3591
-3.5239 vocabularies -0.3260
-3.1358 vocabulary -0.2966
-3.6332 vocal -0.3652
-3.5752 voice -0.3490
-4.4783 void -0.3650
-4.1772 volume -0.3654
-4.4783 volunteering -0.3645
-4.4783 von -0.3655
-4.4783 vowel -0.3655
-4.4783 vowels -0.3654
-4.4783 vs -0.3477
-4.4783 vulnerabilities -0.3655
-3.1358 w -0.3564
-4.4783 waiting -0.3616
-4.4783 walking -0.3651
-4.1772 walkthroughs -0.3476
-3.5752 wall -0.3402
-3.8762 want -0.3534
-4.4783 war -0.3654
-4.4783 warping -0.3505
-4.4783 warrantee -0.3477
-2.6394 was -0.2822
-4.1772 waste -0.3414
-4.4783 watching -0.3391
-4.1772 waveform -0.3649
-4.1772 waves -0.3588
-3.5752 way -0.2746
-4.4783 ways -0.3477
-2.7970 we -0.3368
-4.1772 wealth -0.3490
-4.4783 weather -0.3558
-3.0633 web -0.3448
-4.4783 websites -0.3650
-4.4783 wee -0.3654
-3.4369 week -0.3521
-3.8762 weekly -0.3650
-4.1772 weeks -0.3542
-4.4783 weight -0.3651
-4.1772 welcome -0.3442
-2.9731 well -0.2835
-4.4783 went -0.3541
-2.9731 were -0.3459
-4.4783 west -0.3654
-3.1772 what -0.3053
-4.4783 whatever -0.3477
-2.8347 when -0.3157
-3.8762 whenever -0.3296
-2.9869 where -0.3188
-4.4783 whether -0.3622
-2.9597 which -0.2834
-3.2741 while -0.3526
-4.4783 whistler -0.3652
-3.3643 white -0.3459
-3.5752 who -0.3577
-3.7793 whole -0.3626
-4.1772 whose -0.3654
-3.7793 why -0.3381
-4.1772 wide -0.3654
-4.4783 widespread -0.3655
-4.1772 wiki -0.3648
-4.4783 wildlife -0.3477
-4.4783 wildly -0.3650
-2.4870 will -0.3168
-4.4783 willing -0.3496
-4.4783 willows -0.3505
-4.0011 win -0.3551
-3.3991 window -0.3021
-4.4783 windowing -0.3558
-2.6332 windows -0.2679
-4.1772 winning -0.3642
-3.8762 wins -0.3401
-4.1772 wire -0.3653
-3.7793 wish -0.3530
-2.4137 with -0.2855
-3.3321 within -0.3269
-3.3991 without -0.3276
-4.4783 witnessed -0.3654
-4.4783 wives -0.3477
-3.8762 wk -0.3654
-4.4783 woman -0.3646
-4.4783 women -0.3654
-4.4783 wood -0.3655
-2.8155 word -0.2957
-2.6521 words -0.2480
-3.1560 work -0.3008
-3.7793 working -0.3616
-3.8762 workload -0.3544
-4.4783 workloads -0.3541
-3.7001 works -0.3211
-4.4783 workshop -0.3654
-4.4783 workspaces -0.3628
-4.4783 workstation -0.3496
-4.1772 workstations -0.3651
-3.6332 world -0.3454
-4.4783 worth -0.3622
-2.8872 would -0.3551
-4.4783 wrapping -0.3654
-4.0011 write -0.3454
-3.7001 writing -0.3461
-3.2478 written -0.3315
-4.1772 wrong -0.3653
-4.4783 www -0.3477
-4.1772 x -0.3502
-4.4783 xss -0.3637
-4.1772 yeah -0.3505
-4.4783 year -0.3558
-3.5752 years -0.3101
-4.4783 yes -0.3622
-4.4783 yet -0.3477
-2.8872 you -0.3229
-4.4783 young -0.3654
-3.2741 your -0.3639
-3.7001 zero -0.3316
-4.4783 zoo -0.3650
-3.5752 |pipe-symbol -0.3624
-4.4783 − -0.3649
-4.4783 ∗ -0.3649

\2-grams:
-0.2449 !exclamation-point </s> 0.2309
-2.1894 "quote (left-paren -0.1147
-1.1894 "quote )right-paren -0.0234
-0.9853 "quote ,comma -0.1064
-1.8884 "quote .dot -0.0754
-2.1894 "quote Hank 0.0113
-2.1894 "quote Kroll -0.1057
-1.8884 "quote Learn 0.2314
-1.8884 "quote a -0.1310
-2.1894 "quote advocating 0.0113
-2.1894 "quote among -0.0428
-1.8884 "quote and -0.1099
-2.1894 "quote apply 0.0113
-2.1894 "quote attributes -0.0428
-1.8884 "quote button 0.0730
-2.1894 "quote cold 0.2314
-1.8884 "quote collect 0.1564
-2.1894 "quote colon 0.2314
-2.1894 "quote custom -0.1201
-2.1894 "quote doubling 0.2314
-2.1894 "quote exclamation 0.2314
-1.8884 "quote for -0.1303
-2.1894 "quote free -0.0675
-2.1894 "quote front -0.1057
-2.1894 "quote gamblers -0.0428
-2.1894 "quote hot 0.0113
-2.1894 "quote i -0.1263
-2.1894 "quote incoming 0.0730
-2.1894 "quote is -0.1336
-1.8884 "quote make -0.0797
-2.1894 "quote no -0.1222
-2.1894 "quote occurring 0.2314
-2.1894 "quote of -0.1337
-1.7123 "quote or -0.1223
-2.1894 "quote out -0.1173
-2.1894 "quote period 0.0113
-2.1894 "quote question -0.0908
-1.8884 "quote streaks 0.2314
-2.1894 "quote such -0.1270
-2.1894 "quote take -0.0908
-2.1894 "quote the -0.1337
-2.1894 "quote theoretically 0.2314
-2.1894 "quote unlucky 0.2314
-1.8884 "quote use -0.1252
-2.1894 "quote with -0.0939
-2.1894 "quote would -0.1080
-1.3443 "quote |pipe-symbol 0.1650
-1.0231 %percent .period -0.0373
-0.5460 %percent 2 -0.0973
-1.0231 %percent deduction 0.2314
-1.0231 %percent loop -0.0973
-2.0007 'single-quote </s> 0.2309
-1.6998 'single-quote measures -0.0428
-0.2764 'single-quote s 0.1846
-2.0007 'single-quote t -0.1184
-1.3588 (left-paren )right-paren -0.1321
-1.3588 (left-paren 907 0.2314
-1.3588 (left-paren and -0.1337
-1.3588 (left-paren artificial 0.2314
-1.3588 (left-paren as -0.1330
-1.3588 (left-paren dog 0.2314
-1.3588 (left-paren for -0.1322
-1.3588 (left-paren hence 0.2314
-1.3588 (left-paren instances 0.2314
-1.3588 (left-paren king 0.2314
-1.3588 (left-paren or -0.1270
-1.3588 (left-paren red 0.0113
-1.3588 (left-paren silver -0.0675
-0.2449 (left-paren− 1 -0.1034
-2.3383 )right-paren )right-paren -0.0923
-1.0373 )right-paren ,comma -0.0244
-2.3383 )right-paren -hyphen -0.1327
-0.8069 )right-paren .dot 0.0606
-2.3383 )right-paren .period -0.0373
-2.3383 )right-paren 283 0.2314
-2.3383 )right-paren :colon -0.1319
-1.3383 )right-paren </s> 0.2309
-2.3383 )right-paren Look 0.2314
-2.3383 )right-paren algorithm -0.1189
-1.4353 )right-paren and -0.0991
-2.3383 )right-paren as -0.1296
-2.0373 )right-paren can 0.0523
-2.3383 )right-paren contributing 0.2314
-2.3383 )right-paren cos 0.2314
-2.3383 )right-paren encouraged 0.2314
-2.3383 )right-paren environment -0.1201
-2.3383 )right-paren estimated -0.0428
-2.3383 )right-paren evolved -0.0428
-2.3383 )right-paren for -0.1031
-2.3383 )right-paren function -0.1222
-2.3383 )right-paren has -0.1300
-2.0373 )right-paren in -0.0924
-2.3383 )right-paren integrated 0.0113
-2.3383 )right-paren interference 0.2314
-1.8612 )right-paren is -0.0952
-2.3383 )right-paren keeps 0.2314
-2.3383 )right-paren lines -0.0428
-2.3383 )right-paren method -0.1021
-2.3383 )right-paren musical 0.2314
-2.0373 )right-paren or -0.1294
-2.3383 )right-paren orientation -0.0428
-1.8612 )right-paren p -0.1136
-2.3383 )right-paren participating 0.2314
-2.3383 )right-paren represents -0.0428
-2.0373 )right-paren salmon 0.2314
-2.3383 )right-paren services -0.0908
-2.3383 )right-paren since -0.0754
-2.0373 )right-paren the -0.1330
-2.3383 )right-paren to -0.1328
-2.3383 )right-paren typically -0.1057
-2.0373 )right-paren using -0.0442
-2.3383 )right-paren was -0.1305
-2.3383 )right-paren web -0.1046
-2.3383 )right-paren where -0.1260
-2.3383 )right-paren which -0.1265
-0.9439 *asterisk PocketSphinx -0.1243
-0.4668 *asterisk algorithm -0.0867
-0.9439 *asterisk decoding -0.1232
-0.5460 +plus-symbol or -0.1318
-0.5460 +plus-symbol to -0.1331
-2.5553 ,comma "quote -0.1169
-2.9533 ,comma )right-paren -0.0557
-1.4690 ,comma </s> 0.2309
-3.2544 ,comma CA 0.2314
-3.2544 ,comma Compiz 0.0730
-3.2544 ,comma Debian 0.2314
-3.2544 ,comma Evan 0.2314
-3.2544 ,comma Fedora 0.2314
-3.2544 ,comma File 0.2314
-3.2544 ,comma FreeBSD 0.2314
-3.2544 ,comma FreeSpeech 0.2314
-3.2544 ,comma Gb 0.0113
-3.2544 ,comma German 0.2314
-3.2544 ,comma Hank 0.0113
-2.9533 ,comma Henry -0.0468
-2.9533 ,comma I -0.1040
-3.2544 ,comma Jacob 0.2314
-3.2544 ,comma Josh 0.2314
-2.7772 ,comma Linux -0.1199
-3.2544 ,comma Mageia 0.2314
-3.2544 ,comma McLeod 0.1197
-3.2544 ,comma Missouri 0.2314
-3.2544 ,comma NJ 0.2314
-3.2544 ,comma Ohio 0.0113
-3.2544 ,comma OpenSuse 0.0113
-3.2544 ,comma PCLinuxOS 0.2314
-2.5553 ,comma PocketSphinx -0.0118
-3.2544 ,comma RCA 0.2314
-3.2544 ,comma Sean 0.2314
-2.7772 ,comma Sharon 0.2314
-3.2544 ,comma Slackware 0.2314
-3.2544 ,comma UNIX 0.2314
-3.2544 ,comma USA 0.2314
-3.2544 ,comma Virginia 0.2314
-3.2544 ,comma Wolfgang 0.2314
-1.8926 ,comma a -0.0870
-3.2544 ,comma according 0.2314
-2.9533 ,comma acoustic 0.0348
-3.2544 ,comma adaptive 0.2314
-3.2544 ,comma administrator 0.0113
-3.2544 ,comma adopting 0.2314
-3.2544 ,comma age -0.0675
-3.2544 ,comma all -0.1279
-3.2544 ,comma almost -0.0675
-2.7772 ,comma also -0.0919
-2.7772 ,comma among 0.0730
-2.9533 ,comma an -0.1209
-1.3199 ,comma and -0.0417
-3.2544 ,comma apple 0.2314
-3.2544 ,comma around -0.1147
-3.2544 ,comma articulatory -0.0428
-1.9120 ,comma as 0.0082
-3.2544 ,comma attached 0.0113
-2.9533 ,comma automotive 0.0730
-3.2544 ,comma available -0.1270
-2.9533 ,comma b -0.0428
-2.9533 ,comma being -0.0867
-3.2544 ,comma berg 0.2314
-3.2544 ,comma berries 0.2314
-2.9533 ,comma bill -0.0219
-3.2544 ,comma blank 0.2314
-3.2544 ,comma both -0.0998
-3.2544 ,comma boundary 0.1075
-3.2544 ,comma branch 0.2314
-3.2544 ,comma breathing 0.2314
-3.2544 ,comma browse 0.2314
-3.2544 ,comma browsed 0.2314
-3.2544 ,comma buffer -0.0816
-1.8564 ,comma but 0.1543
-3.2544 ,comma by -0.1324
-3.2544 ,comma cables 0.0113
-3.2544 ,comma call 0.0248
-3.2544 ,comma caller -0.0428
-3.2544 ,comma calls -0.0675
-2.9533 ,comma can 0.0548
-3.2544 ,comma canals 0.2314
-3.2544 ,comma certain -0.1021
-3.2544 ,comma character -0.0428
-3.2544 ,comma checked -0.0428
-3.2544 ,comma children -0.0428
-3.2544 ,comma cited 0.2314
-3.2544 ,comma click -0.0908
-3.2544 ,comma code -0.1272
-3.2544 ,comma codename 0.0113
-3.2544 ,comma collect 0.1564
-3.2544 ,comma color 0.0113
-3.2544 ,comma combined 0.0113
-3.2544 ,comma commentaries 0.2314
-3.2544 ,comma competitive 0.0113
-3.2544 ,comma component -0.0754
-3.2544 ,comma composing 0.2314
-3.2544 ,comma compound 0.2314
-3.2544 ,comma conditions 0.0730
-3.2544 ,comma conferencing 0.2314
-2.9533 ,comma continuous -0.0219
-3.2544 ,comma convert -0.0675
-3.2544 ,comma converts 0.0113
-3.2544 ,comma copyrighted 0.2314
-3.2544 ,comma coupled 0.2314
-2.7772 ,comma creating -0.0730
-3.2544 ,comma cross 0.2314
-3.2544 ,comma customers -0.0428
-3.2544 ,comma databases -0.0675
-3.2544 ,comma decode -0.0219
-3.2544 ,comma decoding -0.1232
-3.2544 ,comma deleted 0.2314
-3.2544 ,comma delta -0.0754
-3.2544 ,comma depending 0.2314
-3.2544 ,comma described -0.1021
-3.2544 ,comma design -0.0428
-3.2544 ,comma developed -0.0998
-3.2544 ,comma development -0.1241
-3.2544 ,comma die 0.2314
-3.2544 ,comma different -0.1277
-3.2544 ,comma digestion 0.2314
-3.2544 ,comma dimming 0.2314
-3.2544 ,comma discovery -0.0428
-3.2544 ,comma divide 0.2314
-2.9533 ,comma do -0.0768
-3.2544 ,comma documentation -0.1110
-3.2544 ,comma due 0.1719
-2.9533 ,comma during 0.1102
-3.2544 ,comma duty 0.2314
-3.2544 ,comma e 0.0113
-2.6522 ,comma each -0.0741
-3.2544 ,comma ease -0.0428
-3.2544 ,comma efficiency -0.0428
-3.2544 ,comma efficient -0.0816
-3.2544 ,comma embedded -0.1021
-3.2544 ,comma employees 0.0113
-3.2544 ,comma epistemology 0.2314
-2.9533 ,comma especially 0.2314
-2.9533 ,comma etc 0.2314
-3.2544 ,comma ethics -0.1237
-2.9533 ,comma even -0.0793
-3.2544 ,comma eventually -0.0428
-3.2544 ,comma executive -0.0675
-3.2544 ,comma failing 0.2314
-3.2544 ,comma fewer 0.2314
-3.2544 ,comma fields 0.2314
-3.2544 ,comma figure -0.1154
-3.2544 ,comma file -0.1304
-3.2544 ,comma fine 0.2314
-3.2544 ,comma fisherman 0.2314
-3.2544 ,comma followed 0.0113
-2.2130 ,comma for -0.0696
-3.2544 ,comma format -0.0973
-3.2544 ,comma four -0.0908
-3.2544 ,comma free -0.1237
-3.2544 ,comma french 0.2314
-3.2544 ,comma from -0.1317
-3.2544 ,comma g 0.2314
-3.2544 ,comma gamblers -0.0428
-3.2544 ,comma given -0.1121
-3.2544 ,comma goal -0.0219
-3.2544 ,comma greatly -0.0428
-3.2544 ,comma grep 0.2314
-3.2544 ,comma growing 0.2314
-3.2544 ,comma h 0.0113
-2.9533 ,comma has -0.0954
-2.9533 ,comma have -0.1263
-2.7772 ,comma having -0.0570
-3.2544 ,comma healthcare 0.2314
-2.9533 ,comma highlight 0.2314
-3.2544 ,comma hold 0.0113
-2.4762 ,comma however 0.1835
-3.2544 ,comma human -0.1087
-2.3513 ,comma i -0.0396
-3.2544 ,comma identifying -0.0428
-2.2130 ,comma if 0.0302
-3.2544 ,comma impacting 0.2314
-2.3513 ,comma in 0.0006
-3.2544 ,comma inc 0.2314
-3.2544 ,comma included -0.1184
-2.6522 ,comma including 0.1296
-2.9533 ,comma insert 0.0113
-3.2544 ,comma inspections 0.0113
-3.2544 ,comma instead 0.0473
-3.2544 ,comma international 0.0113
-2.5553 ,comma is -0.1138
-1.6012 ,comma it 0.0446
-3.2544 ,comma its -0.1270
-3.2544 ,comma j -0.0428
-3.2544 ,comma k 0.0113
-3.2544 ,comma keyboard -0.0908
-3.2544 ,comma l 0.2314
-3.2544 ,comma learner 0.2314
-3.2544 ,comma learning -0.1193
-3.2544 ,comma leaving 0.0113
-3.2544 ,comma let -0.0816
-3.2544 ,comma let's -0.0428
-3.2544 ,comma lighter 0.2314
-3.2544 ,comma like -0.1057
-3.2544 ,comma listening -0.1087
-3.2544 ,comma loop -0.0570
-3.2544 ,comma loops 0.0113
-3.2544 ,comma lowering 0.2314
-3.2544 ,comma m 0.1450
-3.2544 ,comma machine -0.0908
-2.9533 ,comma mainframes -0.0867
-2.9533 ,comma make -0.1077
-3.2544 ,comma making -0.0973
-3.2544 ,comma management -0.1087
-2.9533 ,comma managing 0.1822
-3.2544 ,comma manners 0.2314
-2.9533 ,comma many -0.1110
-3.2544 ,comma meaning 0.0113
-3.2544 ,comma method -0.1021
-3.2544 ,comma money -0.0675
-2.7772 ,comma more -0.1040
-2.5553 ,comma most -0.0917
-3.2544 ,comma multimedia 0.2314
-3.2544 ,comma musician 0.2314
-2.9533 ,comma my -0.1224
-2.3001 ,comma n 0.0113
-3.2544 ,comma naming 0.2314
-3.2544 ,comma negative 0.2314
-3.2544 ,comma network -0.1173
-2.9533 ,comma new -0.1237
-3.2544 ,comma no -0.1222
-3.2544 ,comma non 0.2314
-3.2544 ,comma none 0.2314
-3.2544 ,comma nonetheless 0.2314
-2.7772 ,comma not -0.1184
-3.2544 ,comma now -0.1057
-3.2544 ,comma observations -0.0908
-3.2544 ,comma of -0.1337
-3.2544 ,comma oh 0.2314
-2.9533 ,comma on -0.0387
-2.4093 ,comma one -0.0617
-2.9533 ,comma only -0.0998
