This is an ARPA-format language model file, generated by CMU Sphinx
\data\
ngram 1=3811
ngram 2=17175
ngram 3=25174

\1-grams:
-4.4885 <UNK> 0.0000
-3.5342 !exclamation-point -0.3425
-2.5342 "quote -0.2584
-3.7103 %percent -0.3415
-2.7325 'single-quote -0.3426
-3.2843 (left-paren -0.3395
-4.4885 (left-parenâ -0.3596
-2.3847 )right-paren -0.2034
-3.8864 *asterisk -0.3585
-4.1874 +plus-symbol -0.3470
-1.4693 ,comma -0.1064
-2.2430 -hyphen -0.3130
-2.9971 . -0.3438
-3.1874 ...ellipsis -0.2841
-2.6624 .dot -0.2921
-1.3905 .period -0.1332
-4.4885 .point -0.3599
-2.8353 /slash -0.3354
-3.0735 0 -0.3076
-3.0905 1 -0.3302
-4.4885 10 -0.3419
-4.4885 1456 -0.3486
-4.4885 18th -0.3599
-4.4885 1960's -0.3419
-3.1874 2 -0.3283
-4.4885 232.2 -0.3599
-4.4885 283 -0.3575
-3.0413 3 -0.3038
-4.4885 35 -0.3599
-3.3423 4 -0.3254
-4.4885 40 -0.3599
-4.4885 450 -0.3599
-3.3745 5 -0.3415
-4.4885 50 -0.3599
-3.4884 6 -0.3577
-4.4885 65 -0.3599
-4.4885 667 -0.3599
-3.4471 7 -0.3480
-3.2097 8 -0.3379
-3.7894 9 -0.3581
-4.4885 907 -0.3582
-2.4471 :colon -0.2923
-3.1874 ;semi-colon -0.3201
-1.4377 </s> -0.3404
-1.4377 <s> -0.0642
-4.4885 <s>typical -0.3599
-4.1874 =equals-sign -0.3593
-2.9322 ?question-mark -0.3290
-3.8864 A -0.3597
-4.4885 API -0.3582
-4.0113 ASCII -0.3438
-4.4885 ASR -0.3598
-4.4885 Afrikaner/s> -0.3438
-4.4885 Aguirre -0.3586
-4.0113 Alaska -0.3400
-3.7103 Altair -0.3586
-4.4885 Arguments -0.3597
-4.4885 August -0.3419
-4.4885 BITCH -0.3598
-4.1874 BSD -0.3437
-4.4885 Bernstein -0.3450
-4.1874 Bitcoin -0.3598
-4.1874 Boolean -0.3599
-4.4885 Briggs -0.3438
-4.1874 Bullard -0.3450
-4.4885 Burroughs -0.3450
-4.4885 CA -0.3450
-4.4885 CE -0.3450
-4.4885 CEOs -0.3599
-4.4885 CEOs.period -0.3438
-4.4885 CLR -0.3582
-3.2580 CMU -0.3541
-3.8864 CMUSphinx -0.3412
-4.1874 CPUs -0.3581
-4.4885 CSS -0.3599
-4.4885 California -0.3599
-4.4885 Call -0.3599
-4.4885 Canada -0.3419
-3.7894 Carnegie -0.3599
-4.4885 Centos -0.3419
-4.4885 Chapman -0.3599
-4.4885 Chicago -0.3419
-4.4885 Chris -0.3438
-4.4885 Cleveland -0.3450
-3.8864 Colney -0.3503
-4.0113 Compiz -0.3528
-4.4885 Cook -0.3599
-4.4885 Cruzon -0.3530
-4.4885 DAT -0.3582
-4.4885 DFT -0.3582
-4.1874 Darpa -0.3594
-4.4885 David -0.3599
-4.4885 Debian -0.3599
-4.4885 Debra -0.3450
-4.1874 December -0.3584
-4.4885 Edgar -0.3599
-4.1874 English -0.3520
-4.4885 Evan -0.3599
-3.5342 Everett -0.3349
-4.4885 FFT -0.3582
-4.0113 Facebook -0.3502
-4.4885 February -0.3585
-4.4885 Fedora -0.3450
-4.1874 File -0.3597
-4.4885 Firefox -0.3598
-4.4885 Fischer -0.3450
-4.1874 Fourier -0.3599
-4.4885 France -0.3419
-4.4885 FreeBSD -0.3450
-4.4885 FreeSpeech -0.3530
-4.4885 Frequently -0.3599
-4.1874 GI -0.3592
-4.4885 GNU -0.3593
-4.4885 GPS -0.3599
-4.0113 GUI -0.3427
-3.8864 Gaussian -0.3593
-4.1874 Gb -0.3499
-4.4885 German -0.3450
-4.4885 Ghantt -0.3599
-4.1874 Google -0.3586
-4.1874 HTML -0.3595
-4.1874 Hank -0.3586
-4.4885 He's -0.3598
-3.1083 Henry -0.2974
-4.4885 Hoboken -0.3450
-3.1662 Huffman -0.3527
-2.9322 I -0.3524
-4.0113 I'm -0.3596
-4.1874 I've -0.3596
-4.0113 IBM -0.3427
-4.4885 III -0.3419
-4.4885 IIS -0.3530
-4.1874 IO -0.3595
-4.1874 ISDN -0.3338
-4.4885 Indian -0.3504
-4.4885 Inlet -0.3539
-4.1874 Intel -0.3598
-3.5854 Internet -0.3221
-4.4885 Is -0.3599
-4.4885 It -0.3530
-4.4885 Jacob -0.3599
-4.4885 James -0.3599
-4.1874 January -0.3438
-4.4885 Jeremy -0.3599
-4.4885 Jim -0.3598
-4.4885 Joe -0.3438
-4.1874 Joseph -0.3599
-4.4885 Josh -0.3599
-4.4885 Journal -0.3450
-4.1874 July -0.3413
-4.4885 June -0.3504
-4.4885 Kempelen -0.3599
-4.4885 Kikuyu -0.3599
-4.4885 Kitco -0.3419
-4.4885 Kitcosilver -0.3530
-4.4885 Klenk -0.3450
-4.1874 Kohlberg -0.3592
-3.5342 Kroll -0.3349
-4.1874 Learn -0.3587
-4.4885 Lechner -0.3597
-2.7642 Linux -0.2619
-4.4885 Look -0.3590
-4.4885 Louchart -0.3599
-4.1874 Luther -0.3567
-4.4885 MHz -0.3450
-4.4885 Machiavellian -0.3539
-4.4885 Mageia -0.3450
-3.6434 Markov -0.3584
-3.5342 McLeod -0.3449
-4.0113 Mel -0.3575
-4.0113 Mellon -0.3437
-4.4885 Mexico -0.3562
-3.6434 Microsoft -0.3580
-4.4885 Microsystems -0.3450
-4.4885 Midwest -0.3486
-4.4885 Mint -0.3450
-4.4885 Missouri -0.3599
-4.4885 Mountain -0.3599
-4.0113 Museet -0.3374
-4.4885 MySpace -0.3595
-4.4885 NASA -0.3578
-4.4885 NCT -0.3593
-4.4885 NJ -0.3584
-4.4885 NT -0.3598
-4.4885 Nathaniel -0.3599
-3.8864 Nelson -0.3450
-4.4885 Netware -0.3591
-4.4885 Ninilchick -0.3599
-4.4885 Noren -0.3438
-4.4885 Norton -0.3599
-4.4885 OK -0.3539
-4.4885 OOP -0.3450
-4.0113 OS -0.3575
-4.1874 Ohio -0.3418
-4.1874 OpenSuse -0.3350
-4.4885 Oppenheim -0.3539
-3.6434 PBX -0.3239
-3.5342 PC -0.3100
-4.4885 PCLinuxOS -0.3450
-3.8864 PCs -0.3493
-4.4885 PDFs -0.3582
-4.1874 PHP -0.3443
-4.1874 POS -0.3593
-4.4885 POSIX -0.3450
-4.4885 Parnell -0.3599
-4.4885 Perl -0.3504
-4.4885 PhD -0.3599
-3.8864 Pitts -0.3432
-2.7809 PocketSphinx -0.2595
-4.4885 Polytechnic -0.3599
-4.4885 Popen -0.3599
-4.4885 PowerPoint -0.3599
-4.0113 Python -0.3599
-4.0113 Python's -0.3599
-4.4885 RCA -0.3450
-4.4885 RF -0.3582
-4.4885 ROI -0.3582
-4.4885 Rembetski -0.3450
-4.4885 Richard -0.3599
-4.1874 Riordan -0.3529
-4.4885 Saturday -0.3499
-3.4471 Scientology -0.3399
-4.4885 SeaMonkey -0.3597
-4.4885 Sean -0.3599
-4.4885 Selma -0.3599
-4.4885 September -0.3599
-4.0113 Sharon -0.3590
-4.4885 Slackware -0.3592
-4.1874 SourceForge -0.3419
-4.4885 SouthCentral -0.3599
-4.4885 Spanish -0.3419
-4.4885 Street -0.3599
-4.4885 Sun -0.3599
-4.1874 Swedish -0.3599
-4.4885 Switchboard -0.3504
-4.4885 TCP -0.3584
-4.4885 TM -0.3582
-4.4885 Taleb -0.3599
-4.0113 Tekniska -0.3599
-4.4885 Tereza -0.3599
-4.4885 The -0.3599
-4.4885 Tony -0.3599
-3.8864 Trevino -0.3449
-4.4885 Trippe -0.3596
-4.4885 True -0.3419
-4.4885 Tsimshian -0.3599
-4.4885 Turing -0.3596
-4.4885 UDP -0.3599
-4.1874 UI -0.3568
-4.4885 UNIX -0.3450
-4.4885 UOP -0.3438
-3.6434 URL -0.3396
-3.5854 URLs -0.3354
-4.4885 USA -0.3450
-3.5342 UTF -0.3575
-4.4885 UTF-8 -0.3599
-4.0113 Ubuntu -0.3442
-3.4093 Unicode -0.3591
-4.4885 Used -0.3599
-4.4885 VPN -0.3595
-4.4885 Valgrind -0.3504
-4.4885 View -0.3450
-4.4885 Virginia -0.3599
-4.4885 Viterbi's -0.3597
-4.4885 Wall -0.3599
-4.4885 Washington -0.3599
-4.0113 Wikipedia -0.3258
-4.4885 Wiley -0.3599
-4.1874 Williams -0.3449
-3.8864 Windows -0.3599
-4.4885 Wolfgang -0.3599
-3.4093 XP -0.3248
-4.4885 Zaleski -0.3504
-4.4885 Zedar -0.3450
-4.4885 [left-bracket -0.3597
-3.3124 \backslash -0.3531
-4.1874 ]right-bracket -0.3377
-3.6434 _underscore -0.3591
-1.7318 a -0.2447
-4.4885 aardvark -0.3599
-4.4885 abbreviated -0.3599
-4.4885 abbreviations -0.3504
-3.8864 ability -0.3300
-2.9971 able -0.3486
-3.1874 about -0.3141
-4.0113 above -0.3570
-4.4885 abrogate -0.3599
-4.4885 absent -0.3499
-4.4885 absolutes -0.3504
-4.4885 abstract -0.3593
-4.4885 abundance -0.3499
-4.4885 academic -0.3599
-4.1874 accent -0.3350
-4.0113 acceptable -0.3427
-4.4885 acceptance -0.3419
-3.7103 accepted -0.3242
-3.4093 access -0.3374
-3.8864 accessed -0.3580
-4.4885 accessible -0.3597
-4.4885 accessing -0.3566
-4.4885 accidents -0.3539
-4.4885 accommodate -0.3597
-4.4885 accompany -0.3338
-4.4885 accomplish -0.3590
-4.4885 accomplished -0.3577
-3.3423 according -0.3486
-3.7894 account -0.3258
-4.4885 accounting -0.3450
-4.4885 accumulating -0.3419
-2.9971 accuracy -0.2982
-3.7894 accurate -0.3587
-4.4885 achieve -0.3599
-3.6434 achieved -0.3410
-4.1874 achieving -0.3570
-4.4885 acknowledgments -0.3566
-3.0113 acoustic -0.3538
-4.1874 acoustics -0.3481
-4.4885 acquired -0.3598
-4.4885 acquisition -0.3499
-4.4885 acronyms -0.3450
-4.0113 across -0.3249
-4.4885 acting -0.3539
-3.7894 action -0.3376
-3.8864 actions -0.3262
-4.4885 active -0.3596
-4.1874 actively -0.3599
-4.0113 activities -0.3263
-4.4885 activity -0.3419
-3.8864 actual -0.3557
-4.1874 actually -0.3599
-4.4885 adamant -0.3504
-3.8864 adapt -0.3371
-4.4885 adaptable -0.3583
-4.4885 adaptation -0.3593
-4.1874 adapted -0.3470
-4.1874 adapting -0.3217
-4.4885 adaptive -0.3597
-4.1874 add -0.3556
-4.0113 added -0.3476
-3.8864 addition -0.3179
-3.5342 additional -0.3592
-3.4093 additionally -0.3179
-4.4885 additions -0.3570
-4.4885 additive -0.3599
-4.0113 address -0.3415
-4.4885 addressed -0.3486
-4.4885 adds -0.3338
-4.1874 adequate -0.3555
-4.4885 adequately -0.3599
-4.4885 adheres -0.3486
-4.4885 adhering -0.3486
-4.4885 adjusted -0.3599
-4.4885 adjusting -0.3338
-4.4885 adjustment -0.3499
-4.1874 administrator -0.3377
-4.1874 administrators -0.3597
-4.4885 adopt -0.3450
-4.4885 adopted -0.3419
-4.4885 adopting -0.3598
-4.4885 adult -0.3599
-4.1874 adults -0.3419
-4.4885 advance -0.3450
-4.4885 advantage -0.3499
-3.6434 advantages -0.3360
-4.4885 adversely -0.3419
-4.4885 advocate -0.3599
-4.4885 advocated -0.3566
-4.4885 advocates -0.3599
-4.1874 advocating -0.3595
-4.1874 affect -0.3322
-4.4885 affected -0.3577
-4.4885 afford -0.3419
-2.9444 after -0.3142
-4.4885 afternoon -0.3419
-4.0113 again -0.3419
-3.7894 against -0.3324
-3.8864 age -0.3296
-4.1874 agrees -0.3468
-4.1874 ahead -0.3319
-4.4885 aid -0.3338
-4.0113 aim -0.3315
-4.1874 aimed -0.3486
-4.4885 aircraft -0.3599
-4.4885 alarmingly -0.3450
-4.4885 album -0.3419
-4.1874 albums -0.3572
-2.9971 algorithm -0.2308
-3.3423 algorithms -0.2712
-4.4885 align -0.3583
-4.4885 aligns -0.3583
-4.1874 alike -0.3350
-2.8652 all -0.2678
-4.0113 allow -0.3338
-4.1874 allowed -0.3324
-3.3423 allows -0.3209
-3.8864 almost -0.3592
-4.1874 alone -0.3396
-3.7894 along -0.3388
-3.8864 alpha -0.3471
-4.1874 alphabet -0.3436
-3.7103 already -0.3525
-2.8550 also -0.2950
-3.8864 alt -0.3574
-4.4885 alternate -0.3598
-4.4885 alternative -0.3486
-4.1874 alternatively -0.3450
-4.4885 alternatives -0.3486
-3.4884 although -0.3265
-4.4885 always -0.3592
-3.3124 am -0.3500
-4.4885 ambient -0.3599
-3.5342 among -0.3584
-3.5854 amount -0.3499
-4.4885 amounts -0.3499
-4.4885 amplitude -0.3499
-2.4315 an -0.3450
-3.5854 analysis -0.3177
-4.1874 analyzers -0.3591
-4.4885 ancient -0.3598
-1.6611 and -0.0702
-4.1874 android -0.3417
-4.4885 anger -0.3419
-3.4093 another -0.3278
-4.4885 anova -0.3582
-4.4885 answered -0.3450
-4.4885 answers -0.3570
-4.1874 anthropocentric -0.3401
-3.7894 anti -0.3575
-4.4885 anticipating -0.3598
-4.1874 antivirus -0.3599
-3.0571 any -0.3422
-4.4885 anybody -0.3578
-4.1874 anyone -0.3588
-3.8864 anything -0.3377
-4.1874 anywhere -0.3538
-4.4885 apart -0.3585
-4.4885 apparatus -0.3504
-4.1874 apparent -0.3597
-4.4885 apparently -0.3562
-4.4885 appeal -0.3419
-4.4885 appearing -0.3486
-4.4885 appears -0.3539
-4.4885 appended -0.3486
-4.4885 appendix -0.3518
-4.4885 applauds -0.3599
-4.4885 apple -0.3592
-4.4885 appliance -0.3450
-4.4885 applicable -0.3486
-4.4885 applicants -0.3583
-2.7561 application -0.2632
-3.0735 applications -0.2881
-4.1874 applied -0.3486
-4.1874 applies -0.3486
-4.1874 apply -0.3502
-4.4885 applying -0.3599
-4.4885 appreciated -0.3598
-3.3124 approach -0.2665
-3.3423 approaches -0.3151
-4.1874 appropriate -0.3588
-4.4885 approved -0.3450
-4.1874 approximate -0.3338
-4.1874 approximated -0.3590
-4.4885 approximating -0.3338
-4.1874 approximation -0.3499
-4.4885 arbitrarily -0.3597
-4.4885 arch -0.3592
-4.0113 architecture -0.3341
-2.1918 are -0.2169
-4.4885 are)right-paren -0.3599
-3.6434 area -0.3168
-3.2580 areas -0.2907
-4.0113 arguments -0.3594
-4.4885 arise -0.3539
-4.1874 arm -0.3599
-4.4885 army -0.3599
-3.3423 around -0.2384
-4.0113 arpa -0.3578
-4.4885 arrangement -0.3419
-4.4885 arrangements -0.3504
-4.4885 array -0.3499
-4.4885 arrays -0.3450
-4.4885 arrives -0.3486
-4.4885 art -0.3584
-4.4885 article -0.3599
-4.1874 articles -0.3583
-4.4885 articulated -0.3590
-4.4885 articulates -0.3584
-4.4885 articulation -0.3598
-4.0113 articulatory -0.3597
-4.4885 artificial -0.3599
-4.4885 artists -0.3593
-2.1382 as -0.2419
-4.4885 asleep -0.3438
-4.4885 aspects -0.3499
-4.4885 assembly -0.3594
-4.4885 assessment -0.3599
-4.1874 assigned -0.3497
-4.4885 assigning -0.3598
-3.3423 assignment -0.3523
-3.5854 assignments -0.3380
-4.4885 assigns -0.3518
-4.1874 assist -0.3539
-3.8864 associated -0.3480
-4.1874 assume -0.3563
-4.1874 assumed -0.3455
-4.4885 assumes -0.3570
-3.7894 assuming -0.3488
-4.4885 assumption -0.3597
-2.6496 at -0.3135
-4.1874 attached -0.3300
-4.4885 attempt -0.3486
-4.4885 attempting -0.3486
-4.1874 attempts -0.3486
-4.4885 attention -0.3419
-4.4885 attenuated -0.3568
-4.4885 attorney -0.3599
-4.4885 attract -0.3599
-4.0113 attributes -0.3373
-4.1874 audacity -0.3350
-4.4885 audience -0.3419
-2.9700 audio -0.3572
-4.4885 august -0.3582
-4.4885 authentication -0.3450
-4.1874 author -0.3485
-4.4885 authorized -0.3597
-4.1874 automate -0.3337
-4.0113 automated -0.3400
-3.7103 automatic -0.3579
-3.7894 automatically -0.3158
-3.8864 automation -0.3346
-4.0113 automotive -0.3350
-4.4885 auxiliary -0.3598
-4.4885 availability -0.3586
-2.9444 available -0.2951
-4.4885 availed -0.3596
-3.8864 average -0.3595
-4.0113 avoid -0.3597
-4.4885 avoiding -0.3598
-4.4885 aware -0.3450
-4.0113 away -0.3197
-4.0113 b -0.3431
-3.5854 back -0.3253
-4.1874 background -0.3597
-4.4885 backups -0.3499
-3.5342 backward -0.3588
-3.7894 bad -0.3345
-4.1874 balance -0.3498
-4.4885 balances -0.3583
-4.4885 bandwidth -0.3599
-4.4885 bank -0.3338
-4.1874 bankrupt -0.3505
-4.4885 base -0.3597
-2.9444 based -0.3086
-4.4885 baseline -0.3438
-3.7894 basic -0.3583
-4.4885 basically -0.3599
-4.1874 bass -0.3595
-3.7894 batch -0.3333
-4.4885 batteries -0.3583
-2.0603 be -0.2502
-4.1874 beam -0.3574
-4.4885 beating -0.3499
-4.4885 beau -0.3599
-3.8864 became -0.3518
-3.4884 because -0.3171
-3.5342 become -0.3314
-3.7103 becomes -0.3587
-4.1874 becoming -0.3598
-4.4885 bed -0.3419
-4.4885 bedroom -0.3419
-2.8757 been -0.3399
-4.4885 beetles -0.3504
-3.7894 before -0.3443
-4.0113 began -0.3484
-3.4884 begin -0.3258
-4.1874 beginning -0.3492
-4.4885 begins -0.3338
-4.4885 behave -0.3539
-4.4885 behaves -0.3595
-3.7103 behavior -0.3232
-4.4885 behavioral -0.3586
-4.4885 behaviors -0.3504
-3.8864 behind -0.3454
-3.4093 being -0.3267
-4.1874 belong -0.3486
-4.4885 below -0.3539
-4.1874 benchmark -0.3502
-4.4885 benchmarks -0.3419
-4.4885 beneficial -0.3486
-3.8864 benefit -0.3514
-4.1874 benefits -0.3494
-4.4885 berg -0.3438
-4.4885 berries -0.3450
-4.0113 besides -0.3338
-3.2843 best -0.3442
-3.8864 bet -0.3429
-3.6434 beta -0.3565
-3.8864 bets -0.3561
-3.2843 better -0.3123
-4.0113 betting -0.3597
-3.3745 between -0.3320
-4.4885 beyond -0.3338
-4.4885 bi-gram -0.3590
-4.4885 biased -0.3599
-4.4885 bible -0.3486
-3.7894 big -0.3595
-4.0113 bigger -0.3592
-4.4885 biggest -0.3599
-4.1874 bigram -0.3440
-3.7894 bill -0.3520
-4.4885 bills -0.3595
-4.1874 bin -0.3597
-4.4885 binary -0.3599
-4.4885 biocentric -0.3419
-4.4885 biscuit -0.3599
-3.7894 biscuits -0.3254
-3.7103 bit -0.3458
-3.4093 black -0.3336
-4.4885 blank -0.3598
-4.4885 bleeding -0.3575
-4.4885 bliss -0.3419
-4.4885 blocks -0.3499
-4.4885 blow -0.3595
-4.4885 boats -0.3450
-4.4885 boiler -0.3599
-4.0113 book -0.3469
-4.4885 bookstore -0.3597
-4.4885 boon -0.3486
-4.4885 border -0.3599
-3.3124 both -0.3186
-4.4885 bound -0.3486
-4.0113 boundaries -0.3408
-3.8864 boundary -0.3527
-3.1083 box -0.3305
-4.4885 boyfriend -0.3599
-4.0113 branch -0.3597
-4.1874 branches -0.3538
-4.1874 break -0.3323
-4.4885 breaks -0.3419
-4.4885 breathing -0.3450
-4.4885 breech -0.3590
-4.4885 brewing -0.3599
-4.0113 brief -0.3597
-4.4885 bright -0.3598
-4.4885 brightness -0.3450
-4.4885 bring -0.3598
-4.1874 brings -0.3599
-4.4885 broad -0.3599
-4.4885 broadcast -0.3582
-4.4885 broader -0.3599
-4.4885 broken -0.3599
-4.4885 brother -0.3539
-4.4885 browse -0.3486
-4.4885 browsed -0.3504
-3.8864 browser -0.2980
-4.4885 budget -0.3599
-4.4885 budgeted -0.3486
-3.7894 buffer -0.3391
-3.7103 bugs -0.3553
-4.4885 build -0.3518
-3.7894 building -0.3420
-3.8864 built -0.3424
-4.4885 bullshit -0.3599
-4.4885 bundled -0.3539
-4.4885 bushes -0.3504
-3.1460 business -0.3156
-4.4885 businesses -0.3438
-4.4885 busy -0.3562
-2.9570 but -0.2829
-4.0113 button -0.3419
-4.4885 buttons -0.3419
-4.1874 buy -0.3518
-4.4885 buying -0.3338
-4.1874 bxs -0.3486
-2.2898 by -0.2877
-4.4885 bye -0.3587
-4.0113 byte -0.3598
-4.4885 bytes -0.3585
-3.3745 c -0.3298
-4.4885 cabinet -0.3419
-4.4885 cable -0.3486
-4.1874 cables -0.3431
-4.4885 cache -0.3599
-4.1874 calculate -0.3336
-3.8864 calculated -0.3400
-4.1874 calculates -0.3252
-4.4885 calculating -0.3338
-4.4885 calculations -0.3419
-3.3745 call -0.3371
-3.4093 called -0.3154
-4.0113 caller -0.3599
-3.8864 calls -0.3414
-2.2953 can -0.2831
-4.4885 canals -0.3450
-4.4885 candidate -0.3593
-4.4885 candidates -0.3419
-4.4885 cannot -0.3562
-4.0113 capabilities -0.3228
-4.4885 capability -0.3450
-3.8864 capable -0.3334
-4.1874 capacity -0.3582
-4.4885 captain -0.3450
-4.4885 card -0.3450
-4.4885 cards -0.3450
-4.0113 care -0.3519
-4.1874 career -0.3506
-4.0113 careful -0.3482
-4.0113 carefully -0.3575
-4.4885 carried -0.3581
-4.4885 carrier -0.3599
-4.4885 carriers -0.3419
-4.4885 carry -0.3581
-4.4885 cars -0.3450
-3.3124 case -0.3096
-3.8864 cases -0.2941
-4.1874 casual -0.3417
-4.1874 catastrophic -0.3599
-4.4885 catch -0.3419
-4.4885 catchphrase -0.3599
-4.4885 categorically -0.3596
-4.0113 categories -0.3314
-4.4885 categorization -0.3599
-4.4885 categorize -0.3338
-4.4885 category -0.3599
-4.4885 cause -0.3338
-4.4885 caused -0.3577
-4.4885 causes -0.3504
-3.6434 cell -0.3371
-3.8864 center -0.3537
-4.4885 centers -0.3450
-4.1874 central -0.3596
-4.4885 centralized -0.3592
-4.1874 century -0.3518
-4.1874 cepstral -0.3598
-3.8864 cepstrum -0.3301
-3.5854 certain -0.3587
-4.4885 certainly -0.3599
-4.4885 certify -0.3338
-4.0113 challenge -0.3562
-3.6434 challenges -0.3265
-4.0113 challenging -0.3593
-3.7103 change -0.3246
-3.6434 changed -0.3012
-3.7894 changes -0.3251
-4.4885 channel -0.3450
-4.4885 channels -0.3599
-3.4471 chapter -0.3344
-4.0113 character -0.3350
-4.4885 characteristic -0.3598
-4.1874 characteristics -0.3499
-4.4885 characterized -0.3577
-4.4885 characters -0.3450
-3.8864 charge -0.3315
-4.4885 charters -0.3504
-4.0113 charts -0.3363
-4.4885 chat -0.3599
-4.0113 cheap -0.3504
-4.4885 cheaper -0.3486
-3.6434 check -0.3523
-3.8864 checkbook -0.3599
-4.0113 checked -0.3239
-3.5854 checking -0.3175
-4.1874 checks -0.3332
-4.4885 chicken -0.3504
-4.4885 child -0.3598
-4.4885 childhood -0.3419
-4.0113 children -0.3595
-4.4885 chinook -0.3597
-4.4885 chips -0.3419
-4.1874 choice -0.3380
-3.8864 choose -0.3333
-4.4885 choosing -0.3596
-4.4885 chores -0.3592
-4.0113 chose -0.3486
-3.8864 chosen -0.3594
-4.4885 chum -0.3597
-4.4885 church -0.3597
-4.1874 circuit -0.3599
-4.4885 circuits -0.3599
-4.4885 circumstances -0.3450
-4.4885 cited -0.3450
-4.4885 citizens -0.3499
-4.4885 city -0.3599
-4.4885 clarity -0.3450
-3.5342 class -0.3351
-3.8864 classes -0.3144
-4.4885 classic -0.3598
-4.1874 classroom -0.3419
-4.4885 cleanups -0.3504
-3.8864 clear -0.3178
-4.4885 cleared -0.3599
-4.4885 clearer -0.3419
-4.1874 clearly -0.3597
-3.6434 click -0.3255
-4.4885 clicking -0.3338
-4.4885 clicks -0.3419
-4.0113 client -0.3418
-3.7103 clients -0.3331
-4.4885 climb -0.3486
-4.4885 climbing -0.3450
-4.4885 clones -0.3419
-4.0113 close -0.3053
-4.1874 closed -0.3460
-4.4885 cluster -0.3419
-4.1874 co -0.3575
-4.1874 co-variance -0.3599
-4.4885 coast -0.3419
-4.4885 coasts -0.3450
-4.4885 coax -0.3584
-2.9322 code -0.2805
-4.1874 codename -0.3449
-4.4885 codified -0.3539
-4.4885 coding -0.3599
-4.1874 coefficients -0.3450
-4.1874 coffee -0.3412
-4.4885 coho -0.3597
-4.1874 coin -0.3599
-4.4885 coined -0.3577
-4.4885 cold -0.3587
-4.4885 collaborate -0.3504
-4.4885 collaboration -0.3584
-4.4885 collaborative -0.3598
-4.4885 colleagues -0.3504
-3.6434 collect -0.3406
-4.1874 collecting -0.3512
-4.4885 collection -0.3499
-4.4885 colon -0.3587
-4.4885 colons -0.3450
-4.1874 color -0.3599
-4.1874 com -0.3445
-4.1874 combination -0.3383
-4.1874 combined -0.3521
-4.4885 combining -0.3596
-4.0113 combo -0.3585
-4.1874 come -0.3583
-4.4885 comeback -0.3486
-4.0113 comes -0.3589
-4.1874 coming -0.3597
-3.4093 command -0.3411
-3.5854 commands -0.2926
-4.4885 commas -0.3504
-4.4885 commentaries -0.3450
-3.7894 commercial -0.3576
-4.4885 commit -0.3486
-3.2097 common -0.3276
-4.4885 commonly -0.3599
-4.0113 communicate -0.3461
-3.8864 communication -0.3498
-4.4885 communications -0.3486
-4.4885 communities -0.3486
-4.0113 community -0.3225
-4.4885 compact -0.3596
-3.8864 companies -0.3396
-3.3124 company -0.2786
-4.4885 comparable -0.3486
-4.4885 compare -0.3593
-3.8864 compared -0.3486
-4.4885 comparing -0.3592
-4.4885 comparison -0.3583
-4.4885 compatibility -0.3584
-4.1874 compatible -0.3582
-3.8864 compensation -0.3337
-4.1874 competitive -0.3599
-3.7894 compile -0.3303
-4.0113 compiled -0.3460
-4.0113 compiler -0.3599
-4.4885 compilers -0.3419
-4.0113 compiling -0.3338
-4.4885 complements -0.3338
-3.6434 complete -0.3234
-4.0113 completed -0.3268
-4.1874 completely -0.3598
-4.4885 completes -0.3599
-4.0113 completion -0.3315
-3.6434 complex -0.3459
-4.1874 complexity -0.3346
-4.4885 complicated -0.3568
-3.5854 component -0.3397
-3.4093 components -0.2846
-3.8864 composed -0.3577
-4.4885 composing -0.3450
-4.0113 compound -0.3599
-4.4885 comprehensive -0.3599
-4.4885 compressing -0.3338
-4.4885 comprise -0.3598
-3.7894 comprises -0.3334
-4.4885 comprising -0.3595
-4.4885 compromise -0.3438
-4.4885 compromised -0.3594
-4.4885 computation -0.3419
-3.7894 computational -0.3594
-4.1874 computationally -0.3599
-4.4885 computations -0.3568
-3.8864 compute -0.3330
-3.8864 computed -0.3590
-3.1874 computer -0.2841
-3.7894 computers -0.3114
-4.1874 concatenation -0.3334
-4.1874 concept -0.3499
-4.4885 concepts -0.3419
-3.8864 concern -0.3226
-4.4885 concerned -0.3597
-4.0113 concerning -0.3516
-4.1874 concerns -0.3356
-3.7894 conclusion -0.3254
-4.0113 conclusions -0.3232
-4.0113 condition -0.3593
-4.4885 conditional -0.3595
-4.0113 conditions -0.3444
-4.4885 conference -0.3599
-4.4885 conferencing -0.3450
-4.4885 confidentiality -0.3599
-3.7894 configuration -0.3144
-4.1874 configurations -0.3431
-4.4885 configured -0.3599
-4.1874 confirm -0.3595
-4.4885 conflicted -0.3583
-4.4885 conform -0.3486
-4.4885 connect -0.3338
-4.4885 connected -0.3419
-4.0113 connecting -0.3599
-4.4885 connections -0.3419
-4.4885 connectivity -0.3599
-4.0113 connects -0.3485
-4.4885 consciously -0.3599
-4.4885 consecutive -0.3599
-4.4885 consequently -0.3450
-4.4885 conservation -0.3596
-3.8864 consider -0.3007
-4.4885 consideration -0.3419
-3.8864 considered -0.3216
-4.1874 considering -0.3569
-4.1874 consist -0.3499
-4.1874 consisted -0.3520
-4.4885 consistencies -0.3539
-4.4885 consistent -0.3583
-4.4885 consists -0.3499
-4.4885 constant -0.3593
-4.0113 constrained -0.3576
-4.1874 constraints -0.3597
-4.1874 construct -0.3332
-4.4885 constructed -0.3583
-4.4885 constructor -0.3575
-3.3745 consulting -0.3359
-4.4885 consuming -0.3504
-3.7103 contact -0.3412
-3.4471 contain -0.3230
-4.4885 contained -0.3598
-4.4885 containers -0.3504
-3.2580 containing -0.3206
-3.6434 contains -0.3241
-4.4885 contaminated -0.3597
-3.6434 content -0.3435
-4.4885 contention -0.3570
-4.1874 contents -0.3499
-4.1874 context -0.3413
-3.8864 continue -0.3479
-4.1874 continued -0.3217
-4.4885 continues -0.3599
-3.4884 continuous -0.3257
-4.4885 continuously -0.3562
-4.4885 contract -0.3599
-4.4885 contracted -0.3577
-4.1874 contrast -0.3450
-4.4885 contribute -0.3486
-4.4885 contributes -0.3486
-4.4885 contributing -0.3599
-4.1874 contribution -0.3409
-4.1874 contributions -0.3390
-3.7894 control -0.3362
-4.4885 controlled -0.3577
-4.4885 controversial -0.3598
-4.4885 convenient -0.3562
-4.4885 convention -0.3594
-4.4885 conventions -0.3450
-4.4885 converge -0.3593
-4.1874 convergence -0.3499
-4.4885 conversation -0.3438
-4.1874 conversational -0.3483
-3.7103 conversion -0.3334
-3.8864 convert -0.3560
-4.1874 converted -0.3512
-4.4885 converter -0.3592
-4.4885 converting -0.3338
-4.1874 converts -0.3583
-4.4885 convey -0.3518
-4.4885 cool -0.3598
-4.4885 coordinate -0.3583
-4.4885 copied -0.3486
-4.0113 copy -0.3572
-4.4885 copyright -0.3599
-4.4885 copyrighted -0.3596
-3.5342 core -0.3498
-4.4885 corner -0.3486
-4.4885 corners -0.3419
-4.4885 corpora -0.3597
-4.1874 corporate -0.3599
-3.1267 corpus -0.3005
-3.7103 correct -0.3412
-4.4885 corrected -0.3504
-4.1874 correction -0.3416
-3.4093 correctly -0.3252
-4.4885 correlated -0.3597
-4.1874 correspond -0.3486
-3.7103 corresponding -0.3477
-3.8864 corresponds -0.3486
-4.4885 cos -0.3594
-4.0113 cosmetic -0.3502
-3.7894 cost -0.3583
-4.1874 costs -0.3529
-3.2580 could -0.3487
-4.1874 count -0.3598
-4.4885 countries -0.3572
-4.4885 coup -0.3419
-4.0113 couple -0.3499
-4.4885 coupled -0.3583
-3.7894 course -0.2974
-4.1874 courses -0.3585
-4.4885 cover -0.3518
-3.2843 coverage -0.3212
-4.4885 crashed -0.3598
-3.3423 create -0.3099
-3.2580 created -0.3009
-4.1874 creates -0.3518
-3.3745 creating -0.3221
-3.7103 creation -0.3342
-4.4885 creations -0.3504
-4.0113 creative -0.3598
-4.4885 creativity -0.3583
-4.1874 credential -0.3419
-4.1874 credentials -0.3463
-4.4885 creeds -0.3486
-4.4885 crew -0.3598
-4.1874 crewmen -0.3572
-4.4885 crisis -0.3450
-4.1874 criterion -0.3319
-4.0113 critical -0.3485
-4.4885 cropping -0.3595
-4.1874 cross -0.3575
-4.4885 cruel -0.3599
-4.4885 crying -0.3504
-4.4885 cube -0.3598
-4.1874 cumbersome -0.3486
-4.4885 cup -0.3499
-4.4885 cure -0.3566
-4.4885 cures -0.3595
-3.4093 current -0.3402
-3.8864 currently -0.3400
-4.4885 curve -0.3583
-3.2332 custom -0.3558
-3.8864 customer -0.3596
-4.0113 customers -0.3296
-4.4885 cut -0.3598
-3.7103 cycle -0.3308
-4.4885 cycled -0.3597
-4.4885 cycles -0.3504
-4.4885 cynicism -0.3599
-3.1083 d -0.3418
-4.4885 daily -0.3599
-2.8353 data -0.2709
-4.0113 database -0.3581
-3.8864 databases -0.3404
-4.1874 date -0.3523
-4.0113 dates -0.3446
-4.4885 daunting -0.3597
-3.4884 day -0.3133
-3.7894 days -0.3130
-4.4885 db -0.3593
-4.1874 dead -0.3599
-4.1874 deal -0.3551
-4.0113 dealing -0.3583
-4.0113 deals -0.3583
-4.1874 debris -0.3507
-4.1874 debts -0.3595
-3.8864 debug -0.3595
-4.0113 debugging -0.3590
-4.4885 decade -0.3450
-3.8864 decades -0.3078
-4.4885 decent -0.3595
-4.4885 decide -0.3486
-3.8864 decided -0.3486
-4.4885 decision -0.3599
-4.4885 decisions -0.3450
-3.4884 decode -0.3082
-3.6434 decoded -0.3371
-3.5854 decoder -0.2766
-4.1874 decoders -0.3417
-3.1874 decoding -0.3239
-4.4885 decrease -0.3338
-4.0113 decreasing -0.3332
-4.4885 deduction -0.3562
-4.4885 deep -0.3598
-4.4885 deeply -0.3438
-3.1874 default -0.3123
-4.4885 defect -0.3419
-4.4885 defends -0.3593
-4.4885 define -0.3518
-3.7103 defined -0.3296
-4.4885 defines -0.3598
-3.7103 definition -0.3340
-4.4885 definitions -0.3594
-4.4885 degradation -0.3499
-4.4885 degree -0.3599
-4.4885 degrees -0.3419
-4.4885 delay -0.3419
-4.4885 delayed -0.3599
-4.4885 delays -0.3539
-4.4885 deleted -0.3584
-4.4885 deletions -0.3597
-4.0113 dell -0.3437
-3.5342 delta -0.3571
-4.0113 demand -0.3562
-4.4885 demands -0.3438
-4.0113 demonstrate -0.3488
-4.4885 demonstrates -0.3570
-4.4885 dempster -0.3539
-4.4885 denote -0.3599
-4.0113 density -0.3595
-4.4885 department -0.3562
-4.4885 depend -0.3581
-4.4885 dependent -0.3599
-3.7894 depending -0.3581
-3.8864 depends -0.3574
-3.7894 depicted -0.3529
-4.0113 depicts -0.3317
-4.4885 deployment -0.3419
-4.4885 derivations -0.3450
-3.8864 describe -0.3299
-3.5854 described -0.3382
-3.5342 describes -0.3269
-4.4885 describing -0.3338
-3.8864 description -0.3051
-4.4885 descriptoin -0.3599
-3.5342 design -0.3269
-3.4093 designed -0.2886
-4.4885 designer -0.3450
-4.1874 designing -0.3504
-3.7103 desired -0.3287
-4.4885 desires -0.3599
-4.0113 desk -0.3503
-3.5854 desktop -0.3111
-4.4885 desktops -0.3530
-4.0113 despite -0.3338
-3.8864 detail -0.3146
-3.7103 detailed -0.3465
-4.1874 details -0.3554
-4.4885 detect -0.3599
-3.4471 determine -0.3320
-3.5854 determined -0.3196
-4.4885 determines -0.3595
-4.4885 determining -0.3599
-3.5342 develop -0.2991
-3.3124 developed -0.2871
-3.8864 developer -0.3569
-4.0113 developers -0.3140
-4.4885 developing -0.3583
-2.7983 development -0.2738
-4.0113 device -0.3249
-3.6434 devices -0.3250
-4.4885 diagnostic -0.3598
-4.0113 diagram -0.3102
-4.4885 diagrams -0.3450
-4.4885 dialog -0.3419
-3.5342 dic -0.3200
-3.5342 dict -0.3418
-4.4885 dict-generator -0.3595
-4.4885 dictate -0.3593
-3.7103 dictation -0.3338
-3.8864 dictionaries -0.3321
-2.6823 dictionary -0.2129
-3.7894 did -0.3514
-4.4885 die -0.3598
-4.4885 died -0.3585
-3.7894 difference -0.3408
-4.4885 differences -0.3539
-2.8864 different -0.3358
-4.1874 differentials -0.3499
-4.4885 differs -0.3585
-3.5342 difficult -0.3473
-4.0113 difficulties -0.3583
-4.4885 digestion -0.3450
-4.1874 digit -0.3263
-3.8864 digital -0.3592
-4.4885 digits -0.3562
-4.4885 dilemma -0.3586
-4.4885 dilemmas -0.3504
-4.4885 dimension -0.3530
-4.4885 dimming -0.3450
-4.0113 direct -0.3595
-4.1874 direction -0.3365
-4.4885 directions -0.3504
-3.7894 directly -0.3400
-4.4885 director -0.3499
-4.4885 directory -0.3599
-4.4885 disadvantages -0.3499
-4.4885 disappear -0.3419
-4.4885 disappearance -0.3499
-3.8864 discard -0.3564
-4.1874 discipline -0.3450
-4.4885 disciplines -0.3594
-4.4885 discover -0.3594
-4.4885 discovered -0.3598
-4.0113 discovery -0.3262
-4.4885 discrete -0.3599
-4.1874 discriminate -0.3503
-4.1874 discussed -0.3413
-4.1874 discusses -0.3338
-4.0113 discussion -0.3599
-4.4885 discussions -0.3577
-4.4885 dishes -0.3419
-4.4885 disk -0.3504
-4.4885 disks -0.3599
-4.4885 dismantling -0.3599
-3.8864 display -0.3502
-3.7103 displayed -0.3247
-4.4885 disputes -0.3450
-4.4885 distance -0.3599
-4.4885 distinguish -0.3599
-4.1874 distortions -0.3486
-3.7894 distribution -0.3143
-4.1874 distributions -0.3599
-4.1874 distros -0.3502
-4.1874 diverse -0.3598
-4.4885 diversity -0.3504
-4.4885 divide -0.3577
-4.4885 dll -0.3590
-3.1267 do -0.3233
-4.4885 doctor -0.3539
-3.8864 document -0.3598
-3.4471 documentation -0.3251
-3.5342 documents -0.3520
-3.3124 does -0.3318
-4.4885 dog -0.3582
-3.7103 doing -0.3318
-4.1874 dolla -0.3263
-3.8864 domain -0.3401
-4.4885 domains -0.3419
-4.4885 domestic -0.3599
-4.4885 don -0.3592
-3.3745 done -0.3512
-3.8864 double -0.3597
-4.4885 doubling -0.3595
-3.5342 down -0.2971
-3.7103 download -0.3033
-4.0113 downloaded -0.3585
-4.0113 downloading -0.3470
-4.4885 downloads -0.3593
-4.4885 drag -0.3599
-4.4885 drastically -0.3599
-4.4885 draw -0.3595
-4.4885 drawback -0.3499
-4.4885 drive -0.3419
-4.1874 driven -0.3577
-4.4885 drivers -0.3419
-4.4885 drives -0.3572
-4.4885 driving -0.3596
-4.4885 drunk -0.3504
-3.5342 due -0.3300
-4.4885 dumping -0.3599
-4.4885 dumps -0.3584
-4.1874 duo -0.3592
-4.1874 duration -0.3499
-2.8757 during -0.3108
-4.1874 duty -0.3575
-4.1874 dynamic -0.3599
-4.4885 dynamite -0.3504
-3.8864 e -0.3415
-2.7642 each -0.3220
-4.4885 eager -0.3486
-4.0113 earlier -0.3537
-4.0113 early -0.3537
-4.4885 earn -0.3338
-4.0113 ease -0.3232
-3.6434 easier -0.3124
-3.7894 easily -0.3410
-4.4885 east -0.3599
-4.1874 eastern -0.3592
-4.1874 easy -0.3484
-4.4885 eat -0.3599
-4.4885 ecocentric -0.3584
-4.1874 economic -0.3599
-4.0113 economical -0.3417
-4.4885 ecosmiles -0.3450
-4.1874 ecosystem -0.3579
-4.1874 edge -0.3580
-4.4885 edges -0.3584
-3.8864 edit -0.3307
-4.1874 edited -0.3375
-4.1874 editing -0.3401
-4.1874 edition -0.3529
-4.4885 editor -0.3584
-4.1874 education -0.3419
-3.8864 effect -0.3499
-3.8864 effective -0.3442
-4.1874 effectively -0.3356
-3.5854 effects -0.3317
-3.7103 efficiency -0.3303
-3.7894 efficient -0.3315
-4.1874 efficiently -0.3579
-4.4885 efforts -0.3539
-4.1874 eight -0.3449
-4.1874 eighty -0.3597
-3.6434 either -0.3329
-4.4885 elaborated -0.3590
-4.4885 elapsed -0.3598
-4.1874 elements -0.3409
-4.4885 eliminates -0.3338
-4.4885 else -0.3599
-4.4885 em -0.3582
-4.0113 email -0.3484
-3.5854 embedded -0.3556
-4.4885 emergencies -0.3450
-3.7894 emission -0.3496
-4.4885 emitting -0.3504
-4.4885 emphasize -0.3570
-4.4885 emphasized -0.3504
-4.1874 employed -0.3423
-4.1874 employees -0.3263
-4.4885 employers -0.3486
-4.4885 employment -0.3599
-4.4885 empty -0.3591
-4.4885 emulate -0.3518
-4.4885 en -0.3419
-4.0113 enable -0.3596
-4.0113 enabled -0.3591
-4.4885 enables -0.3599
-4.1874 encapsulation -0.3572
-3.5342 encoding -0.3282
-4.4885 encourage -0.3597
-4.4885 encouraged -0.3583
-4.4885 encouragement -0.3594
-4.4885 encouraging -0.3597
-4.4885 encryption -0.3599
-4.4885 encyclopedia -0.3419
-3.1083 end -0.2703
-4.4885 endanger -0.3338
-4.1874 ends -0.3503
-3.7894 energy -0.3129
-4.1874 engagement -0.3597
-4.1874 engine -0.3598
-4.4885 engineer -0.3450
-4.4885 engineering -0.3450
-4.0113 enhance -0.3333
-4.4885 enhanced -0.3584
-4.4885 enhancements -0.3504
-4.4885 enjoy -0.3598
-4.4885 enjoyable -0.3599
-3.7894 enough -0.3481
-3.4884 ensure -0.3288
-4.4885 ensured -0.3419
-4.1874 ensures -0.3338
-4.1874 ensuring -0.3485
-4.4885 enter -0.3518
-4.4885 entered -0.3593
-4.4885 entering -0.3594
-4.4885 enthused -0.3597
-3.7103 entire -0.3558
-4.1874 entirely -0.3356
-4.4885 entitlement -0.3575
-4.1874 envelope -0.3418
-3.2332 environment -0.2923
-3.0571 environmental -0.3444
-4.4885 epistemology -0.3450
-4.4885 epsilon -0.3450
-4.1874 equal -0.3486
-4.4885 equation -0.3584
-4.4885 equidistant -0.3581
-3.7894 equipment -0.3236
-4.4885 equipped -0.3583
-4.4885 equitable -0.3599
-4.4885 equities -0.3594
-4.1874 equivalence -0.3599
-4.4885 er -0.3599
-3.3124 error -0.3398
-3.4471 errors -0.3191
-4.4885 escape -0.3598
-4.4885 escorts -0.3562
-4.1874 especially -0.3593
-3.8864 essential -0.3542
-4.4885 essentially -0.3450
-4.1874 established -0.3577
-4.1874 estimate -0.3401
-4.0113 estimated -0.3335
-3.8864 estimates -0.3303
-4.4885 estimating -0.3585
-4.4885 estimator -0.3539
-4.1874 etc -0.3400
-3.1460 ethical -0.3559
-3.1083 ethics -0.2876
-4.4885 ethnobiology -0.3504
-4.4885 ethnobotanical -0.3597
-4.4885 etymology -0.3499
-3.4884 evaluate -0.3281
-4.0113 evaluated -0.3254
-4.0113 evaluating -0.3335
-3.5854 evaluation -0.3307
-3.0905 even -0.3140
-4.1874 evening -0.3419
-3.7894 event -0.3136
-4.4885 events -0.3570
-4.4885 eventual -0.3599
-4.0113 eventually -0.3598
-4.1874 ever -0.3419
-3.2843 every -0.3529
-4.1874 everyone -0.3549
-4.4885 everyone's -0.3597
-4.1874 everything -0.3346
-4.4885 evidence -0.3499
-4.4885 evolution -0.3499
-4.0113 evolved -0.3420
-4.4885 evolving -0.3599
-4.1874 exact -0.3597
-3.7894 exactly -0.3329
-4.4885 examine -0.3592
-4.4885 examining -0.3518
-2.7250 example -0.3101
-4.1874 examples -0.3481
-4.1874 exceed -0.3595
-4.4885 exception -0.3530
-4.4885 exciting -0.3597
-4.4885 exclamation -0.3575
-4.4885 excuse -0.3530
-4.4885 excused -0.3450
-4.1874 executable -0.3498
-3.3423 execute -0.2823
-3.7103 executed -0.3078
-4.4885 executes -0.3598
-3.8864 executing -0.3338
-3.2580 execution -0.2757
-3.8864 executive -0.3598
-4.4885 exercise -0.3599
-4.4885 exhibit -0.3518
-4.4885 exhibitions -0.3590
-3.8864 exist -0.3459
-4.4885 existence -0.3499
-3.3423 existing -0.3542
-4.1874 exit -0.3338
-4.4885 expanded -0.3599
-4.1874 expands -0.3504
-3.7894 expectation -0.3393
-4.1874 expectations -0.3581
-3.4884 expected -0.3444
-4.4885 expenses -0.3419
-4.4885 expensive -0.3597
-3.6434 experience -0.3399
-3.7103 experienced -0.3460
-4.4885 experiences -0.3539
-4.4885 experiment -0.3583
-4.4885 experimentation -0.3504
-4.4885 expert -0.3599
-4.4885 expertise -0.3595
-4.1874 explain -0.3569
-4.0113 explained -0.3589
-4.4885 explains -0.3570
-4.4885 exponential -0.3599
-4.4885 exponentially -0.3419
-4.4885 express -0.3438
-3.8864 expressed -0.3238
-4.0113 expressions -0.3448
-4.4885 extend -0.3592
-4.4885 extendable -0.3585
-4.0113 extended -0.3599
-4.1874 extension -0.3404
-4.4885 extensions -0.3486
-4.1874 extensive -0.3596
-3.7894 external -0.3584
-4.4885 extra -0.3598
-4.1874 extract -0.3333
-4.4885 extracting -0.3591
-3.8864 extraction -0.2975
-3.3423 extractor -0.3190
-4.4885 extremely -0.3599
-4.4885 extremes -0.3598
-4.4885 eyes -0.3419
-4.4885 f -0.3594
-4.1874 face -0.3401
-4.0113 faced -0.3580
-4.1874 facilitator -0.3596
-3.7894 fact -0.3419
-4.1874 factor -0.3532
-4.4885 factories -0.3539
-3.7894 factors -0.3385
-4.4885 failing -0.3486
-4.1874 fails -0.3387
-4.4885 failures -0.3594
-3.7894 fairly -0.3591
-4.4885 faith -0.3539
-4.4885 fallacy -0.3450
-4.4885 falling -0.3599
-4.4885 falloff -0.3499
-4.1874 false -0.3598
-4.4885 familiar -0.3583
-4.4885 families -0.3562
-3.8864 family -0.3212
-4.1874 far -0.3449
-4.1874 farm -0.3488
-4.4885 farms -0.3419
-3.5854 fast -0.3455
-3.8864 faster -0.3062
-4.0113 fastest -0.3589
-4.4885 fate -0.3499
-4.4885 father -0.3592
-4.4885 favorite -0.3599
-4.4885 fear -0.3504
-4.0113 feasible -0.3485
-3.3745 feature -0.3398
-3.1267 features -0.2965
-4.1874 feel -0.3496
-4.4885 feeling -0.3599
-4.4885 feels -0.3486
-4.4885 fees -0.3419
-4.4885 felt -0.3599
-4.4885 female -0.3593
-3.7894 few -0.3593
-4.4885 fewer -0.3599
-4.4885 fiber -0.3599
-4.1874 field -0.3437
-4.1874 fields -0.3450
-4.0113 fifty -0.3595
-2.7561 figure -0.2844
-2.6689 file -0.2092
-2.6823 files -0.2340
-4.4885 filled -0.3585
-3.8864 filter -0.3449
-4.0113 filtered -0.3414
-4.1874 filters -0.3333
-3.6434 final -0.3592
-3.5854 finally -0.3450
-4.4885 finance -0.3504
-4.4885 financial -0.3598
-3.3745 find -0.2948
-3.7894 finding -0.3235
-4.1874 finds -0.3485
-4.4885 fine -0.3575
-4.4885 finicky -0.3419
-4.4885 finish -0.3595
-4.1874 finished -0.3333
-4.4885 fire -0.3599
-4.4885 fires -0.3450
-4.1874 firewall -0.3488
-4.4885 firewood -0.3562
-4.4885 firm -0.3595
-3.0261 first -0.2970
-4.4885 fisherman -0.3450
-4.0113 fishing -0.3400
-4.4885 fist -0.3590
-3.8864 fit -0.3270
-3.2332 five -0.3029
-4.0113 fix -0.3485
-3.8864 fixed -0.3598
-4.4885 fixing -0.3599
-4.4885 flag -0.3419
-4.4885 fleet -0.3598
-4.0113 flexibility -0.3396
-3.8864 flexible -0.3314
-4.4885 fliers -0.3450
-4.4885 flip -0.3599
-4.4885 flipped -0.3598
-4.4885 flow -0.3598
-3.7894 focus -0.3575
-4.1874 focused -0.3571
-3.8864 focuses -0.3581
-3.3124 folder -0.2811
-4.0113 folders -0.3404
-4.4885 folds -0.3572
-3.7103 follow -0.3245
-4.1874 followed -0.3573
-4.4885 followers -0.3419
-2.9833 following -0.2985
-3.7894 follows -0.3322
-4.4885 food -0.3504
-2.0620 for -0.2432
-4.4885 forecast -0.3585
-4.4885 foreign -0.3596
-4.0113 forest -0.3448
-4.4885 forged -0.3583
-4.4885 forgot -0.3486
-3.7894 form -0.3045
-4.4885 formant -0.3599
-4.4885 formants -0.3562
-3.6434 format -0.3237
-4.1874 forms -0.3569
-4.4885 formula -0.3584
-4.1874 formulas -0.3396
-4.4885 fortune -0.3597
-4.4885 forty -0.3597
-3.8864 forum -0.3404
-3.3745 forward -0.3407
-4.4885 foster -0.3518
-3.3124 found -0.3193
-4.4885 founded -0.3577
-3.5854 four -0.3271
-4.4885 fourth -0.3504
-4.4885 fourty -0.3599
-4.1874 frame -0.3409
-4.0113 frames -0.3316
-3.8864 framework -0.3341
-3.1083 free -0.2859
-3.7103 freedom -0.2919
-4.1874 freely -0.3580
-4.4885 french -0.3504
-3.6434 frequencies -0.3353
-4.1874 frequency -0.3568
-4.1874 fresh -0.3538
-4.4885 friend -0.3419
-4.4885 friendly -0.3338
-2.4673 from -0.2374
-3.4471 front -0.3470
-4.4885 frustrating -0.3486
-4.4885 fuck -0.3594
-3.7894 full -0.3342
-3.8864 fully -0.3572
-4.4885 fun -0.3599
-3.1662 function -0.2993
-3.8864 functional -0.3480
-4.4885 functionality -0.3450
-4.4885 functionally -0.3586
-3.4884 functions -0.2962
-3.8864 fundamental -0.3585
-4.4885 fungus -0.3450
-3.7103 further -0.3443
-3.3124 furthermore -0.3415
-3.3745 future -0.3298
-4.4885 g -0.3419
-4.0113 gain -0.3417
-3.7103 gambler -0.3565
-4.0113 gambler's -0.3598
-4.0113 gamblers -0.3536
-4.4885 game -0.3539
-4.4885 games -0.3450
-4.4885 gaps -0.3504
-4.4885 garage -0.3419
-4.4885 gathered -0.3594
-4.4885 gauging -0.3562
-4.4885 geared -0.3598
-4.0113 gender -0.3417
-3.8864 general -0.3422
-4.4885 generalized -0.3590
-4.0113 generally -0.3596
-3.3745 generate -0.3232
-3.3423 generated -0.3541
-3.5854 generates -0.3252
-3.5342 generating -0.3252
-3.6434 generation -0.3163
-3.5854 generator -0.3146
-3.2580 get -0.3210
-3.8864 gets -0.3596
-4.4885 getting -0.3599
-4.4885 giants -0.3450
-4.4885 girl -0.3584
-4.0113 give -0.3252
-3.1267 given -0.2928
-4.0113 gives -0.3250
-4.4885 giving -0.3596
-4.4885 glad -0.3592
-4.4885 glib -0.3419
-4.0113 gmail -0.3418
-4.0113 gnu -0.3415
-3.5342 go -0.3250
-3.7894 goal -0.3356
-4.0113 goals -0.3401
-4.4885 gobs -0.3499
-4.1874 goes -0.3596
-3.7103 going -0.3449
-4.4885 golden -0.3599
-3.1874 good -0.3338
-4.4885 gotten -0.3599
-4.4885 gov -0.3593
-4.4885 government -0.3599
-4.4885 governor -0.3599
-4.0113 grade -0.3553
-4.4885 grades -0.3562
-4.4885 gradient -0.3450
-4.1874 grading -0.3437
-4.4885 gradually -0.3599
-3.8864 gram -0.3584
-4.1874 grammar -0.3319
-4.4885 grammars -0.3504
-4.4885 grammatical -0.3504
-4.4885 grammatically -0.3598
-4.4885 grams -0.3595
-4.1874 granted -0.3263
-4.4885 grants -0.3596
-4.1874 graphical -0.3590
-4.4885 graphics -0.3486
-4.4885 grasses -0.3419
-4.4885 grateful -0.3583
-4.4885 grazing -0.3599
-4.0113 great -0.3599
-4.1874 greater -0.3598
-4.1874 greatest -0.3598
-4.0113 greatly -0.3584
-4.4885 grep -0.3598
-4.4885 grounds -0.3562
-3.5342 group -0.3289
-3.7894 groups -0.2997
-4.1874 grow -0.3553
-4.1874 growing -0.3263
-4.4885 grows -0.3438
-3.7103 growth -0.3337
-4.4885 guarantee -0.3570
-4.1874 guess -0.3561
-4.4885 guidance -0.3592
-4.1874 guide -0.3599
-4.4885 guides -0.3450
-4.1874 h -0.3419
-4.4885 habits -0.3599
-4.4885 hackers -0.3597
-3.3423 had -0.2911
-4.4885 hamming -0.3598
-3.3745 hand -0.3221
-4.1874 handing -0.3506
-3.7894 handle -0.3502
-3.8864 handling -0.3151
-4.1874 hands -0.3147
-4.4885 handy -0.3598
-4.1874 happen -0.3590
-4.4885 happening -0.3594
-4.1874 happy -0.3486
-4.1874 hard -0.3486
-4.4885 harder -0.3419
-3.7894 hardware -0.3239
-4.1874 harm -0.3423
-4.1874 harvesting -0.3401
-4.1874 harvests -0.3501
-2.7031 has -0.2820
-4.0113 hash -0.3599
-4.4885 hasn't -0.3597
-4.4885 hassenzahl -0.3596
-2.6559 have -0.2840
-3.3423 having -0.3107
-3.8864 he -0.3514
-4.4885 he's -0.3599
-4.1874 head -0.3484
-4.4885 headless -0.3595
-4.1874 heads -0.3350
-3.8864 health -0.3449
-4.4885 healthcare -0.3450
-4.4885 heart -0.3450
-4.4885 heat -0.3338
-4.1874 heavily -0.3599
-3.8864 held -0.3417
-4.4885 hello -0.3450
-3.4471 help -0.3099
-3.7103 helped -0.3213
-4.4885 helpful -0.3486
-3.6434 helps -0.3318
-4.4885 hence -0.3338
-4.0113 her -0.3593
-3.8864 here -0.3495
-4.4885 hertz -0.3504
-4.4885 hesitate -0.3486
-4.4885 hesitation -0.3584
-4.0113 heuristic -0.3595
-3.8864 hi -0.3256
-3.5854 hidden -0.3265
-4.4885 hide -0.3593
-4.4885 hiding -0.3338
-3.4884 high -0.3415
-3.7894 higher -0.3324
-4.1874 highlight -0.3596
-4.4885 highlights -0.3338
-4.4885 hill -0.3575
-4.1874 him -0.3334
-4.4885 hippie -0.3599
-4.4885 hippy -0.3599
-3.7103 his -0.3582
-4.4885 historically -0.3586
-4.1874 history -0.3498
-4.0113 hit -0.3337
-4.4885 hitting -0.3599
-3.2843 hmm -0.2613
-4.0113 hobby -0.3445
-4.1874 hold -0.3599
-4.1874 holding -0.3337
-3.8864 home -0.3311
-4.1874 homes -0.3419
-4.4885 honestly -0.3598
-4.4885 hookers -0.3572
-4.0113 hope -0.3492
-4.4885 hopes -0.3570
-4.4885 hospitals -0.3599
-4.1874 hot -0.3598
-3.8864 hours -0.3212
-4.4885 houseboat -0.3530
-3.0113 how -0.2869
-4.4885 how's -0.3338
-2.9570 however -0.3139
-3.7894 http -0.3584
-4.4885 hub -0.3598
-4.4885 huge -0.3599
-3.4471 human -0.3549
-4.4885 humanistic -0.3450
-4.1874 humans -0.3263
-4.1874 hundred -0.3319
-4.1874 hundreds -0.3484
-4.4885 hungry -0.3419
-4.4885 hypotheses -0.3504
-4.0113 hypothesis -0.3474
-4.4885 hypothesized -0.3579
-2.5062 i -0.2796
-4.4885 i'm -0.3599
-4.4885 iOS -0.3504
-4.4885 iTunes -0.3419
-4.4885 iceberg -0.3450
-4.1874 icer -0.3431
-4.4885 icon -0.3599
-4.4885 icons -0.3504
-4.1874 id -0.3263
-4.4885 ide -0.3582
-4.4885 idea -0.3599
-3.8864 ideals -0.3313
-4.0113 ideas -0.3269
-3.4471 identified -0.3203
-4.0113 identifiers -0.3572
-3.3423 identify -0.3214
-4.0113 identifying -0.3148
-2.7403 if -0.3096
-4.4885 ignored -0.3592
-4.0113 ii -0.3318
-4.0113 iii -0.3437
-4.4885 illustrate -0.3338
-3.8864 illustrated -0.3567
-3.7894 illustrates -0.3338
-4.1874 image -0.3300
-4.4885 imagination -0.3438
-4.4885 imbalance -0.3539
-4.4885 immediate -0.3599
-4.4885 immediately -0.3419
-4.4885 immense -0.3598
-4.0113 impact -0.3253
-4.4885 impacting -0.3597
-4.4885 impacts -0.3595
-3.8864 implement -0.3419
-3.8864 implementation -0.3272
-3.4884 implemented -0.3167
-4.4885 implementing -0.3599
-4.4885 importance -0.3450
-3.0735 important -0.3367
-4.4885 importantly -0.3450
-4.0113 impossible -0.3445
-3.5854 improve -0.3325
-4.0113 improved -0.3340
-3.8864 improvement -0.3171
-3.6434 improvements -0.3383
-4.1874 improves -0.3592
-4.4885 improving -0.3590
-1.8560 in -0.1965
-4.1874 inc -0.3419
-4.1874 incentives -0.3332
-4.4885 inception -0.3568
-3.3745 include -0.3052
-3.2843 included -0.3386
-3.5854 includes -0.3490
-3.7894 including -0.3336
-3.7103 incoming -0.3578
-4.1874 incomplete -0.3438
-4.4885 inconsistently -0.3598
-4.4885 incorporated -0.3593
-3.5854 incorrect -0.3395
-4.4885 incorrectly -0.3584
-3.7103 increase -0.2965
-4.0113 increased -0.3386
-3.6434 increases -0.3173
-3.7894 increasing -0.3336
-4.4885 incremental -0.3597
-4.4885 indeed -0.3599
-4.4885 independence -0.3450
-3.7103 independent -0.3369
-4.4885 index -0.3419
-4.1874 indicate -0.3408
-4.1874 indicating -0.3570
-4.4885 indigenous -0.3599
-3.4471 individual -0.3585
-4.1874 individually -0.3564
-4.1874 individuals -0.3332
-4.4885 induction -0.3598
-4.4885 industrial -0.3599
-4.1874 industries -0.3419
-4.4885 inescapable -0.3419
-4.4885 inexpensive -0.3599
-4.1874 infinite -0.3599
-4.1874 influenced -0.3560
-4.1874 info -0.3599
-3.1460 information -0.3191
-3.7103 infrastructure -0.3511
-4.1874 ingredients -0.3403
-4.1874 initial -0.3597
-4.1874 initially -0.3450
-4.4885 initiatives -0.3450
-4.4885 injection -0.3450
-4.4885 innovation -0.3450
-3.0571 input -0.2896
-3.4093 inputs -0.2792
-4.4885 insane -0.3598
-3.8864 insert -0.3557
-4.4885 inserted -0.3450
-4.4885 insertions -0.3599
-4.4885 inserts -0.3338
-3.8864 inside -0.3222
-4.1874 inspections -0.3350
-3.7103 install -0.3227
-3.8864 installation -0.3192
-4.4885 installations -0.3504
-3.6434 installed -0.3290
-4.4885 installer -0.3419
-4.1874 installing -0.3338
-4.0113 instance -0.3345
-4.4885 instances -0.3582
-3.7103 instead -0.3333
-4.1874 institute -0.3471
-3.4884 instructions -0.3195
-4.4885 instructor -0.3504
-4.4885 instrument -0.3599
-4.4885 integrate -0.3596
-4.1874 integrated -0.3576
-4.1874 integration -0.3568
-4.1874 integrity -0.3300
-4.4885 intelligible -0.3579
-3.8864 intended -0.3320
-4.4885 intensity -0.3539
-4.4885 intensively -0.3599
-4.4885 intention -0.3499
-4.4885 intentionally -0.3599
-4.4885 intentions -0.3486
-4.1874 interact -0.3583
-4.4885 interacting -0.3583
-4.1874 interaction -0.3598
-3.4471 interactive -0.3285
-3.8864 interest -0.3126
-4.4885 interesting -0.3438
-4.1874 interests -0.3421
-3.4093 interface -0.3189
-3.7103 interfaces -0.3408
-4.4885 interference -0.3598
-4.4885 intermediate -0.3599
-4.4885 internal -0.3599
-4.4885 internally -0.3539
-4.1874 international -0.3586
-4.4885 interoperability -0.3583
-4.4885 interpret -0.3598
-4.4885 intervene -0.3562
-4.4885 intervention -0.3577
-2.8449 into -0.3174
-4.4885 intranet -0.3419
-4.1874 introduce -0.3586
-3.6434 introduced -0.3404
-4.4885 introduces -0.3599
-4.4885 introducing -0.3599
-3.8864 introduction -0.3313
-4.4885 introductory -0.3599
-4.0113 intuition -0.3503
-4.1874 invariant -0.3468
-4.4885 investment -0.3599
-4.4885 invited -0.3486
-4.1874 involved -0.3525
-4.0113 involves -0.3323
-4.4885 involving -0.3599
-1.7965 is -0.1579
-4.4885 isolated -0.3599
-4.1874 issue -0.3411
-3.1267 issues -0.2988
-2.1156 it -0.2298
-4.0113 it's -0.3517
-4.4885 itchy -0.3599
-4.4885 items -0.3486
-4.4885 iterative -0.3599
-2.9322 its -0.3530
-4.1874 itself -0.3403
-4.0113 j -0.3409
-3.3423 jar -0.3581
-3.3745 java -0.3340
-4.1874 jersey -0.3598
-4.4885 jimmy -0.3598
-4.1874 job -0.3599
-3.8864 jobs -0.3531
-4.4885 john -0.3599
-4.4885 joke -0.3581
-4.1874 journey -0.3592
-4.4885 junction -0.3598
-3.3745 just -0.3082
-3.4884 justice -0.2777
-4.4885 justifies -0.3338
-4.4885 justify -0.3593
-3.8864 k -0.3400
-4.4885 kb -0.3419
-3.8864 keep -0.3330
-4.1874 keeps -0.3599
-4.4885 kept -0.3596
-3.7894 key -0.3381
-3.7103 keyboard -0.3062
-4.4885 keyboards -0.3450
-2.8449 keyword -0.3025
-2.9971 keywords -0.2773
-4.4885 killing -0.3597
-4.1874 kind -0.3499
-4.4885 king -0.3582
-4.4885 knew -0.3566
-3.4884 know -0.3353
-4.4885 knowing -0.3338
-4.1874 knowledge -0.3497
-3.4471 known -0.3537
-4.0113 knows -0.3321
-4.4885 l -0.3419
-4.4885 labor -0.3599
-4.1874 lack -0.3232
-4.0113 land -0.3362
-2.6624 language -0.2678
-3.4884 languages -0.3140
-3.1460 large -0.3344
-4.4885 larger -0.3599
-4.4885 largest -0.3598
-3.4884 last -0.3581
-4.1874 lastly -0.3450
-3.7103 late -0.3574
-3.6434 later -0.3591
-3.8864 latest -0.3522
-4.4885 latter -0.3598
-4.4885 launching -0.3504
-4.1874 law -0.3419
-4.4885 lawn -0.3594
-4.4885 laws -0.3419
-4.1874 layer -0.3499
-4.4885 lead -0.3486
-4.4885 leaders -0.3504
-4.1874 leaks -0.3504
-3.7103 learn -0.3572
-3.7894 learned -0.3384
-4.4885 learner -0.3438
-3.2580 learning -0.3129
-3.8864 least -0.3408
-4.1874 leaving -0.3592
-4.4885 led -0.3486
-4.4885 left -0.3599
-4.4885 legal -0.3419
-4.1874 legally -0.3416
-4.4885 legislation -0.3539
-3.7894 length -0.3141
-4.1874 lengths -0.3450
-3.7103 less -0.3498
-4.4885 lessons -0.3599
-3.7894 let -0.3580
-3.8864 let's -0.3593
-3.6434 level -0.3413
-4.0113 levels -0.3470
-3.3745 library -0.3174
-4.4885 license -0.3419
-4.4885 licenses -0.3599
-4.4885 licensing -0.3599
-3.7894 life -0.3561
-4.4885 lifetime -0.3419
-4.4885 light -0.3575
-4.4885 lighter -0.3504
-3.1662 like -0.3338
-3.7894 likelihood -0.3400
-3.6434 likely -0.3406
-4.4885 limit -0.3597
-4.4885 limitation -0.3599
-3.7103 limited -0.3081
-4.1874 limiting -0.3598
-4.1874 limits -0.3499
-3.4093 line -0.2896
-4.4885 linear -0.3595
-4.0113 lines -0.3318
-4.1874 linguist -0.3386
-4.4885 linguistic -0.3594
-4.4885 linguists -0.3539
-4.4885 linked -0.3486
-2.9203 list -0.2904
-4.1874 listed -0.3580
-4.0113 listen -0.3385
-3.4884 listening -0.3165
-4.4885 listing -0.3338
-4.0113 literal -0.3593
-3.7894 little -0.3543
-3.8864 live -0.3571
-4.4885 lives -0.3419
-4.1874 living -0.3263
-3.8864 load -0.3420
-4.1874 loaded -0.3593
-4.4885 loads -0.3584
-3.8864 local -0.3598
-4.4885 locally -0.3450
-3.8864 located -0.3522
-3.8864 location -0.3281
-3.7894 locations -0.3223
-4.4885 locators -0.3598
-4.0113 locked -0.3598
-3.6434 log -0.3408
-4.4885 logarithmic -0.3599
-4.4885 logged -0.3539
-4.4885 loggers -0.3419
-3.7103 logging -0.3162
-4.1874 logic -0.3501
-4.0113 login -0.3596
-4.4885 logistical -0.3599
-4.4885 logs -0.3581
-3.7894 long -0.3556
-4.1874 longer -0.3594
-3.5342 look -0.3342
-3.8864 looking -0.3309
-4.0113 looks -0.3567
-3.6434 loop -0.3519
-3.8864 loops -0.3435
-4.4885 lose -0.3594
-4.4885 loses -0.3566
-4.4885 losing -0.3599
-3.7894 loss -0.3193
-3.7103 losses -0.3256
-4.1874 lot -0.3499
-3.7103 love -0.3293
-3.7894 low -0.3403
-3.5342 lower -0.3341
-4.4885 lowering -0.3599
-4.4885 lure -0.3438
-3.7103 m -0.3251
-4.4885 mac -0.3597
-3.7103 machine -0.3509
-4.0113 machines -0.3595
-4.1874 mad -0.3263
-3.4471 made -0.3041
-4.4885 magnification -0.3450
-4.4885 mail -0.3584
-2.9322 main -0.3535
-3.5854 mainframe -0.3287
-3.4471 mainframes -0.3130
-4.4885 mainly -0.3599
-4.1874 maintain -0.3338
-4.4885 maintained -0.3539
-4.1874 maintaining -0.3583
-3.7103 major -0.3594
-4.1874 majority -0.3419
-2.9700 make -0.3121
-4.4885 maker -0.3599
-4.0113 makes -0.3515
-3.6434 making -0.3208
-4.4885 male -0.3599
-4.4885 manage -0.3486
-3.7103 managed -0.3400
-3.4884 management -0.3058
-4.0113 manager -0.3567
-4.4885 manages -0.3338
-3.4471 managing -0.3593
-4.4885 mandarin -0.3419
-4.4885 manipulate -0.3338
-4.4885 manipulating -0.3338
-4.1874 manner -0.3499
-4.4885 manners -0.3450
-3.8864 manually -0.3418
-4.1874 manuals -0.3421
-4.1874 manufacturer -0.3583
-4.1874 manufacturers -0.3377
-4.4885 manufactures -0.3596
-4.4885 manufacturing -0.3530
-3.1267 many -0.3499
-4.4885 map -0.3594
-4.4885 mapped -0.3599
-4.1874 mapping -0.3336
-4.4885 maps -0.3582
-4.4885 marginal -0.3599
-4.1874 marine -0.3599
-4.4885 mark -0.3587
-4.4885 market -0.3599
-4.4885 marketing -0.3450
-4.4885 marks -0.3596
-4.4885 markup -0.3587
-3.4884 martingale -0.3171
-4.4885 mass -0.3599
-3.8864 master -0.3582
-4.1874 match -0.3598
-4.1874 matches -0.3567
-4.4885 material -0.3530
-4.4885 materials -0.3419
-4.4885 mathematical -0.3599
-3.7894 matrix -0.3412
-4.1874 matter -0.3217
-4.4885 mature -0.3504
-3.8864 maximization -0.3595
-4.1874 maximize -0.3338
-4.4885 maximizes -0.3338
-4.0113 maximum -0.3593
-3.2097 may -0.3531
-3.0413 me -0.2440
-4.0113 mean -0.3590
-4.0113 meaning -0.3397
-4.4885 meaningful -0.3599
-3.4884 means -0.3272
-4.1874 measure -0.3338
-4.4885 measured -0.3599
-3.7894 measurement -0.3301
-3.5342 measures -0.3372
-4.0113 measuring -0.3329
-3.8864 mechanical -0.3438
-4.4885 mechanics -0.3530
-4.4885 media -0.3597
-4.1874 medical -0.3598
-4.4885 medication -0.3598
-4.4885 medium -0.3486
-4.1874 meet -0.3147
-4.1874 meeting -0.3583
-4.4885 melding -0.3599
-4.1874 melon -0.3598
-4.4885 member -0.3499
-3.5854 members -0.3348
-3.2580 memory -0.3168
-4.4885 men -0.3504
-4.0113 mention -0.3570
-4.4885 mentioned -0.3599
-4.1874 menu -0.3315
-4.4885 mere -0.3599
-4.1874 merely -0.3321
-3.3745 message -0.3180
-3.4884 messages -0.3317
-4.4885 met -0.3583
-3.2843 method -0.2820
-3.7103 methods -0.3315
-4.1874 metric -0.3584
-3.8864 metrics -0.3393
-4.4885 mfcc -0.3599
-4.4885 micro -0.3593
-3.8864 microphone -0.3503
-4.4885 microwaved -0.3599
-4.4885 middle -0.3599
-3.2843 might -0.3529
-4.4885 migrate -0.3594
-4.4885 miles -0.3599
-4.1874 milestones -0.3401
-4.1874 milliseconds -0.3419
-4.4885 mimic -0.3518
-4.1874 mind -0.3319
-4.4885 minded -0.3597
-4.0113 minimize -0.3338
-4.1874 minimum -0.3499
-4.1874 minor -0.3597
-4.1874 minute -0.3587
-4.1874 minutes -0.3319
-4.4885 missed -0.3419
-4.0113 missing -0.3575
-4.0113 mission -0.3341
-4.4885 mistake -0.3599
-4.4885 mistakes -0.3599
-4.4885 misunderstood -0.3593
-4.1874 mo -0.3598
-4.1874 mobile -0.3596
-3.2580 mode -0.2706
-2.6496 model -0.2012
-4.4885 modeled -0.3599
-3.7894 modeling -0.3234
-2.9087 models -0.2586
-3.8864 modern -0.3580
-3.5854 modes -0.3112
-4.4885 modification -0.3450
-4.1874 modified -0.3470
-4.4885 modify -0.3338
-4.4885 modular -0.3599
-4.4885 module -0.3562
-4.4885 modules -0.3419
-4.4885 mom -0.3450
-4.4885 moment -0.3570
-3.5854 money -0.3132
-4.4885 monitor -0.3450
-4.4885 monitored -0.3539
-4.4885 monitoring -0.3599
-4.4885 monitors -0.3539
-4.4885 month -0.3499
-4.4885 months -0.3486
-4.4885 mood -0.3419
-4.4885 moose -0.3504
-4.1874 moral -0.3599
-4.4885 morals -0.3504
-2.6496 more -0.3150
-3.7103 moreover -0.3450
-4.4885 morning -0.3419
-2.7403 most -0.3080
-4.1874 mostly -0.3498
-3.7894 mouse -0.3417
-3.8864 move -0.3497
-4.4885 movement -0.3599
-4.4885 moving -0.3504
-3.8864 mp -0.3596
-3.3124 much -0.3103
-4.0113 multi -0.3574
-4.4885 multilingual -0.3595
-4.4885 multimedia -0.3504
-4.4885 multiplatform -0.3584
-3.5342 multiple -0.3578
-4.4885 multiprocessing -0.3584
-4.1874 multitasking -0.3584
-4.1874 multithreading -0.3584
-4.4885 multiuser -0.3584
-3.8864 museum -0.3212
-3.8864 music -0.3430
-4.4885 musical -0.3599
-4.4885 musician -0.3450
-3.2580 must -0.3393
-4.4885 muy -0.3599
-4.4885 mvs -0.3582
-2.8164 my -0.3394
-4.1874 myself -0.3401
-2.8974 n -0.2821
-3.1460 name -0.3118
-4.0113 named -0.3537
-3.7894 names -0.3562
-4.4885 naming -0.3599
-3.7894 native -0.3478
-4.4885 natives -0.3597
-4.1874 natural -0.3486
-4.1874 nature -0.3346
-4.1874 navigate -0.3501
-4.0113 navigation -0.3408
-4.4885 ncr -0.3419
-3.8864 near -0.3426
-4.4885 nearby -0.3597
-3.5342 necessary -0.3382
-2.9833 need -0.3169
-3.2843 needed -0.2890
-2.9971 needs -0.2965
-4.4885 negative -0.3450
-4.4885 nerwork -0.3590
-3.5854 net -0.3585
-3.3124 network -0.3301
-3.3745 networking -0.3487
-3.8864 networks -0.3289
-4.0113 neural -0.3597
-4.0113 never -0.3599
-3.7103 nevertheless -0.3450
-2.8257 new -0.3138
-4.0113 newer -0.3582
-4.1874 newly -0.3597
-4.1874 news -0.3346
-3.5854 next -0.3418
-4.0113 nice -0.3598
-4.4885 nightmare -0.3595
-4.1874 nine -0.3449
-4.1874 ninety -0.3587
-3.1083 no -0.3384
-3.8864 nobody -0.3599
-4.4885 nodes -0.3572
-3.8864 noise -0.3554
-4.4885 noisy -0.3584
-3.6434 non -0.3575
-4.0113 none -0.3499
-3.6434 nonetheless -0.3450
-4.4885 normalized -0.3504
-4.4885 norms -0.3504
-2.5854 not -0.2819
-4.1874 notably -0.3335
-4.4885 notation -0.3539
-3.7894 note -0.3231
-4.4885 notes -0.3486
-4.4885 notice -0.3570
-4.4885 nourishment -0.3599
-4.4885 novel -0.3598
-4.4885 novell -0.3599
-4.4885 novice -0.3592
-3.3745 now -0.3049
-3.1267 number -0.3156
-4.4885 numbering -0.3596
-3.8864 numbers -0.3455
-4.4885 numeric -0.3584
-4.4885 numerically -0.3599
-4.4885 numerous -0.3597
-3.7894 o -0.3376
-4.4885 obeying -0.3599
-3.4471 object -0.3500
-4.4885 objective -0.3499
-3.5342 objects -0.3467
-4.4885 obligated -0.3486
-4.4885 observable -0.3599
-3.3423 observation -0.3529
-3.7103 observations -0.3094
-4.1874 observed -0.3596
-3.8864 obtain -0.3321
-3.7894 obtained -0.3582
-4.4885 obtaining -0.3583
-4.4885 obviously -0.3450
-4.1874 occupation -0.3315
-4.4885 occur -0.3590
-4.1874 occurrence -0.3380
-4.0113 occurring -0.3445
-4.4885 occurs -0.3593
-4.4885 oceans -0.3450
-4.4885 odd -0.3599
-1.6421 of -0.2008
-3.5342 off -0.3239
-4.1874 offered -0.3480
-3.6434 office -0.3065
-4.4885 offices -0.3504
-4.4885 official -0.3596
-3.3423 often -0.3420
-3.7894 ogg -0.3404
-4.4885 oh -0.3599
-4.4885 oil -0.3599
-3.7894 old -0.3440
-4.4885 older -0.3590
-4.4885 ols -0.3599
-2.3646 on -0.2401
-3.3423 once -0.2943
-2.6559 one -0.2268
-3.6434 ones -0.3110
-4.0113 online -0.3597
-2.8164 only -0.2783
-4.4885 onto -0.3338
-4.4885 ontology -0.3499
-4.4885 oops -0.3450
-4.4885 opacity -0.3450
-3.3745 open -0.2912
-4.1874 operate -0.3419
-4.4885 operates -0.3539
-2.9971 operating -0.3566
-3.0113 operation -0.3055
-4.1874 operations -0.3450
-4.4885 operator -0.3584
-4.4885 operators -0.3539
-4.4885 opinion -0.3419
-4.4885 opportunities -0.3419
-4.0113 opportunity -0.3380
-4.1874 opposed -0.3486
-4.4885 opposite -0.3599
-4.4885 opt -0.3486
-4.4885 optic -0.3599
-4.1874 optimality -0.3438
-4.1874 optimization -0.3596
-4.1874 optimize -0.3338
-4.4885 optimized -0.3598
-4.4885 option -0.3499
-3.8864 options -0.3384
-2.4591 or -0.2508
-2.6134 order -0.3210
-4.1874 org -0.3593
-4.4885 organization -0.3419
-4.4885 organizational -0.3599
-3.7894 organizations -0.3221
-4.4885 organize -0.3593
-3.8864 organized -0.3310
-3.8864 organizer -0.3394
-4.1874 organizing -0.3497
-4.0113 orientation -0.3245
-4.1874 oriented -0.3597
-4.0113 origin -0.3498
-3.8864 original -0.3575
-4.4885 originality -0.3599
-4.4885 originated -0.3585
-2.7642 other -0.3129
-3.5342 others -0.3314
-3.8864 otherwise -0.3448
-3.3124 our -0.3551
-3.2843 out -0.2732
-4.4885 outage -0.3450
-4.4885 outbound -0.3598
-4.1874 outcome -0.3593
-4.4885 outdated -0.3504
-4.1874 outline -0.3303
-4.4885 outlined -0.3539
-4.4885 outlining -0.3338
-3.2580 output -0.3196
-3.7894 outputs -0.3275
-4.4885 outrageous -0.3599
-3.7103 outside -0.2958
-4.4885 outsiders -0.3419
-4.4885 oven -0.3486
-3.5854 over -0.3207
-3.4093 overall -0.3430
-4.0113 overcome -0.3538
-4.4885 overcoming -0.3594
-4.4885 overflow -0.3450
-4.4885 overflows -0.3419
-4.1874 overhead -0.3450
-4.4885 overlapped -0.3539
-4.4885 overlooked -0.3595
-4.4885 overseas -0.3599
-4.1874 overview -0.3480
-4.4885 owing -0.3596
-4.4885 owls -0.3582
-3.3745 own -0.3567
-4.4885 owner -0.3585
-2.9203 p -0.3118
-4.1874 package -0.3410
-4.1874 packaged -0.3595
-3.7103 page -0.3047
-3.4884 pages -0.3131
-4.4885 paging -0.3450
-4.4885 pair -0.3499
-4.0113 paper -0.3503
-4.4885 paragraph -0.3419
-4.4885 parallel -0.3599
-4.4885 paralysis -0.3450
-3.7103 parameter -0.3346
-3.4884 parameters -0.2971
-4.4885 paramount -0.3599
-4.1874 parasitic -0.3599
-4.4885 pared -0.3598
-4.0113 parents -0.3409
-4.4885 parity -0.3599
-4.4885 parsing -0.3438
-3.3745 part -0.3499
-3.8864 partial -0.3596
-4.4885 participants -0.3582
-4.4885 participate -0.3583
-4.1874 participating -0.3539
-3.8864 participation -0.3475
-4.1874 particular -0.3596
-4.0113 particularly -0.3594
-4.4885 partitioned -0.3593
-4.4885 partitioning -0.3338
-3.6434 parts -0.3171
-3.8864 party -0.3583
-4.4885 pass -0.3599
-4.4885 passed -0.3597
-4.4885 passes -0.3594
-4.4885 passing -0.3597
-4.4885 password -0.3419
-4.0113 past -0.3595
-4.4885 paste -0.3539
-4.4885 pastime -0.3590
-4.4885 patented -0.3599
-3.1460 path -0.3211
-3.7103 paths -0.3019
-4.0113 patterns -0.3260
-4.4885 pause -0.3504
-4.4885 pauses -0.3598
-4.1874 pay -0.3557
-4.0113 paying -0.3599
-4.4885 peer -0.3598
-4.4885 peers -0.3419
-3.8864 pencil -0.3241
-4.1874 pencils -0.3339
-4.4885 pent -0.3575
-3.3124 people -0.3075
-3.6434 per -0.3562
-4.4885 perceive -0.3570
-4.4885 perceived -0.3599
-4.4885 percent -0.3530
-4.4885 percentage -0.3438
-4.4885 perception -0.3530
-4.4885 perceptions -0.3599
-4.4885 perfect -0.3593
-3.7103 perform -0.3151
-2.9322 performance -0.2646
-3.7894 performed -0.3329
-4.0113 performing -0.3577
-4.1874 performs -0.3338
-4.4885 perhaps -0.3596
-4.1874 period -0.3486
-4.4885 peripheral -0.3599
-4.4885 permissions -0.3499
-4.4885 perpetrator -0.3586
-4.4885 persistence -0.3499
-3.4093 person -0.3486
-3.4471 personal -0.3523
-4.4885 personality -0.3419
-4.4885 personalization -0.3419
-4.4885 personally -0.3599
-4.1874 persons -0.3300
-4.4885 perspective -0.3419
-3.6434 phase -0.3396
-4.0113 phases -0.3461
-4.4885 philosophies -0.3578
-4.0113 phoenix -0.3416
-3.4471 phone -0.3293
-3.6434 phoneme -0.3460
-3.4471 phonemes -0.2937
-4.0113 phones -0.3298
-3.4884 phonetic -0.3588
-4.4885 phonetical -0.3591
-4.4885 photo -0.3599
-4.4885 photographer -0.3450
-4.4885 photography -0.3530
-4.0113 phrase -0.3365
-4.4885 phrases -0.3419
-3.7894 physical -0.3582
-4.4885 physiological -0.3486
-4.1874 pick -0.3595
-4.4885 picture -0.3450
-4.4885 piece -0.3499
-4.4885 pile -0.3499
-4.4885 piling -0.3595
-4.4885 ping -0.3599
-4.4885 pipe -0.3539
-4.4885 pipelines -0.3450
-4.1874 pis -0.3583
-3.5854 place -0.3201
-3.7103 placed -0.3518
-4.4885 places -0.3450
-4.1874 placing -0.3566
-4.1874 plain -0.3599
-4.0113 plan -0.3403
-4.0113 planning -0.3332
-4.1874 plans -0.3504
-3.7103 plant -0.3343
-4.4885 plants -0.3598
-4.1874 plastic -0.3598
-4.1874 platform -0.3596
-4.0113 platforms -0.3263
-3.4471 play -0.3133
-3.5342 played -0.2912
-4.4885 player -0.3419
-3.7103 playing -0.2981
-4.4885 plays -0.3583
-3.3423 please -0.3443
-4.4885 plenty -0.3499
-4.4885 plug -0.3575
-4.4885 plus -0.3599
-4.4885 pneumonia -0.3450
-4.1874 poaching -0.3350
-4.4885 pocketSphinx's -0.3596
-3.8864 point -0.3465
-4.4885 pointer -0.3486
-4.4885 pointers -0.3450
-4.1874 points -0.3557
-4.4885 poisoning -0.3450
-4.4885 polices -0.3599
-4.4885 policies -0.3593
-4.4885 policy -0.3599
-4.1874 polymorphism -0.3574
-4.4885 pool -0.3584
-4.4885 pooling -0.3597
-4.0113 poor -0.3499
-3.6434 popular -0.3358
-3.8864 port -0.3416
-4.0113 portable -0.3448
-4.4885 ported -0.3504
-4.4885 portions -0.3499
-4.4885 ports -0.3581
-3.6434 position -0.3061
-4.4885 positioning -0.3593
-4.4885 possessed -0.3599
-4.4885 possibilities -0.3499
-4.1874 possibility -0.3428
-3.1267 possible -0.3029
-4.1874 post -0.3334
-4.4885 posted -0.3577
-4.4885 posterior -0.3598
-4.4885 posts -0.3539
-3.6434 potential -0.3477
-4.1874 pots -0.3599
-3.3423 power -0.3309
-3.7894 powerful -0.3312
-4.1874 practical -0.3447
-3.7103 practice -0.3257
-4.0113 practices -0.3449
-4.4885 pre -0.3575
-4.4885 pre-emphasis -0.3599
-4.0113 pre-emphasized -0.3449
-4.0113 preceded -0.3577
-4.0113 preceding -0.3504
-4.4885 preconventional -0.3598
-4.4885 predecessor -0.3419
-3.8864 predefined -0.3594
-4.4885 predetermined -0.3595
-4.1874 predict -0.3317
-4.4885 predicted -0.3597
-4.0113 preferences -0.3315
-4.4885 preferred -0.3486
-4.4885 preliminary -0.3598
-4.4885 premier -0.3499
-4.4885 prepackaged -0.3596
-4.4885 prepare -0.3562
-4.4885 prerelease -0.3599
-4.4885 prescriptions -0.3594
-3.8864 present -0.3479
-4.4885 presentation -0.3585
-3.7103 presented -0.3390
-3.7103 presents -0.3159
-4.4885 president -0.3499
-4.4885 press -0.3599
-4.0113 pressing -0.3503
-4.4885 pressure -0.3450
-3.6434 pretty -0.3583
-4.1874 prevent -0.3596
-4.4885 prevents -0.3592
-3.4471 previous -0.3564
-3.8864 previously -0.3443
-4.1874 primary -0.3584
-3.4884 principles -0.3089
-4.4885 print -0.3597
-4.4885 printer -0.3419
-4.1874 printing -0.3596
-4.0113 prior -0.3213
-4.4885 priorities -0.3572
-4.1874 privacy -0.3514
-4.4885 privately -0.3599
-4.4885 probabilistic -0.3599
-3.3423 probabilities -0.2957
-2.9833 probability -0.2941
-3.8864 probable -0.3591
-4.4885 probably -0.3338
-3.2097 problem -0.2760
-3.4884 problems -0.3157
-4.4885 procedural -0.3598
-3.6434 procedure -0.3042
-4.4885 procedures -0.3590
-4.0113 proceeded -0.3483
-3.0261 process -0.2784
-4.1874 processed -0.3450
-4.0113 processes -0.3239
-3.1460 processing -0.2428
-4.4885 processor -0.3599
-3.7894 processors -0.3227
-4.0113 produce -0.3517
-3.8864 produced -0.3121
-4.1874 producing -0.3518
-3.7894 product -0.3141
-4.1874 production -0.3597
-3.7103 productivity -0.3309
-4.0113 products -0.3403
-4.1874 professional -0.3597
-4.4885 professionals -0.3486
-4.4885 proficient -0.3590
-4.1874 profile -0.3556
-4.4885 profiling -0.3566
-4.1874 profit -0.3503
-4.4885 profitable -0.3450
-2.8864 program -0.2851
-4.1874 programmed -0.3451
-3.7894 programmer -0.3415
-4.0113 programmers -0.3569
-3.6434 programming -0.3418
-3.4093 programs -0.3081
-4.1874 progresses -0.3450
-2.7895 project -0.2331
-3.5342 projects -0.3360
-4.4885 proliferate -0.3599
-4.4885 proliferation -0.3499
-4.4885 promote -0.3599
-4.1874 promoting -0.3596
-4.4885 promotions -0.3450
-4.1874 pronounced -0.3567
-3.7894 pronunciation -0.3010
-4.4885 pronunciations -0.3585
-4.4885 proof -0.3499
-4.4885 propagation -0.3595
-3.6434 proper -0.3574
-3.5342 properly -0.3591
-4.1874 properties -0.3346
-4.4885 property -0.3598
-4.4885 proposals -0.3504
-3.4884 proprietary -0.2895
-4.4885 prospective -0.3599
-4.4885 prostitutes -0.3539
-4.1874 protect -0.3338
-4.4885 protected -0.3597
-3.7894 protection -0.3400
-4.4885 protects -0.3566
-4.0113 protocol -0.3346
-4.0113 protocols -0.3530
-4.4885 prove -0.3518
-4.4885 proved -0.3486
-3.4093 provide -0.3047
-3.6434 provided -0.2914
-3.4093 provides -0.3224
-3.6434 providing -0.3513
-4.4885 pruning -0.3504
-4.4885 public -0.3598
-4.4885 publications -0.3486
-3.7894 publicly -0.3595
-3.8864 published -0.3574
-4.4885 pulls -0.3595
-4.4885 pulp -0.3504
-4.4885 punctuation -0.3599
-4.0113 punishment -0.3490
-4.4885 purchase -0.3338
-4.1874 purchased -0.3573
-4.4885 pure -0.3599
-4.1874 purely -0.3599
-4.4885 purports -0.3486
-3.7103 purpose -0.3313
-4.1874 purposes -0.3282
-4.4885 push -0.3419
-3.7103 put -0.3561
-4.1874 python -0.3593
-4.0113 q -0.3589
-4.4885 qt -0.3570
-4.0113 quality -0.3341
-4.4885 quantification -0.3499
-4.1874 quantify -0.3333
-4.1874 quantities -0.3499
-4.4885 queries -0.3581
-3.7103 question -0.3390
-4.4885 questions -0.3450
-4.0113 quickly -0.3301
-4.4885 quiet -0.3419
-3.7894 quit -0.3332
-4.4885 quite -0.3599
-4.4885 quoted -0.3450
-4.0113 r -0.3419
-4.4885 races -0.3504
-4.4885 racism -0.3419
-3.7894 radio -0.3419
-4.4885 raid -0.3582
-4.4885 railroads -0.3450
-4.4885 rain-forested -0.3599
-4.0113 rainforest -0.3497
-4.4885 rainforests -0.3598
-4.4885 raise -0.3599
-4.4885 ram -0.3582
-4.4885 ran -0.3599
-4.4885 ranch -0.3599
-4.0113 random -0.3594
-4.4885 randomly -0.3599
-4.0113 range -0.3499
-4.4885 ranges -0.3419
-4.4885 rapid -0.3450
-4.4885 rapidly -0.3599
-4.4885 rash -0.3438
-3.3423 rate -0.2705
-4.1874 rates -0.3575
-3.6434 rather -0.3445
-4.4885 raven -0.3450
-4.4885 raw -0.3593
-3.8864 re -0.3575
-4.0113 re-encoding -0.3338
-3.8864 reached -0.3439
-4.4885 reaching -0.3598
-4.4885 react -0.3438
-4.4885 reaction -0.3486
-4.4885 reacts -0.3595
-3.7103 read -0.3331
-4.1874 reading -0.3589
-4.1874 reads -0.3485
-3.6434 ready -0.2916
-3.5854 real -0.3558
-4.0113 realistic -0.3594
-4.0113 really -0.3598
-3.3423 reason -0.3342
-4.1874 reasoning -0.3263
-3.8864 reasons -0.3377
-4.4885 recapitulates -0.3338
-4.1874 receive -0.3518
-3.7894 received -0.3368
-4.0113 receives -0.3517
-4.4885 recently -0.3450
-4.4885 recipe -0.3562
-4.4885 reciprocity -0.3599
-2.7031 recognition -0.2769
-4.1874 recognize -0.3592
-4.4885 recognized -0.3598
-3.2843 recognizer -0.3165
-3.8864 recognizers -0.3448
-3.7103 recognizing -0.3389
-4.0113 recommend -0.3598
-3.5854 recommended -0.3298
-4.4885 recommends -0.3599
-3.8864 record -0.3210
-4.0113 recording -0.3581
-4.1874 recordings -0.3495
-4.1874 records -0.3585
-4.1874 recover -0.3594
-4.4885 recovering -0.3599
-4.4885 recruit -0.3598
-4.4885 recurrence -0.3599
-4.4885 recursively -0.3599
-4.4885 recycling -0.3419
-4.1874 red -0.3566
-4.4885 redesign -0.3338
-4.0113 reduce -0.3338
-4.1874 reduced -0.3583
-3.7894 reducing -0.3445
-4.4885 reduction -0.3591
-4.1874 refactoring -0.3497
-3.8864 refer -0.3486
-4.4885 referenced -0.3419
-3.7894 references -0.3575
-4.4885 referred -0.3486
-4.4885 refers -0.3486
-4.4885 refine -0.3450
-4.4885 reflexes -0.3450
-4.4885 refuses -0.3486
-4.0113 regard -0.3332
-3.7894 regarding -0.3319
-4.4885 regardless -0.3499
-4.4885 regional -0.3599
-4.1874 register -0.3504
-4.0113 registration -0.3416
-4.1874 regular -0.3599
-4.4885 regularly -0.3599
-4.4885 regulation -0.3499
-4.4885 rehouse -0.3450
-3.5342 related -0.3481
-4.1874 relationship -0.3599
-4.4885 relative -0.3486
-4.4885 relativistic -0.3450
-4.4885 relaxed -0.3577
-3.8864 release -0.3318
-4.4885 releases -0.3450
-4.4885 relevant -0.3486
-3.8864 reliability -0.3486
-4.4885 reliable -0.3592
-4.4885 reliably -0.3486
-4.4885 religion -0.3450
-4.4885 rely -0.3581
-4.1874 remain -0.3598
-4.4885 remained -0.3338
-4.1874 remaining -0.3588
-4.4885 remains -0.3599
-4.4885 remarkable -0.3450
-4.4885 remedies -0.3568
-4.1874 remote -0.3598
-4.4885 remotely -0.3419
-4.4885 remove -0.3599
-4.4885 removes -0.3599
-4.4885 renaming -0.3518
-4.4885 rent -0.3562
-4.4885 repeated -0.3599
-4.4885 repeatedly -0.3599
-4.4885 repeating -0.3338
-4.4885 repetitions -0.3584
-4.1874 replaced -0.3577
-4.4885 replacement -0.3419
-4.4885 replaces -0.3338
-4.4885 replicating -0.3579
-3.6434 report -0.3294
-4.4885 reported -0.3338
-4.0113 repository -0.3376
-3.4884 represent -0.3241
-3.4471 representation -0.3087
-4.1874 represented -0.3315
-4.4885 representing -0.3338
-4.0113 represents -0.3242
-4.4885 reproduce -0.3518
-4.4885 reputation -0.3419
-4.1874 request -0.3485
-4.0113 requested -0.3367
-4.4885 requests -0.3562
-3.6434 require -0.3287
-3.3423 required -0.3175
-4.4885 requirement -0.3419
-3.2580 requirements -0.3179
-3.4884 requires -0.3430
-3.1874 research -0.3118
-4.4885 researchers -0.3590
-4.4885 researching -0.3599
-4.4885 reserve -0.3338
-4.1874 reside -0.3573
-4.4885 residents -0.3419
-4.1874 resizing -0.3508
-4.0113 resolve -0.3563
-3.8864 resource -0.3571
-3.5342 resources -0.2956
-3.4884 resp-generator -0.3138
-4.0113 respect -0.3484
-4.4885 respectively -0.3419
-3.3124 response -0.2916
-3.3124 responses -0.2825
-4.4885 responsibility -0.3450
-4.4885 responsible -0.3599
-4.4885 restart -0.3338
-4.4885 restarted -0.3599
-4.4885 restarting -0.3338
-4.4885 restored -0.3450
-4.4885 restrict -0.3338
-4.0113 restricted -0.3486
-4.4885 restrictive -0.3599
-3.6434 result -0.3245
-4.4885 resultant -0.3596
-4.4885 resulted -0.3539
-4.1874 resulting -0.3518
-3.2332 results -0.2978
-4.4885 retrieve -0.3598
-3.8864 retrieved -0.3584
-4.1874 return -0.3466
-4.4885 returned -0.3585
-4.4885 returns -0.3572
-3.8864 reusability -0.3453
-4.4885 reusable -0.3419
-4.0113 revaluator -0.3577
-4.1874 reveal -0.3338
-4.4885 revealed -0.3486
-4.4885 reverberation -0.3599
-4.4885 reverse -0.3598
-3.7894 review -0.3118
-4.1874 reviewed -0.3415
-4.4885 reviews -0.3598
-4.4885 revolution -0.3599
-4.4885 reward -0.3450
-4.4885 rewarding -0.3599
-4.4885 richest -0.3599
-4.4885 rife -0.3583
-3.7103 right -0.3285
-3.5854 rights -0.3311
-4.4885 rise -0.3499
-4.4885 rises -0.3599
-4.4885 roadblocks -0.3499
-3.7103 robot -0.3541
-4.4885 robotics -0.3504
-3.8864 robust -0.3318
-3.7894 robustness -0.3317
-4.0113 role -0.3505
-4.4885 roles -0.3419
-4.4885 rollover -0.3450
-3.7894 room -0.3291
-4.4885 rooms -0.3562
-4.4885 root -0.3597
-4.1874 ros -0.3511
-4.4885 rose -0.3486
-4.4885 roulette -0.3568
-3.7103 round -0.3499
-4.4885 row -0.3499
-4.4885 royalty -0.3575
-4.1874 rudimentary -0.3445
-3.8864 rule -0.3360
-3.7103 rules -0.3361
-3.1267 run -0.2952
-3.5854 running -0.3318
-4.4885 runs -0.3594
-4.4885 runtime -0.3599
-2.7250 s -0.3022
-4.4885 sacrificing -0.3593
-4.4885 safe -0.3597
-4.4885 safety -0.3450
-3.8864 said -0.3455
-4.4885 sake -0.3419
-3.8864 sales -0.3503
-4.1874 salmon -0.3599
-2.9570 same -0.3158
-4.1874 sample -0.3588
-4.1874 sampled -0.3501
-4.4885 samples -0.3598
-4.1874 sandwich -0.3263
-4.1874 satisfaction -0.3387
-4.4885 saturation -0.3450
-4.0113 save -0.3447
-4.4885 saw -0.3566
-3.5342 say -0.3161
-4.4885 saying -0.3338
-4.1874 says -0.3486
-3.8864 scalability -0.3551
-4.1874 scalable -0.3350
-3.8864 scale -0.3335
-4.4885 scales -0.3450
-4.4885 scanner -0.3599
-4.4885 scanning -0.3338
-3.8864 schedule -0.3221
-4.1874 scheduled -0.3599
-4.1874 scheme -0.3475
-4.4885 scholarships -0.3592
-4.1874 school -0.3586
-4.4885 schooled -0.3566
-4.4885 sci -0.3593
-4.4885 science -0.3504
-4.4885 scientific -0.3599
-4.4885 scope -0.3499
-4.0113 score -0.3299
-4.4885 scouting -0.3562
-3.7894 scratch -0.3384
-4.4885 screen -0.3419
-4.4885 screwed -0.3599
-4.1874 scripting -0.3599
-4.1874 scripts -0.3580
-3.6434 search -0.3520
-4.4885 searched -0.3450
-4.4885 season -0.3599
-4.4885 seatmate -0.3590
-3.4884 second -0.3570
-4.1874 seconds -0.3517
-4.4885 secret -0.3599
-3.3124 section -0.2990
-4.0113 sections -0.3464
-4.0113 secure -0.3592
-3.1083 security -0.3263
-3.6434 see -0.3084
-4.1874 seeing -0.3338
-4.4885 seek -0.3518
-4.4885 seekers -0.3599
-4.4885 seeks -0.3486
-4.1874 seemed -0.3486
-4.1874 seems -0.3486
-3.1267 seen -0.3151
-4.4885 segment -0.3599
-4.4885 segmentation -0.3597
-3.6434 select -0.3186
-3.7103 selected -0.3444
-3.7894 selecting -0.3506
-4.1874 selection -0.3419
-4.4885 selector -0.3562
-3.6434 self -0.3478
-4.4885 sell -0.3338
-4.4885 sells -0.3599
-4.4885 semantic -0.3599
-4.4885 semi -0.3575
-3.8864 send -0.3509
-4.4885 sending -0.3598
-4.4885 senior -0.3593
-3.4884 sense -0.3309
-3.3745 sentence -0.2893
-2.9700 sentences -0.2445
-4.4885 sentences-file -0.3419
-4.0113 separate -0.3587
-4.4885 separately -0.3585
-3.3423 sequence -0.2930
-4.1874 sequences -0.3403
-4.4885 sequentially -0.3419
-3.8864 serial -0.3417
-4.4885 serially -0.3599
-4.1874 series -0.3334
-4.4885 serious -0.3592
-3.2580 server -0.2714
-3.7103 servers -0.3135
-3.8864 service -0.3569
-3.7103 services -0.3118
-4.4885 servicing -0.3598
-4.4885 serving -0.3419
-4.1874 session -0.3437
-3.0571 set -0.3112
-4.1874 sets -0.3455
-4.0113 settings -0.3521
-4.4885 settled -0.3577
-4.4885 setup -0.3338
-3.8864 seven -0.3338
-4.1874 seventy -0.3597
-3.1460 several -0.3447
-4.4885 sex -0.3530
-4.1874 sexist -0.3503
-4.4885 shadow -0.3599
-3.3124 shall -0.3540
-4.4885 shapes -0.3504
-3.8864 share -0.3588
-4.4885 shared -0.3599
-4.4885 shares -0.3591
-4.4885 sharing -0.3504
-4.4885 sheet -0.3594
-4.0113 shelf -0.3592
-4.4885 shipment -0.3599
-4.4885 ships -0.3583
-4.1874 short -0.3575
-4.4885 shortages -0.3499
-2.9700 should -0.3502
-4.4885 shoulders -0.3499
-3.7894 show -0.3506
-4.4885 showing -0.3595
-3.7894 shown -0.3504
-3.8864 shows -0.3338
-4.4885 shrinking -0.3504
-4.4885 shrinks -0.3583
-4.4885 shrubs -0.3539
-4.1874 side -0.3477
-4.4885 sign -0.3597
-2.8864 signal -0.3021
-4.1874 signals -0.3413
-4.1874 signature -0.3511
-4.4885 significant -0.3599
-4.4885 significantly -0.3598
-4.4885 silence -0.3591
-4.4885 silly -0.3419
-3.8864 silver -0.3579
-3.5854 similar -0.3118
-3.3124 similarly -0.3165
-3.7103 simple -0.3470
-4.1874 simpler -0.3502
-4.1874 simplest -0.3498
-4.4885 simplicity -0.3599
-4.4885 simplification -0.3599
-3.8864 simplified -0.3226
-4.4885 simplify -0.3338
-4.4885 simplistic -0.3598
-4.4885 simulated -0.3599
-3.6434 simulation -0.3413
-4.4885 simultaneously -0.3599
-3.4884 since -0.3180
-4.4885 sincerity -0.3419
-3.7103 single -0.3584
-4.4885 sip -0.3419
-4.4885 sister -0.3504
-3.7894 site -0.3187
-4.0113 sites -0.3346
-4.1874 situations -0.3387
-4.0113 six -0.3385
-4.1874 sixty -0.3597
-3.2843 size -0.2976
-4.4885 sized -0.3581
-4.1874 sizes -0.3315
-4.4885 sketches -0.3584
-4.4885 skills -0.3504
-3.8864 slightly -0.3588
-4.4885 slipped -0.3518
-4.4885 slow -0.3486
-3.2580 small -0.3267
-3.4884 smaller -0.2954
-4.1874 smallest -0.3597
-4.4885 smarter -0.3598
-3.7103 smith -0.3598
-3.0413 so -0.3154
-4.4885 social -0.3599
-4.1874 society -0.3300
-4.4885 sockeye -0.3597
-2.7809 software -0.2805
-4.0113 solution -0.3232
-3.8864 solutions -0.3378
-3.7894 solve -0.3216
-4.1874 solved -0.3587
-4.4885 solves -0.3338
-2.7895 some -0.3259
-4.1874 somehow -0.3438
-4.1874 someone -0.3599
-3.7894 something -0.3553
-3.7894 sometimes -0.3391
-4.4885 somewhat -0.3499
-4.1874 somewhere -0.3503
-4.4885 song -0.3599
-4.4885 sons -0.3599
-4.4885 soon -0.3562
-4.4885 sop -0.3599
-3.7894 sophisticated -0.3472
-4.4885 sorts -0.3598
-4.4885 soul -0.3419
-3.7103 sound -0.3366
-3.7894 sounds -0.3247
-3.1874 source -0.3138
-3.7103 sources -0.3494
-3.8864 space -0.3191
-3.7103 spaghetti -0.3451
-4.4885 spare -0.3599
-3.7103 speak -0.3238
-3.0413 speaker -0.3191
-3.7894 speakers -0.3154
-3.7103 speaking -0.3317
-4.1874 special -0.3597
-4.4885 specialize -0.3539
-4.4885 specials -0.3438
-4.1874 species -0.3596
-3.4884 specific -0.3482
-4.0113 specifically -0.3448
-3.7894 specifications -0.3134
-3.5854 specified -0.3315
-4.1874 specifies -0.3517
-3.8864 specify -0.3247
-4.4885 specifying -0.3583
-4.0113 spectral -0.3592
-3.8864 spectrum -0.3375
-2.3241 speech -0.2663
-4.4885 speeches -0.3593
-4.0113 speed -0.3488
-4.4885 spelling -0.3598
-4.0113 spend -0.3593
-4.1874 spent -0.3592
-3.0905 sphinx -0.2914
-4.1874 sphinxbase -0.3419
-4.1874 spite -0.3499
-3.8864 spoken -0.3588
-4.1874 spontaneous -0.3579
-4.4885 spot -0.3595
-4.4885 stability -0.3504
-3.8864 stack -0.3579
-4.1874 staff -0.3590
-3.4884 stage -0.3346
-3.4884 stages -0.3291
-4.1874 stake -0.3411
-4.1874 stakeholders -0.3319
-4.4885 stances -0.3486
-4.4885 stand -0.3581
-3.6434 standard -0.3376
-4.4885 standardize -0.3338
-3.7103 standards -0.3198
-4.1874 standing -0.3534
-4.4885 stands -0.3562
-3.4471 start -0.3270
-4.0113 started -0.3495
-4.4885 starting -0.3593
-3.7103 starts -0.3247
-4.1874 startup -0.3441
-3.0571 state -0.2761
-3.8864 statement -0.3593
-3.7103 statements -0.3166
-3.5854 states -0.3256
-3.4884 static -0.3585
-4.4885 stating -0.3338
-4.1874 station -0.3597
-4.4885 statistic -0.3599
-4.4885 statistical -0.3578
-3.7103 statistics -0.3280
-3.7103 status -0.3345
-4.4885 stay -0.3539
-4.4885 stayed -0.3599
-4.4885 staying -0.3598
-4.1874 steam -0.3599
-4.4885 steepest -0.3438
-3.4884 step -0.2823
-3.6434 steps -0.3133
-3.4884 still -0.3523
-4.4885 stochastic -0.3599
-4.4885 stock -0.3599
-4.4885 stockholders -0.3450
-3.8864 stop -0.3431
-4.4885 stopped -0.3598
-4.4885 stops -0.3598
-4.1874 storage -0.3346
-4.0113 stored -0.3534
-4.4885 storehouse -0.3499
-4.1874 story -0.3497
-4.4885 straight -0.3599
-4.4885 straightforward -0.3568
-3.8864 strategies -0.3373
-3.6434 strategy -0.3358
-4.1874 streak -0.3403
-4.1874 streaks -0.3587
-4.1874 streaming -0.3496
-4.4885 streamline -0.3596
-4.4885 streams -0.3591
-4.4885 strength -0.3486
-4.4885 stretching -0.3338
-4.4885 strict -0.3599
-4.4885 strictest -0.3599
-4.4885 strictly -0.3598
-4.4885 stride -0.3599
-4.4885 strides -0.3539
-4.4885 strike -0.3596
-3.4471 string -0.3326
-4.4885 strings -0.3499
-4.4885 strong -0.3597
-4.4885 strongly -0.3598
-3.7103 structure -0.3262
-3.8864 students -0.3384
-4.4885 studies -0.3539
-3.7894 studio -0.3076
-4.0113 study -0.3591
-4.4885 studying -0.3450
-4.4885 stuff -0.3597
-4.4885 stumps -0.3599
-3.8864 style -0.3262
-4.1874 subconscious -0.3598
-3.8864 subject -0.3383
-4.1874 submission -0.3263
-4.1874 submit -0.3596
-4.1874 submits -0.3321
-4.4885 submitted -0.3595
-4.4885 subsequently -0.3450
-3.8864 subset -0.3499
-4.4885 substantial -0.3599
-4.1874 substitute -0.3338
-4.4885 substituted -0.3590
-4.4885 substitutions -0.3599
-4.4885 subsystems -0.3499
-4.4885 succeeded -0.3577
-4.1874 succeeding -0.3598
-3.8864 success -0.3313
-3.7894 successful -0.3596
-3.8864 successfully -0.3397
-2.9322 such -0.3549
-4.1874 sucky -0.3561
-4.1874 suffer -0.3503
-4.4885 suffered -0.3585
-4.4885 suffering -0.3585
-4.4885 suffers -0.3599
-4.0113 sufficiency -0.3247
-4.1874 sufficient -0.3486
-4.4885 suggest -0.3338
-4.1874 suggested -0.3577
-4.4885 suggestions -0.3562
-4.0113 suggests -0.3449
-4.4885 suitable -0.3597
-4.4885 suited -0.3486
-4.1874 summaries -0.3571
-3.5342 summary -0.3148
-4.4885 superior -0.3486
-4.4885 supplementary -0.3599
-4.0113 supplied -0.3516
-3.4093 support -0.3284
-4.0113 supported -0.3516
-4.0113 supporting -0.3334
-3.8864 supports -0.3523
-4.4885 suppose -0.3570
-4.1874 supposed -0.3486
-4.4885 suppressing -0.3596
-3.3745 sure -0.3125
-4.4885 surely -0.3450
-4.4885 sustain -0.3599
-4.0113 sustainable -0.3598
-4.4885 swapping -0.3450
-4.4885 swing -0.3486
-4.1874 switches -0.3400
-4.4885 switching -0.3438
-4.0113 syllables -0.3397
-4.4885 syllabus -0.3598
-4.0113 symbol -0.3264
-3.7894 symbols -0.3159
-4.4885 synchronization -0.3499
-4.4885 synonymous -0.3583
-4.4885 syntactical -0.3599
-4.4885 syntax -0.3504
-4.4885 synthesized -0.3599
-2.3066 system -0.1882
-4.4885 system,comma -0.3504
-2.6624 systems -0.2493
-3.2843 t -0.2906
-3.4093 table -0.3407
-4.4885 tables -0.3599
-4.4885 tails -0.3419
-3.7103 take -0.3242
-4.1874 taken -0.3479
-3.5854 takes -0.3496
-4.0113 taking -0.3573
-3.8864 talk -0.3479
-4.0113 talking -0.3416
-4.4885 tape -0.3599
-4.4885 tapers -0.3598
-4.4885 target -0.3599
-4.1874 targeting -0.3597
-3.3124 task -0.2862
-3.7894 tasks -0.3416
-4.1874 taught -0.3446
-4.4885 taxi -0.3599
-3.0571 team -0.3052
-4.4885 teammates -0.3450
-3.7103 teams -0.3353
-4.4885 teamwork -0.3530
-4.4885 technically -0.3599
-3.1267 technique -0.3002
-3.7103 techniques -0.3523
-4.1874 technological -0.3436
-2.9087 technology -0.2484
-4.4885 tedious -0.3598
-3.5854 telephone -0.3449
-4.1874 telephony -0.3449
-3.8864 tell -0.3582
-4.1874 temperature -0.3377
-3.7103 ten -0.3594
-4.4885 tend -0.3486
-4.4885 tended -0.3486
-4.4885 tends -0.3486
-4.4885 tens -0.3499
-4.4885 tenth -0.3599
-4.1874 terabytes -0.3499
-4.1874 term -0.3599
-4.4885 terminal -0.3590
-4.4885 terminate -0.3338
-3.8864 terms -0.3499
-3.0735 test -0.2792
-3.0571 tested -0.2696
-4.0113 tester -0.3576
-3.4884 testers -0.3065
-2.5016 testing -0.1928
-3.3124 tests -0.2763
-2.8550 text -0.3153
-4.4885 texts -0.3585
-3.0413 than -0.2854
-4.4885 thank -0.3597
-4.4885 thanks -0.3562
-2.1704 that -0.1956
-4.0113 that's -0.3589
-1.2339 the -0.1917
-2.9322 their -0.3532
-3.0905 them -0.2840
-4.0113 themselves -0.3371
-3.2097 then -0.3057
-4.4885 theoretically -0.3587
-4.4885 theory -0.3599
-2.8164 there -0.2999
-4.4885 thereafter -0.3438
-3.3745 therefore -0.3358
-2.8164 these -0.3450
-3.8864 thesis -0.3375
-2.8864 they -0.3525
-4.4885 thing -0.3577
-3.6434 things -0.3358
-3.6434 think -0.3125
-4.0113 thinking -0.3497
-3.6434 third -0.3571
-4.0113 thirty -0.3572
-2.1193 this -0.2423
-4.4885 thorough -0.3586
-4.0113 thoroughly -0.3213
-3.3124 those -0.3548
-4.1874 though -0.3331
-3.8864 thought -0.3391
-4.1874 thousand -0.3590
-3.6434 thousands -0.3499
-4.4885 threads -0.3596
-4.4885 threatens -0.3599
-4.4885 threats -0.3572
-3.4093 three -0.3426
-4.4885 thrive -0.3581
-3.2580 through -0.2873
-3.6434 thus -0.3445
-4.4885 timber -0.3419
-2.7895 time -0.2062
-4.4885 timed -0.3583
-3.4093 times -0.3020
-4.4885 timing -0.3599
-4.4885 tip -0.3499
-1.5870 to -0.1708
-3.6434 today -0.3310
-3.6434 together -0.3027
-4.0113 tokenize -0.3338
-4.0113 tokenizer -0.3593
-4.1874 told -0.3593
-4.4885 tolerant -0.3599
-4.4885 tomorrow -0.3419
-4.0113 too -0.3592
-3.8864 took -0.3286
-2.7642 tool -0.2427
-3.8864 toolkit -0.3416
-3.0113 tools -0.2722
-4.4885 tooth -0.3598
-4.4885 topics -0.3562
-4.4885 topologies -0.3599
-3.7894 total -0.3479
-4.4885 touch -0.3599
-4.1874 toward -0.3594
-3.4884 towards -0.3157
-4.1874 toxic -0.3599
-4.4885 traced -0.3486
-4.4885 track -0.3419
-3.8864 tract -0.3447
-4.4885 tractors -0.3504
-4.4885 tracts -0.3504
-4.4885 trading -0.3590
-4.4885 trailer -0.3504
-4.4885 trailers -0.3419
-3.5342 train -0.3119
-4.0113 trained -0.3484
-3.2097 training -0.3253
-4.4885 traits -0.3570
-4.4885 trans -0.3599
-3.5854 transaction -0.3385
-4.1874 transactions -0.3418
-3.8864 transcript -0.3393
-4.1874 transfer -0.3263
-4.4885 transferred -0.3597
-4.0113 transform -0.3338
-3.8864 transition -0.3497
-4.1874 transitions -0.3417
-4.1874 translated -0.3593
-4.4885 transmission -0.3599
-4.4885 trash -0.3419
-4.4885 traversal -0.3450
-4.4885 treated -0.3599
-4.4885 treaty -0.3419
-3.8864 tree -0.3526
-3.7894 trees -0.3245
-4.4885 trend -0.3575
-4.4885 trials -0.3595
-4.1874 tribe -0.3434
-4.4885 tricks -0.3570
-4.1874 tried -0.3486
-4.4885 tries -0.3486
-4.1874 triggered -0.3518
-4.0113 trigram -0.3590
-4.4885 trimming -0.3419
-3.8864 trip -0.3581
-4.1874 triphone -0.3577
-4.1874 triphones -0.3350
-4.1874 trouble -0.3503
-4.4885 troublesome -0.3504
-3.5854 trucking -0.3472
-4.1874 true -0.3593
-4.4885 truly -0.3599
-4.4885 trunk -0.3599
-3.6434 try -0.3448
-3.7894 trying -0.3486
-4.4885 tuned -0.3596
-4.4885 turing -0.3590
-4.4885 turn -0.3419
-4.4885 turnips -0.3539
-4.0113 tutorial -0.3590
-4.4885 tutorials -0.3581
-4.4885 tweaking -0.3566
-4.0113 twenty -0.3597
-4.4885 twisted -0.3598
-4.1874 twitter -0.3598
-3.0413 two -0.3260
-3.3423 txt -0.3018
-3.2580 type -0.3366
-3.7894 types -0.3225
-3.4884 typical -0.3567
-3.5342 typically -0.3348
-4.4885 typing -0.3598
-4.1874 typos -0.3319
-4.4885 u -0.3419
-4.4885 unable -0.3486
-4.4885 unaware -0.3570
-4.4885 uncertainty -0.3419
-4.4885 uncover -0.3593
-3.5854 under -0.3506
-4.4885 underline -0.3587
-4.4885 underlying -0.3596
-4.4885 underneath -0.3599
-3.5342 understand -0.3182
-4.4885 understandability -0.3504
-4.0113 understandable -0.3410
-4.4885 understandably -0.3450
-3.4093 understanding -0.2825
-4.4885 understood -0.3595
-4.4885 undo -0.3570
-4.0113 unethical -0.3482
-4.4885 unfair -0.3599
-4.4885 unfeasible -0.3596
-4.4885 unfortunately -0.3450
-4.4885 unicode -0.3594
-4.4885 unified -0.3597
-4.0113 uniform -0.3411
-4.4885 uniformity -0.3450
-4.4885 unique -0.3599
-4.4885 unit -0.3419
-4.1874 units -0.3571
-3.8864 universal -0.3591
-3.5342 university -0.3150
-4.4885 unknowns -0.3419
-4.0113 unless -0.3576
-4.1874 unlike -0.3518
-4.4885 unlucky -0.3587
-4.4885 unrealistic -0.3568
-4.0113 until -0.3333
-4.4885 unto -0.3598
-4.1874 unusual -0.3595
-2.9570 up -0.2292
-4.4885 upbringing -0.3419
-4.0113 update -0.3412
-3.6434 updated -0.3139
-4.0113 updates -0.3399
-4.1874 updating -0.3383
-4.4885 upgrades -0.3419
-4.4885 uphold -0.3599
-4.0113 upon -0.3565
-3.8864 us -0.3234
-4.1874 usability -0.3588
-4.4885 usable -0.3599
-3.8864 usage -0.3472
-2.7403 use -0.2394
-2.5200 used -0.2229
-3.7103 useful -0.3468
-4.4885 useless -0.3598
-2.7403 user -0.2450
-3.2332 users -0.2880
-3.3745 uses -0.3133
-2.6434 using -0.2905
-4.4885 usual -0.3599
-3.5854 usually -0.3592
-3.5854 utilities -0.3073
-4.4885 utilize -0.3593
-4.4885 utilized -0.3486
-4.4885 utilizing -0.3586
-4.4885 utmost -0.3599
-3.6434 utterance -0.3313
-4.1874 utterances -0.3445
-4.4885 valid -0.3599
-4.4885 validate -0.3338
-4.4885 validates -0.3338
-4.1874 validation -0.3450
-4.0113 valuable -0.3450
-3.3124 value -0.3168
-3.2580 values -0.3007
-3.4093 variability -0.2932
-3.8864 variable -0.3595
-4.4885 variance -0.3599
-4.4885 variation -0.3504
-3.6434 variations -0.3382
-4.4885 varies -0.3599
-4.0113 variety -0.3499
-3.7103 various -0.3590
-4.4885 vary -0.3598
-4.4885 vast -0.3599
-3.7103 vb -0.3338
-3.7103 vector -0.3249
-3.7103 vectors -0.3398
-3.8864 verification -0.3427
-4.0113 verified -0.3570
-4.1874 verify -0.3338
-4.1874 verifying -0.3587
-4.4885 versatile -0.3596
-3.5342 version -0.3195
-3.7894 versions -0.3290
-3.0571 very -0.3559
-4.4885 vi -0.3599
-3.7103 via -0.3510
-4.4885 vice -0.3599
-4.4885 vicissitudes -0.3499
-4.4885 video -0.3599
-3.7894 view -0.3128
-4.4885 viewing -0.3596
-3.7894 virtual -0.3586
-4.4885 virus -0.3599
-4.1874 viruses -0.3350
-4.1874 visible -0.3416
-4.4885 vision -0.3599
-4.4885 visiting -0.3583
-4.4885 vista -0.3504
-4.0113 visual -0.3599
-4.4885 visualized -0.3539
-4.4885 visualizing -0.3599
-4.4885 vital -0.3598
-4.1874 vocab -0.3535
-3.5342 vocabularies -0.3202
-3.1083 vocabulary -0.2866
-3.6434 vocal -0.3597
-3.5854 voice -0.3436
-4.4885 void -0.3594
-4.1874 volume -0.3598
-4.4885 volunteering -0.3590
-4.4885 von -0.3599
-4.4885 vowel -0.3599
-4.4885 vowels -0.3599
-4.4885 vs -0.3419
-4.4885 vulnerabilities -0.3599
-3.1460 w -0.3508
-4.4885 waiting -0.3562
-4.4885 walking -0.3596
-4.1874 walkthroughs -0.3418
-3.5854 wall -0.3345
-3.8864 want -0.3477
-3.8864 war -0.3346
-4.4885 warping -0.3450
-4.4885 warrantee -0.3419
-2.6372 was -0.2746
-4.1874 waste -0.3356
-4.4885 watching -0.3338
-4.1874 waveform -0.3594
-4.1874 waves -0.3532
-3.5854 way -0.2693
-4.4885 ways -0.3419
-2.7809 we -0.3307
-4.1874 wealth -0.3435
-4.4885 weapon -0.3598
-4.1874 weather -0.3502
-3.0735 web -0.3392
-4.4885 websites -0.3595
-4.4885 wee -0.3599
-3.4093 week -0.3283
-3.8864 weekly -0.3595
-4.1874 weeks -0.3488
-4.4885 weight -0.3596
-4.4885 wel. -0.3438
-4.1874 welcome -0.3387
-2.9833 well -0.2781
-4.4885 went -0.3486
-2.9833 were -0.3405
-4.4885 west -0.3599
-3.1662 what -0.2996
-4.1874 what's -0.3595
-4.4885 whatever -0.3419
-2.8353 when -0.3104
-3.8864 whenever -0.3246
-2.9444 where -0.3023
-4.4885 wherever -0.3338
-4.4885 whether -0.3566
-2.9570 which -0.2782
-3.2843 while -0.3470
-4.4885 whistler -0.3597
-3.3745 white -0.3402
-3.5342 who -0.3520
-3.7103 whole -0.3571
-4.1874 whose -0.3599
-3.7894 why -0.3328
-4.1874 wide -0.3599
-4.4885 widespread -0.3599
-4.1874 wiki -0.3593
-4.1874 wildlife -0.3263
-4.4885 wildly -0.3595
-2.4756 will -0.3103
-4.1874 willing -0.3320
-4.4885 willows -0.3450
-4.0113 win -0.3498
-3.4093 window -0.2963
-4.4885 windowing -0.3504
-2.6434 windows -0.2616
-4.1874 winning -0.3587
-3.8864 wins -0.3349
-4.1874 wire -0.3598
-3.7894 wish -0.3475
-2.4093 with -0.2787
-3.3423 within -0.3220
-3.3423 without -0.3225
-4.4885 witnessed -0.3599
-4.1874 wives -0.3418
-3.8864 wk -0.3599
-4.4885 woman -0.3590
-4.4885 women -0.3599
-4.4885 wonder -0.3597
-4.4885 wood -0.3599
-2.8257 word -0.2896
-2.6689 words -0.2422
-3.1267 work -0.2944
-3.7894 working -0.3561
-3.8864 workload -0.3489
-4.4885 workloads -0.3486
-3.6434 works -0.3150
-4.4885 workshop -0.3599
-4.4885 workspaces -0.3572
-4.4885 workstation -0.3438
-4.1874 workstations -0.3596
-3.6434 world -0.3395
-4.4885 worth -0.3566
-2.8864 would -0.3495
-4.4885 wrapping -0.3599
-4.0113 write -0.3401
-3.7103 writing -0.3408
-3.2580 written -0.3262
-4.1874 wrong -0.3598
-4.4885 www -0.3419
-4.1874 x -0.3447
-4.4885 xss -0.3582
-4.4885 yard -0.3595
-4.1874 yeah -0.3450
-4.4885 year -0.3504
-3.5342 years -0.3039
-4.4885 yelling -0.3590
-4.1874 yes -0.3566
-4.1874 yet -0.3419
-2.7809 you -0.3142
-4.4885 young -0.3599
-3.2580 your -0.3581
-4.4885 yourself -0.3419
-3.6434 zero -0.3258
-4.4885 zoo -0.3595
-3.5854 |pipe-symbol -0.3569
-4.1874 ®registered-sign -0.3599
-4.1874 °C -0.3400
-4.0113 °F -0.3587
-4.4885 °degree-sign -0.3582
-4.4885 â -0.3594
-4.4885 â -0.3594
-4.1874 ™trademark-sign -0.3415

\2-grams:
-1.2034 !exclamation-point "quote -0.1279
-0.3003 !exclamation-point </s> 0.2284
-2.2033 "quote (left-paren -0.1150
-1.2034 "quote )right-paren -0.0217
-0.9993 "quote ,comma -0.1038
-1.9024 "quote .dot -0.0762
-2.2033 "quote Hank 0.0131
-2.2033 "quote He's 0.2294
-2.2033 "quote Kroll -0.1025
-1.9024 "quote Learn 0.2294
-1.9024 "quote a -0.1276
-2.2033 "quote advocating 0.0131
-2.2033 "quote among -0.0402
-1.9024 "quote and -0.1070
-2.2033 "quote apply 0.0131
-2.2033 "quote attributes -0.0402
-1.9024 "quote button 0.0740
-2.2033 "quote cold 0.2294
-1.9024 "quote collect 0.1559
-2.2033 "quote colon 0.2294
-2.2033 "quote custom -0.1168
-2.2033 "quote doubling 0.2294
-2.2033 "quote exclamation 0.2294
-1.9024 "quote for -0.1269
-2.2033 "quote free -0.0647
-2.2033 "quote front -0.1078
-2.2033 "quote gamblers -0.0402
-2.2033 "quote hot 0.0131
-2.2033 "quote i -0.1229
-2.2033 "quote incoming 0.0740
-2.2033 "quote is -0.1301
-1.7263 "quote make -0.0581
-2.2033 "quote no -0.1203
-2.2033 "quote occurring 0.0740
-2.2033 "quote of -0.1302
-1.7263 "quote or -0.1190
-2.2033 "quote out -0.1150
-2.2033 "quote period 0.0131
-2.2033 "quote question -0.0878
-1.9024 "quote streaks 0.2294
-2.2033 "quote such -0.1237
-2.2033 "quote take -0.0878
-2.2033 "quote the -0.1302
-2.2033 "quote theoretically 0.2294
-2.2033 "quote unlucky 0.2294
-1.9024 "quote use -0.1218
-2.2033 "quote with -0.0922
-2.2033 "quote would -0.1054
-1.3583 "quote |pipe-symbol 0.1644
-1.0273 %percent .period -0.0232
-0.5502 %percent 2 -0.0922
-1.0273 %percent deduction 0.2294
-1.0273 %percent loop -0.0941
-2.0050 'single-quote </s> 0.2284
-1.7040 'single-quote measures -0.0402
-0.2808 'single-quote s 0.1835
-2.0050 'single-quote t -0.1150
-1.4533 (left-paren )right-paren -0.1287
-1.4533 (left-paren 232.2 0.2294
-1.4533 (left-paren 907 0.2294
-1.4533 (left-paren OS 0.0740
-1.4533 (left-paren and -0.1302
-1.4533 (left-paren artificial 0.2294
-1.4533 (left-paren as -0.1295
-1.4533 (left-paren dog 0.2294
-1.4533 (left-paren for -0.1288
-1.4533 (left-paren hence 0.2294
-1.4533 (left-paren instances 0.2294
-1.4533 (left-paren king 0.2294
-1.4533 (left-paren or -0.1237
-1.4533 (left-paren red 0.0131
-1.4533 (left-paren silver -0.0647
-1.4533 (left-paren °degree-sign 0.2294
-0.2492 (left-parenâ 1 -0.1002
-2.3530 )right-paren )right-paren -0.0902
-1.0519 )right-paren ,comma -0.0245
-2.3530 )right-paren -hyphen -0.1292
-0.8215 )right-paren .dot 0.0475
-2.0519 )right-paren .period -0.0232
-2.3530 )right-paren 283 0.2294
-2.3530 )right-paren :colon -0.1284
-1.3530 )right-paren </s> 0.2284
-2.3530 )right-paren Look 0.2294
-2.3530 )right-paren algorithm -0.1145
-1.4499 )right-paren and -0.0965
-2.3530 )right-paren as -0.1262
-2.0519 )right-paren can 0.0495
-2.3530 )right-paren contributing 0.2294
-2.3530 )right-paren cos 0.2294
-2.3530 )right-paren encouraged 0.2294
-2.3530 )right-paren environment -0.1168
-2.3530 )right-paren estimated -0.0402
-2.3530 )right-paren evolved -0.0402
-2.3530 )right-paren for -0.0992
-2.3530 )right-paren function -0.1188
-2.0519 )right-paren has -0.0218
-2.0519 )right-paren in -0.0906
-2.3530 )right-paren integrated 0.0131
-2.3530 )right-paren interference 0.2294
-1.7509 )right-paren is -0.0900
-2.3530 )right-paren keeps 0.0131
-2.3530 )right-paren lines -0.0402
-2.3530 )right-paren method -0.0989
-2.3530 )right-paren musical 0.2294
-2.0519 )right-paren or -0.1260
-2.3530 )right-paren orientation -0.0402
-1.8758 )right-paren p -0.1103
-2.3530 )right-paren participating 0.2294
-2.3530 )right-paren represents -0.0402
-2.0519 )right-paren salmon 0.2294
-2.3530 )right-paren services -0.0878
-2.3530 )right-paren since -0.0787
-2.0519 )right-paren the -0.1295
-2.3530 )right-paren to -0.1294
-2.3530 )right-paren typically -0.1025
-2.0519 )right-paren using -0.0460
-2.3530 )right-paren was -0.1271
-2.3530 )right-paren web -0.1014
-2.3530 )right-paren where -0.1235
-2.3530 )right-paren which -0.1233
-0.8512 *asterisk PocketSphinx -0.1209
-0.5502 *asterisk algorithm -0.0892
-0.8512 *asterisk decoding -0.1182
-0.5502 +plus-symbol or -0.1283
-0.5502 +plus-symbol to -0.1297
-2.4901 ,comma "quote -0.1054
-2.9672 ,comma )right-paren -0.0550
-1.4901 ,comma </s> 0.2284
-3.2683 ,comma BITCH 0.2294
-3.2683 ,comma CA 0.2294
-3.2683 ,comma Compiz 0.0740
-3.2683 ,comma Debian 0.2294
-3.2683 ,comma Evan 0.2294
-3.2683 ,comma Fedora 0.2294
-3.2683 ,comma File 0.2294
-3.2683 ,comma FreeBSD 0.2294
-3.2683 ,comma FreeSpeech 0.2294
-3.2683 ,comma Gb 0.0131
-3.2683 ,comma German 0.2294
-3.2683 ,comma Hank 0.0131
-2.9672 ,comma Henry -0.0402
-2.7911 ,comma I -0.1025
-3.2683 ,comma Jacob 0.2294
-3.2683 ,comma Josh 0.2294
-2.7911 ,comma Linux -0.1165
-3.2683 ,comma Mageia 0.2294
-3.2683 ,comma McLeod 0.1198
-3.2683 ,comma Missouri 0.2294
-3.2683 ,comma NJ 0.2294
-3.2683 ,comma Ohio 0.0131
-3.2683 ,comma OpenSuse 0.0131
-3.2683 ,comma PCLinuxOS 0.2294
-2.5693 ,comma PocketSphinx -0.0097
-3.2683 ,comma RCA 0.2294
-3.2683 ,comma Sean 0.2294
-2.7911 ,comma Sharon 0.2294
-3.2683 ,comma Slackware 0.2294
-3.2683 ,comma UNIX 0.2294
-3.2683 ,comma USA 0.2294
-3.2683 ,comma Virginia 0.2294
-3.2683 ,comma Wolfgang 0.2294
-1.9065 ,comma a -0.0859
-3.2683 ,comma according 0.2294
-2.9672 ,comma acoustic 0.0364
-3.2683 ,comma adaptive 0.2294
-3.2683 ,comma administrator 0.0131
-3.2683 ,comma adopting 0.2294
-3.2683 ,comma age -0.0647
-3.2683 ,comma all -0.1247
-3.2683 ,comma almost -0.0647
-2.7911 ,comma also -0.0888
-2.7911 ,comma among 0.0740
-2.9672 ,comma an -0.1175
-1.3286 ,comma and -0.0402
-3.2683 ,comma apple 0.2294
-3.2683 ,comma around -0.1128
-3.2683 ,comma articulatory -0.0402
-1.9258 ,comma as 0.0071
-3.2683 ,comma attached 0.0131
-2.9672 ,comma automotive 0.0740
-3.2683 ,comma available -0.1235
-2.9672 ,comma b 0.0740
-2.9672 ,comma being -0.0878
-3.2683 ,comma berg 0.2294
-3.2683 ,comma berries 0.2294
-2.9672 ,comma bill -0.0197
-3.2683 ,comma blank 0.2294
-3.2683 ,comma both -0.0967
-3.2683 ,comma boundary 0.1079
-3.2683 ,comma branch 0.2294
-3.2683 ,comma breathing 0.2294
-3.2683 ,comma browse 0.2294
-3.2683 ,comma browsed 0.2294
-3.2683 ,comma buffer -0.0787
-1.8703 ,comma but 0.1539
-3.2683 ,comma by -0.1289
-3.2683 ,comma cables 0.0131
-3.2683 ,comma call 0.0264
-3.2683 ,comma caller -0.0402
-3.2683 ,comma calls -0.0647
-2.9672 ,comma can 0.0519
-3.2683 ,comma canals 0.2294
-3.2683 ,comma certain -0.0989
-3.2683 ,comma character -0.0402
-3.2683 ,comma checked -0.0402
-3.2683 ,comma children -0.0402
-3.2683 ,comma cited 0.2294
-3.2683 ,comma click -0.0941
-3.2683 ,comma coasts 0.2294
-3.2683 ,comma code -0.1237
-3.2683 ,comma codename 0.0131
-3.2683 ,comma collect 0.1559
-3.2683 ,comma color 0.0131
-3.2683 ,comma combined 0.0131
-3.2683 ,comma commentaries 0.2294
-3.2683 ,comma competitive 0.0131
-3.2683 ,comma component -0.0647
-3.2683 ,comma composing 0.2294
-3.2683 ,comma compound 0.2294
-3.2683 ,comma conditions 0.0740
-3.2683 ,comma conferencing 0.2294
-2.9672 ,comma continuous -0.0197
-3.2683 ,comma convert -0.0647
-3.2683 ,comma converts 0.0131
-3.2683 ,comma copyrighted 0.2294
-3.2683 ,comma coupled 0.2294
-2.7911 ,comma creating -0.0701
-3.2683 ,comma cross 0.2294
-3.2683 ,comma customers -0.0402
-3.2683 ,comma databases -0.0647
-3.2683 ,comma decode -0.0197
-3.2683 ,comma decoding -0.1182
-3.2683 ,comma deleted 0.2294
-3.2683 ,comma delta -0.0725
-3.2683 ,comma depending 0.2294
-3.2683 ,comma described -0.0989
-3.2683 ,comma design -0.0402
-3.2683 ,comma developed -0.0967
-3.2683 ,comma development -0.1205
-3.2683 ,comma die 0.2294
-3.2683 ,comma different -0.1244
-3.2683 ,comma digestion 0.2294
-3.2683 ,comma dimming 0.2294
-3.2683 ,comma discovery -0.0402
-3.2683 ,comma divide 0.2294
-2.9672 ,comma do -0.0738
-3.2683 ,comma documentation -0.1078
-3.2683 ,comma due 0.1712
-2.9672 ,comma during 0.1105
-3.2683 ,comma duty 0.2294
-3.2683 ,comma e 0.0131
-2.6662 ,comma each -0.0713
-3.2683 ,comma ease -0.0402
-3.2683 ,comma efficiency -0.0402
-3.2683 ,comma efficient -0.0787
