This is an ARPA-format language model file, generated by CMU Sphinx
\data\
ngram 1=4096
ngram 2=18929
ngram 3=28222

\1-grams:
-4.5475 <UNK> 0.0000
-3.8486 !exclamation-point -0.3695
-2.6337 "quote -0.2799
-3.7025 %percent -0.3635
-4.2465 &ampersand -0.3845
-2.6842 'single-quote -0.3678
-3.2465 (left-paren -0.3638
-2.2711 )right-paren -0.2126
-3.7693 *asterisk -0.3831
-4.2465 +plus-symbol -0.3725
-1.4637 ,comma -0.1351
-2.2012 -hyphen -0.3225
-4.5475 -hyphen-hyphendash -0.3836
-3.0161 . -0.3695
-3.2051 ...ellipsis -0.3116
-2.5838 .dot -0.3145
-1.3868 .period -0.1496
-2.4541 /slash -0.3557
-2.9565 0 -0.3501
-2.8233 1 -0.3307
-4.5475 1456 -0.3739
-4.5475 18th -0.3848
-2.8574 2 -0.3616
-4.5475 283 -0.3822
-2.9794 3 -0.3418
-3.1673 4 -0.3489
-3.1858 5 -0.3479
-4.5475 50 -0.3848
-3.4014 6 -0.3817
-4.5475 65 -0.3849
-3.4014 7 -0.3726
-3.2253 8 -0.3542
-3.7693 9 -0.3802
-4.5475 907 -0.3826
-2.3543 :colon -0.3061
-3.1858 ;semi-colon -0.3586
-1.4576 </s> -0.3695
-1.4573 <s> -0.0547
-4.0704 =equals-sign -0.3836
-3.1004 ?question-mark -0.3562
-3.8486 @at-symbol -0.3693
-4.2465 A -0.3848
-4.0704 ASCII -0.3695
-4.5475 Alaska -0.3667
-4.5475 Arguments -0.3847
-4.5475 AttrList -0.3843
-4.5475 August -0.3667
-4.5475 CSS -0.3849
-4.5475 Charts -0.3755
-4.5475 Cook -0.3849
-4.5475 Data -0.3847
-4.2465 File -0.3846
-4.5475 Firefox -0.3846
-4.5475 France -0.3667
-4.5475 FreeSpeech -0.3784
-4.5475 Frequently -0.3849
-4.2465 Hank -0.3838
-3.1496 Henry -0.3239
-3.4336 I -0.3778
-4.5475 III -0.3667
-4.5475 Inlet -0.3789
-4.5475 Is -0.3848
-4.5475 July -0.3667
-4.5475 June -0.3755
-4.5475 Kitco -0.3667
-4.5475 Kitcosilver -0.3838
-3.5932 Kroll -0.3599
-4.2465 Learn -0.3839
-4.5475 Popen -0.3849
-4.0704 Python -0.3849
-4.0704 Python's -0.3849
-4.5475 SeaMonkey -0.3843
-4.5475 Silver -0.3849
-4.5475 SouthCentral -0.3849
-4.5475 Taleb -0.3848
-4.5475 The -0.3849
-4.5475 True -0.3667
-3.5932 UTF -0.3822
-3.4684 Unicode -0.3841
-4.5475 Used -0.3849
-3.7025 [left-bracket -0.3831
-2.9141 \backslash -0.3760
-3.5476 ]right-bracket -0.3496
-3.2253 _underscore -0.3825
-4.5475 `agrave -0.3846
-1.7293 a -0.2677
-4.5475 aardvark -0.3848
-4.5475 abbreviated -0.3849
-4.5475 abbreviations -0.3755
-4.5475 aberdares -0.3849
-3.9455 ability -0.3553
-3.0562 able -0.3739
-3.3171 about -0.3432
-4.2465 above -0.3822
-4.5475 abrego -0.3849
-4.5475 absent -0.3746
-4.5475 absolutes -0.3755
-4.2465 abstract -0.3679
-4.5475 abundance -0.3746
-4.5475 academic -0.3849
-4.2465 accent -0.3600
-4.0704 acceptable -0.3682
-4.5475 acceptance -0.3667
-3.7693 accepted -0.3498
-3.4684 access -0.3635
-3.8486 accessed -0.3828
-4.5475 accessible -0.3847
-4.5475 accessing -0.3820
-4.5475 accommodate -0.3847
-4.5475 accompany -0.3586
-4.5475 accomplish -0.3840
-4.5475 accomplished -0.3826
-3.3171 according -0.3739
-3.8486 account -0.3463
-4.5475 accounting -0.3697
-4.5475 accumulating -0.3667
-2.9794 accuracy -0.3231
-3.8486 accurate -0.3837
-4.5475 achieve -0.3848
-3.5932 achieved -0.3496
-4.2465 achieving -0.3822
-4.5475 acknowledgements -0.3817
-3.0035 acoustic -0.3775
-4.5475 acoustical -0.3848
-4.2465 acousticresponses -0.3844
-4.0704 acoustics -0.3578
-4.5475 acquired -0.3848
-4.5475 acquisition -0.3746
-4.5475 acronyms -0.3697
-4.2465 across -0.3499
-4.5475 acting -0.3789
-3.8486 action -0.3635
-3.9455 actions -0.3508
-4.5475 active -0.3846
-4.2465 actively -0.3849
-4.0704 activities -0.3509
-4.5475 activity -0.3667
-3.9455 actual -0.3809
-4.2465 actually -0.3848
-4.5475 adamant -0.3755
-3.9455 adapt -0.3631
-4.5475 adaptable -0.3834
-4.5475 adaptation -0.3789
-4.2465 adapted -0.3723
-4.5475 adapting -0.3586
-4.5475 adaptive -0.3847
-4.5475 adapts -0.3834
-4.0704 add -0.3655
-4.0704 added -0.3730
-4.5475 addionally -0.3697
-3.9455 addition -0.3424
-3.5932 additional -0.3842
-3.5062 additionally -0.3424
-4.5475 additions -0.3823
-4.5475 additive -0.3849
-4.0704 address -0.3663
-4.5475 addressed -0.3739
-4.5475 adds -0.3586
-4.5475 addtionally -0.3697
-4.2465 adequate -0.3805
-4.5475 adequately -0.3848
-4.5475 adheres -0.3739
-4.5475 adhering -0.3739
-4.5475 adjust -0.3586
-4.5475 adjusted -0.3849
-4.5475 adjusting -0.3586
-4.5475 adjustment -0.3746
-4.2465 administrator -0.3630
-4.2465 administrators -0.3847
-4.5475 adopt -0.3697
-4.5475 adopted -0.3667
-4.5475 adopting -0.3848
-4.5475 adult -0.3848
-4.2465 adults -0.3667
-4.5475 advance -0.3697
-4.5475 advanced -0.3846
-4.5475 advancements -0.3846
-4.0704 advantage -0.3746
-3.7025 advantages -0.3607
-4.5475 adversely -0.3667
-4.5475 advocate -0.3848
-4.5475 advocated -0.3820
-4.5475 advocates -0.3849
-4.2465 advocating -0.3845
-4.2465 affect -0.3571
-4.5475 affected -0.3826
-4.5475 afford -0.3667
-3.7025 africana -0.3166
-4.5475 afrika -0.3695
-2.9913 after -0.3397
-4.2465 again -0.3667
-3.8486 against -0.3571
-3.8486 age -0.3386
-4.5475 agency -0.3848
-4.5475 ago -0.3667
-4.2465 agrees -0.3724
-4.5475 agroforestry -0.3846
-4.5475 aguirre -0.3837
-4.5475 ahead -0.3667
-4.5475 aid -0.3586
-4.5475 aij -0.3844
-4.0704 aim -0.3559
-4.2465 aimed -0.3739
-4.5475 aircraft -0.3849
-4.2465 al -0.3667
-4.5475 alarmingly -0.3697
-4.5475 alaska -0.3667
-4.5475 album -0.3667
-4.2465 albums -0.3824
-2.8943 algorithm -0.2566
-3.3171 algorithms -0.2979
-4.5475 align -0.3834
-4.5475 aligns -0.3834
-4.2465 alike -0.3600
-2.8943 all -0.2940
-4.5475 allergies -0.3824
-4.0704 allow -0.3586
-4.0704 allowed -0.3573
-3.3171 allows -0.3456
-3.9455 almost -0.3843
-4.5475 alone -0.3829
-3.8486 along -0.3638
-3.9455 alpha -0.3719
-4.2465 alphabet -0.3693
-3.8486 already -0.3785
-2.8574 also -0.3189
-3.9455 alt -0.3821
-3.7693 altair -0.3837
-4.5475 alternate -0.3847
-4.5475 alternative -0.3739
-4.0704 alternatively -0.3697
-4.5475 alternatives -0.3739
-3.4684 although -0.3517
-4.5475 always -0.3840
-3.5062 am -0.3815
-4.5475 ambient -0.3849
-3.5476 among -0.3831
-3.6445 amount -0.3746
-4.5475 amounts -0.3746
-4.5475 amplitude -0.3746
-2.4506 an -0.3699
-3.5476 analysis -0.3416
-4.2465 analyzers -0.3660
-4.5475 ancient -0.3848
-1.6696 and -0.1273
-4.5475 andrea -0.3849
-4.2465 android -0.3666
-4.5475 anger -0.3667
-4.5475 ann -0.3826
-3.3715 another -0.3515
-4.5475 anova -0.3826
-4.5475 answered -0.3697
-4.2465 anthropocentric -0.3651
-3.8486 anti -0.3822
-4.5475 anticipating -0.3848
-4.2465 antivirus -0.3849
-3.1162 any -0.3669
-4.5475 anybody -0.3829
-4.2465 anyone -0.3838
-3.9455 anything -0.3630
-4.2465 anywhere -0.3789
-4.5475 apart -0.3833
-4.5475 api -0.3826
-4.5475 apparatus -0.3755
-4.2465 apparent -0.3846
-4.5475 apparently -0.3811
-4.5475 appeal -0.3667
-4.5475 appear -0.3789
-4.5475 appearing -0.3739
-4.5475 appears -0.3789
-4.5475 appended -0.3739
-4.5475 appendix -0.3767
-4.5475 applauds -0.3849
-4.5475 apple -0.3840
-4.5475 appliance -0.3697
-4.5475 applicable -0.3739
-4.5475 applicants -0.3834
-2.7280 application -0.2681
-3.1326 applications -0.3147
-3.9455 applied -0.3467
-4.0704 applies -0.3655
-4.0704 apply -0.3752
-4.5475 applying -0.3849
-4.5475 appreciated -0.3847
-3.3434 approach -0.2921
-3.3434 approaches -0.3406
-4.2465 appropriate -0.3838
-4.5475 approved -0.3697
-4.0704 approximate -0.3586
-4.2465 approximated -0.3838
-4.5475 approximating -0.3586
-4.2465 approximation -0.3745
-4.2465 arbitrarily -0.3846
-4.5475 arch -0.3841
-4.0704 architecture -0.3595
-2.2337 are -0.2439
-3.7025 area -0.3420
-3.3171 areas -0.3159
-4.5475 aren -0.3840
-3.8486 arguments -0.3691
-4.5475 arise -0.3789
-4.2465 arm -0.3848
-3.4336 around -0.2638
-4.2465 arpa -0.3824
-4.2465 arpabet -0.3693
-4.5475 arrangement -0.3667
-4.5475 arrangements -0.3755
-4.5475 array -0.3746
-4.5475 arrays -0.3697
-4.5475 arrives -0.3739
-4.2465 article -0.3834
-4.2465 articles -0.3832
-4.2465 articulated -0.3817
-4.5475 articulates -0.3835
-4.5475 articulation -0.3848
-4.0704 articulatory -0.3847
-4.5475 artificial -0.3848
-2.1376 as -0.2683
-4.5475 asleep -0.3695
-4.5475 aspects -0.3746
-4.2465 asplund -0.3811
-4.5475 asr -0.3848
-4.5475 assembly -0.3845
-4.5475 assessment -0.3848
-4.2465 assigned -0.3749
-4.5475 assigning -0.3848
-3.4014 assignment -0.3843
-3.6445 assignments -0.3638
-4.5475 assigns -0.3767
-4.2465 assist -0.3789
-3.9455 associated -0.3732
-4.2465 assume -0.3817
-4.2465 assumed -0.3712
-4.5475 assumes -0.3823
-3.7693 assuming -0.3740
-4.5475 assumption -0.3847
-4.5475 assure -0.3849
-4.5475 assures -0.3846
-4.5475 aster -0.3849
-4.5475 asterisk -0.3849
-2.6725 at -0.3376
-4.5475 atal -0.3755
-4.5475 att -0.3667
-4.2465 attached -0.3553
-4.5475 attempt -0.3739
-4.5475 attempting -0.3739
-4.0704 attempts -0.3739
-4.5475 attention -0.3667
-4.5475 attenuated -0.3817
-4.5475 attract -0.3849
-3.8486 attributes -0.3506
-4.2465 audacity -0.3600
-4.5475 audience -0.3667
-2.9565 audio -0.3820
-4.2465 august -0.3810
-4.5475 authentication -0.3697
-4.2465 author -0.3738
-4.5475 authorized -0.3847
-4.0704 automate -0.3585
-3.8486 automated -0.3646
-3.6445 automatic -0.3827
-3.8486 automatically -0.3406
-4.0704 automating -0.3486
-3.9455 automation -0.3590
-4.0704 automotive -0.3600
-4.5475 auxiliary -0.3847
-4.5475 availability -0.3836
-2.9794 available -0.3202
-4.5475 availed -0.3846
-3.9455 average -0.3845
-3.9455 avoid -0.3692
-4.5475 avoiding -0.3848
-4.5475 aware -0.3697
-4.0704 away -0.3444
-4.5475 aziz -0.3849
-3.7693 b -0.3481
-3.6445 back -0.3495
-4.2465 background -0.3846
-4.5475 backups -0.3746
-3.4684 backward -0.3835
-3.8486 bad -0.3592
-4.5475 badillo -0.3849
-4.5475 bahl -0.3755
-4.0704 baker -0.3830
-4.2465 balance -0.3744
-4.5475 balances -0.3834
-4.5475 bandpass -0.3849
-4.5475 bandwidth -0.3849
-4.0704 bank -0.3476
-4.2465 bankrupt -0.3757
-4.2465 bark -0.3743
-4.0704 base -0.3845
-2.9678 based -0.3342
-4.5475 baseline -0.3695
-3.7693 basic -0.3834
-4.5475 basically -0.3849
-3.9455 bass -0.3662
-4.5475 bat -0.3848
-3.8486 batch -0.3576
-4.5475 batteries -0.3834
-4.0704 baum -0.3727
-2.0822 be -0.2742
-4.2465 beam -0.3821
-4.5475 bearer -0.3849
-4.5475 beating -0.3746
-3.9455 became -0.3767
-3.6445 because -0.3427
-3.5062 become -0.3538
-3.7693 becomes -0.3837
-4.2465 becoming -0.3848
-4.5475 bed -0.3667
-4.5475 bedroom -0.3667
-2.9141 been -0.3649
-4.5475 beetles -0.3755
-3.7693 before -0.3417
-4.0704 began -0.3738
-3.5932 begin -0.3514
-4.2465 beginning -0.3739
-4.5475 begins -0.3586
-4.5475 behave -0.3789
-4.5475 behaves -0.3845
-3.7693 behavior -0.3486
-4.5475 behavioral -0.3837
-4.5475 behaviors -0.3755
-3.9455 behind -0.3703
-3.5062 being -0.3517
-4.5475 bell -0.3849
-4.2465 belong -0.3739
-4.5475 below -0.3789
-4.0704 benchmark -0.3753
-4.5475 benchmarks -0.3667
-4.5475 beneficial -0.3739
-3.9455 benefit -0.3767
-4.2465 benefits -0.3741
-4.2465 berg -0.3538
-4.2465 bernstein -0.3697
-4.5475 berries -0.3697
-3.9455 besides -0.3583
-3.3434 best -0.3693
-4.2465 bet -0.3842
-3.7025 beta -0.3811
-3.9455 bets -0.3814
-3.4014 better -0.3376
-4.0704 betting -0.3847
-3.4014 between -0.3567
-4.2465 beyond -0.3581
-4.5475 bi -0.3847
-4.5475 biased -0.3849
-4.5475 bible -0.3739
-4.5475 bibliography -0.3767
-3.9455 big -0.3845
-4.0704 bigger -0.3844
-4.5475 biggest -0.3848
-4.0704 bigram -0.3685
-3.6445 bill -0.3588
-4.5475 bills -0.3845
-3.6445 bin -0.3813
-4.5475 binary -0.3849
-4.5475 biocentric -0.3667
-4.5475 biscuit -0.3849
-3.6445 biscuits -0.3312
-3.7693 bit -0.3812
-4.5475 bj -0.3848
-3.4684 black -0.3595
-4.5475 blank -0.3847
-4.5475 bleeding -0.3822
-4.5475 bliss -0.3667
-4.2465 blocks -0.3684
-4.5475 blow -0.3845
-4.5475 boats -0.3697
-4.0704 boilerpipe -0.3501
-4.0704 book -0.3715
-4.2465 bookrags -0.3667
-4.5475 bookstore -0.3846
-4.2465 boolean -0.3849
-4.5475 boon -0.3739
-4.5475 booting -0.3833
-4.5475 border -0.3849
-3.3434 both -0.3440
-4.5475 bound -0.3739
-4.0704 boundaries -0.3658
-3.9455 boundary -0.3782
-3.1673 box -0.3554
-4.0704 branch -0.3847
-4.2465 branches -0.3789
-4.2465 braude -0.3697
-4.5475 break -0.3833
-4.5475 breaks -0.3667
-4.5475 breathing -0.3697
-4.5475 breech -0.3840
-4.5475 brewing -0.3849
-4.0704 brief -0.3847
-4.5475 briggs -0.3695
-4.5475 bright -0.3848
-4.5475 brightness -0.3697
-4.5475 bring -0.3848
-4.2465 brings -0.3849
-4.5475 british -0.3849
-4.5475 broad -0.3849
-4.5475 broadcast -0.3826
-4.5475 broader -0.3849
-4.5475 broken -0.3849
-4.5475 brother -0.3789
-4.5475 brought -0.3849
-4.5475 browse -0.3739
-4.5475 browsed -0.3755
-3.9455 browser -0.3236
-4.0704 bsd -0.3506
-4.5475 budget -0.3849
-4.5475 budgeted -0.3739
-4.0704 buffer -0.3667
-3.7693 bugs -0.3806
-4.5475 build -0.3767
-3.7693 building -0.3671
-3.9455 built -0.3672
-4.2465 bullard -0.3697
-4.5475 bundled -0.3789
-4.5475 burroughs -0.3697
-3.2051 business -0.3424
-4.5475 businesses -0.3695
-4.5475 busy -0.3811
-2.9565 but -0.2962
-4.0704 button -0.3667
-4.5475 buttons -0.3667
-4.2465 buy -0.3767
-4.5475 buying -0.3586
-3.9455 buzzword -0.3693
-2.2780 by -0.3123
-4.5475 bye -0.3839
-4.0704 byte -0.3848
-4.5475 bytes -0.3833
-3.3715 c -0.3540
-4.2465 ca -0.3509
-4.5475 cabinet -0.3667
-4.5475 cable -0.3739
-4.2465 cables -0.3673
-4.5475 cache -0.3849
-4.0704 calculate -0.3584
-3.8486 calculated -0.3642
-4.2465 calculates -0.3499
-4.5475 calculating -0.3586
-4.5475 calculations -0.3667
-4.5475 california -0.3848
-3.3715 call -0.3621
-3.2465 called -0.3405
-4.0704 caller -0.3849
-4.5475 callhome -0.3695
-3.8486 calls -0.3475
-2.3248 can -0.3236
-4.5475 canals -0.3697
-4.5475 cancer -0.3697
-4.5475 candidate -0.3843
-4.5475 candidates -0.3667
-4.2465 cannot -0.3813
-4.0704 capabilities -0.3474
-4.5475 capability -0.3697
-3.8486 capable -0.3588
-4.2465 capacity -0.3826
-4.5475 captain -0.3697
-4.5475 capture -0.3586
-3.9455 card -0.3509
-4.5475 cards -0.3697
-4.0704 care -0.3774
-4.2465 career -0.3757
-4.0704 careful -0.3736
-3.8486 carefully -0.3822
-3.8486 carnegie -0.3849
-4.5475 carried -0.3832
-4.0704 carrier -0.3825
-4.5475 carriers -0.3667
-4.5475 carry -0.3832
-4.5475 cars -0.3697
-3.3434 case -0.3228
-3.9455 cases -0.3189
-4.5475 castro -0.3849
-4.2465 casual -0.3672
-4.2465 catastrophic -0.3849
-4.5475 catch -0.3667
-4.5475 categorically -0.3845
-4.0704 categories -0.3559
-4.5475 categorization -0.3849
-4.5475 categorize -0.3586
-4.5475 category -0.3848
-4.5475 caters -0.3739
-4.5475 cause -0.3586
-4.5475 caused -0.3826
-4.2465 causes -0.3755
-4.5475 ccs -0.3845
-4.2465 cd -0.3651
-4.2465 cdr -0.3697
-4.5475 ce -0.3697
-3.7025 cell -0.3628
-3.9455 center -0.3788
-4.5475 centers -0.3697
-4.5475 centos -0.3667
-4.2465 central -0.3845
-4.5475 centralized -0.3841
-3.7693 century -0.3223
-3.9455 cepstral -0.3844
-3.8486 cepstrum -0.3551
-4.5475 cer -0.3849
-3.5476 certain -0.3837
-4.5475 certainly -0.3849
-4.5475 certified -0.3826
-4.5475 certify -0.3586
-4.5475 cgi -0.3822
-4.0704 challenge -0.3811
-3.7025 challenges -0.3515
-4.0704 challenging -0.3843
-3.7025 change -0.3496
-3.7025 changed -0.3263
-3.8486 changes -0.3504
-4.2465 channel -0.3697
-4.2465 channels -0.3849
-4.5475 chapman -0.3849
-3.5062 chapter -0.3594
-4.0704 character -0.3600
-4.0704 characteristic -0.3744
-4.0704 characteristics -0.3746
-4.5475 characterized -0.3826
-4.2465 characters -0.3681
-3.9455 charge -0.3559
-4.5475 charters -0.3755
-3.9455 charts -0.3631
-4.5475 chat -0.3849
-4.5475 chcon -0.3695
-4.0704 cheap -0.3755
-4.5475 cheaper -0.3739
-3.7025 check -0.3780
-3.9455 checkbook -0.3849
-4.0704 checked -0.3484
-3.5932 checking -0.3415
-4.2465 checks -0.3583
-4.0704 chicken -0.3531
-4.5475 child -0.3848
-4.5475 childhood -0.3667
-4.0704 children -0.3845
-4.5475 chinook -0.3847
-4.5475 chips -0.3667
-4.5475 choice -0.3811
-3.9455 choose -0.3580
-4.5475 choosing -0.3845
-4.5475 chores -0.3842
-4.0704 chose -0.3739
-3.9455 chosen -0.3844
-4.5475 chris -0.3695
-4.5475 chum -0.3847
-4.5475 chunks -0.3849
-4.5475 church -0.3847
-4.5475 ci -0.3784
-4.5475 ciencia -0.3849
-4.2465 cil -0.3667
-4.2465 circuit -0.3849
-3.9455 circuits -0.3666
-4.5475 circumstances -0.3697
-4.5475 cited -0.3697
-4.5475 citeseer -0.3697
-4.5475 citizens -0.3746
-4.5475 clarified -0.3823
-4.5475 clarify -0.3823
-4.5475 clarity -0.3697
-3.5932 class -0.3605
-3.9455 classes -0.3394
-4.5475 classic -0.3848
-4.5475 classified -0.3817
-4.5475 classify -0.3586
-4.2465 classroom -0.3667
-4.0704 clear -0.3599
-4.5475 cleared -0.3849
-4.2465 clearly -0.3847
-4.5475 cleveland -0.3697
-3.7025 click -0.3524
-4.5475 clicking -0.3586
-4.5475 clicks -0.3667
-4.2465 client -0.3849
-3.7693 clients -0.3582
-4.5475 climb -0.3739
-4.5475 climbing -0.3697
-4.5475 clones -0.3667
-4.0704 close -0.3303
-4.0704 closed -0.3554
-4.5475 clr -0.3826
-4.5475 cluster -0.3667
-3.1326 cmu -0.3486
-3.3715 cmuclmtk -0.3398
-4.2465 cmudict -0.3837
-3.8486 cmusphinx -0.3645
-4.2465 co -0.3822
-4.5475 coast -0.3667
-4.5475 coax -0.3835
-2.9794 code -0.3059
-4.2465 codename -0.3697
-4.5475 codified -0.3789
-4.0704 coding -0.3848
-3.6445 coefficients -0.3263
-4.2465 coffee -0.3661
-4.5475 coho -0.3847
-4.2465 coin -0.3849
-4.5475 cold -0.3839
-4.5475 collaborate -0.3755
-4.5475 collaboration -0.3830
-4.5475 colleagues -0.3755
-3.7025 collect -0.3657
-4.2465 collecting -0.3761
-4.5475 collection -0.3746
-3.7693 colney -0.3754
-4.5475 colons -0.3697
-4.2465 color -0.3848
-3.3434 com -0.3394
-4.2465 combination -0.3633
-4.2465 combined -0.3774
-4.5475 combining -0.3845
-4.0704 combo -0.3837
-4.0704 come -0.3833
-3.9455 comes -0.3823
-4.2465 coming -0.3847
-4.5475 comm -0.3849
-4.2465 comma -0.3822
-3.4014 command -0.3649
-3.5932 commands -0.3180
-4.5475 commas -0.3755
-4.5475 commentaries -0.3697
-3.8486 commercial -0.3826
-4.5475 commit -0.3739
-3.1858 common -0.3494
-4.2465 commonly -0.3835
-4.0704 communicate -0.3718
-4.5475 communicating -0.3834
-3.8486 communication -0.3594
-4.5475 communications -0.3739
-4.5475 communities -0.3739
-3.9455 community -0.3473
-4.5475 compact -0.3846
-3.9455 companies -0.3649
-3.3434 company -0.3051
-4.5475 comparable -0.3739
-4.2465 compare -0.3579
-3.9455 compared -0.3739
-4.5475 compares -0.3841
-4.5475 comparing -0.3841
-4.5475 comparison -0.3834
-4.5475 compatibility -0.3830
-4.0704 compatible -0.3833
-4.5475 compensated -0.3755
-3.9455 compensation -0.3589
-4.2465 competitive -0.3849
-3.8486 compile -0.3555
-3.9455 compiled -0.3711
-4.0704 compiler -0.3849
-4.5475 compilers -0.3667
-4.0704 compiling -0.3586
-4.0704 compiz -0.3782
-4.5475 complementary -0.3840
-4.5475 complements -0.3586
-3.6445 complete -0.3477
-4.0704 completed -0.3517
-4.2465 completely -0.3848
-4.5475 completes -0.3848
-4.0704 completion -0.3559
-3.7025 complex -0.3711
-4.2465 complexity -0.3590
-4.5475 complicated -0.3817
-3.5932 component -0.3649
-3.4684 components -0.3103
-3.8486 composed -0.3826
-4.5475 composing -0.3697
-4.0704 compound -0.3849
-4.5475 comprehensive -0.3848
-4.5475 compress -0.3586
-4.5475 compressing -0.3586
-4.5475 compression -0.3784
-4.5475 comprise -0.3848
-3.7025 comprises -0.3495
-4.5475 comprising -0.3845
-4.5475 compromise -0.3695
-4.5475 compromised -0.3846
-4.2465 computation -0.3559
-3.8486 computational -0.3844
-4.2465 computationally -0.3849
-4.5475 computations -0.3817
-3.5932 compute -0.3410
-3.8486 computed -0.3838
-3.2051 computer -0.3084
-3.8486 computers -0.3375
-4.5475 computes -0.3845
-4.5475 computing -0.3667
-4.5475 conacyt -0.3826
-4.2465 concatenation -0.3588
-4.2465 concept -0.3746
-4.2465 concepts -0.3667
-3.9455 concern -0.3477
-4.5475 concerned -0.3847
-4.0704 concerning -0.3765
-4.2465 concerns -0.3605
-3.8486 conclusion -0.3508
-4.0704 conclusions -0.3476
-4.0704 condition -0.3844
-4.5475 conditional -0.3845
-4.0704 conditions -0.3694
-4.0704 conference -0.3831
-4.5475 conferencing -0.3697
-4.5475 confidentiality -0.3849
-3.8486 configuration -0.3387
-4.2465 configurations -0.3673
-4.5475 configured -0.3849
-4.2465 confirm -0.3845
-4.5475 conflicted -0.3834
-4.5475 conform -0.3739
-4.5475 congo -0.3697
-4.5475 connect -0.3586
-4.5475 connected -0.3667
-3.7693 connecting -0.3848
-4.5475 connections -0.3667
-4.5475 connectivity -0.3849
-3.9455 connects -0.3738
-4.5475 consciously -0.3849
-4.5475 consecutive -0.3848
-4.5475 consejo -0.3849
-4.5475 consequently -0.3697
-4.5475 conservation -0.3846
-3.9455 consider -0.3271
-4.5475 consideration -0.3667
-3.9455 considered -0.3467
-4.2465 considering -0.3822
-4.2465 consist -0.3746
-4.2465 consisted -0.3771
-4.5475 consistencies -0.3789
-4.5475 consistent -0.3834
-4.5475 consists -0.3746
-4.5475 constant -0.3843
-4.0704 constrained -0.3825
-4.2465 constraints -0.3846
-4.2465 construct -0.3579
-4.5475 constructed -0.3834
-4.5475 construction -0.3746
-4.5475 constructor -0.3822
-3.4336 consulting -0.3608
-4.5475 consuming -0.3755
-3.7025 contact -0.3645
-3.5062 contain -0.3478
-4.5475 contained -0.3847
-4.5475 containers -0.3755
-3.2253 containing -0.3444
-3.6445 contains -0.3479
-4.5475 contaminated -0.3846
-3.7025 content -0.3692
-4.5475 contention -0.3823
-4.5475 contents -0.3746
-4.0704 context -0.3661
-3.9455 continue -0.3733
-4.2465 continued -0.3469
-4.5475 continues -0.3848
-3.4684 continuous -0.3492
-4.5475 continuously -0.3811
-4.5475 contract -0.3849
-4.5475 contracted -0.3826
-4.2465 contrast -0.3697
-4.5475 contribute -0.3739
-4.5475 contributes -0.3739
-4.5475 contributing -0.3849
-4.5475 contribution -0.3667
-4.5475 contributions -0.3824
-3.7693 control -0.3597
-4.5475 controlled -0.3826
-4.5475 controversial -0.3848
-4.5475 convenient -0.3811
-4.2465 convention -0.3828
-4.5475 conventions -0.3697
-4.5475 converge -0.3843
-4.2465 convergence -0.3746
-4.5475 conversation -0.3695
-4.2465 conversational -0.3732
-3.7025 conversion -0.3588
-3.8486 convert -0.3549
-4.0704 converted -0.3745
-4.5475 converter -0.3840
-4.5475 converting -0.3586
-4.2465 converts -0.3833
-4.5475 convey -0.3767
-4.5475 cooley -0.3755
-4.5475 coordinate -0.3834
-4.5475 copied -0.3739
-3.8486 copy -0.3819
-4.5475 copyright -0.3849
-4.5475 copyrighted -0.3846
-4.0704 cordless -0.3846
-3.5476 core -0.3744
-4.0704 coreutils -0.3837
-4.5475 corner -0.3739
-4.5475 corners -0.3667
-4.5475 corpora -0.3847
-4.2465 corporate -0.3848
-3.2253 corpus -0.3168
-3.7693 correct -0.3660
-4.5475 corrected -0.3755
-4.5475 correction -0.3667
-3.3715 correctly -0.3478
-4.5475 correlated -0.3847
-4.2465 correspond -0.3739
-3.5932 corresponding -0.3554
-3.8486 corresponds -0.3739
-4.5475 cos -0.3849
-4.5475 cosine -0.3848
-4.0704 cosmetic -0.3754
-3.8486 cost -0.3829
-4.2465 costs -0.3783
-3.3434 could -0.3751
-4.2465 count -0.3848
-4.5475 countries -0.3824
-3.9455 couple -0.3746
-4.5475 coupled -0.3834
-3.8486 course -0.3217
-4.2465 courses -0.3836
-4.2465 covariance -0.3849
-4.5475 cover -0.3767
-3.3434 coverage -0.3461
-4.2465 cpus -0.3826
-4.5475 crashed -0.3848
-3.4336 create -0.3359
-3.1496 created -0.3253
-3.9455 creates -0.3767
-3.4014 creating -0.3465
-3.7025 creation -0.3486
-4.5475 creations -0.3755
-4.2465 creative -0.3848
-4.5475 creativity -0.3834
-4.2465 credential -0.3667
-4.2465 credentials -0.3716
-4.5475 creeds -0.3739
-4.5475 crew -0.3848
-4.2465 crewmen -0.3824
-4.5475 crisis -0.3697
-4.2465 criterion -0.3569
-4.2465 critical -0.3739
-4.0704 cron -0.3818
-4.5475 cropping -0.3845
-4.2465 cross -0.3822
-4.5475 cruel -0.3849
-4.5475 cruzon -0.3784
-4.5475 crying -0.3755
-4.0704 cs -0.3667
-4.5475 csci -0.3822
-4.5475 csplit -0.3695
-4.5475 cube -0.3848
-4.2465 cumbersome -0.3739
-4.5475 cup -0.3746
-4.5475 cure -0.3820
-4.5475 cures -0.3844
-3.5062 current -0.3649
-4.0704 currently -0.3660
-4.5475 curve -0.3834
-3.2465 custom -0.3816
-3.9455 customer -0.3846
-4.0704 customers -0.3547
-4.2465 cut -0.3843
-3.7693 cycle -0.3558
-4.5475 cycled -0.3847
-4.5475 cycles -0.3755
-4.5475 cynicism -0.3849
-2.9455 d -0.3666
-4.5475 daily -0.3849
-3.7025 darpa -0.3798
-4.5475 dat -0.3826
-2.8663 data -0.2974
-4.0704 database -0.3825
-3.9455 databases -0.3654
-4.2465 date -0.3775
-4.0704 dates -0.3694
-4.5475 daunting -0.3847
-4.5475 david -0.3849
-3.5932 day -0.3379
-3.9455 days -0.3408
-4.5475 db -0.3844
-4.5475 dct -0.3826
-4.5475 de -0.3849
-4.2465 dead -0.3849
-4.2465 deal -0.3802
-4.0704 dealing -0.3834
-4.0704 deals -0.3834
-4.5475 debian -0.3848
-4.2465 debts -0.3845
-3.9455 debug -0.3841
-4.0704 debugging -0.3840
-4.2465 decade -0.3590
-3.7693 decades -0.3215
-3.8486 december -0.3833
-4.5475 decent -0.3845
-4.5475 decide -0.3739
-3.7693 decided -0.3739
-4.5475 decision -0.3849
-4.2465 decisions -0.3696
-3.5062 decode -0.3331
-3.5476 decoded -0.3609
-3.5932 decoder -0.3020
-4.2465 decoders -0.3664
-3.1004 decoding -0.3463
-4.5475 decrease -0.3586
-4.0704 decreasing -0.3580
-4.2465 dect -0.3821
-4.5475 deducted -0.3833
-4.5475 deduction -0.3811
-4.5475 deep -0.3848
-4.5475 deeply -0.3695
-3.2465 default -0.3370
-4.5475 defect -0.3667
-4.5475 defends -0.3844
-4.5475 defense -0.3849
-4.5475 define -0.3767
-3.7025 defined -0.3543
-4.5475 defines -0.3848
-4.5475 defining -0.3767
-3.7693 definition -0.3584
-4.5475 definitions -0.3844
-4.2465 degradation -0.3731
-4.5475 degrees -0.3667
-4.5475 delay -0.3667
-4.5475 delayed -0.3849
-4.5475 delays -0.3789
-4.5475 delete -0.3849
-4.5475 deleted -0.3835
-4.5475 deletions -0.3845
-4.5475 delimited -0.3843
-4.5475 delivers -0.3849
-4.0704 dell -0.3848
-3.5932 delta -0.3818
-3.9455 demand -0.3750
-4.5475 demands -0.3695
-4.5475 democratic -0.3849
-4.0704 demonstrate -0.3740
-4.5475 demonstrates -0.3823
-4.5475 dempster -0.3789
-4.5475 denote -0.3849
-4.0704 density -0.3845
-4.2465 department -0.3811
-4.5475 depend -0.3832
-4.5475 dependent -0.3849
-3.8486 depending -0.3832
-3.9455 depends -0.3826
-3.8486 depicted -0.3780
-4.0704 depicts -0.3566
-4.5475 deployment -0.3667
-4.5475 derivations -0.3697
-3.9455 describe -0.3548
-3.5932 described -0.3639
-3.5932 describes -0.3518
-4.5475 describing -0.3586
-3.8486 description -0.3252
-3.4336 design -0.3407
-3.4684 designed -0.3139
-4.5475 designer -0.3697
-4.2465 designing -0.3755
-3.7693 desired -0.3537
-4.5475 desires -0.3849
-4.0704 desk -0.3754
-3.7693 desktop -0.3480
-4.5475 desktops -0.3784
-3.9455 despite -0.3586
-3.9455 detail -0.3392
-3.7025 detailed -0.3715
-4.2465 details -0.3809
-4.5475 detect -0.3848
-3.4684 determine -0.3570
-3.6445 determined -0.3445
-4.5475 determines -0.3845
-4.5475 determining -0.3849
-3.5932 develop -0.3247
-3.2923 developed -0.3131
-3.9455 developer -0.3821
-4.0704 developers -0.3386
-4.2465 developing -0.3752
-2.8315 development -0.2995
-4.0704 device -0.3505
-3.5932 devices -0.3495
-4.5475 df -0.3849
-4.5475 dft -0.3826
-4.5475 diagnostic -0.3848
-3.9455 diagram -0.3179
-4.5475 diagrams -0.3697
-4.5475 dialog -0.3667
-3.4336 dic -0.3206
-4.5475 dictate -0.3842
-3.7693 dictation -0.3591
-3.5062 dictgenerator -0.3356
-3.9455 dictionaries -0.3573
-2.6555 dictionary -0.2292
-3.9455 did -0.3803
-4.5475 die -0.3848
-3.7693 difference -0.3739
-4.5475 differences -0.3789
-2.9243 different -0.3617
-4.2465 differentials -0.3746
-4.5475 differs -0.3833
-3.5476 difficult -0.3540
-4.0704 difficulties -0.3829
-4.0704 digest -0.3694
-4.5475 digestion -0.3697
-4.2465 digit -0.3509
-3.8486 digital -0.3842
-4.5475 digits -0.3811
-4.5475 dilemma -0.3836
-4.5475 dilemmas -0.3755
-4.5475 dimension -0.3784
-4.5475 dimming -0.3697
-4.5475 dir -0.3843
-4.5475 dircolors -0.3695
-3.8486 direct -0.3840
-4.2465 direction -0.3627
-4.5475 directions -0.3755
-3.8486 directly -0.3647
-4.5475 director -0.3746
-4.5475 directory -0.3849
-4.5475 disadvantages -0.3746
-4.5475 disappear -0.3667
-4.5475 disappearance -0.3746
-3.9455 discard -0.3819
-4.2465 discipline -0.3697
-4.5475 disciplines -0.3844
-4.5475 discover -0.3844
-4.5475 discovered -0.3848
-4.0704 discovery -0.3508
-4.2465 discrete -0.3849
-4.2465 discriminate -0.3754
-4.2465 discussed -0.3661
-4.2465 discusses -0.3586
-4.0704 discussion -0.3849
-4.5475 discussions -0.3826
-4.2465 disease -0.3651
-4.5475 diseases -0.3848
-4.5475 dishes -0.3667
-4.5475 disk -0.3755
-4.5475 disks -0.3849
-4.5475 dismantling -0.3849
-3.9455 display -0.3752
-3.7693 displayed -0.3499
-4.5475 disputes -0.3697
-4.5475 distance -0.3849
-4.5475 distinguish -0.3848
-4.0704 distortions -0.3712
-3.6445 distribution -0.3507
-4.2465 distributions -0.3848
-4.2465 distros -0.3731
-4.0704 distrowatch -0.3667
-4.2465 diverse -0.3847
-4.5475 diversity -0.3755
-4.5475 divide -0.3826
-4.5475 divided -0.3789
-4.5475 dll -0.3838
-4.5475 dmp -0.3695
-3.1858 do -0.3494
-4.5475 doctor -0.3789
-3.9455 document -0.3848
-3.4336 documentation -0.3309
-3.5476 documents -0.3774
-3.2923 does -0.3567
-4.5475 dog -0.3826
-3.7693 doing -0.3567
-3.9455 domain -0.3660
-4.5475 domains -0.3667
-4.5475 domestic -0.3849
-4.5475 don -0.3840
-3.4014 done -0.3493
-3.9455 double -0.3847
-4.5475 doubling -0.3845
-3.6445 down -0.3229
-3.7025 download -0.3282
-4.0704 downloaded -0.3833
-4.0704 downloading -0.3725
-4.5475 downloads -0.3844
-4.5475 dpnss -0.3811
-4.5475 drag -0.3849
-4.5475 drastically -0.3849
-4.5475 draw -0.3845
-4.5475 drawback -0.3746
-4.5475 drive -0.3667
-4.2465 driven -0.3826
-4.5475 drivers -0.3667
-4.5475 drives -0.3824
-4.5475 driving -0.3846
-4.5475 du -0.3849
-3.4336 due -0.3553
-4.5475 dumping -0.3849
-4.5475 dumps -0.3830
-4.2465 duo -0.3840
-4.2465 duration -0.3746
-2.8943 during -0.3367
-4.2465 duty -0.3822
-4.5475 dvd -0.3739
-4.5475 dwres -0.3667
-4.0704 dynamic -0.3848
-4.5475 dynamite -0.3755
-4.5475 dysuria -0.3697
-3.5476 e -0.3631
-2.7482 each -0.3284
-4.5475 eager -0.3739
-4.0704 earlier -0.3788
-4.0704 early -0.3788
-4.5475 earn -0.3586
-4.0704 ease -0.3476
-3.7025 easier -0.3379
-3.7693 easily -0.3660
-4.5475 east -0.3849
-4.2465 eastern -0.3842
-4.0704 easy -0.3736
-4.5475 eat -0.3848
-4.5475 ecampus -0.3667
-4.5475 ecarrier -0.3826
-4.5475 eco -0.3822
-4.2465 ecocentric -0.3683
-4.2465 economic -0.3849
-4.0704 economical -0.3676
-4.0704 ecosmiles -0.3597
-4.2465 ecosystem -0.3830
-4.0704 ed -0.3667
-4.5475 edgar -0.3849
-4.2465 edge -0.3831
-4.5475 edges -0.3835
-4.0704 edit -0.3586
-4.2465 edited -0.3633
-4.2465 editing -0.3650
-4.2465 edition -0.3784
-4.5475 editor -0.3835
-3.8486 edu -0.3833
-4.0704 education -0.3509
-3.9455 effect -0.3746
-3.9455 effective -0.3690
-4.2465 effectively -0.3605
-3.6445 effects -0.3563
-3.7693 efficiency -0.3551
-3.7693 efficient -0.3562
-4.2465 efficiently -0.3830
-4.5475 efforts -0.3789
-3.7025 either -0.3577
-4.5475 elaborated -0.3837
-4.5475 elapsed -0.3848
-4.2465 elements -0.3669
-4.5475 eliminates -0.3586
-4.5475 else -0.3849
-4.5475 em -0.3826
-4.0704 email -0.3552
-3.5932 embedded -0.3807
-4.5475 embodying -0.3586
-4.5475 emerged -0.3844
-4.5475 emergencies -0.3697
-3.7693 emission -0.3747
-4.5475 emitting -0.3755
-4.5475 emphasize -0.3823
-4.5475 emphasized -0.3755
-4.2465 employed -0.3678
-4.2465 employees -0.3509
-4.5475 employers -0.3739
-4.5475 employment -0.3849
-4.5475 empty -0.3841
-4.5475 emulate -0.3767
-3.8486 en -0.3659
-4.0704 enable -0.3846
-4.0704 enabled -0.3842
-4.5475 enables -0.3849
-4.2465 encapsulation -0.3819
-4.5475 encode -0.3834
-3.5932 encoding -0.3538
-4.5475 encourage -0.3847
-4.5475 encouraged -0.3834
-4.5475 encouragement -0.3844
-4.5475 encourages -0.3843
-4.5475 encouraging -0.3846
-4.5475 encryption -0.3849
-4.5475 encyclopedia -0.3667
-3.1496 end -0.2934
-4.5475 endanger -0.3586
-4.5475 endangered -0.3849
-4.2465 ends -0.3755
-3.7025 energy -0.3384
-4.2465 engagement -0.3847
-4.2465 engine -0.3848
-4.5475 engineer -0.3697
-4.0704 engineering -0.3517
-4.0704 english -0.3740
-4.0704 enhance -0.3581
-4.5475 enhanced -0.3835
-4.5475 enhancements -0.3755
-4.5475 enjoy -0.3848
-4.5475 enjoyable -0.3849
-3.7025 enough -0.3724
-3.4684 ensure -0.3539
-4.5475 ensured -0.3667
-4.2465 ensures -0.3585
-4.2465 ensuring -0.3739
-4.5475 enter -0.3767
-4.5475 entered -0.3843
-4.5475 entering -0.3845
-3.7693 entire -0.3810
-4.0704 entirely -0.3602
-4.5475 entitlement -0.3822
-4.5475 env -0.3849
-4.0704 envelope -0.3640
-3.2465 environment -0.3176
-2.9913 environmental -0.3531
-4.5475 envissues -0.3838
-4.5475 envissuesethics -0.3834
-4.5475 epistemology -0.3697
-4.5475 epsilon -0.3697
-4.2465 equal -0.3739
-4.5475 equation -0.3830
-4.5475 equidistant -0.3832
-3.8486 equipment -0.3486
-4.5475 equipped -0.3834
-4.5475 equitable -0.3849
-4.5475 equities -0.3844
-4.2465 equivalence -0.3849
-4.5475 er -0.3849
-4.5475 erase -0.3849
-3.3715 error -0.3643
-3.4336 errors -0.3411
-4.5475 escape -0.3848
-4.5475 escorts -0.3811
-4.5475 espeak -0.3848
-4.0704 especially -0.3843
-3.9455 essential -0.3793
-4.5475 essentially -0.3697
-4.5475 essentials -0.3667
-4.2465 established -0.3826
-3.9455 estimate -0.3358
-4.0704 estimated -0.3582
-3.9455 estimates -0.3549
-4.5475 estimating -0.3833
-4.5475 estimator -0.3789
-4.2465 et -0.3849
-4.2465 etc -0.3643
-3.1858 ethical -0.3813
-3.1326 ethics -0.3140
-4.5475 ethnobiology -0.3755
-4.5475 ethnobotanical -0.3846
-4.5475 etymology -0.3746
-4.5475 europe -0.3697
-3.4014 evaluate -0.3365
-3.9455 evaluated -0.3502
-3.7693 evaluating -0.3583
-3.4014 evaluation -0.3443
-4.5475 evan -0.3849
-3.1673 even -0.3394
-4.5475 evening -0.3667
-3.8486 event -0.3384
-4.5475 events -0.3823
-4.5475 eventual -0.3849
-4.0704 eventually -0.3847
-4.5475 ever -0.3667
-3.5932 everett -0.3599
-3.3715 every -0.3781
-4.2465 everyone -0.3800
-4.5475 everything -0.3784
-4.5475 evidence -0.3746
-4.2465 evolution -0.3746
-4.0704 evolved -0.3672
-4.5475 evolving -0.3849
-4.2465 exact -0.3846
-3.8486 exactly -0.3576
-4.5475 examine -0.3841
-4.5475 examiner -0.3830
-4.5475 examining -0.3767
-2.6842 example -0.3089
-4.0704 examples -0.3626
-4.2465 exceed -0.3844
-4.5475 excel -0.3789
-4.5475 exception -0.3784
-4.5475 exchange -0.3849
-4.5475 exciting -0.3847
-4.5475 excuse -0.3784
-4.5475 excused -0.3697
-4.0704 executable -0.3749
-3.3434 execute -0.3044
-3.7693 executed -0.3338
-4.5475 executes -0.3847
-3.9455 executing -0.3586
-3.2253 execution -0.3013
-3.9455 executive -0.3848
-4.5475 exercise -0.3849
-4.5475 exhibit -0.3767
-4.5475 exhibitions -0.3840
-4.5475 exico -0.3811
-3.8486 exist -0.3710
-4.5475 existence -0.3746
-3.3434 existing -0.3779
-4.2465 exit -0.3586
-4.5475 expand -0.3848
-4.5475 expanded -0.3849
-4.2465 expands -0.3755
-3.8486 expectation -0.3639
-4.2465 expectations -0.3825
-3.5476 expected -0.3703
-4.5475 expenses -0.3667
-4.5475 expensive -0.3847
-3.6445 experience -0.3547
-3.7693 experienced -0.3716
-4.5475 experiences -0.3789
-4.5475 experiment -0.3834
-4.5475 experimentation -0.3755
-4.5475 expert -0.3849
-4.5475 expertise -0.3845
-4.2465 explain -0.3822
-4.0704 explained -0.3839
-4.5475 explains -0.3823
-4.5475 exponential -0.3848
-4.5475 exponentially -0.3667
-4.5475 exports -0.3746
-4.2465 express -0.3693
-3.9455 expressed -0.3486
-4.0704 expressions -0.3705
-4.5475 extend -0.3842
-4.5475 extendable -0.3833
-4.0704 extended -0.3849
-4.2465 extension -0.3651
-4.5475 extensions -0.3739
-4.0704 extensive -0.3842
-3.8486 external -0.3833
-4.5475 extra -0.3847
-4.2465 extract -0.3581
-3.8486 extraction -0.3216
-4.5475 extremely -0.3849
-4.5475 extremes -0.3848
-4.5475 eyes -0.3667
-4.2465 f -0.3844
-4.5475 face -0.3746
-3.9455 facebook -0.3686
-4.0704 faced -0.3831
-4.0704 facilitator -0.3846
-3.7693 fact -0.3670
-4.2465 factor -0.3784
-4.5475 factories -0.3789
-3.7693 factors -0.3638
-4.5475 factoryoutletstore -0.3667
-4.5475 failing -0.3739
-4.2465 fails -0.3643
-4.5475 failures -0.3846
-3.8486 fairly -0.3841
-4.5475 faith -0.3789
-4.5475 fallacy -0.3697
-4.5475 falling -0.3849
-4.5475 falloff -0.3746
-4.2465 false -0.3848
-4.5475 familiar -0.3834
-4.5475 families -0.3811
-3.9455 family -0.3459
-4.0704 far -0.3424
-4.2465 farm -0.3741
-4.5475 farms -0.3667
-4.5475 fashion -0.3697
-3.6445 fast -0.3702
-3.9455 faster -0.3317
-4.0704 fastest -0.3839
-4.5475 fate -0.3746
-4.5475 father -0.3840
-4.5475 favorite -0.3849
-4.5475 fb -0.3826
-4.5475 fear -0.3755
-4.0704 feasible -0.3739
-3.2688 feature -0.3656
-3.0852 features -0.3071
-4.5475 february -0.3833
-4.2465 fedora -0.3673
-4.2465 feel -0.3743
-4.5475 feeling -0.3848
-4.5475 feels -0.3739
-4.5475 felt -0.3849
-3.8486 few -0.3842
-4.5475 fewer -0.3849
-4.2465 fft -0.3826
-4.5475 fiber -0.3849
-4.2465 field -0.3684
-3.9455 fields -0.3695
-4.5475 fifty -0.3848
-2.7280 figure -0.3082
-4.5475 figures -0.3848
-2.6080 file -0.2277
-2.7025 files -0.2572
-4.2465 filesbypkg -0.3849
-4.5475 filled -0.3833
-3.7693 filter -0.3664
-4.0704 filtered -0.3662
-4.0704 filters -0.3388
-3.6445 final -0.3840
-3.5476 finally -0.3697
-4.5475 finance -0.3755
-4.5475 financial -0.3848
-3.4336 find -0.3203
-3.7693 finding -0.3482
-4.2465 finds -0.3735
-4.5475 fine -0.3822
-4.5475 finish -0.3845
-4.2465 finished -0.3581
-4.5475 finite -0.3822
-4.5475 fire -0.3849
-4.5475 fires -0.3697
-4.2465 firewall -0.3741
-4.5475 firewood -0.3811
-4.5475 firm -0.3845
-3.0035 first -0.3184
-4.5475 fischer -0.3697
-4.5475 fisherman -0.3697
-4.0704 fishing -0.3649
-4.0704 fit -0.3520
-3.7693 five -0.3618
-4.0704 fix -0.3739
-3.9455 fixed -0.3847
-4.5475 fixing -0.3849
-4.5475 flag -0.3667
-4.5475 fleet -0.3848
-4.0704 flexibility -0.3639
-3.8486 flexible -0.3531
-4.5475 fliers -0.3697
-4.5475 flip -0.3849
-4.5475 flipped -0.3848
-4.5475 floppy -0.3826
-4.5475 flow -0.3848
-3.8486 focus -0.3826
-3.9455 focused -0.3822
-3.9455 focuses -0.3832
-3.2923 folder -0.3135
-4.0704 folders -0.3654
-4.5475 folds -0.3824
-3.7693 follow -0.3493
-4.2465 followed -0.3822
-4.5475 followers -0.3667
-3.0035 following -0.3239
-3.8486 follows -0.3565
-4.5475 food -0.3755
-4.5475 foods -0.3837
-2.0562 for -0.2682
-4.5475 force -0.3811
-4.5475 forecast -0.3833
-4.5475 foreign -0.3846
-4.0704 forest -0.3696
-4.5475 forged -0.3834
-3.8486 form -0.3297
-4.5475 formant -0.3849
-4.5475 formants -0.3811
-3.5062 format -0.3310
-4.5475 formats -0.3697
-4.2465 forms -0.3821
-4.5475 formula -0.3830
-4.2465 formulas -0.3646
-4.5475 fortune -0.3847
-3.9455 forum -0.3654
-3.3171 forward -0.3656
-4.5475 foster -0.3767
-3.3171 found -0.3442
-4.5475 founded -0.3826
-3.7025 four -0.3656
-3.9455 fourier -0.3848
-4.5475 fourth -0.3755
-4.2465 frame -0.3658
-3.9455 frames -0.3560
-3.7025 framework -0.3462
-4.5475 france -0.3755
-4.5475 francisco -0.3849
-3.1326 free -0.3117
-4.5475 freebsd -0.3697
-3.7693 freedom -0.3167
-4.2465 freely -0.3832
-4.5475 freetts -0.3848
-4.5475 french -0.3755
-3.6445 frequencies -0.3604
-4.0704 frequency -0.3817
-4.2465 fresh -0.3789
-4.5475 friendly -0.3586
-2.4370 from -0.2870
-3.5932 front -0.3715
-4.5475 frustrating -0.3739
-4.2465 fsm -0.3812
-3.8486 full -0.3586
-3.9455 fully -0.3819
-4.2465 fun -0.3847
-3.1858 function -0.3252
-3.9455 functional -0.3730
-4.5475 functionality -0.3697
-4.5475 functionally -0.3835
-3.5062 functions -0.3216
-3.9455 fundamental -0.3836
-4.5475 funded -0.3755
-4.5475 funding -0.3697
-4.5475 fungus -0.3697
-3.7025 further -0.3691
-3.3434 furthermore -0.3667
-3.4684 future -0.3551
-4.2465 fxo -0.3849
-3.8486 g -0.3667
-4.0704 gain -0.3666
-3.7693 gambler -0.3819
-4.0704 gambler's -0.3848
-4.0704 gamblers -0.3787
-4.5475 game -0.3789
-4.5475 games -0.3697
-4.5475 gaps -0.3755
-4.5475 garage -0.3667
-4.5475 garc -0.3849
-4.5475 gathered -0.3844
-4.5475 gauging -0.3811
-3.7025 gaussian -0.3748
-4.5475 gave -0.3848
-4.2465 gb -0.3746
-4.5475 geared -0.3848
-4.0704 gender -0.3674
-3.8486 general -0.3668
-4.5475 generalized -0.3838
-4.0704 generally -0.3846
-3.2465 generate -0.3480
-3.3715 generated -0.3555
-3.4684 generatedfiles -0.3844
-4.5475 generatelm -0.3667
-3.4684 generates -0.3328
-3.4014 generating -0.3486
-3.7025 generation -0.3473
-4.0704 generator -0.3840
-4.5475 german -0.3697
-3.5932 get -0.3497
-3.9455 gets -0.3846
-4.5475 getting -0.3849
-4.5475 ghantt -0.3849
-4.2465 gi -0.3840
-4.5475 giants -0.3697
-4.2465 give -0.3499
-3.1496 given -0.3177
-4.0704 gives -0.3497
-4.2465 giving -0.3845
-4.5475 glib -0.3667
-3.9455 gmail -0.3667
-3.7025 gnu -0.3649
-3.7025 go -0.3503
-3.8486 goal -0.3603
-4.0704 goals -0.3651
-4.5475 gobs -0.3746
-4.2465 goes -0.3846
-3.9455 going -0.3721
-4.5475 golden -0.3849
-3.3434 good -0.3583
-3.7693 google -0.3653
-4.5475 gotten -0.3849
-4.5475 gov -0.3834
-4.5475 government -0.3849
-4.5475 gpl -0.3849
-4.5475 gps -0.3849
-4.5475 graciela -0.3849
-4.0704 grade -0.3802
-4.5475 grades -0.3811
-4.5475 gradient -0.3697
-4.2465 grading -0.3695
-4.5475 gradually -0.3848
-4.5475 graduate -0.3695
-3.9455 gram -0.3830
-4.2465 grammar -0.3569
-4.5475 grammars -0.3755
-4.5475 grammatical -0.3755
-4.5475 grammatically -0.3848
-4.2465 grams -0.3581
-4.2465 granted -0.3509
-4.5475 grants -0.3846
-4.2465 graphical -0.3840
-4.5475 graphics -0.3739
-4.5475 grasses -0.3667
-4.5475 grateful -0.3834
-4.5475 gratitude -0.3739
-4.5475 grazing -0.3849
-4.0704 great -0.3848
-4.2465 greater -0.3848
-4.2465 greatest -0.3848
-4.0704 greatly -0.3833
-4.0704 grep -0.3736
-4.5475 grounds -0.3811
-3.5476 group -0.3536
-3.7693 groups -0.3072
-4.2465 grow -0.3801
-4.5475 growing -0.3697
-4.5475 grown -0.3849
-4.2465 grows -0.3689
-3.7693 growth -0.3581
-4.5475 guarantee -0.3823
-4.0704 gui -0.3669
-4.2465 guidance -0.3842
-4.0704 guide -0.3739
-4.5475 guidelines -0.3767
-4.5475 guides -0.3697
-3.9455 h -0.3667
-4.5475 habits -0.3849
-4.5475 hackers -0.3847
-3.4336 had -0.3166
-4.5475 half -0.3746
-4.5475 hamming -0.3848
-4.5475 hamud -0.3697
-4.5475 hanauer -0.3697
-3.4336 hand -0.3468
-4.5475 handheld -0.3848
-4.2465 handing -0.3757
-3.7025 handle -0.3483
-3.9455 handling -0.3394
-4.2465 hands -0.3392
-4.5475 handy -0.3848
-4.2465 happen -0.3840
-4.2465 happy -0.3739
-4.5475 hard -0.3849
-4.5475 harder -0.3667
-3.8486 hardware -0.3494
-4.5475 harm -0.3739
-4.5475 harvest -0.3746
-4.2465 harvesting -0.3650
-4.0704 harvests -0.3756
-2.6963 has -0.3082
-4.0704 hash -0.3848
-4.2465 hassenzahl -0.3693
-4.5475 hat -0.3697
-2.7025 have -0.3100
-3.3171 having -0.3359
-4.2465 he -0.3836
-4.2465 head -0.3726
-4.5475 headless -0.3845
-4.2465 heads -0.3600
-4.0704 health -0.3849
-4.5475 healthcare -0.3697
-4.5475 heart -0.3697
-4.0704 heavily -0.3848
-3.9455 held -0.3665
-4.5475 hello -0.3697
-3.5932 help -0.3334
-3.7693 helped -0.3466
-4.5475 helpful -0.3739
-3.7025 helps -0.3580
-4.5475 hence -0.3586
-4.5475 henry -0.3849
-3.8486 her -0.3841
-4.2465 herbal -0.3695
-3.7693 here -0.3443
-4.5475 hertz -0.3755
-4.5475 hesitate -0.3739
-4.5475 hesitation -0.3835
-4.0704 heuristic -0.3845
-4.5475 hh -0.3848
-3.9455 hi -0.3503
-3.2923 hidden -0.3487
-4.5475 hide -0.3843
-4.5475 hiding -0.3586
-3.5062 high -0.3660
-3.8486 higher -0.3573
-4.2465 highlight -0.3846
-4.5475 highlights -0.3586
-4.5475 hill -0.3822
-3.6445 his -0.3833
-4.2465 historical -0.3849
-4.5475 historically -0.3835
-4.0704 history -0.3475
-4.0704 hit -0.3585
-4.5475 hitting -0.3848
-3.1496 hmm -0.2781
-3.3434 hmms -0.3256
-4.0704 hobby -0.3693
-4.2465 hoboken -0.3697
-4.2465 hold -0.3849
-4.2465 holding -0.3585
-4.0704 home -0.3726
-4.2465 homes -0.3667
-4.2465 hope -0.3817
-4.5475 hopes -0.3823
-4.5475 horowitz -0.3697
-4.5475 hospitals -0.3849
-4.5475 hostid -0.3849
-4.2465 hot -0.3847
-3.9455 hours -0.3459
-4.5475 houseboat -0.3784
-3.0704 how -0.3131
-2.9455 however -0.3383
-4.5475 howto -0.3834
-3.6445 html -0.3680
-3.2253 http -0.3830
-4.5475 https -0.3830
-3.9455 hub -0.3819
-3.2253 huffman -0.3777
-4.5475 huge -0.3849
-3.4684 human -0.3795
-4.5475 humanistic -0.3697
-4.0704 humans -0.3497
-4.2465 hundreds -0.3731
-4.0704 hybrid -0.3836
-4.5475 hyperplasia -0.3697
-4.5475 hypertrophy -0.3755
-4.0704 hyplogfile -0.3844
-4.5475 hypotheses -0.3755
-4.0704 hypothesis -0.3728
-4.5475 hypothesized -0.3827
-2.5347 i -0.3041
-4.5475 iTunes -0.3667
-4.5475 iax -0.3849
-3.7693 ibm -0.3443
-4.5475 icassp -0.3849
-4.5475 iceberg -0.3697
-4.2465 icer -0.3673
-4.5475 icons -0.3755
-4.0704 id -0.3508
-4.5475 ide -0.3826
-4.2465 idea -0.3745
-3.9455 ideals -0.3558
-4.2465 ideas -0.3712
-3.3171 identified -0.3233
-4.0704 identifiers -0.3824
-3.3715 identify -0.3461
-4.0704 identifying -0.3397
-4.0704 ieee -0.3697
-2.7993 if -0.3317
-4.5475 ignored -0.3842
-3.9455 ii -0.3559
-3.9455 iii -0.3688
-4.5475 iis -0.3784
-4.5475 illustrate -0.3586
-3.9455 illustrated -0.3817
-3.7693 illustrates -0.3586
-4.2465 image -0.3553
-4.5475 imagination -0.3695
-4.5475 imbalance -0.3789
-4.5475 immediate -0.3849
-4.5475 immediately -0.3667
-4.5475 immense -0.3848
-4.0704 impact -0.3503
-4.5475 impacting -0.3847
-4.5475 impacts -0.3845
-3.9455 implement -0.3669
-3.7693 implementation -0.3521
-3.5062 implemented -0.3423
-4.5475 implementing -0.3849
-4.5475 importance -0.3697
-3.1162 important -0.3622
-4.2465 importantly -0.3697
-4.5475 imported -0.3843
-4.0704 impossible -0.3698
-3.5932 improve -0.3573
-4.0704 improved -0.3590
-3.8486 improvement -0.3417
-3.6445 improvements -0.3640
-4.2465 improves -0.3842
-4.5475 improving -0.3840
-1.8627 in -0.2231
-4.0704 inc -0.3667
-4.2465 incentives -0.3583
-4.5475 inception -0.3817
-3.4336 include -0.3301
-3.2688 included -0.3609
-3.6445 includes -0.3741
-3.7693 including -0.3576
-3.7693 incoming -0.3826
-4.2465 incomplete -0.3695
-4.5475 inconsistently -0.3848
-4.5475 incontinence -0.3667
-4.5475 incorporated -0.3843
-3.6445 incorrect -0.3641
-4.5475 incorrectly -0.3835
-3.7693 increase -0.3219
-3.7025 increased -0.3408
-3.7025 increases -0.3419
-3.8486 increasing -0.3584
-4.5475 incremental -0.3847
-4.5475 indeed -0.3849
-4.2465 independence -0.3509
-3.7025 independent -0.3614
-4.5475 index -0.3667
-4.5475 indian -0.3755
-4.2465 indicate -0.3668
-3.9455 indicating -0.3558
-3.5062 individual -0.3836
-4.2465 individually -0.3816
-4.2465 individuals -0.3583
-4.5475 induction -0.3848
-4.5475 industrial -0.3849
-4.2465 industries -0.3667
-4.5475 inescapable -0.3667
-4.5475 inexpensive -0.3849
-4.2465 infinite -0.3849
-4.0704 influenced -0.3545
-4.5475 influential -0.3848
-4.0704 info -0.3821
-3.1162 information -0.3278
-3.8486 infrastructure -0.3833
-4.2465 ingredients -0.3652
-4.5475 inhabiting -0.3586
-3.8486 initial -0.3595
-4.2465 initially -0.3697
-4.5475 initiatives -0.3697
-4.5475 injection -0.3697
-4.0704 innovation -0.3697
-3.0424 input -0.2913
-3.3715 inputs -0.2910
-4.5475 insane -0.3848
-4.0704 insert -0.3814
-4.5475 inserted -0.3697
-4.5475 insertions -0.3849
-3.9455 inside -0.3736
-4.5475 insight -0.3746
-4.2465 inspections -0.3600
-3.7025 install -0.3457
-3.8486 installation -0.3440
-4.2465 installations -0.3754
-3.7025 installed -0.3539
-4.2465 installing -0.3586
-4.0704 instance -0.3588
-4.5475 instances -0.3826
-3.6445 instead -0.3393
-4.2465 institute -0.3723
-3.5476 instructions -0.3446
-4.2465 instructor -0.3755
-4.5475 instrument -0.3849
-4.5475 integrate -0.3846
-4.2465 integrated -0.3828
-4.2465 integration -0.3837
-4.2465 integrity -0.3553
-4.2465 intel -0.3848
-4.5475 intelligent -0.3849
-4.5475 intelligible -0.3827
-4.5475 intend -0.3739
-3.9455 intended -0.3581
-4.5475 intensity -0.3789
-4.5475 intensively -0.3849
-4.5475 intention -0.3746
-4.5475 intentionally -0.3849
-4.5475 intentions -0.3739
-4.5475 inter -0.3822
-4.2465 interact -0.3834
-4.5475 interacting -0.3834
-4.2465 interaction -0.3847
-3.5062 interactive -0.3543
-4.5475 interconnected -0.3848
-3.9455 interest -0.3376
-4.5475 interesting -0.3695
-4.2465 interests -0.3671
-3.4336 interface -0.3440
-3.7693 interfaces -0.3655
-4.5475 interference -0.3847
-4.5475 intermediate -0.3849
-4.5475 internal -0.3849
-4.5475 internally -0.3789
-3.9455 international -0.3838
-3.7025 internet -0.3507
-4.5475 interoperability -0.3834
-4.2465 interpret -0.3754
-4.5475 intervene -0.3811
-4.5475 intervention -0.3826
-2.8574 into -0.3400
-4.5475 intranet -0.3667
-4.2465 introduce -0.3839
-3.7025 introduced -0.3659
-4.5475 introduces -0.3849
-4.5475 introducing -0.3849
-3.7693 introduction -0.3465
-4.5475 introductory -0.3849
-4.0704 intuition -0.3755
-4.0704 invariant -0.3567
-4.5475 investment -0.3849
-4.5475 invited -0.3739
-4.0704 involved -0.3777
-4.0704 involves -0.3573
-4.5475 involving -0.3848
-4.2465 io -0.3845
-4.2465 ios -0.3755
-4.2465 ip -0.3750
-1.8266 is -0.2151
-4.0704 isdn -0.3585
-4.2465 isolated -0.3840
-4.5475 isproject -0.3844
-4.2465 issue -0.3660
-3.0562 issues -0.3264
-2.1746 it -0.2596
-4.5475 itchy -0.3849
-4.5475 items -0.3739
-4.5475 iterative -0.3849
-4.5475 iteratively -0.3849
-4.5475 ith -0.3849
-2.9678 its -0.3773
-4.2465 itself -0.3652
-3.8486 j -0.3656
-4.5475 jacob -0.3849
-4.2465 james -0.3849
-4.0704 january -0.3678
-3.2923 jar -0.3822
-3.3171 java -0.3488
-4.5475 jcl -0.3826
-4.5475 jeremy -0.3849
-4.2465 jersey -0.3848
-4.5475 jim -0.3848
-4.5475 jimmy -0.3848
-3.9455 job -0.3842
-3.8486 jobs -0.3595
-4.5475 joe -0.3695
-4.2465 john -0.3849
-4.5475 johnson -0.3697
-4.2465 join -0.3848
-4.5475 joke -0.3832
-4.2465 joseph -0.3849
-4.5475 josh -0.3849
-4.5475 journal -0.3697
-4.2465 journey -0.3842
-4.2465 july -0.3818
-4.5475 junction -0.3848
-4.5475 june -0.3697
-3.4336 just -0.3334
-3.5476 justice -0.3028
-4.5475 justifies -0.3586
-4.5475 justify -0.3842
-3.6445 k -0.3626
-4.2465 kard -0.3824
-4.5475 kasey -0.3849
-4.5475 kb -0.3667
-3.1496 kda -0.3231
-3.9455 keep -0.3578
-4.5475 keeps -0.3849
-4.5475 kempelen -0.3849
-4.2465 kenya -0.3697
-4.5475 kept -0.3846
-3.5932 key -0.3512
-3.7693 keyboard -0.3142
-4.5475 keyboards -0.3697
-2.7993 keyword -0.3163
-2.9678 keywords -0.2816
-3.9455 kikuyu -0.3848
-4.2465 kind -0.3746
-4.5475 king -0.3826
-4.2465 kitcosilver -0.3772
-4.5475 klenk -0.3697
-3.6445 know -0.3612
-4.5475 knowing -0.3586
-4.2465 knowledge -0.3744
-3.4336 known -0.3788
-4.5475 knows -0.3833
-4.2465 kohlberg -0.3840
-4.5475 kth -0.3848
-4.5475 kwords -0.3667
-4.2465 l -0.3667
-4.5475 label -0.3844
-4.5475 labels -0.3755
-4.5475 labor -0.3849
-4.5475 laboratories -0.3695
-4.2465 lack -0.3476
-4.5475 laface -0.3697
-4.5475 laguage -0.3838
-4.0704 land -0.3613
-2.5653 language -0.2932
-3.5062 languages -0.3390
-3.1162 large -0.3576
-4.5475 larger -0.3849
-4.5475 largest -0.3848
-4.2465 lars -0.3849
-3.4336 last -0.3825
-4.2465 lastly -0.3697
-3.7693 late -0.3817
-3.5932 later -0.3825
-3.8486 latest -0.3774
-4.5475 latter -0.3848
-4.5475 launching -0.3755
-4.2465 law -0.3667
-4.5475 laws -0.3667
-3.8486 layer -0.3745
-4.2465 layers -0.3667
-4.5475 lead -0.3739
-4.5475 leaders -0.3755
-4.2465 leaks -0.3755
-3.9455 learn -0.3839
-3.8486 learned -0.3640
-4.5475 learner -0.3695
-3.2923 learning -0.3314
-3.9455 least -0.3834
-4.2465 leaving -0.3841
-4.0704 lechner -0.3846
-4.5475 led -0.3739
-4.2465 left -0.3821
-4.5475 legal -0.3667
-4.2465 legally -0.3664
-4.5475 legislation -0.3789
-3.9455 length -0.3394
-4.2465 lengths -0.3697
-3.7025 less -0.3749
-4.5475 lessons -0.3849
-3.9455 let -0.3833
-4.0704 let's -0.3845
-4.5475 lets -0.3586
-4.5475 letter -0.3833
-3.7025 level -0.3665
-4.0704 levels -0.3726
-3.4014 library -0.3403
-4.2465 license -0.3661
-4.5475 licenses -0.3849
-4.5475 licensing -0.3849
-3.8486 life -0.3810
-4.5475 lifetime -0.3667
-4.5475 light -0.3822
-4.5475 lighter -0.3755
-3.2051 like -0.3576
-3.7693 likelihood -0.3646
-3.6445 likely -0.3658
-4.2465 limit -0.3809
-4.5475 limitation -0.3849
-3.5476 limited -0.3323
-4.2465 limiting -0.3848
-4.0704 limits -0.3743
-3.4014 line -0.3156
-4.0704 linear -0.3845
-3.7693 lines -0.3081
-4.2465 linguist -0.3634
-4.5475 linguistic -0.3842
-4.5475 linguists -0.3789
-4.5475 linked -0.3739
-4.5475 links -0.3667
-2.7346 linux -0.2966
-2.8755 list -0.2841
-4.2465 listed -0.3830
-4.0704 listen -0.3641
-4.5475 listener -0.3667
-3.5932 listening -0.3428
-4.5475 listing -0.3586
-3.9455 lists -0.3578
-4.0704 literal -0.3843
-4.2465 little -0.3827
-3.9455 live -0.3819
-4.2465 living -0.3509
-4.0704 lm -0.3662
-4.5475 lmtool -0.3667
-3.9455 load -0.3671
-4.2465 loaded -0.3843
-4.5475 loads -0.3830
-3.9455 local -0.3848
-4.5475 locally -0.3697
-3.9455 located -0.3774
-3.9455 location -0.3525
-3.8486 locations -0.3477
-4.5475 locators -0.3848
-4.0704 locked -0.3848
-3.5476 log -0.3634
-4.5475 logarithm -0.3849
-4.5475 logarithmic -0.3849
-4.5475 logfile -0.3697
-4.5475 logfiles -0.3844
-4.2465 logged -0.3761
-4.5475 loggers -0.3667
-3.7693 logging -0.3415
-4.2465 logic -0.3753
-4.0704 login -0.3845
-4.5475 logistical -0.3848
-4.5475 logname -0.3695
-4.5475 logs -0.3832
-3.7693 long -0.3811
-4.0704 longer -0.3838
-3.5476 look -0.3592
-3.9455 looking -0.3571
-4.0704 looks -0.3816
-3.7025 loop -0.3771
-3.9455 loops -0.3683
-4.5475 lorin -0.3849
-4.5475 lose -0.3844
-4.5475 loses -0.3820
-4.5475 losing -0.3849
-3.8486 loss -0.3440
-3.7693 losses -0.3502
-4.5475 louchart -0.3849
-4.0704 love -0.3386
-4.5475 loverde -0.3846
-3.9455 low -0.3651
-3.5932 lower -0.3593
-4.5475 lowering -0.3849
-4.0704 lpc -0.3825
-4.5475 lsfs -0.3826
-4.5475 lure -0.3695
-4.2465 luther -0.3817
-3.4684 m -0.3432
-4.5475 mac -0.3846
-4.5475 machiavellian -0.3789
-3.7025 machine -0.3767
-3.8486 machines -0.3844
-4.2465 mad -0.3509
-3.4336 made -0.3163
-4.5475 mageia -0.3697
-4.5475 magnification -0.3697
-4.5475 mail -0.3835
-2.9243 main -0.3777
-3.6445 mainframe -0.3534
-3.4336 mainframes -0.3356
-4.5475 mainly -0.3849
-4.2465 maintain -0.3586
-4.5475 maintained -0.3789
-4.2465 maintaining -0.3834
-3.6445 major -0.3843
-4.2465 majority -0.3667
-3.0704 make -0.3403
-4.5475 maker -0.3849
-4.0704 makes -0.3764
-3.7025 making -0.3461
-4.5475 males -0.3849
-4.5475 man -0.3840
-4.5475 manage -0.3739
-3.7693 managed -0.3654
-3.5476 management -0.3316
-3.8486 manager -0.3781
-4.5475 manages -0.3586
-3.2465 managing -0.3842
-4.5475 mandarin -0.3667
-4.5475 manipulate -0.3586
-4.5475 manipulating -0.3586
-4.2465 manner -0.3746
-4.5475 manners -0.3697
-3.9455 manually -0.3667
-4.2465 manuals -0.3671
-4.5475 manufacture -0.3746
-4.2465 manufacturer -0.3831
-4.2465 manufacturers -0.3630
-4.2465 manufactures -0.3846
-4.5475 manufacturing -0.3784
-3.1326 many -0.3736
-4.5475 map -0.3847
-4.5475 mapped -0.3849
-4.2465 mapping -0.3583
-4.5475 marginal -0.3849
-4.2465 market -0.3849
-4.5475 marketing -0.3697
-3.3715 markov -0.3830
-4.5475 marks -0.3845
-4.5475 markup -0.3839
-3.5476 martingale -0.3432
-4.5475 mass -0.3849
-3.9455 master -0.3831
-4.2465 match -0.3848
-4.0704 matches -0.3817
-4.5475 material -0.3784
-4.5475 materials -0.3667
-4.5475 mathematical -0.3849
-3.8486 matrix -0.3671
-4.2465 matter -0.3469
-4.5475 mature -0.3755
-4.2465 max -0.3845
-3.9455 maximization -0.3844
-4.0704 maximize -0.3586
-4.5475 maximizes -0.3586
-3.8486 maximum -0.3685
-3.2051 may -0.3769
-3.5932 mcleod -0.3697
-4.5475 mdh -0.3811
-3.1858 me -0.2687
-4.0704 mean -0.3841
-4.2465 meaning -0.3719
-4.5475 meaningful -0.3848
-3.5476 means -0.3521
-3.7693 measure -0.3486
-4.5475 measured -0.3849
-3.7693 measurement -0.3445
-3.5476 measures -0.3630
-3.7025 measuring -0.3577
-3.9455 mechanical -0.3695
-4.5475 mechanics -0.3784
-4.2465 media -0.3827
-4.2465 medical -0.3847
-4.5475 medication -0.3847
-4.5475 medium -0.3739
-3.9455 meet -0.3375
-4.2465 meeting -0.3834
-3.7693 mel -0.3822
-4.5475 melding -0.3848
-4.0704 mellon -0.3694
-4.2465 melon -0.3848
-4.5475 member -0.3746
-3.6445 members -0.3598
-3.3171 memory -0.3433
-4.5475 men -0.3755
-4.0704 mention -0.3823
-4.5475 mentioned -0.3849
-4.2465 menu -0.3559
-4.5475 mercer -0.3849
-4.5475 mere -0.3849
-4.2465 merely -0.3570
-4.5475 mertins -0.3697
-4.5475 mesage -0.3849
-3.4336 message -0.3269
-3.4684 messages -0.3428
-3.3434 method -0.3071
-3.5062 methods -0.3233
-3.9455 metric -0.3702
-3.8486 metrics -0.3459
-4.0704 mfcc -0.3754
-4.5475 mfccs -0.3826
-4.5475 mgcp -0.3697
-4.5475 mhz -0.3697
-4.5475 michael -0.3667
-3.9455 microphone -0.3747
-3.8486 microsoft -0.3829
-4.5475 microsystems -0.3697
-4.5475 microtime -0.3847
-4.5475 microwaved -0.3849
-4.2465 middle -0.3745
-4.5475 midwest -0.3739
-3.3715 might -0.3783
-4.5475 migrate -0.3844
-4.5475 miles -0.3849
-4.0704 milestones -0.3650
-4.2465 milliseconds -0.3667
-4.5475 mimic -0.3767
-4.2465 mind -0.3569
-4.0704 minimize -0.3586
-4.5475 minimized -0.3667
-4.2465 minimum -0.3746
-4.5475 mint -0.3697
-4.5475 minutes -0.3755
-4.5475 missed -0.3667
-4.0704 missing -0.3825
-4.0704 mission -0.3586
-4.5475 missouri -0.3849
-4.5475 mistakes -0.3849
-4.5475 misunderstood -0.3843
-4.5475 mixtures -0.3667
-3.8486 mlp -0.3677
-3.5932 mlps -0.3541
-4.5475 mo -0.3848
-4.2465 mobile -0.3846
-3.2923 mode -0.2956
-2.5791 model -0.2290
-4.5475 modeled -0.3849
-3.7693 modeling -0.3378
-2.7841 models -0.2793
-4.2465 modem -0.3817
-3.7693 modern -0.3825
-4.5475 moderns -0.3840
-3.5476 modes -0.3243
-4.5475 modification -0.3697
-4.2465 modified -0.3725
-4.5475 modify -0.3586
-4.5475 modular -0.3848
-4.5475 module -0.3811
-4.5475 modules -0.3667
-4.5475 mom -0.3697
-4.5475 moment -0.3823
-3.7025 money -0.3386
-4.5475 monitor -0.3697
-4.5475 monitored -0.3789
-4.5475 monitoring -0.3848
-4.2465 monitors -0.3789
-4.5475 month -0.3746
-4.5475 months -0.3739
-4.5475 mood -0.3667
-4.5475 moose -0.3755
-4.5475 moral -0.3849
-4.5475 morals -0.3755
-2.6783 more -0.3410
-4.5475 morehouse -0.3697
-3.7025 moreover -0.3697
-2.7280 most -0.3330
-4.2465 mostly -0.3745
-4.5475 mountain -0.3848
-4.5475 mountains -0.3849
-3.8486 mouse -0.3665
-3.9455 move -0.3749
-4.5475 movement -0.3849
-4.5475 moving -0.3755
-3.9455 mp -0.3845
-3.3715 much -0.3358
-3.7693 multi -0.3822
-4.5475 multilayer -0.3849
-4.5475 multilingual -0.3845
-4.2465 multimedia -0.3754
-4.5475 multiplatform -0.3830
-3.5476 multiple -0.3828
-4.5475 multiprocessing -0.3830
-4.2465 multitasking -0.3830
-4.2465 multithreading -0.3830
-4.5475 multiuser -0.3830
-3.9455 museet -0.3612
-3.9455 museum -0.3459
-3.9455 music -0.3679
-4.5475 musical -0.3849
-4.5475 musician -0.3697
-3.3171 must -0.3656
-4.0704 mvs -0.3793
-2.9141 my -0.3661
-4.2465 myself -0.3651
-4.5475 myspace -0.3845
-2.8233 n -0.3071
-4.5475 nacional -0.3849
-3.1326 name -0.3371
-4.2465 named -0.3814
-3.7025 names -0.3549
-4.5475 naming -0.3849
-4.5475 nasa -0.3829
-4.5475 nathaniel -0.3849
-3.8486 native -0.3728
-4.5475 natives -0.3847
-4.0704 natural -0.3739
-4.0704 nature -0.3590
-4.2465 navigate -0.3753
-4.2465 navigation -0.3838
-4.5475 nazi -0.3839
-4.5475 ncr -0.3667
-4.5475 nct -0.3834
-4.5475 nd -0.3849
-4.0704 near -0.3686
-4.5475 nearby -0.3848
-3.5932 necessary -0.3636
-3.0290 need -0.3254
-3.3434 needed -0.3233
-3.0290 needs -0.3222
-4.5475 negative -0.3697
-3.9455 nelson -0.3697
-4.2465 nerwork -0.3838
-3.5932 net -0.3826
-4.5475 netware -0.3841
-3.3171 network -0.3538
-3.3715 networking -0.3738
-3.5932 networks -0.3462
-3.5932 neural -0.3846
-4.0704 never -0.3848
-3.7693 nevertheless -0.3697
-2.8233 new -0.3392
-4.0704 newer -0.3833
-4.0704 newly -0.3846
-4.2465 news -0.3590
-3.5062 next -0.3666
-4.0704 nice -0.3848
-4.5475 nightmare -0.3845
-4.5475 ninilchick -0.3848
-4.5475 nist -0.3667
-4.2465 nj -0.3830
-3.2253 no -0.3642
-4.5475 nobody -0.3849
-4.5475 nodes -0.3824
-4.5475 nodigest -0.3849
-3.9455 noise -0.3808
-4.5475 noisy -0.3835
-3.7025 non -0.3822
-4.0704 none -0.3746
-3.7025 nonetheless -0.3697
-4.5475 noren -0.3695
-4.2465 normalized -0.3694
-4.5475 norms -0.3755
-4.5475 norton -0.3849
-4.5475 nosignature -0.3849
-2.6131 not -0.3035
-4.0704 notably -0.3572
-4.5475 notation -0.3789
-3.7025 note -0.3480
-4.5475 notes -0.3739
-4.5475 notice -0.3823
-4.5475 nourishment -0.3848
-4.5475 novel -0.3848
-4.5475 novell -0.3849
-4.5475 novice -0.3842
-3.5932 now -0.3515
-4.5475 nt -0.3848
-4.5475 ntc -0.3847
-3.0290 number -0.3404
-4.5475 numbering -0.3846
-3.9455 numbers -0.3710
-4.5475 numeric -0.3835
-4.5475 numerically -0.3849
-4.5475 numerous -0.3846
-4.5475 nycturia -0.3697
-4.5475 n -0.3695
-3.2051 o -0.3680
-4.5475 obeying -0.3848
-3.5062 object -0.3748
-4.5475 objective -0.3746
-3.5932 objects -0.3719
-4.5475 obligated -0.3739
-4.5475 observable -0.3849
-3.3171 observation -0.3805
-3.5476 observations -0.3108
-4.2465 observed -0.3846
-3.8486 obtain -0.3567
-3.6445 obtained -0.3791
-4.5475 obtaining -0.3834
-4.2465 occupation -0.3559
-4.5475 occur -0.3840
-4.5475 occurred -0.3848
-4.2465 occurrence -0.3627
-4.2465 occurring -0.3845
-4.5475 occurs -0.3844
-4.5475 odd -0.3849
-1.6285 of -0.2222
-3.6445 off -0.3485
-4.2465 offered -0.3728
-3.7025 office -0.3313
-4.5475 offices -0.3755
-4.5475 official -0.3846
-4.5475 ofs -0.3697
-3.4014 often -0.3673
-3.7025 ogg -0.3632
-4.5475 oh -0.3848
-4.2465 ohio -0.3667
-4.5475 ok -0.3789
-3.7693 old -0.3688
-4.5475 older -0.3840
-4.2465 ols -0.3825
-2.3953 on -0.2646
-3.3715 once -0.3197
-2.6783 one -0.2481
-3.6445 ones -0.3364
-3.9455 online -0.3845
-2.8663 only -0.3039
-4.5475 onto -0.3586
-4.5475 ontology -0.3746
-4.5475 oop -0.3697
-4.5475 opacity -0.3697
-3.4684 open -0.3287
-4.2465 opensuse -0.3600
-4.0704 operate -0.3666
-4.5475 operates -0.3789
-3.0562 operating -0.3818
-3.0290 operation -0.3304
-4.2465 operations -0.3697
-4.5475 operator -0.3835
-4.5475 operators -0.3789
-4.5475 opinion -0.3667
-4.5475 oppenheim -0.3789
-4.5475 opportunities -0.3667
-3.8486 opportunity -0.3631
-4.2465 opposed -0.3739
-4.5475 opposite -0.3849
-4.5475 oprofile -0.3824
-4.5475 opt -0.3739
-4.5475 optic -0.3849
-4.2465 optimality -0.3695
-4.2465 optimization -0.3846
-4.2465 optimize -0.3586
-4.5475 optimized -0.3848
-4.5475 optimizing -0.3586
-4.2465 option -0.3633
-3.9455 options -0.3636
-2.4869 or -0.2894
-2.5838 order -0.3467
-4.5475 ords -0.3695
-3.9455 org -0.3679
-4.5475 organization -0.3667
-4.5475 organizational -0.3849
-3.8486 organizations -0.3473
-4.5475 organize -0.3843
-3.9455 organized -0.3560
-3.9455 organizer -0.3651
-4.2465 organizing -0.3744
-4.0704 orientation -0.3500
-4.2465 oriented -0.3847
-4.0704 origin -0.3745
-3.8486 original -0.3814
-4.5475 originality -0.3848
-4.5475 originated -0.3833
-4.5475 orkman -0.3849
-4.5475 orthognonalized -0.3826
-4.0704 os -0.3784
-3.3715 ot -0.3134
-4.5475 otalw -0.3849
-2.7841 other -0.3217
-3.5062 others -0.3469
-3.9455 otherwise -0.3695
-3.2923 our -0.3791
-3.3434 out -0.3191
-4.5475 outage -0.3697
-4.5475 outbound -0.3847
-4.2465 outcome -0.3842
-4.5475 outdated -0.3755
-4.2465 outline -0.3552
-4.5475 outlined -0.3789
-4.5475 outlining -0.3586
-3.2923 output -0.3103
-4.2465 outputdict -0.3667
-4.5475 outputpath -0.3844
-3.7693 outputs -0.3525
-4.5475 outrageous -0.3848
-3.8486 outside -0.3415
-4.2465 outsiders -0.3666
-4.5475 ov -0.3739
-3.4684 over -0.3728
-3.3715 overall -0.3664
-3.9455 overcome -0.3782
-4.5475 overcoming -0.3844
-4.5475 overflow -0.3697
-4.5475 overflows -0.3667
-4.2465 overhead -0.3697
-4.5475 overlapped -0.3789
-4.2465 overlooked -0.3813
-4.5475 overseas -0.3849
-4.2465 overview -0.3728
-4.5475 owing -0.3846
-3.4336 own -0.3819
-4.5475 owner -0.3837
-2.9041 p -0.3336
-3.7693 package -0.3434
-4.2465 packaged -0.3845
-4.5475 packages -0.3849
-3.7693 page -0.3300
-3.4336 pages -0.3364
-4.5475 paging -0.3697
-4.5475 pair -0.3746
-4.5475 pango -0.3838
-4.0704 paper -0.3755
-4.5475 parallel -0.3849
-4.5475 paralysis -0.3697
-3.6445 parameter -0.3435
-3.4336 parameters -0.3245
-4.5475 paramount -0.3849
-4.2465 parasitic -0.3849
-4.5475 pared -0.3848
-4.0704 parents -0.3657
-4.5475 parity -0.3849
-4.5475 parsing -0.3695
-3.3715 part -0.3746
-3.9455 partial -0.3846
-4.5475 participants -0.3826
-4.2465 participate -0.3774
-4.2465 participating -0.3789
-3.9455 participation -0.3729
-4.2465 particular -0.3846
-4.0704 particularly -0.3844
-4.5475 partitioned -0.3843
-4.5475 partitioning -0.3586
-3.7025 parts -0.3416
-3.9455 party -0.3831
-4.5475 pass -0.3848
-4.5475 passed -0.3847
-4.5475 passes -0.3844
-4.5475 passing -0.3847
-4.5475 password -0.3667
-4.2465 past -0.3848
-4.5475 paste -0.3789
-4.5475 pastime -0.3840
-4.5475 patented -0.3848
-3.1858 path -0.3354
-3.7693 paths -0.3269
-4.5475 patients -0.3849
-4.5475 patrik -0.3849
-4.0704 patterns -0.3506
-3.9455 pause -0.3567
-4.5475 paused -0.3849
-4.5475 pauses -0.3847
-4.2465 pay -0.3806
-4.0704 paying -0.3848
-3.5932 pbx -0.3454
-3.9455 pbxs -0.3739
-3.5932 pc -0.3354
-4.5475 pclinuxos -0.3697
-3.9455 pcs -0.3745
-4.5475 pdf -0.3667
-4.2465 pdfs -0.3824
-4.5475 peer -0.3847
-4.5475 peers -0.3667
-3.9455 pencil -0.3488
-4.2465 pencils -0.3598
-4.5475 pent -0.3822
-3.4684 people -0.3337
-3.4684 per -0.3808
-4.5475 perceive -0.3823
-4.5475 perceived -0.3849
-4.2465 percent -0.3775
-4.2465 percentage -0.3588
-4.2465 perception -0.3761
-4.2465 perceptron -0.3667
-4.0704 perceptrons -0.3696
-4.5475 perfect -0.3843
-3.7693 perform -0.3399
-2.9348 performance -0.2907
-3.7693 performed -0.3574
-4.0704 performing -0.3828
-4.2465 performs -0.3586
-4.2465 perhaps -0.3846
-4.5475 period -0.3746
-4.5475 peripheral -0.3849
-4.5475 perl -0.3755
-4.5475 permissions -0.3746
-4.5475 perpetrator -0.3836
-4.5475 persistence -0.3746
-3.4336 person -0.3743
-3.4684 personal -0.3751
-4.5475 personality -0.3667
-4.5475 personalization -0.3667
-4.5475 personally -0.3849
-3.9455 persons -0.3488
-4.5475 perspective -0.3667
-4.5475 pharmaceuticals -0.3811
-3.7025 phase -0.3645
-4.0704 phases -0.3707
-4.5475 phd -0.3849
-4.5475 philosophies -0.3829
-4.5475 phl -0.3834
-3.7693 phoenix -0.3639
-3.3715 phone -0.3448
-3.5932 phoneme -0.3689
-3.4336 phonemes -0.3012
-3.7025 phones -0.3623
-3.5062 phonetic -0.3837
-4.2465 phonetical -0.3840
-4.5475 photo -0.3849
-4.5475 photographer -0.3697
-4.5475 photography -0.3784
-4.0704 php -0.3678
-4.2465 phrase -0.3646
-4.5475 phrases -0.3667
-3.7025 physical -0.3830
-4.5475 physiological -0.3739
-4.2465 pick -0.3845
-4.5475 picture -0.3697
-4.5475 piece -0.3746
-4.5475 pile -0.3746
-4.5475 piling -0.3845
-4.5475 ping -0.3849
-4.5475 pipe -0.3586
-4.5475 pipelines -0.3697
-4.2465 pis -0.3835
-3.7693 pitts -0.3679
-3.6445 place -0.3458
-3.7025 placed -0.3770
-4.5475 places -0.3697
-4.2465 placing -0.3820
-4.2465 plain -0.3848
-4.0704 plan -0.3654
-4.0704 planning -0.3583
-4.2465 plans -0.3755
-3.8486 plant -0.3594
-4.5475 plants -0.3847
-4.2465 plastic -0.3848
-4.2465 platform -0.3846
-3.8486 platforms -0.3509
-3.5062 play -0.3392
-3.4336 played -0.3148
-4.5475 player -0.3667
-3.7693 playing -0.3237
-4.5475 plays -0.3834
-3.3715 please -0.3691
-4.5475 plug -0.3822
-4.2465 plus -0.3840
-4.5475 pneumonia -0.3697
-4.2465 poaching -0.3600
-2.7841 pocketsphinx -0.2842
-4.0704 point -0.3733
-4.5475 pointer -0.3739
-4.5475 pointers -0.3697
-4.5475 points -0.3844
-4.5475 poisoning -0.3697
-4.5475 polices -0.3849
-4.2465 policies -0.3689
-4.5475 policy -0.3849
-4.2465 polymorphism -0.3821
-4.5475 polytechnic -0.3849
-4.5475 polyuria -0.3697
-4.5475 pool -0.3830
-4.5475 pooling -0.3847
-4.0704 poor -0.3750
-3.7025 popular -0.3607
-3.9455 port -0.3664
-3.9455 portable -0.3685
-4.5475 ported -0.3755
-4.5475 portions -0.3746
-4.5475 ports -0.3832
-4.2465 pos -0.3834
-3.8486 position -0.3314
-4.5475 positioning -0.3834
-4.5475 posix -0.3697
-4.5475 possessed -0.3849
-4.5475 possibilities -0.3746
-4.2465 possibility -0.3679
-3.1673 possible -0.3283
-4.5475 post -0.3767
-4.5475 posted -0.3826
-4.5475 posterior -0.3848
-4.5475 posts -0.3789
-3.7025 potential -0.3726
-4.2465 pots -0.3849
-3.4014 power -0.3567
-3.8486 powerful -0.3562
-4.5475 powerpoint -0.3849
-4.2465 practical -0.3700
-3.7693 practice -0.3503
-4.0704 practices -0.3696
-4.5475 pre -0.3822
-4.0704 preceded -0.3826
-4.0704 preceding -0.3755
-4.5475 preconventional -0.3848
-4.5475 predecessor -0.3667
-3.7025 predefined -0.3843
-4.5475 predetermined -0.3844
-4.2465 predict -0.3562
-4.5475 predicted -0.3847
-4.2465 predictive -0.3849
-4.5475 preemphasis -0.3848
-4.0704 preemphasized -0.3697
-4.5475 preferable -0.3739
-4.5475 preference -0.3784
-4.2465 preferences -0.3735
-4.5475 preferred -0.3739
-4.5475 preliminary -0.3848
-4.5475 prepackaged -0.3846
-4.5475 prepare -0.3811
-4.5475 prerelease -0.3849
-4.5475 prescriptions -0.3844
-3.9455 present -0.3733
-4.5475 presentation -0.3837
-3.7693 presented -0.3644
-3.7025 presents -0.3397
-4.5475 president -0.3746
-4.5475 press -0.3849
-4.0704 pressing -0.3755
-4.5475 pressure -0.3697
-3.7025 pretty -0.3836
-4.5475 prevent -0.3846
-4.5475 prevents -0.3842
-3.5062 previous -0.3813
-3.8486 previously -0.3680
-4.5475 pri -0.3849
-4.2465 primary -0.3835
-3.5476 principles -0.3343
-4.2465 print -0.3843
-4.5475 printenv -0.3849
-4.5475 printer -0.3667
-4.5475 printf -0.3848
-4.2465 printing -0.3846
-4.0704 prior -0.3465
-3.9455 priorities -0.3463
-4.5475 priority -0.3746
-4.2465 privacy -0.3764
-4.5475 privately -0.3849
-4.2465 probabilistic -0.3848
-3.2465 probabilities -0.3095
-2.9794 probability -0.3173
-3.9455 probable -0.3841
-4.5475 probably -0.3586
-3.2465 problem -0.3200
-3.6445 problems -0.3429
-4.5475 proc -0.3667
-4.5475 procedural -0.3848
-3.5932 procedure -0.3118
-4.5475 procedures -0.3841
-4.0704 proceeded -0.3737
-4.2465 proceedings -0.3667
-3.0161 process -0.3047
-4.2465 processed -0.3697
-4.0704 processes -0.3486
-3.1162 processing -0.2608
-4.5475 processor -0.3849
-3.8486 processors -0.3477
-3.9455 produce -0.3766
-3.9455 produced -0.3366
-4.2465 producing -0.3767
-3.8486 product -0.3393
-4.2465 production -0.3847
-3.7693 productivity -0.3558
-4.0704 products -0.3652
-4.2465 professional -0.3847
-4.5475 professionals -0.3739
-4.5475 professor -0.3849
-4.5475 proficient -0.3840
-4.5475 profile -0.3835
-4.5475 profiling -0.3820
-4.2465 profit -0.3755
-4.5475 profitable -0.3697
-2.9565 program -0.3123
-4.5475 programed -0.3739
-4.5475 programmed -0.3820
-3.8486 programmer -0.3664
-4.0704 programmers -0.3821
-3.6445 programming -0.3674
-3.4336 programs -0.3328
-4.2465 progresses -0.3697
-4.5475 progressively -0.3667
-2.8233 project -0.2596
-3.5476 projects -0.3599
-4.5475 proliferate -0.3849
-4.5475 proliferation -0.3746
-4.5475 promote -0.3849
-4.2465 promoting -0.3845
-4.5475 promotions -0.3697
-4.2465 pronounced -0.3817
-3.8486 pronunciation -0.3266
-4.5475 pronunciations -0.3833
-4.5475 proof -0.3746
-4.2465 propagation -0.3844
-3.7025 proper -0.3825
-3.5932 properly -0.3840
-4.2465 properties -0.3590
-4.5475 property -0.3848
-4.5475 proposals -0.3755
-4.5475 proposed -0.3789
-3.5476 proprietary -0.3143
-4.5475 prospective -0.3849
-4.0704 prostate -0.3697
-4.5475 protect -0.3849
-4.5475 protected -0.3847
-4.5475 protecting -0.3586
-3.8486 protection -0.3645
-4.5475 protects -0.3820
-3.8486 protocol -0.3599
-3.8486 protocols -0.3756
-4.5475 prove -0.3767
-4.5475 proved -0.3739
-4.5475 proven -0.3739
-3.4336 provide -0.3305
-3.6445 provided -0.3166
-4.5475 providers -0.3667
-3.4336 provides -0.3471
-3.6445 providing -0.3758
-4.5475 pruning -0.3755
-3.7025 prunus -0.3848
-4.5475 public -0.3847
-4.5475 publications -0.3739
-3.8486 publicly -0.3845
-3.7693 published -0.3823
-4.5475 pulls -0.3845
-4.5475 pulp -0.3755
-4.5475 punctuation -0.3848
-4.0704 punishment -0.3742
-4.5475 purchase -0.3586
-4.2465 purchased -0.3825
-4.5475 pure -0.3849
-4.2465 purely -0.3849
-4.5475 purports -0.3739
-3.6445 purpose -0.3558
-4.2465 purposes -0.3538
-4.5475 push -0.3667
-3.7025 put -0.3548
-4.5475 pv -0.3695
-4.5475 python -0.3848
-3.3171 q -0.3827
-4.5475 qn -0.3695
-4.5475 qsig -0.3811
-3.6445 qt -0.3800
-3.9455 quality -0.3594
-4.5475 quantification -0.3746
-4.2465 quantify -0.3581
-4.2465 quantities -0.3746
-4.5475 queried -0.3834
-4.2465 queries -0.3750
-4.5475 query -0.3586
-3.9455 question -0.3846
-4.5475 questions -0.3697
-4.5475 quich -0.3849
-4.5475 quick -0.3755
-4.0704 quickly -0.3553
-4.5475 quiet -0.3667
-4.5475 quintero -0.3746
-3.9455 quit -0.3592
-4.2465 quite -0.3834
-4.5475 quotas -0.3849
-4.5475 quoted -0.3697
-3.9455 r -0.3667
-4.5475 races -0.3755
-4.5475 racism -0.3667
-3.8486 radio -0.3667
-4.5475 raid -0.3826
-4.5475 railroads -0.3697
-3.9455 rainforest -0.3593
-4.5475 rainforested -0.3849
-4.5475 rainforests -0.3848
-4.2465 raise -0.3745
-4.5475 ram -0.3826
-4.2465 ran -0.3833
-4.5475 ranch -0.3849
-4.0704 random -0.3843
-4.5475 randomly -0.3848
-4.0704 range -0.3746
-4.5475 ranges -0.3667
-4.5475 rapid -0.3697
-4.5475 rapidly -0.3849
-4.5475 rash -0.3695
-3.4014 rate -0.2949
-4.2465 rates -0.3826
-3.6445 rather -0.3693
-4.2465 raven -0.3697
-4.5475 raw -0.3844
-4.5475 rbs -0.3849
-4.5475 rca -0.3697
-3.9455 re -0.3822
-3.9455 reached -0.3686
-4.5475 reaching -0.3848
-4.5475 react -0.3695
-4.5475 reaction -0.3739
-4.5475 reacts -0.3844
-3.7693 read -0.3580
-4.2465 reading -0.3829
-4.0704 reads -0.3735
-3.7025 ready -0.3174
-3.5932 real -0.3783
-4.0704 realistic -0.3843
-4.5475 really -0.3849
-3.2465 reason -0.3312
-4.2465 reasoning -0.3509
-3.9455 reasons -0.3624
-4.5475 recapitulates -0.3586
-4.0704 receive -0.3765
-3.8486 received -0.3614
-3.8486 receives -0.3757
-4.5475 recently -0.3697
-4.5475 recipe -0.3811
-4.5475 reciprocity -0.3849
-2.6842 recognition -0.2820
-3.9455 recognize -0.3569
-4.5475 recognized -0.3847
-3.1673 recognizer -0.3382
-3.7693 recognizers -0.3514
-3.7693 recognizing -0.3638
-4.0704 recommend -0.3847
-3.6445 recommended -0.3551
-4.5475 recommends -0.3849
-4.0704 record -0.3733
-4.0704 recorded -0.3725
-4.0704 recording -0.3833
-4.2465 recordings -0.3741
-3.9455 records -0.3833
-4.2465 recover -0.3844
-4.5475 recovering -0.3848
-4.5475 recruit -0.3847
-4.5475 recurrence -0.3849
-4.5475 recursively -0.3849
-4.0704 red -0.3811
-4.5475 redesign -0.3586
-4.5475 redistribution -0.3667
-4.0704 reduce -0.3586
-4.2465 reduced -0.3831
-4.0704 reducing -0.3845
-4.5475 reduction -0.3840
-4.0704 reencoding -0.3586
-4.2465 refactoring -0.3743
-3.8486 refer -0.3739
-4.5475 referenced -0.3667
-3.7693 references -0.3820
-4.5475 referred -0.3739
-4.5475 refers -0.3739
-4.5475 refine -0.3697
-4.5475 reflect -0.3767
-4.5475 reflexes -0.3697
-4.5475 refuses -0.3739
-3.9455 regard -0.3583
-3.7025 regarding -0.3566
-4.5475 regardless -0.3746
-4.5475 regional -0.3849
-4.2465 register -0.3755
-4.0704 registration -0.3664
-4.2465 regular -0.3848
-4.5475 regularly -0.3849
-4.5475 regulation -0.3746
-3.4336 related -0.3734
-4.2465 relationship -0.3849
-4.5475 relative -0.3739
-4.5475 relativistic -0.3697
-4.5475 relaxed -0.3826
-3.9455 release -0.3568
-4.5475 releases -0.3697
-4.5475 relevance -0.3755
-4.5475 relevant -0.3739
-3.9455 reliability -0.3734
-4.5475 reliable -0.3843
-4.5475 reliably -0.3739
-4.5475 religion -0.3697
-4.5475 rely -0.3832
-4.2465 remain -0.3848
-4.5475 remained -0.3586
-4.2465 remaining -0.3838
-4.5475 remains -0.3849
-4.5475 remarkable -0.3697
-4.5475 rembetski -0.3697
-4.0704 remedies -0.3683
-4.0704 remote -0.3847
-4.2465 remotely -0.3649
-4.5475 remove -0.3849
-4.5475 removes -0.3849
-4.5475 renaming -0.3767
-4.5475 rent -0.3811
-4.5475 repeatability -0.3789
-4.2465 repeated -0.3848
-4.5475 repeatedly -0.3849
-4.5475 repeating -0.3586
-4.5475 repetitions -0.3835
-4.2465 replaced -0.3826
-4.5475 replacement -0.3667
-4.5475 replicating -0.3827
-4.5475 replication -0.3848
-3.4336 report -0.3452
-4.2465 reported -0.3422
-3.9455 repository -0.3600
-3.5476 represent -0.3488
-3.3715 representation -0.3156
-4.5475 representationn -0.3847
-3.9455 represented -0.3550
-4.5475 representing -0.3586
-3.8486 represents -0.3489
-4.5475 reproduce -0.3767
-4.5475 republic -0.3746
-4.5475 reputation -0.3667
-4.2465 request -0.3739
-4.0704 requested -0.3621
-4.5475 requests -0.3811
-3.7025 require -0.3542
-3.3715 required -0.3428
-4.5475 requirement -0.3667
-3.2923 requirements -0.3424
-3.5476 requires -0.3681
-3.1496 research -0.3369
-4.5475 researchers -0.3841
-4.5475 researching -0.3849
-4.5475 reserve -0.3586
-4.2465 reside -0.3825
-4.5475 residents -0.3667
-4.2465 resizing -0.3757
-4.0704 resolve -0.3816
-3.7693 resource -0.3818
-3.5932 resources -0.3214
-4.0704 respect -0.3738
-4.5475 respectively -0.3667
-3.4684 respgenerator -0.3373
-3.4014 response -0.3178
-3.2923 responses -0.3074
-4.5475 responsibility -0.3697
-4.5475 responsible -0.3849
-4.5475 restart -0.3586
-4.5475 restarted -0.3848
-4.5475 restarting -0.3586
-4.5475 restored -0.3697
-4.5475 restrict -0.3586
-4.0704 restricted -0.3739
-4.5475 restrictive -0.3849
-3.6445 result -0.3490
-4.5475 resultant -0.3844
-4.2465 resulted -0.3789
-4.0704 resulting -0.3760
-3.1858 results -0.3225
-4.0704 resume -0.3834
-4.5475 retreived -0.3849
-4.5475 retrieve -0.3847
-3.5476 retrieved -0.3832
-4.5475 retrieves -0.3586
-4.2465 return -0.3721
-4.5475 returned -0.3833
-4.5475 returns -0.3824
-3.9455 reusability -0.3702
-4.5475 reusable -0.3667
-3.4684 revaluator -0.3441
-4.2465 reveal -0.3586
-4.5475 revealed -0.3739
-4.5475 reverberation -0.3848
-4.5475 reverse -0.3848
-3.7693 review -0.3161
-4.2465 reviewed -0.3671
-4.5475 reviews -0.3847
-4.5475 revolution -0.3849
-4.5475 reward -0.3697
-4.5475 rewarding -0.3849
-4.5475 rf -0.3826
-4.0704 richard -0.3667
-4.5475 richest -0.3849
-4.5475 rife -0.3834
-3.8486 right -0.3569
-3.6445 rights -0.3570
-4.2465 riordan -0.3784
-4.5475 ris -0.3697
-4.5475 rises -0.3849
-4.5475 rlechner -0.3849
-4.5475 roadblocks -0.3746
-4.5475 robbed -0.3848
-3.7693 robot -0.3796
-4.5475 robotics -0.3755
-3.9455 robust -0.3566
-3.8486 robustness -0.3567
-4.5475 roi -0.3826
-3.9455 role -0.3755
-4.5475 roles -0.3667
-4.5475 rollover -0.3697
-3.8486 room -0.3542
-4.5475 rooms -0.3811
-4.5475 root -0.3847
-4.2465 ros -0.3760
-4.5475 rose -0.3739
-4.5475 rosenfeld -0.3697
-4.5475 roughly -0.3586
-4.5475 roulette -0.3817
-3.7693 round -0.3745
-4.5475 row -0.3746
-4.5475 royalty -0.3822
-3.9455 rpm -0.3844
-4.2465 rsop -0.3825
-4.2465 rudimentary -0.3693
-4.5475 rudnicky -0.3667
-3.9455 rule -0.3606
-3.7693 rules -0.3608
-3.1326 run -0.3015
-4.5475 runcon -0.3846
-3.5932 running -0.3567
-3.9455 runs -0.3842
-4.5475 runtime -0.3849
-2.6445 s -0.2848
-4.5475 sacrificing -0.3842
-4.2465 safe -0.3753
-3.9455 said -0.3712
-4.2465 sake -0.3559
-3.9455 sales -0.3754
-4.2465 salmon -0.3849
-4.5475 samate -0.3667
-2.9455 same -0.3401
-4.2465 sample -0.3838
-4.2465 sampled -0.3753
-4.5475 samples -0.3848
-4.2465 satisfaction -0.3643
-4.5475 saturation -0.3697
-4.5475 saturday -0.3746
-4.2465 save -0.3695
-4.5475 saw -0.3586
-3.7693 say -0.3552
-4.5475 saying -0.3586
-4.5475 says -0.3739
-4.0704 sc -0.3846
-3.9455 scalability -0.3800
-4.2465 scalable -0.3600
-3.9455 scale -0.3589
-4.5475 scales -0.3697
-4.5475 scanner -0.3849
-4.5475 scanning -0.3586
-3.9455 schedule -0.3466
-4.2465 scheduled -0.3848
-4.5475 scheduling -0.3849
-4.2465 scheme -0.3730
-4.5475 scholarships -0.3842
-4.2465 school -0.3733
-4.5475 schooled -0.3817
-4.5475 sci -0.3834
-4.5475 science -0.3755
-4.5475 scientific -0.3849
-3.5062 scientology -0.3646
-4.5475 scope -0.3746
-4.0704 score -0.3542
-4.5475 scouting -0.3811
-3.9455 scratch -0.3663
-4.5475 screen -0.3667
-4.2465 scripting -0.3849
-4.2465 scripts -0.3831
-4.5475 se -0.3842
-4.5475 sean -0.3849
-3.6445 search -0.3773
-4.5475 searched -0.3697
-4.5475 season -0.3848
-3.4684 second -0.3817
-4.0704 seconds -0.3766
-4.5475 secret -0.3848
-3.3171 section -0.3226
-4.0704 sections -0.3716
-3.9455 secure -0.3827
-3.1858 security -0.3512
-3.7693 see -0.3330
-4.2465 seeing -0.3586
-4.5475 seek -0.3767
-4.5475 seekers -0.3849
-4.5475 seeks -0.3739
-4.2465 seemed -0.3739
-4.0704 seems -0.3739
-3.1673 seen -0.3381
-4.5475 segment -0.3849
-4.2465 segmentation -0.3743
-3.7693 select -0.3442
-3.5476 selected -0.3509
-3.8486 selecting -0.3755
-4.5475 selector -0.3811
-3.6445 self -0.3713
-4.5475 selinux -0.3849
-4.5475 sell -0.3586
-4.5475 selma -0.3849
-4.5475 semantic -0.3849
-4.5475 semi -0.3822
-4.2465 send -0.3763
-4.5475 sending -0.3848
-4.5475 senior -0.3843
-3.5476 sense -0.3558
-3.3715 sentence -0.3111
-2.8315 sentences -0.2659
-4.5475 sentencesfile -0.3667
-4.0704 separate -0.3837
-4.2465 separated -0.3837
-4.5475 separately -0.3833
-4.5475 sept -0.3826
-4.5475 september -0.3849
-4.5475 seq -0.3695
-3.3434 sequence -0.3081
-3.8486 sequences -0.3663
-4.5475 sequential -0.3827
-4.5475 sequentially -0.3667
-3.9455 serial -0.3665
-4.5475 serially -0.3849
-4.2465 series -0.3588
-4.5475 serious -0.3840
-3.2253 server -0.2965
-3.7693 servers -0.3384
-3.7693 service -0.3655
-3.7693 services -0.3371
-4.5475 servicing -0.3848
-4.5475 serving -0.3667
-4.2465 session -0.3694
-2.9348 set -0.3375
-3.9455 sets -0.3445
-4.5475 setting -0.3845
-4.0704 settings -0.3774
-4.5475 settled -0.3826
-3.9455 setup -0.3356
-4.2465 seven -0.3842
-3.1673 several -0.3684
-4.5475 seymore -0.3697
-3.7025 sha -0.3834
-4.5475 shadow -0.3849
-3.3715 shall -0.3794
-4.5475 shapes -0.3755
-3.9455 share -0.3839
-4.5475 shared -0.3849
-4.5475 shares -0.3840
-4.5475 sharing -0.3755
-4.0704 sharon -0.3838
-4.0704 sheet -0.3796
-4.0704 shelf -0.3843
-4.5475 shipment -0.3849
-4.5475 ships -0.3834
-4.2465 short -0.3822
-4.5475 shortages -0.3746
-3.0290 should -0.3765
-4.5475 shoulders -0.3746
-3.7693 show -0.3738
-4.5475 showing -0.3845
-3.8486 shown -0.3758
-3.8486 shows -0.3578
-4.5475 shred -0.3695
-4.5475 shrinking -0.3755
-4.5475 shrinks -0.3834
-4.5475 si -0.3695
-4.2465 side -0.3725
-4.5475 siegler -0.3697
-2.9243 signal -0.3284
-4.5475 signaling -0.3826
-4.5475 signalling -0.3849
-4.2465 signals -0.3661
-4.2465 signature -0.3760
-4.2465 significant -0.3847
-4.5475 significantly -0.3848
-4.5475 silence -0.3840
-3.9455 silver -0.3823
-3.5476 similar -0.3377
-3.3171 similarly -0.3410
-3.7025 simple -0.3720
-4.2465 simpler -0.3754
-4.0704 simplest -0.3744
-4.5475 simplicity -0.3849
-4.5475 simplification -0.3849
-3.8486 simplified -0.3461
-4.5475 simplify -0.3586
-4.5475 simplistic -0.3848
-4.5475 simply -0.3849
-4.5475 sims -0.3834
-4.2465 simulated -0.3847
-3.5932 simulation -0.3661
-4.5475 simultaneously -0.3849
-3.5062 since -0.3440
-4.5475 sincerity -0.3667
-3.7025 single -0.3833
-4.0704 sip -0.3407
-4.5475 sister -0.3755
-3.8486 site -0.3438
-4.0704 sites -0.3599
-4.5475 situations -0.3755
-4.5475 six -0.3848
-3.2465 size -0.3211
-4.5475 sized -0.3832
-4.2465 sizes -0.3559
-4.2465 sj -0.3694
-4.5475 sketches -0.3835
-4.5475 skills -0.3755
-4.5475 slackware -0.3841
-3.9455 slightly -0.3839
-4.5475 slipped -0.3767
-4.2465 slm -0.3834
-4.5475 sln -0.3838
-4.5475 slow -0.3739
-3.3171 small -0.3522
-3.5476 smaller -0.3197
-4.2465 smallest -0.3847
-4.5475 smarter -0.3847
-4.2465 smdr -0.3697
-3.7693 smith -0.3848
-4.5475 sn -0.3848
-3.1326 so -0.3428
-4.5475 social -0.3849
-4.2465 society -0.3553
-4.5475 sockeye -0.3847
-2.8233 software -0.3059
-4.0704 solution -0.3488
-3.8486 solutions -0.3775
-3.8486 solve -0.3465
-4.2465 solved -0.3835
-4.2465 solves -0.3586
-2.7767 some -0.3468
-4.2465 somehow -0.3695
-4.2465 someone -0.3848
-3.9455 something -0.3807
-3.9455 sometimes -0.3683
-4.5475 somewhat -0.3746
-4.5475 song -0.3849
-4.2465 sons -0.3697
-4.5475 soon -0.3813
-3.8486 sophisticated -0.3722
-4.5475 sorted -0.3849
-4.5475 sorts -0.3848
-4.5475 soul -0.3667
-3.7025 sound -0.3457
-3.8486 sounds -0.3503
-3.2253 source -0.3392
-4.0704 sourceforge -0.3667
-3.7693 sources -0.3741
-3.8486 space -0.3423
-4.5475 spaces -0.3848
-3.7693 spaghetti -0.3707
-4.5475 spain -0.3847
-4.5475 spanish -0.3667
-4.5475 spare -0.3849
-3.7693 speak -0.3577
-3.0852 speaker -0.3442
-3.8486 speakers -0.3402
-3.7025 speaking -0.3449
-4.2465 special -0.3847
-4.5475 specialize -0.3789
-4.0704 species -0.3845
-3.5476 specific -0.3733
-4.0704 specifically -0.3696
-3.7693 specifications -0.3293
-3.7025 specified -0.3562
-4.2465 specifies -0.3767
-3.9455 specify -0.3494
-4.5475 specifying -0.3834
-3.5932 spectral -0.3825
-3.9455 spectrum -0.3628
-2.2874 speech -0.2912
-4.5475 speeches -0.3843
-3.9455 speed -0.3736
-4.5475 spelling -0.3848
-4.0704 spend -0.3842
-4.2465 spent -0.3842
-3.1004 sphinx -0.3135
-4.2465 sphinxbase -0.3667
-4.2465 spite -0.3746
-4.2465 split -0.3840
-3.8486 spoken -0.3837
-4.2465 spontaneous -0.3827
-4.5475 spot -0.3845
-4.5475 spread -0.3848
-4.5475 st -0.3848
-4.5475 stability -0.3755
-3.7693 stack -0.3830
-4.2465 staff -0.3839
-3.5476 stage -0.3602
-3.5476 stages -0.3539
-4.2465 stake -0.3660
-4.5475 stakeholder -0.3784
-3.9455 stakeholders -0.3407
-4.5475 stances -0.3739
-4.5475 stand -0.3832
-3.6445 standard -0.3623
-4.5475 standardize -0.3586
-4.5475 standardized -0.3826
-3.7693 standards -0.3453
-4.2465 standing -0.3785
-4.5475 stands -0.3811
-3.5062 start -0.3521
-3.9455 started -0.3631
-4.5475 starting -0.3844
-3.7693 starts -0.3502
-4.2465 startup -0.3688
-4.5475 stat -0.3695
-3.0161 state -0.3008
-3.9455 statement -0.3844
-3.7693 statements -0.3416
-3.5062 states -0.3542
-3.5476 static -0.3836
-4.5475 stating -0.3586
-4.2465 station -0.3847
-4.5475 statistic -0.3849
-3.8486 statistical -0.3817
-3.7693 statistics -0.3528
-3.8486 status -0.3596
-4.5475 stay -0.3789
-4.5475 stayed -0.3849
-4.5475 staying -0.3848
-4.2465 steam -0.3849
-4.5475 steepest -0.3695
-3.4684 step -0.3071
-3.7025 steps -0.3387
-3.5476 still -0.3776
-4.5475 stochastic -0.3848
-4.5475 stock -0.3849
-4.5475 stockholders -0.3697
-3.8486 stop -0.3689
-4.5475 stopped -0.3848
-4.5475 stops -0.3848
-4.2465 storage -0.3599
-3.9455 stored -0.3785
-4.5475 storehouse -0.3746
-4.2465 story -0.3744
-4.5475 straight -0.3849
-4.5475 straightforward -0.3817
-3.9455 strategies -0.3625
-3.6445 strategy -0.3585
-4.2465 streak -0.3652
-4.2465 streaks -0.3839
-4.5475 stream -0.3695
-4.2465 streaming -0.3742
-4.5475 streamline -0.3846
-4.5475 streams -0.3841
-4.5475 street -0.3849
-4.5475 strength -0.3739
-4.5475 stretching -0.3586
-4.5475 strict -0.3849
-4.5475 strictest -0.3849
-4.5475 strictly -0.3848
-4.5475 stride -0.3849
-4.5475 strides -0.3789
-4.5475 strike -0.3846
-4.5475 striking -0.3767
-3.5062 string -0.3580
-4.5475 strings -0.3746
-4.5475 strong -0.3847
-4.5475 strongly -0.3848
-3.5476 structure -0.3215
-3.8486 students -0.3636
-4.5475 studies -0.3789
-3.8486 studio -0.3331
-3.9455 study -0.3840
-4.2465 studying -0.3635
-4.5475 stuff -0.3846
-4.5475 stumps -0.3849
-3.9455 style -0.3508
-4.2465 subconscious -0.3848
-3.9455 subject -0.3633
-4.2465 submission -0.3509
-4.2465 submit -0.3846
-4.2465 submits -0.3570
-4.5475 submitted -0.3845
-4.5475 subsequently -0.3697
-3.8486 subset -0.3746
-4.5475 substantial -0.3849
-4.2465 substitute -0.3584
-4.5475 substituted -0.3840
-4.5475 substitutions -0.3849
-4.5475 subsystems -0.3746
-4.5475 succeeded -0.3826
-4.2465 succeeding -0.3847
-4.0704 succesfully -0.3667
-3.9455 success -0.3558
-3.8486 successful -0.3846
-4.0704 successfully -0.3828
-2.9565 such -0.3814
-4.0704 suffer -0.3751
-4.5475 suffered -0.3833
-4.5475 suffering -0.3833
-4.5475 suffers -0.3849
-4.0704 sufficiency -0.3496
-4.2465 sufficient -0.3739
-4.5475 suggest -0.3586
-4.2465 suggested -0.3826
-4.5475 suggestions -0.3811
-4.0704 suggests -0.3696
-4.5475 suitable -0.3847
-4.5475 suited -0.3739
-3.7693 sum -0.3693
-4.2465 summaries -0.3823
-3.5476 summary -0.3404
-4.5475 sun -0.3849
-4.5475 sunos -0.3755
-4.5475 superior -0.3739
-4.5475 supervisor -0.3830
-4.5475 supplementary -0.3849
-4.0704 supplied -0.3765
-3.4336 support -0.3527
-3.9455 supported -0.3766
-4.0704 supporting -0.3581
-3.9455 supports -0.3778
-4.5475 suppose -0.3823
-4.2465 supposed -0.3739
-4.5475 suppressing -0.3846
-3.4684 sure -0.3407
-4.5475 surely -0.3697
-4.5475 sustain -0.3849
-3.8486 sustainable -0.3847
-4.5475 swapping -0.3697
-4.2465 sweden -0.3840
-4.2465 swedish -0.3849
-4.5475 swing -0.3739
-4.5475 switchboard -0.3755
-4.2465 switches -0.3649
-4.5475 switching -0.3695
-4.0704 syllables -0.3647
-4.5475 syllabus -0.3848
-4.0704 symbol -0.3529
-3.7025 symbols -0.3405
-4.5475 synchronization -0.3746
-4.5475 synonymous -0.3834
-4.5475 syntactical -0.3848
-4.5475 syntax -0.3755
-4.5475 synthesis -0.3840
-4.5475 synthesized -0.3849
-2.3517 system -0.2149
-2.6555 systems -0.2547
-4.5475 systen -0.3667
-3.0562 t -0.3121
-3.3715 table -0.3411
-4.2465 tables -0.3849
-4.5475 tabs -0.3848
-4.5475 tac -0.3695
-4.5475 tails -0.3667
-3.6445 take -0.3501
-4.2465 taken -0.3733
-3.7025 takes -0.3747
-4.0704 taking -0.3821
-4.0704 talk -0.3734
-4.2465 talking -0.3665
-4.2465 tape -0.3835
-4.5475 tapers -0.3848
-4.5475 target -0.3849
-4.2465 targeting -0.3847
-3.3715 task -0.3113
-3.7693 tasks -0.3659
-4.5475 tata -0.3834
-4.2465 taught -0.3694
-4.5475 taxi -0.3849
-3.5932 tcorpus -0.3667
-3.7693 tcorpusfiltered -0.3667
-4.5475 tcp -0.3835
-3.1162 team -0.3310
-4.5475 teammates -0.3697
-3.7693 teams -0.3604
-4.5475 teamwork -0.3784
-4.5475 technicallyminded -0.3848
-3.1858 technique -0.3261
-3.7693 techniques -0.3780
-4.2465 technological -0.3693
-2.9243 technology -0.2751
-4.5475 tecnolog -0.3849
-4.5475 tedious -0.3848
-4.5475 tee -0.3849
-3.8486 tekniska -0.3843
-4.5475 tekniskamuseet -0.3667
-4.5475 telecom -0.3697
-4.5475 telecommunincation -0.3849
-3.6445 telephone -0.3700
-4.2465 telephony -0.3696
-3.9455 tell -0.3833
-4.5475 temperature -0.3697
-4.0704 ten -0.3846
-4.5475 tend -0.3739
-4.5475 tended -0.3739
-4.5475 tends -0.3739
-4.5475 tens -0.3746
-4.5475 tenth -0.3849
-4.2465 terabytes -0.3746
-4.5475 tereza -0.3849
-4.2465 term -0.3849
-4.0704 terminal -0.3655
-4.5475 terminate -0.3586
-3.9455 terms -0.3746
-2.9913 test -0.2979
-3.1162 tested -0.2945
-4.0704 tester -0.3827
-3.5476 testers -0.3315
-2.5563 testing -0.2181
-3.3171 tests -0.3011
-2.9678 text -0.3055
-3.2465 textextractor -0.3333
-4.5475 texts -0.3833
-3.6445 th -0.3584
-3.0852 than -0.3115
-4.0704 thank -0.3583
-2.2171 that -0.2273
-1.2305 the -0.1917
-4.5475 thebectons -0.3667
-2.9565 their -0.3773
-3.0852 them -0.2780
-4.0704 themselves -0.3617
-3.2465 then -0.3308
-4.5475 theoretically -0.3839
-4.5475 theory -0.3849
-4.0704 theproject -0.3842
-2.9041 there -0.3270
-4.5475 thereafter -0.3695
-3.4014 therefore -0.3576
-2.8663 these -0.3759
-3.9455 thesis -0.3627
-2.8755 they -0.3746
-4.5475 thing -0.3826
-3.8486 things -0.3647
-3.7693 think -0.3378
-4.2465 thinking -0.3744
-3.7025 third -0.3818
-2.1376 this -0.2654
-4.5475 thorough -0.3837
-4.0704 thoroughly -0.3466
-3.3715 those -0.3799
-4.2465 though -0.3578
-4.2465 thought -0.3679
-4.5475 thousand -0.3840
-3.6445 thousands -0.3746
-4.5475 threads -0.3846
-4.5475 threats -0.3824
-3.4684 three -0.3826
-4.5475 thrive -0.3832
-3.3434 through -0.3174
-4.5475 throughout -0.3586
-3.6445 thus -0.3693
-4.5475 timber -0.3667
-2.8072 time -0.2285
-4.2465 timed -0.3807
-3.4336 times -0.3269
-4.5475 timing -0.3849
-4.5475 tip -0.3746
-4.5475 tittle -0.3697
-4.5475 tldp -0.3667
-4.5475 tm -0.3826
-1.6026 to -0.2262
-3.7693 today -0.3561
-3.6445 together -0.3274
-4.0704 tokenize -0.3586
-4.0704 tokenizer -0.3834
-4.2465 told -0.3844
-4.5475 tolerant -0.3849
-4.5475 tomsho -0.3697
-4.5475 tony -0.3849
-4.5475 too -0.3847
-3.9455 took -0.3533
-2.6725 tool -0.2347
-3.2688 toolkit -0.3211
-3.0290 tools -0.2962
-4.5475 tooth -0.3848
-4.5475 topics -0.3811
-4.5475 topologies -0.3849
-4.5475 topology -0.3697
-3.7693 total -0.3734
-4.5475 touch -0.3849
-4.2465 toward -0.3844
-3.5062 towards -0.3413
-4.2465 toxic -0.3849
-4.5475 traced -0.3739
-4.5475 track -0.3667
-3.9455 tract -0.3695
-4.5475 tractors -0.3755
-4.5475 tracts -0.3755
-4.5475 trade -0.3789
-4.5475 trading -0.3840
-4.5475 trailer -0.3755
-4.5475 trailers -0.3667
-3.4336 train -0.3362
-4.0704 trained -0.3737
-3.2051 training -0.3497
-4.5475 traits -0.3823
-4.5475 trans -0.3849
-3.6445 transaction -0.3633
-4.2465 transactions -0.3666
-3.9455 transcript -0.3642
-4.2465 transfer -0.3509
-4.5475 transferred -0.3847
-3.7693 transform -0.3424
-3.7693 transition -0.3748
-3.9455 transitions -0.3567
-4.2465 translate -0.3834
-4.2465 translated -0.3843
-4.5475 transmission -0.3849
-4.5475 trash -0.3667
-4.5475 traversal -0.3697
-4.5475 treated -0.3849
-4.5475 treating -0.3848
-4.5475 treaty -0.3667
-3.7025 tree -0.3754
-3.8486 trees -0.3495
-4.5475 trend -0.3822
-3.9455 trevino -0.3697
-4.5475 tri -0.3822
-4.5475 trials -0.3845
-3.7693 tribe -0.3588
-4.5475 tricks -0.3823
-4.0704 tried -0.3739
-4.5475 tries -0.3739
-4.2465 triggered -0.3767
-4.0704 trigram -0.3838
-3.9455 trip -0.3832
-3.7693 triphone -0.3575
-4.0704 triphones -0.3599
-4.5475 tripp -0.3846
-4.5475 troublesome -0.3755
-3.6445 trucking -0.3726
-4.2465 true -0.3834
-4.5475 truly -0.3849
-4.5475 truncate -0.3842
-4.2465 trunk -0.3848
-3.7693 try -0.3736
-3.9455 trying -0.3739
-4.5475 tsimshian -0.3849
-3.8486 tts -0.3565
-4.5475 tty -0.3846
-4.5475 tukey -0.3697
-4.2465 tuned -0.3736
-4.5475 turing -0.3845
-4.5475 turn -0.3667
-4.5475 tutorial -0.3843
-4.5475 tutorialam -0.3844
-4.5475 tutorials -0.3832
-4.5475 tweaking -0.3820
-4.5475 twisted -0.3847
-4.2465 twitter -0.3848
-2.9794 two -0.3646
-3.2465 txt -0.2963
-3.2923 type -0.3637
-3.8486 types -0.3473
-3.4336 typical -0.3815
-3.4336 typically -0.3581
-4.5475 typing -0.3848
-4.2465 typos -0.3569
-4.5475 u -0.3667
-4.0704 ubuntu -0.3690
-4.5475 uddi -0.3826
-4.5475 udp -0.3849
-4.5475 uganda -0.3847
-4.2465 ui -0.3821
-4.5475 un -0.3846
-4.5475 unable -0.3739
-4.5475 uncertainty -0.3667
-4.5475 uncover -0.3844
-3.5476 under -0.3488
-4.5475 underline -0.3839
-4.5475 underlying -0.3846
-4.5475 underneath -0.3849
-3.5932 understand -0.3464
-4.5475 understandability -0.3755
-4.0704 understandable -0.3657
-4.5475 understandably -0.3697
-3.4684 understanding -0.3073
-4.5475 understood -0.3845
-4.0704 unethical -0.3736
-4.5475 unexpand -0.3695
-4.5475 unfair -0.3849
-4.5475 unfeasible -0.3846
-4.5475 unfortunately -0.3697
-4.5475 unified -0.3847
-4.0704 uniform -0.3659
-4.5475 uniformity -0.3697
-4.5475 uniq -0.3849
-4.5475 unique -0.3849
-4.5475 unit -0.3667
-4.2465 units -0.3823
-3.9455 universal -0.3841
-3.5476 university -0.3392
-4.5475 unix -0.3697
-4.2465 unless -0.3834
-4.2465 unlike -0.3767
-4.5475 unlucky -0.3839
-4.5475 unrealistic -0.3817
-3.9455 until -0.3581
-4.5475 unto -0.3848
-4.2465 unusual -0.3845
-4.5475 uop -0.3695
-4.5475 uopx -0.3834
-3.0424 up -0.2560
-4.5475 upbringing -0.3667
-4.2465 update -0.3662
-3.7025 updated -0.3389
-4.0704 updates -0.3648
-4.2465 updating -0.3633
-4.5475 upgrades -0.3667
-4.5475 uphold -0.3849
-4.5475 upload -0.3767
-4.0704 upon -0.3816
-3.6445 url -0.3638
-3.5062 urls -0.3377
-3.6445 us -0.3296
-4.5475 usa -0.3697
-4.2465 usability -0.3837
-4.5475 usable -0.3849
-3.8486 usage -0.3720
-2.6667 use -0.2638
-2.4982 used -0.2480
-3.7693 useful -0.3709
-4.5475 useless -0.3847
-2.7622 user -0.2700
-3.2253 users -0.3139
-3.3715 uses -0.3377
-2.5933 using -0.3130
-4.5475 usual -0.3849
-3.5476 usually -0.3842
-3.5476 utilities -0.3232
-4.5475 utilization -0.3746
-4.5475 utilize -0.3843
-4.5475 utilized -0.3739
-4.5475 utilizing -0.3837
-4.5475 utmost -0.3849
-3.5932 utterance -0.3405
-3.8486 utterances -0.3501
-3.9455 v -0.3690
-4.5475 valgrind -0.3755
-4.2465 valid -0.3697
-4.5475 validate -0.3586
-4.5475 validates -0.3586
-4.2465 validation -0.3697
-4.0704 valuable -0.3709
-3.3715 value -0.3428
-3.3171 values -0.3259
-3.4336 variability -0.3160
-3.9455 variable -0.3844
-4.5475 variance -0.3849
-4.5475 variation -0.3755
-3.6445 variations -0.3462
-4.5475 varies -0.3849
-4.0704 variety -0.3746
-3.6445 various -0.3837
-4.5475 vary -0.3848
-4.5475 vast -0.3849
-3.7693 vb -0.3591
-4.5475 ve -0.3849
-3.6445 vector -0.3556
-3.6445 vectors -0.3447
-4.5475 vendors -0.3834
-3.7693 verification -0.3683
-3.9455 verified -0.3800
-4.2465 verify -0.3586
-4.2465 verifying -0.3837
-4.5475 versatile -0.3844
-3.5476 version -0.3444
-3.7693 versions -0.3530
-3.1326 very -0.3812
-4.5475 vi -0.3848
-3.7025 via -0.3759
-4.5475 vice -0.3849
-4.5475 vicissitudes -0.3746
-4.2465 video -0.3825
-3.7025 view -0.3204
-4.5475 viewing -0.3846
-4.5475 virginia -0.3849
-3.8486 virtual -0.3837
-4.5475 virus -0.3849
-4.2465 viruses -0.3600
-4.2465 visible -0.3664
-4.5475 vision -0.3849
-4.5475 vista -0.3755
-4.0704 visual -0.3849
-4.5475 visualize -0.3755
-4.5475 visualized -0.3789
-4.5475 visualizing -0.3848
-4.5475 vital -0.3847
-3.3715 viterbi -0.3734
-4.5475 vk -0.3840
-4.5475 vlsi -0.3848
-4.2465 vm -0.3825
-3.8486 vocab -0.3709
-3.5932 vocabularies -0.3452
-3.1162 vocabulary -0.3060
-4.5475 vocabularys -0.3667
-3.7025 vocal -0.3847
-3.5062 voice -0.3585
-4.5475 void -0.3844
-4.0704 volume -0.3847
-4.5475 volunteering -0.3840
-4.5475 von -0.3849
-4.5475 vorbis -0.3667
-4.5475 vowel -0.3849
-4.5475 vowels -0.3849
-4.5475 vp -0.3667
-4.5475 vpn -0.3845
-4.0704 vs -0.3667
-4.5475 vse -0.3667
-4.5475 vss -0.3826
-4.5475 vulnerabilities -0.3849
-3.1858 w -0.3597
-4.5475 waiting -0.3811
-4.5475 walking -0.3846
-4.2465 walkthroughs -0.3666
-3.5932 wall -0.3601
-4.5475 wan -0.3849
-3.8486 want -0.3734
-4.5475 war -0.3849
-4.5475 warping -0.3697
-4.5475 warrantee -0.3667
-2.6611 was -0.3235
-4.2465 waste -0.3605
-4.2465 waveform -0.3844
-4.2465 waves -0.3783
-3.4684 way -0.2901
-4.2465 ways -0.3553
-2.7917 we -0.3572
-4.2465 wealth -0.3685
-4.5475 weather -0.3755
-3.1326 web -0.3646
-4.5475 websites -0.3845
-4.5475 wee -0.3849
-3.5062 week -0.3716
-3.9455 weekly -0.3845
-4.2465 weeks -0.3741
-4.5475 weight -0.3846
-4.5475 weights -0.3789
-4.5475 wel -0.3849
-4.2465 welch -0.3844
-4.2465 welcome -0.3643
-3.0035 well -0.3022
-4.5475 went -0.3739
-2.9913 were -0.3654
-4.5475 west -0.3849
-4.5475 wfreq -0.3838
-3.8486 wget -0.3802
-3.2253 what -0.3274
-4.5475 whatis -0.3849
-2.8848 when -0.3364
-3.8486 whenever -0.3493
-3.0035 where -0.3216
-4.5475 wherein -0.3843
-4.5475 whether -0.3820
-2.8848 which -0.2936
-3.2465 while -0.3450
-4.5475 whistler -0.3846
-3.4336 white -0.3648
-3.6445 who -0.3776
-3.8486 whole -0.3822
-4.0704 whose -0.3848
-3.8486 why -0.3578
-4.2465 wide -0.3848
-4.5475 widespread -0.3849
-4.2465 wiki -0.3834
-4.0704 wikipedia -0.3504
-4.5475 wildly -0.3845
-4.0704 wiley -0.3569
-2.5519 will -0.3372
-4.2465 williams -0.3697
-4.5475 willing -0.3695
-4.5475 willows -0.3697
-4.0704 win -0.3749
-3.4684 window -0.3223
-4.5475 windowing -0.3755
-2.6445 windows -0.2859
-4.5475 windowsitpro -0.3667
-4.2465 winning -0.3839
-3.9455 wins -0.3597
-4.0704 wire -0.3844
-3.8486 wish -0.3729
-2.4612 with -0.3067
-3.3171 within -0.3363
-3.4014 without -0.3475
-4.5475 witnessed -0.3849
-3.9455 wk -0.3848
-3.7693 wn -0.3418
-4.5475 wolfgang -0.3849
-4.5475 woman -0.3841
-4.5475 women -0.3849
-4.5475 won -0.3840
-4.5475 wood -0.3849
-2.8486 word -0.3154
-2.6725 words -0.2671
-3.1673 work -0.3201
-3.7693 working -0.3775
-3.9455 workload -0.3743
-4.5475 workloads -0.3739
-3.7693 works -0.3406
-4.2465 workshop -0.3697
-4.5475 workspaces -0.3824
-4.5475 workstation -0.3695
-4.2465 workstations -0.3846
-3.7693 world -0.3661
-4.5475 worth -0.3820
-2.9041 would -0.3752
-4.5475 wrapping -0.3848
-4.0704 write -0.3654
-3.7693 writing -0.3659
-3.2688 written -0.3514
-4.2465 wrong -0.3848
-3.9455 wsj -0.3841
-3.4336 www -0.3655
-3.9455 x -0.3629
-4.5475 xcopy -0.3848
-4.5475 xk -0.3849
-4.0704 xn -0.3767
-3.4684 xp -0.3504
-4.2465 xps -0.3695
-4.5475 xsecurity -0.3838
-4.5475 xss -0.3826
-4.5475 y -0.3849
-4.2465 year -0.3600
-3.5932 years -0.3179
-4.5475 yes -0.3820
-4.5475 york -0.3830
-3.0290 you -0.3457
-4.5475 young -0.3849
-3.4014 your -0.3838
-4.5475 zaleski -0.3755
-4.5475 zedar -0.3697
-3.7693 zero -0.3505
-4.5475 zoo -0.3845
-4.5475 {left-brace -0.3849
-3.5062 |pipe-symbol -0.3837
-4.5475  -0.3849
-4.5475  -0.3586
-4.5475  -0.3695
-3.9455  -0.3677
-4.5475  -0.3755
-4.2465 j -0.3849
-4.2465 a -0.3849
-4.5475  -0.3817
-4.5475  -0.3838
-4.5475 j -0.3847
-4.0704  -0.3817
-3.9455  -0.3744
-4.2465 v -0.3847
-4.2465  -0.3826
-4.5475  -0.3849
-3.9455  -0.3836
-4.2465  -0.3842

\2-grams:
-0.2308 !exclamation-point </s> 0.2392
-1.1903 "quote )right-paren -0.0391
-0.9984 "quote ,comma -0.1163
-1.8435 "quote .dot -0.0958
-2.1446 "quote Hank 0.0054
-2.1446 "quote Kroll -0.1164
-1.8435 "quote Learn 0.2392
-1.8435 "quote a -0.1430
-2.1446 "quote advocating 0.0054
-2.1446 "quote among -0.0615
-1.8435 "quote and -0.1192
-2.1446 "quote apply -0.0510
-2.1446 "quote attributes -0.0914
-2.1446 "quote but -0.1324
-1.8435 "quote button 0.0703
-2.1446 "quote by -0.1416
-2.1446 "quote cold 0.2392
-1.8435 "quote collect 0.1587
-2.1446 "quote doubling 0.2392
-2.1446 "quote for -0.1432
-2.1446 "quote free -0.0824
-2.1446 "quote front -0.1164
-2.1446 "quote function -0.1345
-2.1446 "quote gamblers -0.0510
-2.1446 "quote hot 0.0054
-2.1446 "quote i -0.1382
-2.1446 "quote incoming 0.0703
-2.1446 "quote is -0.1452
-1.8435 "quote make -0.0914
-2.1446 "quote no -0.1333
-2.1446 "quote occurring 0.2392
-2.1446 "quote of -0.1454
-1.6674 "quote or -0.1368
-2.1446 "quote out -0.1295
-1.8435 "quote streaks 0.2392
-2.1446 "quote such -0.1391
-2.1446 "quote take -0.1126
-1.8435 "quote the -0.1452
-2.1446 "quote theoretically 0.2392
-2.1446 "quote unlucky 0.2392
-1.8435 "quote use -0.1390
-2.1446 "quote with -0.1063
-2.1446 "quote would -0.1219
-1.2995 "quote |pipe-symbol 0.0577
-1.0759 %percent )right-paren -0.1292
